{"learner":{"attributes":{"best_iteration":"499","best_ntree_limit":"500"},"feature_names":[],"feature_types":[],"gradient_booster":{"model":{"gbtree_model_param":{"num_parallel_tree":"1","num_trees":"1000","size_leaf_vector":"0"},"tree_info":[0,1,0,1,0,1,0,1,0,1,0,1,0,1,0,1,0,1,0,1,0,1,0,1,0,1,0,1,0,1,0,1,0,1,0,1,0,1,0,1,0,1,0,1,0,1,0,1,0,1,0,1,0,1,0,1,0,1,0,1,0,1,0,1,0,1,0,1,0,1,0,1,0,1,0,1,0,1,0,1,0,1,0,1,0,1,0,1,0,1,0,1,0,1,0,1,0,1,0,1,0,1,0,1,0,1,0,1,0,1,0,1,0,1,0,1,0,1,0,1,0,1,0,1,0,1,0,1,0,1,0,1,0,1,0,1,0,1,0,1,0,1,0,1,0,1,0,1,0,1,0,1,0,1,0,1,0,1,0,1,0,1,0,1,0,1,0,1,0,1,0,1,0,1,0,1,0,1,0,1,0,1,0,1,0,1,0,1,0,1,0,1,0,1,0,1,0,1,0,1,0,1,0,1,0,1,0,1,0,1,0,1,0,1,0,1,0,1,0,1,0,1,0,1,0,1,0,1,0,1,0,1,0,1,0,1,0,1,0,1,0,1,0,1,0,1,0,1,0,1,0,1,0,1,0,1,0,1,0,1,0,1,0,1,0,1,0,1,0,1,0,1,0,1,0,1,0,1,0,1,0,1,0,1,0,1,0,1,0,1,0,1,0,1,0,1,0,1,0,1,0,1,0,1,0,1,0,1,0,1,0,1,0,1,0,1,0,1,0,1,0,1,0,1,0,1,0,1,0,1,0,1,0,1,0,1,0,1,0,1,0,1,0,1,0,1,0,1,0,1,0,1,0,1,0,1,0,1,0,1,0,1,0,1,0,1,0,1,0,1,0,1,0,1,0,1,0,1,0,1,0,1,0,1,0,1,0,1,0,1,0,1,0,1,0,1,0,1,0,1,0,1,0,1,0,1,0,1,0,1,0,1,0,1,0,1,0,1,0,1,0,1,0,1,0,1,0,1,0,1,0,1,0,1,0,1,0,1,0,1,0,1,0,1,0,1,0,1,0,1,0,1,0,1,0,1,0,1,0,1,0,1,0,1,0,1,0,1,0,1,0,1,0,1,0,1,0,1,0,1,0,1,0,1,0,1,0,1,0,1,0,1,0,1,0,1,0,1,0,1,0,1,0,1,0,1,0,1,0,1,0,1,0,1,0,1,0,1,0,1,0,1,0,1,0,1,0,1,0,1,0,1,0,1,0,1,0,1,0,1,0,1,0,1,0,1,0,1,0,1,0,1,0,1,0,1,0,1,0,1,0,1,0,1,0,1,0,1,0,1,0,1,0,1,0,1,0,1,0,1,0,1,0,1,0,1,0,1,0,1,0,1,0,1,0,1,0,1,0,1,0,1,0,1,0,1,0,1,0,1,0,1,0,1,0,1,0,1,0,1,0,1,0,1,0,1,0,1,0,1,0,1,0,1,0,1,0,1,0,1,0,1,0,1,0,1,0,1,0,1,0,1,0,1,0,1,0,1,0,1,0,1,0,1,0,1,0,1,0,1,0,1,0,1,0,1,0,1,0,1,0,1,0,1,0,1,0,1,0,1,0,1,0,1,0,1,0,1,0,1,0,1,0,1,0,1,0,1,0,1,0,1,0,1,0,1,0,1,0,1,0,1,0,1,0,1,0,1,0,1,0,1,0,1,0,1,0,1,0,1,0,1,0,1,0,1,0,1,0,1,0,1,0,1,0,1,0,1,0,1,0,1,0,1,0,1,0,1,0,1,0,1,0,1,0,1,0,1,0,1,0,1,0,1,0,1,0,1,0,1,0,1,0,1,0,1,0,1,0,1,0,1,0,1,0,1,0,1,0,1,0,1,0,1,0,1,0,1,0,1,0,1,0,1,0,1,0,1,0,1,0,1,0,1,0,1,0,1,0,1,0,1,0,1,0,1,0,1,0,1,0,1,0,1,0,1,0,1,0,1,0,1,0,1,0,1,0,1,0,1,0,1,0,1,0,1,0,1,0,1,0,1,0,1,0,1,0,1,0,1,0,1,0,1,0,1,0,1,0,1,0,1,0,1,0,1,0,1,0,1,0,1,0,1,0,1,0,1,0,1,0,1,0,1,0,1,0,1,0,1,0,1,0,1,0,1,0,1,0,1,0,1,0,1,0,1,0,1,0,1,0,1,0,1,0,1,0,1,0,1,0,1,0,1,0,1,0,1,0,1,0,1,0,1,0,1,0,1,0,1,0,1,0,1,0,1,0,1,0,1,0,1,0,1,0,1,0,1,0,1],"trees":[{"base_weights":[-1.5956073E-1,-2.803532E-1,1.6953908E-1,-1.1687587E-1,-4.626401E-1,-1.449016E-1,2.6006192E-1,-2.7261903E-3,2.0450969E-4,-3.691057E-3,-5.8802045E-3,-2.948718E-3,4.4176704E-4,3.058104E-5,3.1184128E-3],"categories":[],"categories_nodes":[],"categories_segments":[],"categories_sizes":[],"default_left":[0,0,0,0,0,0,0,0,0,0,0,0,0,0,0],"id":0,"left_children":[1,3,5,7,9,11,13,-1,-1,-1,-1,-1,-1,-1,-1],"loss_changes":[1.8465945E2,1.0119064E2,3.5546608E1,3.8343063E1,1.8617126E1,7.9385605E0,1.2894005E1,0E0,0E0,0E0,0E0,0E0,0E0,0E0,0E0],"parents":[2147483647,0,0,1,1,2,2,3,3,4,4,5,5,6,6],"right_children":[2,4,6,8,10,12,14,-1,-1,-1,-1,-1,-1,-1,-1],"split_conditions":[2.1E1,1.4E1,3.71E-1,1E1,2.3E1,2.6E1,2.2E1,-2.7261903E-3,2.0450969E-4,-3.691057E-3,-5.8802045E-3,-2.948718E-3,4.4176704E-4,3.058104E-5,3.1184128E-3],"split_indices":[28,80,55,51,80,28,51,0,0,0,0,0,0,0,0],"split_type":[0,0,0,0,0,0,0,0,0,0,0,0,0,0,0],"sum_hessian":[4.643E3,3.3965E3,1.2465E3,1.7915E3,1.605E3,2.785E2,9.68E2,8.39E2,9.525E2,9.215E2,6.835E2,1.55E2,1.235E2,1.625E2,8.055E2],"tree_param":{"num_deleted":"0","num_feature":"104","num_nodes":"15","size_leaf_vector":"0"}},{"base_weights":[1.5703736E-1,-1.1844773E-1,3.2221642E-1,1.24279834E-1,-2.5E-1,1.7352651E-1,4.8787656E-1,-5.8823527E-4,2.804878E-3,-1.5057916E-3,-3.8542764E-3,3.1564625E-3,4.0152963E-4,4.08596E-3,6.28192E-3],"categories":[],"categories_nodes":[],"categories_segments":[],"categories_sizes":[],"default_left":[0,0,0,0,0,0,0,0,0,0,0,0,0,0,0],"id":1,"left_children":[1,3,5,7,9,11,13,-1,-1,-1,-1,-1,-1,-1,-1],"loss_changes":[2.095403E2,5.5160564E1,7.081854E1,1.7392338E1,1.5022018E1,2.8770515E1,1.4883453E1,0E0,0E0,0E0,0E0,0E0,0E0,0E0,0E0],"parents":[2147483647,0,0,1,1,2,2,3,3,4,4,5,5,6,6],"right_children":[2,4,6,8,10,12,14,-1,-1,-1,-1,-1,-1,-1,-1],"split_conditions":[4.62E-1,4.38E-1,1.4E1,-4.6E0,2.6E1,9E0,2.4E1,-5.8823527E-4,2.804878E-3,-1.5057916E-3,-3.8542764E-3,3.1564625E-3,4.0152963E-4,4.08596E-3,6.28192E-3],"split_indices":[3,55,80,25,51,51,80,0,0,0,0,0,0,0,0],"split_type":[0,0,0,0,0,0,0,0,0,0,0,0,0,0,0],"sum_hessian":[4.603E3,1.7255E3,2.8775E3,6.065E2,1.119E3,1.5175E3,1.36E3,2.795E2,3.27E2,6.465E2,4.725E2,7.34E2,7.835E2,8.715E2,4.885E2],"tree_param":{"num_deleted":"0","num_feature":"104","num_nodes":"15","size_leaf_vector":"0"}},{"base_weights":[-1.5810657E-1,1.14661954E-1,-3.207763E-1,-1.9532451E-1,2.1307847E-1,-1.6511704E-1,-4.933134E-1,-5.9577225E-5,-4.274709E-3,1.0645761E-3,3.5769094E-3,-3.1038367E-3,5.7631558E-5,-3.9440226E-3,-6.213715E-3],"categories":[],"categories_nodes":[],"categories_segments":[],"categories_sizes":[],"default_left":[0,0,0,0,0,0,0,0,0,0,0,0,0,0,0],"id":2,"left_children":[1,3,5,7,9,11,13,-1,-1,-1,-1,-1,-1,-1,-1],"loss_changes":[2.0596127E2,5.2957054E1,7.800424E1,1.8394932E1,2.0268234E1,3.7981106E1,1.7215118E1,0E0,0E0,0E0,0E0,0E0,0E0,0E0,0E0],"parents":[2147483647,0,0,1,1,2,2,3,3,4,4,5,5,6,6],"right_children":[2,4,6,8,10,12,14,-1,-1,-1,-1,-1,-1,-1,-1],"split_conditions":[4.58E-1,3.77E-1,1.4E1,-3.7E0,2.6E1,1E1,3.4E0,-5.9577225E-5,-4.274709E-3,1.0645761E-3,3.5769094E-3,-3.1038367E-3,5.7631558E-5,-3.9440226E-3,-6.213715E-3],"split_indices":[3,55,80,25,51,51,25,0,0,0,0,0,0,0,0],"split_type":[0,0,0,0,0,0,0,0,0,0,0,0,0,0,0],"sum_hessian":[4.6399507E3,1.7334894E3,2.9064612E3,4.1749716E2,1.3159922E3,1.5289933E3,1.3774679E3,2.3049948E2,1.8699768E2,7.58498E2,5.5749426E2,8.2599335E2,7.0299994E2,7.7948175E2,5.979862E2],"tree_param":{"num_deleted":"0","num_feature":"104","num_nodes":"15","size_leaf_vector":"0"}},{"base_weights":[1.5440673E-1,-1.0593406E-1,3.2155806E-1,2.3267323E-1,-2.058144E-1,5.857595E-1,2.104792E-1,1.5759821E-3,7.0801806E-3,-3.8678332E-3,-1.2547304E-3,3.0054704E-3,6.2575126E-3,3.4952706E-3,7.7235413E-4],"categories":[],"categories_nodes":[],"categories_segments":[],"categories_sizes":[],"default_left":[0,0,0,0,0,0,0,0,0,0,0,0,0,0,0],"id":3,"left_children":[1,3,5,7,9,11,13,-1,-1,-1,-1,-1,-1,-1,-1],"loss_changes":[1.9955423E2,6.0704056E1,8.182767E1,1.4484091E1,2.0095528E1,9.233154E0,3.642511E1,0E0,0E0,0E0,0E0,0E0,0E0,0E0,0E0],"parents":[2147483647,0,0,1,1,2,2,3,3,4,4,5,5,6,6],"right_children":[2,4,6,8,10,12,14,-1,-1,-1,-1,-1,-1,-1,-1],"split_conditions":[4.67E-1,3.71E-1,-1.9E0,-1E0,8E0,9E0,9E0,1.5759821E-3,7.0801806E-3,-3.8678332E-3,-1.2547304E-3,3.0054704E-3,6.2575126E-3,3.4952706E-3,7.7235413E-4],"split_indices":[3,55,77,25,103,0,51,0,0,0,0,0,0,0,0],"split_type":[0,0,0,0,0,0,0,0,0,0,0,0,0,0,0],"sum_hessian":[4.583951E3,1.7924885E3,2.7914626E3,4.079969E2,1.3844917E3,8.249774E2,1.9664852E3,3.534977E2,5.4499176E1,4.2449738E2,9.599943E2,1.02498116E2,7.224793E2,9.6148987E2,1.0049953E3],"tree_param":{"num_deleted":"0","num_feature":"104","num_nodes":"15","size_leaf_vector":"0"}},{"base_weights":[-1.5418099E-1,9.4702065E-2,-3.1606737E-1,-2.5737008E-1,2.0269115E-1,-5.5915356E-1,-1.9533867E-1,-3.6471551E-3,8.7301545E-5,3.078383E-3,6.9695496E-4,-4.42876E-3,-6.7286906E-3,-3.58618E-3,-3.5820442E-4],"categories":[],"categories_nodes":[],"categories_segments":[],"categories_sizes":[],"default_left":[0,0,0,0,0,0,0,0,0,0,0,0,0,0,0],"id":4,"left_children":[1,3,5,7,9,11,13,-1,-1,-1,-1,-1,-1,-1,-1],"loss_changes":[1.8616547E2,6.930395E1,8.2044556E1,1.2228489E1,1.9478996E1,1.1977814E1,4.8743904E1,0E0,0E0,0E0,0E0,0E0,0E0,0E0,0E0],"parents":[2147483647,0,0,1,1,2,2,3,3,4,4,5,5,6,6],"right_children":[2,4,6,8,10,12,14,-1,-1,-1,-1,-1,-1,-1,-1],"split_conditions":[4.72E-1,3.71E-1,-1.4E0,2.6E1,3.73E-1,2.3E1,9E0,-3.6471551E-3,8.7301545E-5,3.078383E-3,6.9695496E-4,-4.42876E-3,-6.7286906E-3,-3.58618E-3,-3.5820442E-4],"split_indices":[3,55,77,28,3,1,51,0,0,0,0,0,0,0,0],"split_type":[0,0,0,0,0,0,0,0,0,0,0,0,0,0,0],"sum_hessian":[4.618805E3,1.8204589E3,2.7983464E3,4.269873E2,1.3934716E3,9.27401E2,1.8709456E3,3.039875E2,1.2299982E2,7.7747815E2,6.1599335E2,4.609551E2,4.664459E2,9.239561E2,9.4698944E2],"tree_param":{"num_deleted":"0","num_feature":"104","num_nodes":"15","size_leaf_vector":"0"}},{"base_weights":[1.573425E-1,-1.3245331E-1,3.080349E-1,1.6898341E-1,-2.5745937E-1,5.475926E-1,1.8997303E-1,-6.352857E-5,3.222984E-3,1.2172102E-3,-2.9832844E-3,4.7949795E-3,7.4530086E-3,3.4878594E-3,5.9682E-4],"categories":[],"categories_nodes":[],"categories_segments":[],"categories_sizes":[],"default_left":[0,0,0,0,0,0,0,0,0,0,0,0,0,0,0],"id":5,"left_children":[1,3,5,7,9,11,13,-1,-1,-1,-1,-1,-1,-1,-1],"loss_changes":[2.0087083E2,5.935278E1,8.547473E1,1.2421142E1,1.7283813E1,1.3083923E1,4.1951553E1,0E0,0E0,0E0,0E0,0E0,0E0,0E0,0E0],"parents":[2147483647,0,0,1,1,2,2,3,3,4,4,5,5,6,6],"right_children":[2,4,6,8,10,12,14,-1,-1,-1,-1,-1,-1,-1,-1],"split_conditions":[4.4E-1,-2.4E0,-1.4E0,-4.8E0,5E0,3.8E1,9E0,-6.352857E-5,3.222984E-3,1.2172102E-3,-2.9832844E-3,4.7949795E-3,7.4530086E-3,3.4878594E-3,5.9682E-4],"split_indices":[3,77,77,25,53,54,51,0,0,0,0,0,0,0,0],"split_type":[0,0,0,0,0,0,0,0,0,0,0,0,0,0,0],"sum_hessian":[4.597808E3,1.572966E3,3.024842E3,4.6099103E2,1.1119749E3,9.9739777E2,2.0274442E3,2.1549832E2,2.454927E2,1.0799807E2,1.0039768E3,7.444277E2,2.5297012E2,9.129565E2,1.1144878E3],"tree_param":{"num_deleted":"0","num_feature":"104","num_nodes":"15","size_leaf_vector":"0"}},{"base_weights":[-1.5233503E-1,-2.8285024E-1,1.5122736E-1,-1.18463464E-1,-4.6697813E-1,-2.1579759E-1,2.4767359E-1,-2.8753818E-3,3.8990154E-4,-3.7788323E-3,-5.987483E-3,-3.4826891E-3,-3.5952803E-4,3.8754516E-3,1.528216E-3],"categories":[],"categories_nodes":[],"categories_segments":[],"categories_sizes":[],"default_left":[0,0,0,0,0,0,0,0,0,0,0,0,0,0,0],"id":6,"left_children":[1,3,5,7,9,11,13,-1,-1,-1,-1,-1,-1,-1,-1],"loss_changes":[1.8007678E2,9.614136E1,4.8440266E1,4.4746483E1,1.7368805E1,6.77707E0,1.4308296E1,0E0,0E0,0E0,0E0,0E0,0E0,0E0,0E0],"parents":[2147483647,0,0,1,1,2,2,3,3,4,4,5,5,6,6],"right_children":[2,4,6,8,10,12,14,-1,-1,-1,-1,-1,-1,-1,-1],"split_conditions":[2E1,1.4E1,3.59E-1,1E1,3.3E0,3.28E1,-5.9E0,-2.8753818E-3,3.8990154E-4,-3.7788323E-3,-5.987483E-3,-3.4826891E-3,-3.5952803E-4,3.8754516E-3,1.528216E-3],"split_indices":[28,80,55,51,25,67,25,0,0,0,0,0,0,0,0],"split_type":[0,0,0,0,0,0,0,0,0,0,0,0,0,0,0],"sum_hessian":[4.5430757E3,3.1771455E3,1.3659302E3,1.6794236E3,1.4977219E3,2.839863E2,1.081944E3,8.0942816E2,8.699955E2,8.9586237E2,6.018595E2,1.62992E2,1.20994286E2,4.3596744E2,6.459765E2],"tree_param":{"num_deleted":"0","num_feature":"104","num_nodes":"15","size_leaf_vector":"0"}},{"base_weights":[1.5664007E-1,3.64019E-1,-4.5912106E-2,2.0892406E-1,5.20674E-1,2.3781724E-1,-1.6129862E-1,2.888548E-3,-7.8931196E-5,4.3003303E-3,6.6257548E-3,-6.578512E-5,3.677272E-3,-3.013658E-4,-2.8158873E-3],"categories":[],"categories_nodes":[],"categories_segments":[],"categories_sizes":[],"default_left":[0,0,0,0,0,0,0,0,0,0,0,0,0,0,0],"id":7,"left_children":[1,3,5,7,9,11,13,-1,-1,-1,-1,-1,-1,-1,-1],"loss_changes":[1.9223483E2,5.4830414E1,7.585638E1,1.9723042E1,1.4175629E1,2.1272408E1,2.5975967E1,0E0,0E0,0E0,0E0,0E0,0E0,0E0,0E0],"parents":[2147483647,0,0,1,1,2,2,3,3,4,4,5,5,6,6],"right_children":[2,4,6,8,10,12,14,-1,-1,-1,-1,-1,-1,-1,-1],"split_conditions":[1.5E1,1.3E1,-2.4E0,6.2E0,2.3E1,-4.6E0,2.2E1,2.888548E-3,-7.8931196E-5,4.3003303E-3,6.6257548E-3,-6.578512E-5,3.677272E-3,-3.013658E-4,-2.8158873E-3],"split_indices":[51,80,77,77,80,25,29,0,0,0,0,0,0,0,0],"split_type":[0,0,0,0,0,0,0,0,0,0,0,0,0,0,0],"sum_hessian":[4.5750713E3,2.2602068E3,2.3148643E3,1.1369313E3,1.1232756E3,6.689328E2,1.6459315E3,8.304496E2,3.064817E2,6.879021E2,4.353735E2,2.324954E2,4.3643738E2,7.879818E2,8.579497E2],"tree_param":{"num_deleted":"0","num_feature":"104","num_nodes":"15","size_leaf_vector":"0"}},{"base_weights":[-1.5259787E-1,1.01868674E-1,-3.0692282E-1,-2.3214447E-1,2.107643E-1,-8.9990504E-2,-4.3718126E-1,-2.8750648E-5,-3.7092974E-3,5.400915E-4,2.9836383E-3,-2.4473788E-3,5.0226215E-4,-5.6277052E-3,-3.2597333E-3],"categories":[],"categories_nodes":[],"categories_segments":[],"categories_sizes":[],"default_left":[0,0,0,0,0,0,0,0,0,0,0,0,0,0,0],"id":8,"left_children":[1,3,5,7,9,11,13,-1,-1,-1,-1,-1,-1,-1,-1],"loss_changes":[1.7870297E2,6.254995E1,7.9996796E1,1.3457155E1,1.7785603E1,2.3097366E1,2.4530182E1,0E0,0E0,0E0,0E0,0E0,0E0,0E0,0E0],"parents":[2147483647,0,0,1,1,2,2,3,3,4,4,5,5,6,6],"right_children":[2,4,6,8,10,12,14,-1,-1,-1,-1,-1,-1,-1,-1],"split_conditions":[4.62E-1,-3.2E0,1.1E1,-5.3E0,1.7E1,9E0,-1.9E0,-2.8750648E-5,-3.7092974E-3,5.400915E-4,2.9836383E-3,-2.4473788E-3,5.0226215E-4,-5.6277052E-3,-3.2597333E-3],"split_indices":[3,77,103,25,47,51,77,0,0,0,0,0,0,0,0],"split_type":[0,0,0,0,0,0,0,0,0,0,0,0,0,0,0],"sum_hessian":[4.5487656E3,1.7173556E3,2.8314097E3,4.2195886E2,1.2953967E3,1.0629181E3,1.7684917E3,1.5949625E2,2.6246262E2,4.6497067E2,8.304261E2,5.049237E2,5.579944E2,8.286363E2,9.398554E2],"tree_param":{"num_deleted":"0","num_feature":"104","num_nodes":"15","size_leaf_vector":"0"}},{"base_weights":[1.5057816E-1,-1.0373414E-1,3.0573472E-1,2.2986954E-1,-2.0535876E-1,1.4585993E-1,4.8479956E-1,-1.1248951E-4,4.0377514E-3,-9.993826E-4,-3.5064055E-3,3.073335E-3,-5.725715E-5,6.181215E-3,3.9955084E-3],"categories":[],"categories_nodes":[],"categories_segments":[],"categories_sizes":[],"default_left":[0,0,0,0,0,0,0,0,0,0,0,0,0,0,0],"id":9,"left_children":[1,3,5,7,9,11,13,-1,-1,-1,-1,-1,-1,-1,-1],"loss_changes":[1.8123401E2,5.9066147E1,8.15878E1,1.7068958E1,2.0409798E1,3.692251E1,1.5039917E1,0E0,0E0,0E0,0E0,0E0,0E0,0E0,0E0],"parents":[2147483647,0,0,1,1,2,2,3,3,4,4,5,5,6,6],"right_children":[2,4,6,8,10,12,14,-1,-1,-1,-1,-1,-1,-1,-1],"split_conditions":[4.62E-1,3.71E-1,1.4E1,-4.7E0,2.6E1,9E0,8E0,-1.1248951E-4,4.0377514E-3,-9.993826E-4,-3.5064055E-3,3.073335E-3,-5.725715E-5,6.181215E-3,3.9955084E-3],"split_indices":[3,55,80,25,51,51,51,0,0,0,0,0,0,0,0],"split_type":[0,0,0,0,0,0,0,0,0,0,0,0,0,0,0],"sum_hessian":[4.5912554E3,1.7398512E3,2.8514043E3,4.0595584E2,1.3338954E3,1.507381E3,1.3440233E3,1.704977E2,2.3545815E2,7.739696E2,5.599258E2,7.293878E2,7.7799316E2,5.217689E2,8.222544E2],"tree_param":{"num_deleted":"0","num_feature":"104","num_nodes":"15","size_leaf_vector":"0"}},{"base_weights":[-1.4624758E-1,-2.768595E-1,1.5409437E-1,-1.1894229E-1,-4.5764664E-1,2.6693767E-1,-1.22726165E-1,-2.8236532E-3,3.4573543E-4,-3.6901773E-3,-5.8490285E-3,2.1045185E-3,4.565901E-3,-2.8677704E-3,1.2484444E-3],"categories":[],"categories_nodes":[],"categories_segments":[],"categories_sizes":[],"default_left":[0,0,0,0,0,0,0,0,0,0,0,0,0,0,0],"id":10,"left_children":[1,3,5,7,9,11,13,-1,-1,-1,-1,-1,-1,-1,-1],"loss_changes":[1.7997696E2,9.1219315E1,4.3477978E1,4.285533E1,1.6591919E1,1.0491882E1,1.6421665E1,0E0,0E0,0E0,0E0,0E0,0E0,0E0,0E0],"parents":[2147483647,0,0,1,1,2,2,3,3,4,4,5,5,6,6],"right_children":[2,4,6,8,10,12,14,-1,-1,-1,-1,-1,-1,-1,-1],"split_conditions":[2E1,1.4E1,2.2E1,1E1,3.2E0,6.75E-1,2.6E1,-2.8236532E-3,3.4573543E-4,-3.6901773E-3,-5.8490285E-3,2.1045185E-3,4.565901E-3,-2.8677704E-3,1.2484444E-3],"split_indices":[28,80,103,51,25,55,28,0,0,0,0,0,0,0,0],"split_type":[0,0,0,0,0,0,0,0,0,0,0,0,0,0,0],"sum_hessian":[4.585857E3,3.1960464E3,1.3898102E3,1.7068097E3,1.4892368E3,9.873584E2,4.0245178E2,8.263217E2,8.80488E2,8.8014844E2,6.090884E2,7.623968E2,2.2496162E2,2.4196022E2,1.6049156E2],"tree_param":{"num_deleted":"0","num_feature":"104","num_nodes":"15","size_leaf_vector":"0"}},{"base_weights":[1.4679176E-1,3.4901062E-1,-4.7766108E-2,1.8728822E-1,5.167442E-1,1.3513884E-1,-2.4673705E-1,2.7518882E-3,-1.7333709E-4,4.5812153E-3,7.033687E-3,-1.0754656E-3,2.6489543E-3,-1.6276379E-3,-4.3424997E-3],"categories":[],"categories_nodes":[],"categories_segments":[],"categories_sizes":[],"default_left":[0,0,0,0,0,0,0,0,0,0,0,0,0,0,0],"id":11,"left_children":[1,3,5,7,9,11,13,-1,-1,-1,-1,-1,-1,-1,-1],"loss_changes":[1.8175645E2,6.1349426E1,8.5743515E1,2.0775997E1,1.1836548E1,3.8690666E1,1.769693E1,0E0,0E0,0E0,0E0,0E0,0E0,0E0,0E0],"parents":[2147483647,0,0,1,1,2,2,3,3,4,4,5,5,6,6],"right_children":[2,4,6,8,10,12,14,-1,-1,-1,-1,-1,-1,-1,-1],"split_conditions":[1.5E1,1.3E1,4E-1,6E0,2.6E1,-4.7E0,2.6E1,2.7518882E-3,-1.7333709E-4,4.5812153E-3,7.033687E-3,-1.0754656E-3,2.6489543E-3,-1.6276379E-3,-4.3424997E-3],"split_indices":[51,80,77,77,80,25,51,0,0,0,0,0,0,0,0],"split_type":[0,0,0,0,0,0,0,0,0,0,0,0,0,0,0],"sum_hessian":[4.618336E3,2.2641929E3,2.3541428E3,1.15383E3,1.1103629E3,1.2267594E3,1.1273834E3,8.068724E2,3.469576E2,8.475761E2,2.6278674E2,4.274554E2,7.99304E2,7.7996326E2,3.4742017E2],"tree_param":{"num_deleted":"0","num_feature":"104","num_nodes":"15","size_leaf_vector":"0"}},{"base_weights":[-1.4695972E-1,-3.3919457E-1,4.098328E-2,-1.7039095E-1,-5.155473E-1,-2.5740469E-1,1.6020453E-1,-2.6587923E-3,-2.2835779E-4,-3.8364823E-3,-6.1100856E-3,-1.2146706E-4,-3.8088756E-3,1.7717242E-4,2.6746022E-3],"categories":[],"categories_nodes":[],"categories_segments":[],"categories_sizes":[],"default_left":[0,0,0,0,0,0,0,0,0,0,0,0,0,0,0],"id":12,"left_children":[1,3,5,7,9,11,13,-1,-1,-1,-1,-1,-1,-1,-1],"loss_changes":[1.6611302E2,6.7572296E1,8.276992E1,1.6377106E1,1.3755371E1,2.0113403E1,2.5398544E1,0E0,0E0,0E0,0E0,0E0,0E0,0E0,0E0],"parents":[2147483647,0,0,1,1,2,2,3,3,4,4,5,5,6,6],"right_children":[2,4,6,8,10,12,14,-1,-1,-1,-1,-1,-1,-1,-1],"split_conditions":[1.5E1,1.3E1,-2.4E0,5.1E0,3.3E0,-4.8E0,2E1,-2.6587923E-3,-2.2835779E-4,-3.8364823E-3,-6.1100856E-3,-1.2146706E-4,-3.8088756E-3,1.7717242E-4,2.6746022E-3],"split_indices":[51,80,77,77,25,25,28,0,0,0,0,0,0,0,0],"split_type":[0,0,0,0,0,0,0,0,0,0,0,0,0,0,0],"sum_hessian":[4.5963667E3,2.271841E3,2.3245256E3,1.1617694E3,1.1100717E3,6.6328674E2,1.6612388E3,7.0483997E2,4.569294E2,4.681906E2,6.4188104E2,2.2248738E2,4.4079938E2,7.139431E2,9.4729565E2],"tree_param":{"num_deleted":"0","num_feature":"104","num_nodes":"15","size_leaf_vector":"0"}},{"base_weights":[1.4828141E-1,-1.07263E-1,2.986051E-1,1.4804763E-1,-2.2315174E-1,7.23354E-2,4.1470167E-1,-5.679164E-4,3.1453674E-3,-7.3526724E-4,-3.216323E-3,-2.0159776E-3,1.5439795E-3,5.4089567E-3,3.119094E-3],"categories":[],"categories_nodes":[],"categories_segments":[],"categories_sizes":[],"default_left":[0,0,0,0,0,0,0,0,0,0,0,0,0,0,0],"id":13,"left_children":[1,3,5,7,9,11,13,-1,-1,-1,-1,-1,-1,-1,-1],"loss_changes":[1.7546518E2,5.0100925E1,7.551141E1,1.8055351E1,1.7132286E1,2.1979193E1,2.4481781E1,0E0,0E0,0E0,0E0,0E0,0E0,0E0,0E0],"parents":[2147483647,0,0,1,1,2,2,3,3,4,4,5,5,6,6],"right_children":[2,4,6,8,10,12,14,-1,-1,-1,-1,-1,-1,-1,-1],"split_conditions":[4.58E-1,-2E0,1E1,-4.7E0,1.8E1,6E-1,-1.9E0,-5.679164E-4,3.1453674E-3,-7.3526724E-4,-3.216323E-3,-2.0159776E-3,1.5439795E-3,5.4089567E-3,3.119094E-3],"split_indices":[3,77,103,25,47,25,77,0,0,0,0,0,0,0,0],"split_type":[0,0,0,0,0,0,0,0,0,0,0,0,0,0,0],"sum_hessian":[4.5658604E3,1.6911902E3,2.8746702E3,5.2790424E2,1.1632859E3,9.7535236E2,1.8993179E3,2.3698703E2,2.9091724E2,4.6243643E2,7.008494E2,2.2449812E2,7.5085425E2,8.5069324E2,1.0486248E3],"tree_param":{"num_deleted":"0","num_feature":"104","num_nodes":"15","size_leaf_vector":"0"}},{"base_weights":[-1.4639309E-1,1.288272E-1,-2.8343898E-1,-8.453413E-2,2.6341236E-1,-5.1492137E-1,-1.743768E-1,-1.848067E-3,1.051684E-3,3.4902888E-4,3.2410114E-3,-4.0442725E-3,-6.304969E-3,-3.3705502E-3,-4.1630518E-4],"categories":[],"categories_nodes":[],"categories_segments":[],"categories_sizes":[],"default_left":[0,0,0,0,0,0,0,0,0,0,0,0,0,0,0],"id":14,"left_children":[1,3,5,7,9,11,13,-1,-1,-1,-1,-1,-1,-1,-1],"loss_changes":[1.7305975E2,4.383042E1,7.7231125E1,1.1258726E1,1.2965584E1,1.2264374E1,4.4975983E1,0E0,0E0,0E0,0E0,0E0,0E0,0E0,0E0],"parents":[2147483647,0,0,1,1,2,2,3,3,4,4,5,5,6,6],"right_children":[2,4,6,8,10,12,14,-1,-1,-1,-1,-1,-1,-1,-1],"split_conditions":[-1.6E0,-1.2E0,-1.5E0,3.34E1,2E1,2.3E1,9E0,-1.848067E-3,1.051684E-3,3.4902888E-4,3.2410114E-3,-4.0442725E-3,-6.304969E-3,-3.3705502E-3,-4.1630518E-4],"split_indices":[25,77,77,67,28,1,51,0,0,0,0,0,0,0,0],"split_type":[0,0,0,0,0,0,0,0,0,0,0,0,0,0,0],"sum_hessian":[4.5863086E3,1.5246047E3,3.0617036E3,5.898586E2,9.347461E2,9.7934375E2,2.0823599E3,3.8590405E2,2.0395456E2,1.9648874E2,7.382574E2,5.0297845E2,4.763653E2,9.349977E2,1.1473623E3],"tree_param":{"num_deleted":"0","num_feature":"104","num_nodes":"15","size_leaf_vector":"0"}},{"base_weights":[1.4501214E-1,-1.3111645E-1,2.8122213E-1,9.7596414E-2,-2.6467767E-1,4.3436773E-2,4.0686455E-1,-7.3522894E-4,2.6511997E-3,-4.7170583E-4,-3.2085355E-3,1.8479022E-3,-9.5731847E-4,3.2635536E-3,5.9105414E-3],"categories":[],"categories_nodes":[],"categories_segments":[],"categories_sizes":[],"default_left":[0,0,0,0,0,0,0,0,0,0,0,0,0,0,0],"id":15,"left_children":[1,3,5,7,9,11,13,-1,-1,-1,-1,-1,-1,-1,-1],"loss_changes":[1.7371915E2,4.664399E1,9.237947E1,1.6169243E1,1.1760452E1,2.1072803E1,2.9811798E1,0E0,0E0,0E0,0E0,0E0,0E0,0E0,0E0],"parents":[2147483647,0,0,1,1,2,2,3,3,4,4,5,5,6,6],"right_children":[2,4,6,8,10,12,14,-1,-1,-1,-1,-1,-1,-1,-1],"split_conditions":[-1.6E0,-1.4E0,1E1,-4.8E0,2E1,1E1,2.3E1,-7.3522894E-4,2.6511997E-3,-4.7170583E-4,-3.2085355E-3,1.8479022E-3,-9.5731847E-4,3.2635536E-3,5.9105414E-3],"split_indices":[25,77,103,25,28,51,80,0,0,0,0,0,0,0,0],"split_type":[0,0,0,0,0,0,0,0,0,0,0,0,0,0,0],"sum_hessian":[4.6168E3,1.5251044E3,3.0916956E3,5.6236633E2,9.6273804E2,1.0693107E3,2.0223849E3,2.7847513E2,2.838912E2,1.9798828E2,7.6474976E2,5.303286E2,5.389821E2,1.4091973E3,6.131876E2],"tree_param":{"num_deleted":"0","num_feature":"104","num_nodes":"15","size_leaf_vector":"0"}},{"base_weights":[-1.4698873E-1,-3.3975837E-1,4.0215764E-2,-4.4699183E-1,-6.553983E-2,-2.4145311E-1,1.5482679E-1,-3.7244798E-3,-6.459801E-3,-1.9749715E-3,6.6818454E-4,1.2830624E-4,-3.5615696E-3,7.013756E-4,3.402446E-3],"categories":[],"categories_nodes":[],"categories_segments":[],"categories_sizes":[],"default_left":[0,0,0,0,0,0,0,0,0,0,0,0,0,0,0],"id":16,"left_children":[1,3,5,7,9,11,13,-1,-1,-1,-1,-1,-1,-1,-1],"loss_changes":[1.660214E2,6.661804E1,7.5405815E1,2.3925476E1,1.1162012E1,1.9710476E1,2.6043674E1,0E0,0E0,0E0,0E0,0E0,0E0,0E0,0E0],"parents":[2147483647,0,0,1,1,2,2,3,3,4,4,5,5,6,6],"right_children":[2,4,6,8,10,12,14,-1,-1,-1,-1,-1,-1,-1,-1],"split_conditions":[1.5E1,3.8E0,-2.4E0,2.3E1,6.95E-1,-5.3E0,2.6E1,-3.7244798E-3,-6.459801E-3,-1.9749715E-3,6.6818454E-4,1.2830624E-4,-3.5615696E-3,7.013756E-4,3.402446E-3],"split_indices":[51,77,77,80,55,25,51,0,0,0,0,0,0,0,0],"split_type":[0,0,0,0,0,0,0,0,0,0,0,0,0,0,0],"sum_hessian":[4.599163E3,2.2655E3,2.333663E3,1.6281718E3,6.373283E2,6.746158E2,1.6590474E3,1.1865464E3,4.4162537E2,3.1890112E2,3.184272E2,2.0998782E2,4.6462796E2,1.1398167E3,5.192308E2],"tree_param":{"num_deleted":"0","num_feature":"104","num_nodes":"15","size_leaf_vector":"0"}},{"base_weights":[1.366318E-1,-1.4837424E-1,2.6409483E-1,1.0333302E-2,-3.2776228E-1,1.0116153E-1,4.26256E-1,-1.2422052E-3,1.7054541E-3,-2.6965262E-3,-5.4445216E-3,2.6379908E-3,-5.219982E-4,3.4326492E-3,5.524331E-3],"categories":[],"categories_nodes":[],"categories_segments":[],"categories_sizes":[],"default_left":[0,0,0,0,0,0,0,0,0,0,0,0,0,0,0],"id":17,"left_children":[1,3,5,7,9,11,13,-1,-1,-1,-1,-1,-1,-1,-1],"loss_changes":[1.674256E2,4.0559933E1,8.408676E1,1.6335615E1,8.273628E0,3.9662205E1,1.651825E1,0E0,0E0,0E0,0E0,0E0,0E0,0E0,0E0],"parents":[2147483647,0,0,1,1,2,2,3,3,4,4,5,5,6,6],"right_children":[2,4,6,8,10,12,14,-1,-1,-1,-1,-1,-1,-1,-1],"split_conditions":[4.26E-1,5.14E-1,1.3E1,-4.7E0,2.8E1,1E1,2.3E1,-1.2422052E-3,1.7054541E-3,-2.6965262E-3,-5.4445216E-3,2.6379908E-3,-5.219982E-4,3.4326492E-3,5.524331E-3],"split_indices":[3,55,80,25,47,51,80,0,0,0,0,0,0,0,0],"split_type":[0,0,0,0,0,0,0,0,0,0,0,0,0,0,0],"sum_hessian":[4.606675E3,1.4235245E3,3.1831506E3,7.55799E2,6.677255E2,1.5886052E3,1.5945453E3,4.1091638E2,3.4488263E2,5.282968E2,1.3942868E2,7.706362E2,8.1796893E2,9.641263E2,6.3041907E2],"tree_param":{"num_deleted":"0","num_feature":"104","num_nodes":"15","size_leaf_vector":"0"}},{"base_weights":[-1.4167246E-1,-2.7053934E-1,1.5880427E-1,-1.1643036E-1,-4.4488052E-1,1.679775E-2,3.737133E-1,-3.1021836E-3,-7.9295336E-5,-3.396989E-3,-5.7853777E-3,9.6659816E-4,-2.1721662E-3,3.9464952E-3,-1.8251991E-3],"categories":[],"categories_nodes":[],"categories_segments":[],"categories_sizes":[],"default_left":[0,0,0,0,0,0,0,0,0,0,0,0,0,0,0],"id":18,"left_children":[1,3,5,7,9,11,13,-1,-1,-1,-1,-1,-1,-1,-1],"loss_changes":[1.7707712E2,8.592651E1,4.189271E1,3.574109E1,2.0906708E1,1.5490013E1,6.432678E0,0E0,0E0,0E0,0E0,0E0,0E0,0E0,0E0],"parents":[2147483647,0,0,1,1,2,2,3,3,4,4,5,5,6,6],"right_children":[2,4,6,8,10,12,14,-1,-1,-1,-1,-1,-1,-1,-1],"split_conditions":[2E1,1.4E1,5.53E-1,7E0,5.97E-1,2.6E1,4.75E-1,-3.1021836E-3,-7.9295336E-5,-3.396989E-3,-5.7853777E-3,9.6659816E-4,-2.1721662E-3,3.9464952E-3,-1.8251991E-3],"split_indices":[28,80,55,29,3,103,7,0,0,0,0,0,0,0,0],"split_type":[0,0,0,0,0,0,0,0,0,0,0,0,0,0,0],"sum_hessian":[4.5709863E3,3.199081E3,1.3719054E3,1.6989558E3,1.5001251E3,8.2671265E2,5.451928E2,6.0914056E2,1.0898153E3,8.414709E2,6.5865424E2,6.168032E2,2.0990944E2,5.256965E2,1.9496326E1],"tree_param":{"num_deleted":"0","num_feature":"104","num_nodes":"15","size_leaf_vector":"0"}},{"base_weights":[1.4378718E-1,3.376579E-1,-4.4609606E-2,4.3243307E-1,8.4018156E-2,1.0125313E-1,-2.5309533E-1,3.576102E-3,6.3155973E-3,-1.8486881E-3,1.2960302E-3,-1.3832889E-3,2.23725E-3,-2.0373766E-3,-4.389017E-3],"categories":[],"categories_nodes":[],"categories_segments":[],"categories_sizes":[],"default_left":[0,0,0,0,0,0,0,0,0,0,0,0,0,0,0],"id":19,"left_children":[1,3,5,7,9,11,13,-1,-1,-1,-1,-1,-1,-1,-1],"loss_changes":[1.6893892E2,5.4759247E1,7.138224E1,2.4494507E1,7.639319E0,4.056077E1,8.771347E0,0E0,0E0,0E0,0E0,0E0,0E0,0E0,0E0],"parents":[2147483647,0,0,1,1,2,2,3,3,4,4,5,5,6,6],"right_children":[2,4,6,8,10,12,14,-1,-1,-1,-1,-1,-1,-1,-1],"split_conditions":[1.5E1,3.8E0,5.45E-1,2.3E1,2E0,-4.8E0,7.3E0,3.576102E-3,6.3155973E-3,-1.8486881E-3,1.2960302E-3,-1.3832889E-3,2.23725E-3,-2.0373766E-3,-4.389017E-3],"split_indices":[51,77,55,80,85,25,77,0,0,0,0,0,0,0,0],"split_type":[0,0,0,0,0,0,0,0,0,0,0,0,0,0,0],"sum_hessian":[4.623931E3,2.2784685E3,2.3454626E3,1.6581707E3,6.202979E2,1.3802872E3,9.651753E2,1.2073125E3,4.5085812E2,8.9473564E1,5.3082434E2,4.6686563E2,9.1342163E2,7.642549E2,2.0092038E2],"tree_param":{"num_deleted":"0","num_feature":"104","num_nodes":"15","size_leaf_vector":"0"}},{"base_weights":[-1.5431657E-1,7.774949E-2,-3.029716E-1,-2.0679934E-1,1.6667277E-1,-5.244049E-1,-1.949342E-1,-3.055359E-3,4.4610395E-4,9.594547E-4,3.1330131E-3,-4.2386954E-3,-6.256132E-3,-3.3530386E-3,-5.7264743E-4],"categories":[],"categories_nodes":[],"categories_segments":[],"categories_sizes":[],"default_left":[0,0,0,0,0,0,0,0,0,0,0,0,0,0,0],"id":20,"left_children":[1,3,5,7,9,11,13,-1,-1,-1,-1,-1,-1,-1,-1],"loss_changes":[1.5851273E2,4.544389E1,6.689575E1,1.0631668E1,1.4155739E1,9.072891E0,3.638479E1,0E0,0E0,0E0,0E0,0E0,0E0,0E0,0E0],"parents":[2147483647,0,0,1,1,2,2,3,3,4,4,5,5,6,6],"right_children":[2,4,6,8,10,12,14,-1,-1,-1,-1,-1,-1,-1,-1],"split_conditions":[4.69E-1,-3.3E0,-1.4E0,2.6E1,2.7E1,2.3E1,9E0,-3.055359E-3,4.4610395E-4,9.594547E-4,3.1330131E-3,-4.2386954E-3,-6.256132E-3,-3.3530386E-3,-5.7264743E-4],"split_indices":[3,77,77,28,51,1,51,0,0,0,0,0,0,0,0],"split_type":[0,0,0,0,0,0,0,0,0,0,0,0,0,0,0],"sum_hessian":[4.593184E3,1.7936248E3,2.7995593E3,4.2674435E2,1.3668804E3,9.167453E2,1.8828141E3,3.062536E2,1.2049075E2,9.232154E2,4.43665E2,4.6250443E2,4.5424088E2,9.3155365E2,9.512604E2],"tree_param":{"num_deleted":"0","num_feature":"104","num_nodes":"15","size_leaf_vector":"0"}},{"base_weights":[1.4011249E-1,-1.1115572E-1,2.88147E-1,1.8735623E-1,-1.996865E-1,3.2195482E-2,4.006813E-1,3.0897732E-3,-9.3033083E-4,-4.26267E-3,-1.4803826E-3,-9.837149E-4,1.723769E-3,5.3793616E-3,2.999443E-3],"categories":[],"categories_nodes":[],"categories_segments":[],"categories_sizes":[],"default_left":[0,0,0,0,0,0,0,0,0,0,0,0,0,0,0],"id":21,"left_children":[1,3,5,7,9,11,13,-1,-1,-1,-1,-1,-1,-1,-1],"loss_changes":[1.7114279E2,4.5127106E1,8.337369E1,1.3354772E1,1.5341896E1,1.621921E1,2.764148E1,0E0,0E0,0E0,0E0,0E0,0E0,0E0,0E0],"parents":[2147483647,0,0,1,1,2,2,3,3,4,4,5,5,6,6],"right_children":[2,4,6,8,10,12,14,-1,-1,-1,-1,-1,-1,-1,-1],"split_conditions":[4.58E-1,3.71E-1,9E0,2.6E1,5E0,3.1E0,-1.9E0,3.0897732E-3,-9.3033083E-4,-4.26267E-3,-1.4803826E-3,-9.837149E-4,1.723769E-3,5.3793616E-3,2.999443E-3],"split_indices":[3,55,103,28,103,25,77,0,0,0,0,0,0,0,0],"split_type":[0,0,0,0,0,0,0,0,0,0,0,0,0,0,0],"sum_hessian":[4.5992E3,1.7051658E3,2.8940347E3,3.8977823E2,1.3153876E3,8.8422076E2,2.0098138E3,2.7178665E2,1.1799156E2,2.428319E2,1.0725557E3,4.5796442E2,4.2625632E2,8.48875E2,1.1609388E3],"tree_param":{"num_deleted":"0","num_feature":"104","num_nodes":"15","size_leaf_vector":"0"}},{"base_weights":[-1.3867684E-1,-3.2540727E-1,4.516922E-2,-9.5506616E-2,-4.329806E-1,-2.3996367E-1,1.6097377E-1,-1.9937179E-3,4.3366963E-4,-3.601791E-3,-6.197216E-3,2.1122448E-4,-3.792106E-3,2.3250036E-4,2.6425223E-3],"categories":[],"categories_nodes":[],"categories_segments":[],"categories_sizes":[],"default_left":[0,0,0,0,0,0,0,0,0,0,0,0,0,0,0],"id":22,"left_children":[1,3,5,7,9,11,13,-1,-1,-1,-1,-1,-1,-1,-1],"loss_changes":[1.5855939E2,5.6625168E1,7.690852E1,1.0562183E1,2.0993713E1,2.4468266E1,2.355138E1,0E0,0E0,0E0,0E0,0E0,0E0,0E0,0E0],"parents":[2147483647,0,0,1,1,2,2,3,3,4,4,5,5,6,6],"right_children":[2,4,6,8,10,12,14,-1,-1,-1,-1,-1,-1,-1,-1],"split_conditions":[1.5E1,9E0,-2.4E0,6.95E-1,2.3E1,-4.6E0,2E1,-1.9937179E-3,4.3366963E-4,-3.601791E-3,-6.197216E-3,2.1122448E-4,-3.792106E-3,2.3250036E-4,2.6425223E-3],"split_indices":[51,103,77,55,80,25,28,0,0,0,0,0,0,0,0],"split_type":[0,0,0,0,0,0,0,0,0,0,0,0,0,0,0],"sum_hessian":[4.6173013E3,2.2902996E3,2.327002E3,7.306585E2,1.559641E3,6.718087E2,1.6551932E3,4.1776874E2,3.1288977E2,1.1242701E3,4.3537082E2,2.3396875E2,4.3784E2,7.098373E2,9.4535596E2],"tree_param":{"num_deleted":"0","num_feature":"104","num_nodes":"15","size_leaf_vector":"0"}},{"base_weights":[1.4138629E-1,3.3067414E-1,-4.1578494E-2,4.298662E-1,6.589328E-2,2.149919E-1,-1.6286056E-1,3.5478112E-3,6.447614E-3,2.7331018E-3,-3.5817406E-4,-4.6252145E-4,3.2941871E-3,-9.016017E-4,-3.2411206E-3],"categories":[],"categories_nodes":[],"categories_segments":[],"categories_sizes":[],"default_left":[0,0,0,0,0,0,0,0,0,0,0,0,0,0,0],"id":23,"left_children":[1,3,5,7,9,11,13,-1,-1,-1,-1,-1,-1,-1,-1],"loss_changes":[1.5980527E2,5.9534866E1,7.306748E1,2.638861E1,1.3073373E1,2.2547745E1,1.8660057E1,0E0,0E0,0E0,0E0,0E0,0E0,0E0,0E0],"parents":[2147483647,0,0,1,1,2,2,3,3,4,4,5,5,6,6],"right_children":[2,4,6,8,10,12,14,-1,-1,-1,-1,-1,-1,-1,-1],"split_conditions":[1.5E1,3.8E0,-1.9E0,2.3E1,5E0,-5.3E0,2.6E1,3.5478112E-3,6.447614E-3,2.7331018E-3,-3.5817406E-4,-4.6252145E-4,3.2941871E-3,-9.016017E-4,-3.2411206E-3],"split_indices":[51,77,77,80,29,25,51,0,0,0,0,0,0,0,0],"split_type":[0,0,0,0,0,0,0,0,0,0,0,0,0,0,0],"sum_hessian":[4.61285E3,2.2668513E3,2.3459988E3,1.648622E3,6.182294E2,7.5276434E2,1.5932344E3,1.223706E3,4.2491583E2,2.0285777E2,4.153716E2,2.294684E2,5.2329596E2,1.0992125E3,4.940219E2],"tree_param":{"num_deleted":"0","num_feature":"104","num_nodes":"15","size_leaf_vector":"0"}},{"base_weights":[-1.4061357E-1,8.356996E-2,-2.924358E-1,-1.7190097E-1,1.8247628E-1,-1.4210299E-1,-4.6253237E-1,7.7615445E-4,-3.2916926E-3,4.6335073E-4,2.636015E-3,-2.829712E-3,1.9930956E-5,-3.7702508E-3,-5.786649E-3],"categories":[],"categories_nodes":[],"categories_segments":[],"categories_sizes":[],"default_left":[0,0,0,0,0,0,0,0,0,0,0,0,0,0,0],"id":24,"left_children":[1,3,5,7,9,11,13,-1,-1,-1,-1,-1,-1,-1,-1],"loss_changes":[1.5461646E2,4.6390854E1,6.918785E1,2.0139997E1,1.4601257E1,2.921229E1,1.2394867E1,0E0,0E0,0E0,0E0,0E0,0E0,0E0,0E0],"parents":[2147483647,0,0,1,1,2,2,3,3,4,4,5,5,6,6],"right_children":[2,4,6,8,10,12,14,-1,-1,-1,-1,-1,-1,-1,-1],"split_conditions":[4.72E-1,-2.4E0,1.4E1,-5.1E0,1.7E1,9E0,2.3E1,7.7615445E-4,-3.2916926E-3,4.6335073E-4,2.636015E-3,-2.829712E-3,1.9930956E-5,-3.7702508E-3,-5.786649E-3],"split_indices":[3,77,80,25,47,51,80,0,0,0,0,0,0,0,0],"split_type":[0,0,0,0,0,0,0,0,0,0,0,0,0,0,0],"sum_hessian":[4.54101E3,1.8337338E3,2.7072761E3,5.1158722E2,1.3221466E3,1.4381034E3,1.2691726E3,1.9798212E2,3.136051E2,4.9426364E2,8.2788293E2,7.267092E2,7.1139417E2,7.334138E2,5.3575885E2],"tree_param":{"num_deleted":"0","num_feature":"104","num_nodes":"15","size_leaf_vector":"0"}},{"base_weights":[1.3890526E-1,2.8774548E-1,-1.1394339E-1,4.1238442E-1,1.1699942E-1,2.1067329E-1,-2.0925133E-1,5.3924536E-3,3.2523412E-3,2.3848994E-3,-1.7955288E-4,8.934205E-5,3.785823E-3,-1.0463152E-3,-3.506503E-3],"categories":[],"categories_nodes":[],"categories_segments":[],"categories_sizes":[],"default_left":[0,0,0,0,0,0,0,0,0,0,0,0,0,0,0],"id":25,"left_children":[1,3,5,7,9,11,13,-1,-1,-1,-1,-1,-1,-1,-1],"loss_changes":[1.7209262E2,6.120323E1,5.2478035E1,1.821402E1,1.9938854E1,1.3043196E1,1.9351566E1,0E0,0E0,0E0,0E0,0E0,0E0,0E0,0E0],"parents":[2147483647,0,0,1,1,2,2,3,3,4,4,5,5,6,6],"right_children":[2,4,6,8,10,12,14,-1,-1,-1,-1,-1,-1,-1,-1],"split_conditions":[1.8E1,1.5E0,-3.4E0,8E0,1E1,-4.3E0,2.6E1,5.3924536E-3,3.2523412E-3,2.3848994E-3,-1.7955288E-4,8.934205E-5,3.785823E-3,-1.0463152E-3,-3.506503E-3],"split_indices":[27,77,77,51,51,25,51,0,0,0,0,0,0,0,0],"split_type":[0,0,0,0,0,0,0,0,0,0,0,0,0,0,0],"sum_hessian":[4.5709194E3,2.8771418E3,1.6937773E3,1.6623018E3,1.2148402E3,3.8415244E2,1.3096249E3,6.7481506E2,9.8748676E2,6.389078E2,5.759324E2,1.7497586E2,2.0917656E2,7.537053E2,5.559196E2],"tree_param":{"num_deleted":"0","num_feature":"104","num_nodes":"15","size_leaf_vector":"0"}},{"base_weights":[-1.3721907E-1,-3.168956E-1,3.5812013E-2,-1.4992186E-1,-4.6261096E-1,-2.0567578E-1,1.5275474E-1,-2.5338768E-3,8.6838907E-7,-3.7580817E-3,-6.1461246E-3,1.5199075E-4,-3.2317962E-3,4.2437328E-4,2.9495258E-3],"categories":[],"categories_nodes":[],"categories_segments":[],"categories_sizes":[],"default_left":[0,0,0,0,0,0,0,0,0,0,0,0,0,0,0],"id":26,"left_children":[1,3,5,7,9,11,13,-1,-1,-1,-1,-1,-1,-1,-1],"loss_changes":[1.4315886E2,5.4891144E1,6.6295715E1,1.6361143E1,1.5677948E1,1.988506E1,2.479573E1,0E0,0E0,0E0,0E0,0E0,0E0,0E0,0E0],"parents":[2147483647,0,0,1,1,2,2,3,3,4,4,5,5,6,6],"right_children":[2,4,6,8,10,12,14,-1,-1,-1,-1,-1,-1,-1,-1],"split_conditions":[1.5E1,1.2E1,-1.9E0,5.1E0,2.3E1,-4.6E0,2.4E1,-2.5338768E-3,8.6838907E-7,-3.7580817E-3,-6.1461246E-3,1.5199075E-4,-3.2317962E-3,4.2437328E-4,2.9495258E-3],"split_indices":[51,80,77,77,80,25,51,0,0,0,0,0,0,0,0],"split_type":[0,0,0,0,0,0,0,0,0,0,0,0,0,0,0],"sum_hessian":[4.60335E3,2.257901E3,2.3454495E3,1.0531436E3,1.2047573E3,7.6498645E2,1.5804629E3,6.228528E2,4.3029074E2,7.6905115E2,4.357062E2,2.6594806E2,4.9903842E2,8.907306E2,6.897323E2],"tree_param":{"num_deleted":"0","num_feature":"104","num_nodes":"15","size_leaf_vector":"0"}},{"base_weights":[1.3085768E-1,-9.694444E-2,2.781632E-1,2.0924377E-1,-1.7983247E-1,1.1756093E-1,4.174025E-1,5.1220786E-4,4.0133335E-3,-5.48407E-4,-2.8118663E-3,2.3844636E-3,1.6724158E-7,5.4639345E-3,3.2697017E-3],"categories":[],"categories_nodes":[],"categories_segments":[],"categories_sizes":[],"default_left":[0,0,0,0,0,0,0,0,0,0,0,0,0,0,0],"id":27,"left_children":[1,3,5,7,9,11,13,-1,-1,-1,-1,-1,-1,-1,-1],"loss_changes":[1.5425023E2,4.5861824E1,6.2371597E1,1.16695175E1,1.799218E1,1.8438532E1,1.7257233E1,0E0,0E0,0E0,0E0,0E0,0E0,0E0,0E0],"parents":[2147483647,0,0,1,1,2,2,3,3,4,4,5,5,6,6],"right_children":[2,4,6,8,10,12,14,-1,-1,-1,-1,-1,-1,-1,-1],"split_conditions":[4.69E-1,3.59E-1,1.2E1,-3.7E0,2.4E1,9E0,8E0,5.1220786E-4,4.0133335E-3,-5.48407E-4,-2.8118663E-3,2.3844636E-3,1.6724158E-7,5.4639345E-3,3.2697017E-3],"split_indices":[3,55,80,25,51,51,51,0,0,0,0,0,0,0,0],"split_type":[0,0,0,0,0,0,0,0,0,0,0,0,0,0,0],"sum_hessian":[4.5949263E3,1.804571E3,2.790355E3,3.8411746E2,1.4204536E3,1.296631E3,1.4937241E3,2.1144136E2,1.7267612E2,6.367471E2,7.8370654E2,6.3872327E2,6.579077E2,6.1354004E2,8.80184E2],"tree_param":{"num_deleted":"0","num_feature":"104","num_nodes":"15","size_leaf_vector":"0"}},{"base_weights":[-1.2380171E-1,-3.1367815E-1,6.0730025E-2,-1.7638549E-1,-4.7397447E-1,-8.9264564E-2,2.4021287E-1,-2.4363515E-3,1.2857621E-4,-4.0207636E-3,-6.319023E-3,9.671592E-4,-2.3145187E-3,1.8477474E-3,4.935222E-3],"categories":[],"categories_nodes":[],"categories_segments":[],"categories_sizes":[],"default_left":[0,0,0,0,0,0,0,0,0,0,0,0,0,0,0],"id":28,"left_children":[1,3,5,7,9,11,13,-1,-1,-1,-1,-1,-1,-1,-1],"loss_changes":[1.6157658E2,4.9932816E1,6.2995983E1,1.5603088E1,1.164473E1,3.3738712E1,1.486726E1,0E0,0E0,0E0,0E0,0E0,0E0,0E0,0E0],"parents":[2147483647,0,0,1,1,2,2,3,3,4,4,5,5,6,6],"right_children":[2,4,6,8,10,12,14,-1,-1,-1,-1,-1,-1,-1,-1],"split_conditions":[1.5E1,1.4E1,5.25E-1,6.2E0,2.6E1,-3.7E0,2.8E1,-2.4363515E-3,1.2857621E-4,-4.0207636E-3,-6.319023E-3,9.671592E-4,-2.3145187E-3,1.8477474E-3,4.935222E-3],"split_indices":[51,80,55,77,103,25,51,0,0,0,0,0,0,0,0],"split_type":[0,0,0,0,0,0,0,0,0,0,0,0,0,0,0],"sum_hessian":[4.6098936E3,2.2716985E3,2.338195E3,1.2247817E3,1.0469167E3,1.2740056E3,1.0641893E3,9.0344495E2,3.2133676E2,7.218389E2,3.2507776E2,5.5213495E2,7.218707E2,8.745244E2,1.8966496E2],"tree_param":{"num_deleted":"0","num_feature":"104","num_nodes":"15","size_leaf_vector":"0"}},{"base_weights":[1.4044017E-1,-7.740703E-2,2.82713E-1,2.390035E-1,-1.6028689E-1,1.3196057E-1,4.5096216E-1,3.7431708E-3,5.8108516E-4,-7.573225E-4,-2.8628826E-3,2.7481916E-3,-7.0213806E-5,5.4995827E-3,3.2759574E-3],"categories":[],"categories_nodes":[],"categories_segments":[],"categories_sizes":[],"default_left":[0,0,0,0,0,0,0,0,0,0,0,0,0,0,0],"id":29,"left_children":[1,3,5,7,9,11,13,-1,-1,-1,-1,-1,-1,-1,-1],"loss_changes":[1.4080902E2,4.7120163E1,6.964241E1,9.109898E0,1.5142223E1,2.8807472E1,1.5675201E1,0E0,0E0,0E0,0E0,0E0,0E0,0E0,0E0],"parents":[2147483647,0,0,1,1,2,2,3,3,4,4,5,5,6,6],"right_children":[2,4,6,8,10,12,14,-1,-1,-1,-1,-1,-1,-1,-1],"split_conditions":[4.69E-1,3.59E-1,1.4E1,3.28E1,2.6E1,9E0,-2.3E0,3.7431708E-3,5.8108516E-4,-7.573225E-4,-2.8628826E-3,2.7481916E-3,-7.0213806E-5,5.4995827E-3,3.2759574E-3],"split_indices":[3,55,80,67,51,51,77,0,0,0,0,0,0,0,0],"split_type":[0,0,0,0,0,0,0,0,0,0,0,0,0,0,0],"sum_hessian":[4.5414385E3,1.7943688E3,2.7470698E3,3.7206232E2,1.4223065E3,1.4498124E3,1.2972574E3,2.1223582E2,1.5982648E2,8.5209784E2,5.702087E2,7.1445337E2,7.353591E2,7.1779816E2,5.794592E2],"tree_param":{"num_deleted":"0","num_feature":"104","num_nodes":"15","size_leaf_vector":"0"}},{"base_weights":[-1.3217351E-1,-2.524263E-1,1.16726495E-1,-3.605812E-1,-2.570434E-2,-2.2897026E-1,2.1012302E-1,-2.5222306E-3,-4.9340082E-3,-1.6237E-3,8.504009E-4,-2.975514E-4,-4.047189E-3,3.7846544E-3,1.3831736E-3],"categories":[],"categories_nodes":[],"categories_segments":[],"categories_sizes":[],"default_left":[0,0,0,0,0,0,0,0,0,0,0,0,0,0,0],"id":30,"left_children":[1,3,5,7,9,11,13,-1,-1,-1,-1,-1,-1,-1,-1],"loss_changes":[1.3653989E2,7.540419E1,4.80392E1,2.9841309E1,1.5063304E1,1.1074078E1,1.4099682E1,0E0,0E0,0E0,0E0,0E0,0E0,0E0,0E0],"parents":[2147483647,0,0,1,1,2,2,3,3,4,4,5,5,6,6],"right_children":[2,4,6,8,10,12,14,-1,-1,-1,-1,-1,-1,-1,-1],"split_conditions":[1.9E1,2.9E0,3.59E-1,6E-1,9E0,-4.8E0,8E0,-2.5222306E-3,-4.9340082E-3,-1.6237E-3,8.504009E-4,-2.975514E-4,-4.047189E-3,3.7846544E-3,1.3831736E-3],"split_indices":[28,77,55,3,51,25,103,0,0,0,0,0,0,0,0],"split_type":[0,0,0,0,0,0,0,0,0,0,0,0,0,0,0],"sum_hessian":[4.559849E3,3.074453E3,1.4853962E3,2.0810999E3,9.933531E2,3.1563968E2,1.1697566E3,1.1476844E3,9.3341547E2,4.444309E2,5.489222E2,1.4849101E2,1.6714867E2,3.4848694E2,8.2126965E2],"tree_param":{"num_deleted":"0","num_feature":"104","num_nodes":"15","size_leaf_vector":"0"}},{"base_weights":[1.3263907E-1,2.5975043E-1,-1.2900537E-1,5.0380045E-1,1.617735E-1,2.1652517E-1,-2.3383026E-1,2.0196256E-3,5.5103526E-3,3.0796085E-3,4.8960635E-4,5.1787985E-4,3.9409827E-3,-3.9485334E-3,-1.6122607E-3],"categories":[],"categories_nodes":[],"categories_segments":[],"categories_sizes":[],"default_left":[0,0,0,0,0,0,0,0,0,0,0,0,0,0,0],"id":31,"left_children":[1,3,5,7,9,11,13,-1,-1,-1,-1,-1,-1,-1,-1],"loss_changes":[1.5120749E2,7.307712E1,5.3906685E1,1.2377747E1,3.601314E1,1.0118998E1,1.3279156E1,0E0,0E0,0E0,0E0,0E0,0E0,0E0,0E0],"parents":[2147483647,0,0,1,1,2,2,3,3,4,4,5,5,6,6],"right_children":[2,4,6,8,10,12,14,-1,-1,-1,-1,-1,-1,-1,-1],"split_conditions":[1.9E1,-2E0,-3.2E0,9E0,9E0,-4.1E0,8E0,2.0196256E-3,5.5103526E-3,3.0796085E-3,4.8960635E-4,5.1787985E-4,3.9409827E-3,-3.9485334E-3,-1.6122607E-3],"split_indices":[28,77,77,0,51,25,103,0,0,0,0,0,0,0,0],"split_type":[0,0,0,0,0,0,0,0,0,0,0,0,0,0,0],"sum_hessian":[4.5444937E3,3.058587E3,1.4859069E3,8.749754E2,2.1836116E3,3.4561215E2,1.1402947E3,1.1911139E2,7.55864E2,9.5036334E2,1.2332482E3,1.79956E2,1.6565616E2,3.5298926E2,7.873054E2],"tree_param":{"num_deleted":"0","num_feature":"104","num_nodes":"15","size_leaf_vector":"0"}},{"base_weights":[-1.289009E-1,8.6638E-2,-2.6835176E-1,-2.0557523E-1,1.6320911E-1,-1.2360849E-1,-4.2950252E-1,-1.3803192E-3,-6.207539E-3,6.4793916E-4,3.1024946E-3,-2.7084264E-3,-7.4202544E-5,-3.3655327E-3,-5.5568432E-3],"categories":[],"categories_nodes":[],"categories_segments":[],"categories_sizes":[],"default_left":[0,0,0,0,0,0,0,0,0,0,0,0,0,0,0],"id":32,"left_children":[1,3,5,7,9,11,13,-1,-1,-1,-1,-1,-1,-1,-1],"loss_changes":[1.3833215E2,4.049627E1,6.512204E1,1.0456038E1,2.0723553E1,2.5203604E1,1.5314987E1,0E0,0E0,0E0,0E0,0E0,0E0,0E0,0E0],"parents":[2147483647,0,0,1,1,2,2,3,3,4,4,5,5,6,6],"right_children":[2,4,6,8,10,12,14,-1,-1,-1,-1,-1,-1,-1,-1],"split_conditions":[4.69E-1,3.59E-1,1.4E1,-1E0,2.6E1,7E0,2.3E1,-1.3803192E-3,-6.207539E-3,6.4793916E-4,3.1024946E-3,-2.7084264E-3,-7.4202544E-5,-3.3655327E-3,-5.5568432E-3],"split_indices":[3,55,80,25,51,27,80,0,0,0,0,0,0,0,0],"split_type":[0,0,0,0,0,0,0,0,0,0,0,0,0,0,0],"sum_hessian":[4.600541E3,1.8073821E3,2.7931587E3,3.74919E2,1.4324631E3,1.4724198E3,1.3207389E3,3.236057E2,5.131329E1,8.5898126E2,5.734818E2,6.48856E2,8.235638E2,7.626304E2,5.581086E2],"tree_param":{"num_deleted":"0","num_feature":"104","num_nodes":"15","size_leaf_vector":"0"}},{"base_weights":[1.4739779E-1,2.76046E-1,-1.0397418E-1,3.6898726E-1,2.1376383E-2,1.19678125E-1,-2.0553932E-1,5.062298E-3,2.828216E-3,-4.8609352E-4,2.939673E-3,-5.910587E-4,2.8018164E-3,-4.480631E-4,-2.9153393E-3],"categories":[],"categories_nodes":[],"categories_segments":[],"categories_sizes":[],"default_left":[0,0,0,0,0,0,0,0,0,0,0,0,0,0,0],"id":33,"left_children":[1,3,5,7,9,11,13,-1,-1,-1,-1,-1,-1,-1,-1],"loss_changes":[1.4856183E2,7.1910126E1,3.5360863E1,2.6180542E1,1.5532986E1,1.3975466E1,1.4778976E1,0E0,0E0,0E0,0E0,0E0,0E0,0E0,0E0],"parents":[2147483647,0,0,1,1,2,2,3,3,4,4,5,5,6,6],"right_children":[2,4,6,8,10,12,14,-1,-1,-1,-1,-1,-1,-1,-1],"split_conditions":[1.9E1,3.8E0,-2E0,8E0,4.76E-1,-4.6E0,1.7E1,5.062298E-3,2.828216E-3,-4.8609352E-4,2.939673E-3,-5.910587E-4,2.8018164E-3,-4.480631E-4,-2.9153393E-3],"split_indices":[27,77,77,51,7,25,47,0,0,0,0,0,0,0,0],"split_type":[0,0,0,0,0,0,0,0,0,0,0,0,0,0,0],"sum_hessian":[4.5920664E3,3.0374492E3,1.554617E3,2.224993E3,8.124565E2,4.8544992E2,1.0691671E3,8.5627094E2,1.3687219E3,6.471318E2,1.6532469E2,2.2994604E2,2.5550386E2,3.7317844E2,6.9598865E2],"tree_param":{"num_deleted":"0","num_feature":"104","num_nodes":"15","size_leaf_vector":"0"}},{"base_weights":[-1.2697144E-1,9.33891E-2,-2.7226827E-1,-2.3050265E-1,1.8028834E-1,-4.9412996E-1,-1.6239886E-1,-3.0457042E-4,-3.8334064E-3,5.097832E-4,2.640889E-3,-4.08204E-3,-6.045018E-3,-2.8760424E-3,-4.2349266E-4],"categories":[],"categories_nodes":[],"categories_segments":[],"categories_sizes":[],"default_left":[0,0,0,0,0,0,0,0,0,0,0,0,0,0,0],"id":34,"left_children":[1,3,5,7,9,11,13,-1,-1,-1,-1,-1,-1,-1,-1],"loss_changes":[1.4525793E2,5.0793297E1,6.655943E1,1.1664211E1,1.5398727E1,8.335724E0,2.7492542E1,0E0,0E0,0E0,0E0,0E0,0E0,0E0,0E0],"parents":[2147483647,0,0,1,1,2,2,3,3,4,4,5,5,6,6],"right_children":[2,4,6,8,10,12,14,-1,-1,-1,-1,-1,-1,-1,-1],"split_conditions":[4.69E-1,3.59E-1,-1.4E0,-4.7E0,5.14E-1,2.6E1,9E0,-3.0457042E-4,-3.8334064E-3,5.097832E-4,2.640889E-3,-4.08204E-3,-6.045018E-3,-2.8760424E-3,-4.2349266E-4],"split_indices":[3,55,77,25,55,1,51,0,0,0,0,0,0,0,0],"split_type":[0,0,0,0,0,0,0,0,0,0,0,0,0,0,0],"sum_hessian":[4.5350073E3,1.8021628E3,2.7328442E3,3.8088223E2,1.4212806E3,9.039604E2,1.8288839E3,1.6548395E2,2.1539828E2,5.595164E2,8.617642E2,5.1090918E2,3.9305118E2,8.945352E2,9.3434875E2],"tree_param":{"num_deleted":"0","num_feature":"104","num_nodes":"15","size_leaf_vector":"0"}},{"base_weights":[1.2935628E-1,3.099195E-1,-4.5227878E-2,3.864525E-1,-1.3528373E-2,1.7476211E-1,-1.6986468E-1,3.2042542E-3,5.9267306E-3,2.864875E-3,-8.9199626E-4,-6.369453E-4,2.9567587E-3,-7.8738044E-4,-2.9354428E-3],"categories":[],"categories_nodes":[],"categories_segments":[],"categories_sizes":[],"default_left":[0,0,0,0,0,0,0,0,0,0,0,0,0,0,0],"id":35,"left_children":[1,3,5,7,9,11,13,-1,-1,-1,-1,-1,-1,-1,-1],"loss_changes":[1.4385307E2,5.553383E1,6.3661743E1,2.4509735E1,9.791733E0,2.42327E1,1.6679054E1,0E0,0E0,0E0,0E0,0E0,0E0,0E0,0E0],"parents":[2147483647,0,0,1,1,2,2,3,3,4,4,5,5,6,6],"right_children":[2,4,6,8,10,12,14,-1,-1,-1,-1,-1,-1,-1,-1],"split_conditions":[1.5E1,5.1E0,-1.3E0,2.3E1,3E0,-4.8E0,2.4E1,3.2042542E-3,5.9267306E-3,2.864875E-3,-8.9199626E-4,-6.369453E-4,2.9567587E-3,-7.8738044E-4,-2.9354428E-3],"split_indices":[51,77,77,80,29,25,51,0,0,0,0,0,0,0,0],"split_type":[0,0,0,0,0,0,0,0,0,0,0,0,0,0,0],"sum_hessian":[4.561918E3,2.242177E3,2.3197412E3,1.8129977E3,4.291793E2,8.388059E2,1.4809352E3,1.3752334E3,4.3776434E2,8.5884544E1,3.4329474E2,2.8238385E2,5.5642206E2,8.536247E2,6.273105E2],"tree_param":{"num_deleted":"0","num_feature":"104","num_nodes":"15","size_leaf_vector":"0"}},{"base_weights":[-1.2934804E-1,1.1135857E-1,-2.525644E-1,-1.6437049E-1,2.2677411E-1,-1.0458832E-1,-4.1972777E-1,4.898202E-4,-2.8824375E-3,-2.0181577E-4,2.8121485E-3,-2.4049655E-3,3.8155945E-4,-3.414854E-3,-5.8732806E-3],"categories":[],"categories_nodes":[],"categories_segments":[],"categories_sizes":[],"default_left":[0,0,0,0,0,0,0,0,0,0,0,0,0,0,0],"id":36,"left_children":[1,3,5,7,9,11,13,-1,-1,-1,-1,-1,-1,-1,-1],"loss_changes":[1.3646486E2,4.9624992E1,7.522745E1,1.2180932E1,1.4779118E1,3.1349113E1,1.8532211E1,0E0,0E0,0E0,0E0,0E0,0E0,0E0,0E0],"parents":[2147483647,0,0,1,1,2,2,3,3,4,4,5,5,6,6],"right_children":[2,4,6,8,10,12,14,-1,-1,-1,-1,-1,-1,-1,-1],"split_conditions":[-1.5E0,-2.4E0,1.4E1,-6.2E0,1.9E1,1E1,2.6E1,4.898202E-4,-2.8824375E-3,-2.0181577E-4,2.8121485E-3,-2.4049655E-3,3.8155945E-4,-3.414854E-3,-5.8732806E-3],"split_indices":[25,77,80,25,28,51,103,0,0,0,0,0,0,0,0],"split_type":[0,0,0,0,0,0,0,0,0,0,0,0,0,0,0],"sum_hessian":[4.5991807E3,1.5572146E3,3.041966E3,4.5936417E2,1.0978505E3,1.6144504E3,1.4275156E3,1.6896048E2,2.904037E2,1.9841663E2,8.9943384E2,8.266777E2,7.877728E2,9.752626E2,4.5225305E2],"tree_param":{"num_deleted":"0","num_feature":"104","num_nodes":"15","size_leaf_vector":"0"}},{"base_weights":[1.3748376E-1,-8.8756755E-2,2.8348765E-1,5.55909E-2,-2.5136995E-1,1.3034803E-1,4.390917E-1,-1.1403877E-3,1.8892615E-3,-4.2446177E-3,-1.7776081E-3,2.9052803E-3,1.6414191E-4,5.7215584E-3,3.6587622E-3],"categories":[],"categories_nodes":[],"categories_segments":[],"categories_sizes":[],"default_left":[0,0,0,0,0,0,0,0,0,0,0,0,0,0,0],"id":37,"left_children":[1,3,5,7,9,11,13,-1,-1,-1,-1,-1,-1,-1,-1],"loss_changes":[1.5209192E2,4.2415787E1,6.662149E1,2.168412E1,1.0750011E1,2.5758465E1,1.3308289E1,0E0,0E0,0E0,0E0,0E0,0E0,0E0,0E0],"parents":[2147483647,0,0,1,1,2,2,3,3,4,4,5,5,6,6],"right_children":[2,4,6,8,10,12,14,-1,-1,-1,-1,-1,-1,-1,-1],"split_conditions":[4.69E-1,5.19E-1,1.3E1,-4.7E0,-6.2E0,7E0,7E0,-1.1403877E-3,1.8892615E-3,-4.2446177E-3,-1.7776081E-3,2.9052803E-3,1.6414191E-4,5.7215584E-3,3.6587622E-3],"split_indices":[3,55,80,25,25,29,51,0,0,0,0,0,0,0,0],"split_type":[0,0,0,0,0,0,0,0,0,0,0,0,0,0,0],"sum_hessian":[4.602621E3,1.8054208E3,2.7972E3,9.5677435E2,8.486465E2,1.4106902E3,1.3865099E3,4.2114133E2,5.35633E2,2.5179176E2,5.968547E2,5.85701E2,8.249892E2,4.896997E2,8.968101E2],"tree_param":{"num_deleted":"0","num_feature":"104","num_nodes":"15","size_leaf_vector":"0"}},{"base_weights":[-1.3280651E-1,-3.1025732E-1,3.9881065E-2,-1.6874892E-1,-4.4276333E-1,-2.0599233E-1,1.5480047E-1,-2.6075775E-3,-3.1210153E-4,-3.5922776E-3,-5.8659962E-3,5.897225E-4,-3.329538E-3,3.1417012E-3,6.5673183E-4],"categories":[],"categories_nodes":[],"categories_segments":[],"categories_sizes":[],"default_left":[0,0,0,0,0,0,0,0,0,0,0,0,0,0,0],"id":38,"left_children":[1,3,5,7,9,11,13,-1,-1,-1,-1,-1,-1,-1,-1],"loss_changes":[1.4026408E2,4.2253555E1,6.55978E1,1.3826624E1,1.3789383E1,2.4897926E1,2.2449207E1,0E0,0E0,0E0,0E0,0E0,0E0,0E0,0E0],"parents":[2147483647,0,0,1,1,2,2,3,3,4,4,5,5,6,6],"right_children":[2,4,6,8,10,12,14,-1,-1,-1,-1,-1,-1,-1,-1],"split_conditions":[1.5E1,1.2E1,-1.9E0,9E0,2.3E1,-4.8E0,8E0,-2.6075775E-3,-3.1210153E-4,-3.5922776E-3,-5.8659962E-3,5.897225E-4,-3.329538E-3,3.1417012E-3,6.5673183E-4],"split_indices":[51,80,77,51,80,25,103,0,0,0,0,0,0,0,0],"split_type":[0,0,0,0,0,0,0,0,0,0,0,0,0,0,0],"sum_hessian":[4.5758755E3,2.2564202E3,2.3194553E3,1.0922438E3,1.1641764E3,7.385384E2,1.5809169E3,6.539063E2,4.3833743E2,7.38675E2,4.2550146E2,2.3941739E2,4.99121E2,5.6611475E2,1.01480206E3],"tree_param":{"num_deleted":"0","num_feature":"104","num_nodes":"15","size_leaf_vector":"0"}},{"base_weights":[1.4009058E-1,-9.662074E-2,2.5855795E-1,9.432734E-2,-2.0405081E-1,2.991178E-2,3.5925204E-1,2.016738E-3,-1.0548276E-3,1.9083238E-4,-2.6407116E-3,-1.1549258E-3,1.8517048E-3,2.872957E-3,5.394439E-3],"categories":[],"categories_nodes":[],"categories_segments":[],"categories_sizes":[],"default_left":[0,0,0,0,0,0,0,0,0,0,0,0,0,0,0],"id":39,"left_children":[1,3,5,7,9,11,13,-1,-1,-1,-1,-1,-1,-1,-1],"loss_changes":[1.2758816E2,3.1158546E1,6.97943E1,1.1758751E1,1.3019367E1,2.0973227E1,2.7136261E1,0E0,0E0,0E0,0E0,0E0,0E0,0E0,0E0],"parents":[2147483647,0,0,1,1,2,2,3,3,4,4,5,5,6,6],"right_children":[2,4,6,8,10,12,14,-1,-1,-1,-1,-1,-1,-1,-1],"split_conditions":[-1.6E0,-1.5E0,9E0,2.6E1,2E1,2.9E0,2.3E1,2.016738E-3,-1.0548276E-3,1.9083238E-4,-2.6407116E-3,-1.1549258E-3,1.8517048E-3,2.872957E-3,5.394439E-3],"split_indices":[25,77,103,28,28,25,80,0,0,0,0,0,0,0,0],"split_type":[0,0,0,0,0,0,0,0,0,0,0,0,0,0,0],"sum_hessian":[4.547913E3,1.516986E3,3.0309272E3,5.462297E2,9.707562E2,9.2708716E2,2.10384E3,3.553248E2,1.9090489E2,2.0591621E2,7.6484E2,4.7886865E2,4.4821848E2,1.5053145E3,5.985256E2],"tree_param":{"num_deleted":"0","num_feature":"104","num_nodes":"15","size_leaf_vector":"0"}},{"base_weights":[-1.2549369E-1,-2.3122956E-1,1.4694324E-1,-9.277541E-2,-3.8700873E-1,-6.428791E-2,2.6427677E-1,-2.590115E-3,2.857058E-4,-2.9709244E-3,-5.099893E-3,-3.868574E-3,1.9371112E-4,1.7659052E-3,4.269222E-3],"categories":[],"categories_nodes":[],"categories_segments":[],"categories_sizes":[],"default_left":[0,0,0,0,0,0,0,0,0,0,0,0,0,0,0],"id":40,"left_children":[1,3,5,7,9,11,13,-1,-1,-1,-1,-1,-1,-1,-1],"loss_changes":[1.3170596E2,7.0994995E1,3.1707191E1,3.5206196E1,1.6981445E1,1.235123E1,1.1650845E1,0E0,0E0,0E0,0E0,0E0,0E0,0E0,0E0],"parents":[2147483647,0,0,1,1,2,2,3,3,4,4,5,5,6,6],"right_children":[2,4,6,8,10,12,14,-1,-1,-1,-1,-1,-1,-1,-1],"split_conditions":[2.2E1,1.4E1,-1.3E0,9E0,5.97E-1,2.2E1,3E1,-2.590115E-3,2.857058E-4,-2.9709244E-3,-5.099893E-3,-3.868574E-3,1.9371112E-4,1.7659052E-3,4.269222E-3],"split_indices":[51,80,77,51,3,29,53,0,0,0,0,0,0,0,0],"split_type":[0,0,0,0,0,0,0,0,0,0,0,0,0,0,0],"sum_hessian":[4.5699355E3,3.2923057E3,1.27763E3,1.7439261E3,1.5483795E3,4.564151E2,8.212149E2,7.3537537E2,1.0085508E3,8.963997E2,6.519798E2,9.324811E1,3.6316696E2,5.3491473E2,2.863002E2],"tree_param":{"num_deleted":"0","num_feature":"104","num_nodes":"15","size_leaf_vector":"0"}},{"base_weights":[1.3238487E-1,2.508921E-1,-1.0107318E-1,1.0871012E-1,4.0979627E-1,2.3160763E-1,-1.845368E-1,2.4088526E-3,-3.9051283E-5,3.2492573E-3,5.059797E-3,5.5264187E-4,4.170392E-3,-5.567711E-4,-2.897766E-3],"categories":[],"categories_nodes":[],"categories_segments":[],"categories_sizes":[],"default_left":[0,0,0,0,0,0,0,0,0,0,0,0,0,0,0],"id":41,"left_children":[1,3,5,7,9,11,13,-1,-1,-1,-1,-1,-1,-1,-1],"loss_changes":[1.26320114E2,6.83721E1,4.27403E1,2.3810051E1,1.1505936E1,1.0076416E1,1.6662312E1,0E0,0E0,0E0,0E0,0E0,0E0,0E0,0E0],"parents":[2147483647,0,0,1,1,2,2,3,3,4,4,5,5,6,6],"right_children":[2,4,6,8,10,12,14,-1,-1,-1,-1,-1,-1,-1,-1],"split_conditions":[1.9E1,1.4E1,3.59E-1,9E0,5.97E-1,-4.3E0,2.1E1,2.4088526E-3,-3.9051283E-5,3.2492573E-3,5.059797E-3,5.5264187E-4,4.170392E-3,-5.567711E-4,-2.897766E-3],"split_indices":[27,80,55,51,3,25,53,0,0,0,0,0,0,0,0],"split_type":[0,0,0,0,0,0,0,0,0,0,0,0,0,0,0],"sum_hessian":[4.5639043E3,3.0271816E3,1.5367229E3,1.5985438E3,1.4286377E3,3.0785538E2,1.2288674E3,7.348823E2,8.636615E2,7.612781E2,6.673597E2,1.5845984E2,1.4939555E2,5.531267E2,6.757407E2],"tree_param":{"num_deleted":"0","num_feature":"104","num_nodes":"15","size_leaf_vector":"0"}},{"base_weights":[-1.330588E-1,-2.450125E-1,1.3050565E-1,-1.5120308E-1,-4.8515972E-1,-2.1874146E-1,2.2185585E-1,-3.0919453E-3,-5.79062E-4,-4.0571773E-3,-5.902542E-3,-4.3304074E-3,-1.2093402E-3,1.1335071E-3,3.2062356E-3],"categories":[],"categories_nodes":[],"categories_segments":[],"categories_sizes":[],"default_left":[0,0,0,0,0,0,0,0,0,0,0,0,0,0,0],"id":42,"left_children":[1,3,5,7,9,11,13,-1,-1,-1,-1,-1,-1,-1,-1],"loss_changes":[1.34789E2,7.214595E1,4.3507965E1,3.3983036E1,7.2749634E0,5.8779144E0,1.1540703E1,0E0,0E0,0E0,0E0,0E0,0E0,0E0,0E0],"parents":[2147483647,0,0,1,1,2,2,3,3,4,4,5,5,6,6],"right_children":[2,4,6,8,10,12,14,-1,-1,-1,-1,-1,-1,-1,-1],"split_conditions":[2E1,2E1,3.59E-1,8E0,5.97E-1,1.4E1,5.4E-1,-3.0919453E-3,-5.79062E-4,-4.0571773E-3,-5.902542E-3,-4.3304074E-3,-1.2093402E-3,1.1335071E-3,3.2062356E-3],"split_indices":[28,80,55,51,3,46,55,0,0,0,0,0,0,0,0],"split_type":[0,0,0,0,0,0,0,0,0,0,0,0,0,0,0],"sum_hessian":[4.565949E3,3.2047463E3,1.3612026E3,2.3056953E3,8.99051E2,2.819326E2,1.07927E3,8.5518604E2,1.4505093E3,5.1478235E2,3.8426865E2,8.7277435E1,1.9465515E2,5.1530707E2,5.63963E2],"tree_param":{"num_deleted":"0","num_feature":"104","num_nodes":"15","size_leaf_vector":"0"}},{"base_weights":[1.3297169E-1,-8.827679E-2,2.6891112E-1,1.521363E-1,-1.9923484E-1,1.2870796E-1,4.2839187E-1,3.29805E-4,3.021581E-3,9.024316E-4,-2.2929849E-3,2.5736152E-3,3.167661E-5,3.4644085E-3,5.4263175E-3],"categories":[],"categories_nodes":[],"categories_segments":[],"categories_sizes":[],"default_left":[0,0,0,0,0,0,0,0,0,0,0,0,0,0,0],"id":43,"left_children":[1,3,5,7,9,11,13,-1,-1,-1,-1,-1,-1,-1,-1],"loss_changes":[1.381929E2,4.6689583E1,6.3576447E1,9.873951E0,1.043972E1,2.448228E1,1.2272461E1,0E0,0E0,0E0,0E0,0E0,0E0,0E0,0E0],"parents":[2147483647,0,0,1,1,2,2,3,3,4,4,5,5,6,6],"right_children":[2,4,6,8,10,12,14,-1,-1,-1,-1,-1,-1,-1,-1],"split_conditions":[4.62E-1,-2E0,1.4E1,-3.5E0,5E0,9E0,2.3E1,3.29805E-4,3.021581E-3,9.024316E-4,-2.2929849E-3,2.5736152E-3,3.167661E-5,3.4644085E-3,5.4263175E-3],"split_indices":[3,77,80,25,53,51,80,0,0,0,0,0,0,0,0],"split_type":[0,0,0,0,0,0,0,0,0,0,0,0,0,0,0],"sum_hessian":[4.5929404E3,1.7481257E3,2.844815E3,5.5191626E2,1.1962095E3,1.5148674E3,1.3299474E3,3.0828156E2,2.4363474E2,1.1235543E2,1.0838541E3,7.476383E2,7.672291E2,7.7676245E2,5.53185E2],"tree_param":{"num_deleted":"0","num_feature":"104","num_nodes":"15","size_leaf_vector":"0"}},{"base_weights":[-1.2837897E-1,-2.4963464E-1,1.15198486E-1,-4.7626313E-2,-3.5384548E-1,-1.78353E-1,2.0965481E-1,6.999464E-4,-1.7861415E-3,-2.5579322E-3,-4.6692505E-3,-3.5694095E-3,-5.0227495E-4,3.5393995E-3,1.3627056E-3],"categories":[],"categories_nodes":[],"categories_segments":[],"categories_sizes":[],"default_left":[0,0,0,0,0,0,0,0,0,0,0,0,0,0,0],"id":44,"left_children":[1,3,5,7,9,11,13,-1,-1,-1,-1,-1,-1,-1,-1],"loss_changes":[1.343521E2,6.390988E1,4.1968082E1,1.59522705E1,2.2090393E1,8.417984E0,1.2070564E1,0E0,0E0,0E0,0E0,0E0,0E0,0E0,0E0],"parents":[2147483647,0,0,1,1,2,2,3,3,4,4,5,5,6,6],"right_children":[2,4,6,8,10,12,14,-1,-1,-1,-1,-1,-1,-1,-1],"split_conditions":[1.9E1,1E1,-3.2E0,2.9E0,6E-1,2.4E1,-6.3E0,6.999464E-4,-1.7861415E-3,-2.5579322E-3,-4.6692505E-3,-3.5694095E-3,-5.0227495E-4,3.5393995E-3,1.3627056E-3],"split_indices":[28,103,77,25,3,51,25,0,0,0,0,0,0,0,0],"split_type":[0,0,0,0,0,0,0,0,0,0,0,0,0,0,0],"sum_hessian":[4.5469155E3,3.0356895E3,1.511226E3,1.0335852E3,2.0021044E3,3.6767548E2,1.1435505E3,5.448242E2,4.8876102E2,1.0740493E3,9.2805505E2,1.5284555E2,2.1482993E2,3.842434E2,7.593071E2],"tree_param":{"num_deleted":"0","num_feature":"104","num_nodes":"15","size_leaf_vector":"0"}},{"base_weights":[1.2561251E-1,2.3576884E-1,-1.364363E-1,1.4720853E-1,4.6652207E-1,1.8592644E-1,-2.1951312E-1,3.0154553E-3,6.030251E-4,3.9834967E-3,6.20223E-3,3.2960305E-3,-5.096644E-4,-3.711284E-3,-1.2370017E-3],"categories":[],"categories_nodes":[],"categories_segments":[],"categories_sizes":[],"default_left":[0,0,0,0,0,0,0,0,0,0,0,0,0,0,0],"id":45,"left_children":[1,3,5,7,9,11,13,-1,-1,-1,-1,-1,-1,-1,-1],"loss_changes":[1.3222821E2,6.5827896E1,3.635543E1,3.1256908E1,9.119049E0,9.492122E0,1.5622589E1,0E0,0E0,0E0,0E0,0E0,0E0,0E0,0E0],"parents":[2147483647,0,0,1,1,2,2,3,3,4,4,5,5,6,6],"right_children":[2,4,6,8,10,12,14,-1,-1,-1,-1,-1,-1,-1,-1],"split_conditions":[2E1,2E1,3.59E-1,7E0,3.7E1,2.6E1,-6E0,3.0154553E-3,6.030251E-4,3.9834967E-3,6.20223E-3,3.2960305E-3,-5.096644E-4,-3.711284E-3,-1.2370017E-3],"split_indices":[28,80,55,27,54,28,25,0,0,0,0,0,0,0,0],"split_type":[0,0,0,0,0,0,0,0,0,0,0,0,0,0,0],"sum_hessian":[4.5785923E3,3.2236013E3,1.354991E3,2.3307324E3,8.9286896E2,2.773915E2,1.0775995E3,8.3873944E2,1.491993E3,6.210158E2,2.7185318E2,1.7242413E2,1.0496736E2,4.161718E2,6.614277E2],"tree_param":{"num_deleted":"0","num_feature":"104","num_nodes":"15","size_leaf_vector":"0"}},{"base_weights":[-1.2943213E-1,-2.873548E-1,2.6202131E-2,-3.8444036E-1,-3.0495357E-2,-2.0645915E-1,1.3261166E-1,-3.1657817E-3,-5.7477877E-3,1.3355543E-3,-1.0983817E-3,3.4812596E-4,-3.1194144E-3,4.5501685E-4,2.4422607E-3],"categories":[],"categories_nodes":[],"categories_segments":[],"categories_sizes":[],"default_left":[0,0,0,0,0,0,0,0,0,0,0,0,0,0,0],"id":46,"left_children":[1,3,5,7,9,11,13,-1,-1,-1,-1,-1,-1,-1,-1],"loss_changes":[1.12360344E2,5.657173E1,5.7049034E1,2.1086243E1,8.129905E0,1.8416302E1,1.536068E1,0E0,0E0,0E0,0E0,0E0,0E0,0E0,0E0],"parents":[2147483647,0,0,1,1,2,2,3,3,4,4,5,5,6,6],"right_children":[2,4,6,8,10,12,14,-1,-1,-1,-1,-1,-1,-1,-1],"split_conditions":[1.5E1,3.8E0,-2E0,2.3E1,4E0,-5.1E0,2.4E1,-3.1657817E-3,-5.7477877E-3,1.3355543E-3,-1.0983817E-3,3.4812596E-4,-3.1194144E-3,4.5501685E-4,2.4422607E-3],"split_indices":[51,77,77,80,85,25,51,0,0,0,0,0,0,0,0],"split_type":[0,0,0,0,0,0,0,0,0,0,0,0,0,0,0],"sum_hessian":[4.5702427E3,2.268024E3,2.302219E3,1.6455543E3,6.224695E2,7.2220306E2,1.5800159E3,1.215021E3,4.3053342E2,2.0269336E2,4.197761E2,2.1989738E2,5.0230566E2,8.8821344E2,6.9180237E2],"tree_param":{"num_deleted":"0","num_feature":"104","num_nodes":"15","size_leaf_vector":"0"}},{"base_weights":[1.20561644E-1,-4.443945E-2,3.016777E-1,2.0725295E-1,-1.4544483E-1,3.736077E-1,1.922544E-2,-2.560803E-4,3.2823575E-3,-2.8938565E-3,-7.268612E-4,3.2560143E-3,5.897166E-3,2.6289038E-3,-3.6302654E-4],"categories":[],"categories_nodes":[],"categories_segments":[],"categories_sizes":[],"default_left":[0,0,0,0,0,0,0,0,0,0,0,0,0,0,0],"id":47,"left_children":[1,3,5,7,9,11,13,-1,-1,-1,-1,-1,-1,-1,-1],"loss_changes":[1.3722546E2,6.1132015E1,4.446547E1,1.9411112E1,1.7948013E1,1.7907547E1,6.0352936E0,0E0,0E0,0E0,0E0,0E0,0E0,0E0,0E0],"parents":[2147483647,0,0,1,1,2,2,3,3,4,4,5,5,6,6],"right_children":[2,4,6,8,10,12,14,-1,-1,-1,-1,-1,-1,-1,-1],"split_conditions":[6E-1,-2.4E0,4.9E0,-4.7E0,8E0,2.6E1,3E0,-2.560803E-4,3.2823575E-3,-2.8938565E-3,-7.268612E-4,3.2560143E-3,5.897166E-3,2.6289038E-3,-3.6302654E-4],"split_indices":[25,77,77,25,103,103,29,0,0,0,0,0,0,0,0],"split_type":[0,0,0,0,0,0,0,0,0,0,0,0,0,0,0],"sum_hessian":[4.5904365E3,2.4024768E3,2.1879597E3,6.877186E2,1.7147582E3,1.743606E3,4.4435385E2,2.3540758E2,4.5231104E2,5.7474493E2,1.1400132E3,1.4287345E3,3.148714E2,8.177583E1,3.62578E2],"tree_param":{"num_deleted":"0","num_feature":"104","num_nodes":"15","size_leaf_vector":"0"}},{"base_weights":[-1.2543002E-1,-2.306722E-1,1.2102168E-1,-1.4094761E-1,-4.578194E-1,-9.174752E-3,2.925071E-1,-2.7561905E-3,-3.8120916E-4,-2.0086275E-4,-4.8154877E-3,9.504638E-4,-1.3712458E-3,4.269405E-3,2.1490108E-3],"categories":[],"categories_nodes":[],"categories_segments":[],"categories_sizes":[],"default_left":[0,0,0,0,0,0,0,0,0,0,0,0,0,0,0],"id":48,"left_children":[1,3,5,7,9,11,13,-1,-1,-1,-1,-1,-1,-1,-1],"loss_changes":[1.18449524E2,6.514961E1,3.0521595E1,3.1772987E1,9.396927E0,1.0387311E1,6.0631065E0,0E0,0E0,0E0,0E0,0E0,0E0,0E0,0E0],"parents":[2147483647,0,0,1,1,2,2,3,3,4,4,5,5,6,6],"right_children":[2,4,6,8,10,12,14,-1,-1,-1,-1,-1,-1,-1,-1],"split_conditions":[2E1,2E1,5.38E-1,9E0,8E0,-4.3E0,-6.2E0,-2.7561905E-3,-3.8120916E-4,-2.0086275E-4,-4.8154877E-3,9.504638E-4,-1.3712458E-3,4.269405E-3,2.1490108E-3],"split_indices":[28,80,55,51,85,25,25,0,0,0,0,0,0,0,0],"split_type":[0,0,0,0,0,0,0,0,0,0,0,0,0,0,0],"sum_hessian":[4.5647197E3,3.1988008E3,1.365919E3,2.2941982E3,9.046025E2,7.769692E2,5.8894977E2,9.9256366E2,1.3016346E3,4.6611473E1,8.57991E2,4.2833078E2,3.4863837E2,2.1390701E2,3.7504272E2],"tree_param":{"num_deleted":"0","num_feature":"104","num_nodes":"15","size_leaf_vector":"0"}},{"base_weights":[1.2307665E-1,2.2130917E-1,-1.4091659E-1,1.24210514E-1,4.383339E-1,-6.8640737E-3,-2.9905573E-1,2.7751087E-3,1.783105E-4,4.8664976E-3,2.3011244E-3,-6.45294E-4,3.0275083E-3,-3.5229337E-3,-9.4084814E-4],"categories":[],"categories_nodes":[],"categories_segments":[],"categories_sizes":[],"default_left":[0,0,0,0,0,0,0,0,0,0,0,0,0,0,0],"id":49,"left_children":[1,3,5,7,9,11,13,-1,-1,-1,-1,-1,-1,-1,-1],"loss_changes":[1.1856849E2,7.015468E1,2.6289204E1,3.7556664E1,1.024498E1,1.2021902E1,6.1755066E0,0E0,0E0,0E0,0E0,0E0,0E0,0E0,0E0],"parents":[2147483647,0,0,1,1,2,2,3,3,4,4,5,5,6,6],"right_children":[2,4,6,8,10,12,14,-1,-1,-1,-1,-1,-1,-1,-1],"split_conditions":[2.1E1,1.9E1,5.23E-1,9E0,-1.8E0,2.8E1,4E1,2.7751087E-3,1.783105E-4,4.8664976E-3,2.3011244E-3,-6.45294E-4,3.0275083E-3,-3.5229337E-3,-9.4084814E-4],"split_indices":[28,80,55,51,77,81,5,0,0,0,0,0,0,0,0],"split_type":[0,0,0,0,0,0,0,0,0,0,0,0,0,0,0],"sum_hessian":[4.569955E3,3.3307402E3,1.2392148E3,2.3022617E3,1.0284786E3,6.712491E2,5.6796576E2,9.424769E2,1.3597848E3,8.336911E2,1.9478748E2,5.6652606E2,1.04723076E2,4.502916E2,1.17674164E2],"tree_param":{"num_deleted":"0","num_feature":"104","num_nodes":"15","size_leaf_vector":"0"}},{"base_weights":[-1.1662244E-1,-2.430629E-1,9.275133E-2,-3.1227866E-1,7.148969E-2,-1.0826346E-1,2.0508918E-1,-2.3179469E-3,-4.4522053E-3,-2.3278662E-3,1.242915E-3,4.1502746E-4,-2.2637076E-3,7.132277E-4,2.8215246E-3],"categories":[],"categories_nodes":[],"categories_segments":[],"categories_sizes":[],"default_left":[0,0,0,0,0,0,0,0,0,0,0,0,0,0,0],"id":50,"left_children":[1,3,5,7,9,11,13,-1,-1,-1,-1,-1,-1,-1,-1],"loss_changes":[1.21489136E2,6.2311386E1,3.904977E1,2.4989273E1,8.332235E0,1.0980722E1,1.1412388E1,0E0,0E0,0E0,0E0,0E0,0E0,0E0,0E0],"parents":[2147483647,0,0,1,1,2,2,3,3,4,4,5,5,6,6],"right_children":[2,4,6,8,10,12,14,-1,-1,-1,-1,-1,-1,-1,-1],"split_conditions":[1.8E1,5.3E0,-1.4E0,1.9E1,3E0,-4.6E0,1.7E1,-2.3179469E-3,-4.4522053E-3,-2.3278662E-3,1.242915E-3,4.1502746E-4,-2.2637076E-3,7.132277E-4,2.8215246E-3],"split_indices":[27,77,77,80,29,25,47,0,0,0,0,0,0,0,0],"split_type":[0,0,0,0,0,0,0,0,0,0,0,0,0,0,0],"sum_hessian":[4.587265E3,2.859972E3,1.727293E3,2.3441584E3,5.158135E2,6.192526E2,1.1080404E3,1.4618732E3,8.822853E2,7.577027E1,4.4004324E2,2.733188E2,3.4593387E2,4.05719E2,7.0232135E2],"tree_param":{"num_deleted":"0","num_feature":"104","num_nodes":"15","size_leaf_vector":"0"}},{"base_weights":[1.3291653E-1,3.044725E-1,-3.10287E-2,3.9227274E-1,7.221033E-2,2.0725659E-1,-1.3952342E-1,3.2585775E-3,5.7191104E-3,2.5601545E-4,4.2834105E-3,-5.0225164E-5,3.1831125E-3,-3.3592426E-3,-6.7847647E-4],"categories":[],"categories_nodes":[],"categories_segments":[],"categories_sizes":[],"default_left":[0,0,0,0,0,0,0,0,0,0,0,0,0,0,0],"id":51,"left_children":[1,3,5,7,9,11,13,-1,-1,-1,-1,-1,-1,-1,-1],"loss_changes":[1.2907254E2,4.5700943E1,6.0714134E1,1.9225586E1,1.0220146E1,1.7324217E1,2.269139E1,0E0,0E0,0E0,0E0,0E0,0E0,0E0,0E0],"parents":[2147483647,0,0,1,1,2,2,3,3,4,4,5,5,6,6],"right_children":[2,4,6,8,10,12,14,-1,-1,-1,-1,-1,-1,-1,-1],"split_conditions":[1.5E1,3.8E0,-2E0,2.3E1,8E-1,-4.8E0,-5.9E0,3.2585775E-3,5.7191104E-3,2.5601545E-4,4.2834105E-3,-5.0225164E-5,3.1831125E-3,-3.3592426E-3,-6.7847647E-4],"split_indices":[51,77,77,80,3,25,25,0,0,0,0,0,0,0,0],"split_type":[0,0,0,0,0,0,0,0,0,0,0,0,0,0,0],"sum_hessian":[4.5877827E3,2.2414363E3,2.3463462E3,1.6260604E3,6.1537585E2,7.338007E2,1.6125457E3,1.1892068E3,4.3685364E2,5.451067E2,7.0269196E1,2.5236465E2,4.8143604E2,4.301613E2,1.1823843E3],"tree_param":{"num_deleted":"0","num_feature":"104","num_nodes":"15","size_leaf_vector":"0"}},{"base_weights":[-1.238052E-1,-2.2515637E-1,1.5172791E-1,-3.560421E-1,-5.4071292E-2,2.1809135E-1,-1.7017154E-1,-5.1467447E-3,-2.7366413E-3,-2.0494123E-3,5.5491587E-4,1.2419175E-3,3.4623002E-3,-3.40689E-3,1.522868E-3],"categories":[],"categories_nodes":[],"categories_segments":[],"categories_sizes":[],"default_left":[0,0,0,0,0,0,0,0,0,0,0,0,0,0,0],"id":52,"left_children":[1,3,5,7,9,11,13,-1,-1,-1,-1,-1,-1,-1,-1],"loss_changes":[1.26596054E2,7.418405E1,2.6085632E1,2.4390839E1,2.3772593E1,1.2126156E1,1.1542631E1,0E0,0E0,0E0,0E0,0E0,0E0,0E0,0E0],"parents":[2147483647,0,0,1,1,2,2,3,3,4,4,5,5,6,6],"right_children":[2,4,6,8,10,12,14,-1,-1,-1,-1,-1,-1,-1,-1],"split_conditions":[2.2E1,5.5E-1,2.5E1,8E0,9E0,1.9E0,2.7E1,-5.1467447E-3,-2.7366413E-3,-2.0494123E-3,5.5491587E-4,1.2419175E-3,3.4623002E-3,-3.40689E-3,1.522868E-3],"split_indices":[29,55,81,51,51,77,28,0,0,0,0,0,0,0,0],"split_type":[0,0,0,0,0,0,0,0,0,0,0,0,0,0,0],"sum_hessian":[4.5311094E3,3.3127437E3,1.2183656E3,1.8762611E3,1.4364825E3,1.0103851E3,2.0798055E2,6.3951697E2,1.2367441E3,6.0395526E2,8.325272E2,5.842314E2,4.261537E2,1.360043E2,7.197624E1],"tree_param":{"num_deleted":"0","num_feature":"104","num_nodes":"15","size_leaf_vector":"0"}},{"base_weights":[1.2812912E-1,2.2750087E-1,-1.4586167E-1,3.2217467E-1,-4.4581565E-4,-2.2456355E-1,1.4445257E-1,4.7658887E-3,2.3828323E-3,1.2503341E-3,-1.326959E-3,-1.8017207E-3,-4.5112567E-3,2.891811E-3,-1.384452E-3],"categories":[],"categories_nodes":[],"categories_segments":[],"categories_sizes":[],"default_left":[0,0,0,0,0,0,0,0,0,0,0,0,0,0,0],"id":53,"left_children":[1,3,5,7,9,11,13,-1,-1,-1,-1,-1,-1,-1,-1],"loss_changes":[1.240933E2,7.216942E1,2.775524E1,3.0494492E1,1.6318432E1,9.523148E0,1.0660102E1,0E0,0E0,0E0,0E0,0E0,0E0,0E0,0E0],"parents":[2147483647,0,0,1,1,2,2,3,3,4,4,5,5,6,6],"right_children":[2,4,6,8,10,12,14,-1,-1,-1,-1,-1,-1,-1,-1],"split_conditions":[2.2E1,3.4E0,2.4E1,8E0,1.1E1,3.7E1,2.7E1,4.7658887E-3,2.3828323E-3,1.2503341E-3,-1.326959E-3,-1.8017207E-3,-4.5112567E-3,2.891811E-3,-1.384452E-3],"split_indices":[29,77,81,51,51,53,28,0,0,0,0,0,0,0,0],"split_type":[0,0,0,0,0,0,0,0,0,0,0,0,0,0,0],"sum_hessian":[4.55552E3,3.3431768E3,1.2123431E3,2.361821E3,9.813558E2,9.539589E2,2.5838422E2,8.297909E2,1.5320302E3,5.0359656E2,4.7775922E2,7.991689E2,1.5479004E2,1.7092033E2,8.7463875E1],"tree_param":{"num_deleted":"0","num_feature":"104","num_nodes":"15","size_leaf_vector":"0"}},{"base_weights":[-1.2259339E-1,3.486942E-2,-2.7641675E-1,-1.9970593E-1,1.4158487E-1,-3.4681424E-1,1.9065553E-2,2.1352334E-4,-3.167523E-3,2.8868457E-3,6.392928E-4,-2.6963674E-3,-4.964147E-3,3.0914182E-3,-4.616695E-4],"categories":[],"categories_nodes":[],"categories_segments":[],"categories_sizes":[],"default_left":[0,0,0,0,0,0,0,0,0,0,0,0,0,0,0],"id":54,"left_children":[1,3,5,7,9,11,13,-1,-1,-1,-1,-1,-1,-1,-1],"loss_changes":[1.10578125E2,5.6518612E1,4.8041733E1,1.8274607E1,1.7705904E1,2.1398895E1,8.439677E0,0E0,0E0,0E0,0E0,0E0,0E0,0E0,0E0],"parents":[2147483647,0,0,1,1,2,2,3,3,4,4,5,5,6,6],"right_children":[2,4,6,8,10,12,14,-1,-1,-1,-1,-1,-1,-1,-1],"split_conditions":[3E-1,-2E0,5.1E0,-4.8E0,8E0,2E1,2E0,2.1352334E-4,-3.167523E-3,2.8868457E-3,6.392928E-4,-2.6963674E-3,-4.964147E-3,3.0914182E-3,-4.616695E-4],"split_indices":[25,77,77,25,103,80,85,0,0,0,0,0,0,0,0],"split_type":[0,0,0,0,0,0,0,0,0,0,0,0,0,0,0],"sum_hessian":[4.5638975E3,2.2556514E3,2.3082463E3,7.050288E2,1.5506224E3,1.8639855E3,4.4426093E2,2.4435265E2,4.6067618E2,5.348194E2,1.0158031E3,1.2314792E3,6.325062E2,8.08771E1,3.6338382E2],"tree_param":{"num_deleted":"0","num_feature":"104","num_nodes":"15","size_leaf_vector":"0"}},{"base_weights":[1.181916E-1,2.2926986E-1,-1.1182575E-1,9.4831854E-2,3.833463E-1,1.5908682E-1,-2.173433E-1,2.2965712E-3,-1.5477136E-4,3.2368335E-3,5.4276115E-3,5.2873105E-7,3.2593322E-3,-1.6325886E-3,-4.382953E-3],"categories":[],"categories_nodes":[],"categories_segments":[],"categories_sizes":[],"default_left":[0,0,0,0,0,0,0,0,0,0,0,0,0,0,0],"id":55,"left_children":[1,3,5,7,9,11,13,-1,-1,-1,-1,-1,-1,-1,-1],"loss_changes":[1.16469696E2,6.3630997E1,4.248002E1,2.4435644E1,1.3443359E1,1.1059245E1,1.2703533E1,0E0,0E0,0E0,0E0,0E0,0E0,0E0,0E0],"parents":[2147483647,0,0,1,1,2,2,3,3,4,4,5,5,6,6],"right_children":[2,4,6,8,10,12,14,-1,-1,-1,-1,-1,-1,-1,-1],"split_conditions":[1.9E1,1.4E1,-2.4E0,9E0,4.9E0,-4.3E0,3.7E1,2.2965712E-3,-1.5477136E-4,3.2368335E-3,5.4276115E-3,5.2873105E-7,3.2593322E-3,-1.6325886E-3,-4.382953E-3],"split_indices":[28,80,77,51,25,25,53,0,0,0,0,0,0,0,0],"split_type":[0,0,0,0,0,0,0,0,0,0,0,0,0,0,0],"sum_hessian":[4.5565093E3,3.072678E3,1.4838315E3,1.6417761E3,1.4309017E3,4.1579218E2,1.0680394E3,7.3830286E2,9.0347327E2,1.0434198E3,3.8748196E2,2.1339221E2,2.0239996E2,8.594121E2,2.0862724E2],"tree_param":{"num_deleted":"0","num_feature":"104","num_nodes":"15","size_leaf_vector":"0"}},{"base_weights":[-1.2328911E-1,3.734859E-2,-2.949149E-1,-1.9794412E-1,1.449097E-1,-3.63588E-1,-1.2887941E-2,-1.1360273E-4,-3.339137E-3,2.884136E-3,6.8447535E-4,-3.1785872E-3,-5.7497686E-3,2.914964E-3,-7.9522905E-4],"categories":[],"categories_nodes":[],"categories_segments":[],"categories_sizes":[],"default_left":[0,0,0,0,0,0,0,0,0,0,0,0,0,0,0],"id":56,"left_children":[1,3,5,7,9,11,13,-1,-1,-1,-1,-1,-1,-1,-1],"loss_changes":[1.2644223E2,6.0000984E1,4.2937927E1,1.8867252E1,1.783078E1,1.7053116E1,8.850369E0,0E0,0E0,0E0,0E0,0E0,0E0,0E0,0E0],"parents":[2147483647,0,0,1,1,2,2,3,3,4,4,5,5,6,6],"right_children":[2,4,6,8,10,12,14,-1,-1,-1,-1,-1,-1,-1,-1],"split_conditions":[6E-1,-2E0,5.1E0,-3.7E0,8E0,2.6E1,2E0,-1.1360273E-4,-3.339137E-3,2.884136E-3,6.8447535E-4,-3.1785872E-3,-5.7497686E-3,2.914964E-3,-7.9522905E-4],"split_indices":[25,77,77,25,103,103,85,0,0,0,0,0,0,0,0],"split_type":[0,0,0,0,0,0,0,0,0,0,0,0,0,0,0],"sum_hessian":[4.5848975E3,2.3686653E3,2.2162324E3,7.4284094E2,1.6258242E3,1.7820234E3,4.3420908E2,3.1359488E2,4.2924606E2,5.641873E2,1.061637E3,1.4671433E3,3.148801E2,7.737777E1,3.568313E2],"tree_param":{"num_deleted":"0","num_feature":"104","num_nodes":"15","size_leaf_vector":"0"}},{"base_weights":[1.0811169E-1,2.1879555E-1,-1.1842391E-1,3.5662884E-1,7.227E-2,1.482824E-1,-2.0342101E-1,3.013281E-3,5.518934E-3,2.2236146E-3,-5.098453E-4,-3.17126E-4,2.9811393E-3,-3.3926119E-3,-1.3894711E-3],"categories":[],"categories_nodes":[],"categories_segments":[],"categories_sizes":[],"default_left":[0,0,0,0,0,0,0,0,0,0,0,0,0,0,0],"id":57,"left_children":[1,3,5,7,9,11,13,-1,-1,-1,-1,-1,-1,-1,-1],"loss_changes":[1.1429288E2,6.181018E1,3.3953415E1,1.6867218E1,2.7489443E1,9.778345E0,9.895241E0,0E0,0E0,0E0,0E0,0E0,0E0,0E0,0E0],"parents":[2147483647,0,0,1,1,2,2,3,3,4,4,5,5,6,6],"right_children":[2,4,6,8,10,12,14,-1,-1,-1,-1,-1,-1,-1,-1],"split_conditions":[1.9E1,8E-1,-3.2E0,3.7E1,9E0,-4.7E0,8E0,3.013281E-3,5.518934E-3,2.2236146E-3,-5.098453E-4,-3.17126E-4,2.9811393E-3,-3.3926119E-3,-1.3894711E-3],"split_indices":[28,77,77,54,51,25,103,0,0,0,0,0,0,0,0],"split_type":[0,0,0,0,0,0,0,0,0,0,0,0,0,0,0],"sum_hessian":[4.5562197E3,3.0607776E3,1.4954424E3,1.5764308E3,1.4843468E3,3.612276E2,1.1342147E3,1.2304883E3,3.4594247E2,6.6894464E2,8.154021E2,1.6445436E2,1.9677325E2,3.6369116E2,7.705236E2],"tree_param":{"num_deleted":"0","num_feature":"104","num_nodes":"15","size_leaf_vector":"0"}},{"base_weights":[-1.1957192E-1,8.46813E-2,-2.3968008E-1,1.7890435E-1,-1.3860889E-1,-3.5702822E-1,-6.905393E-2,3.216606E-3,9.743596E-4,-2.106099E-3,8.088169E-4,-3.0259723E-3,-5.2561346E-3,-1.8748106E-3,5.942212E-4],"categories":[],"categories_nodes":[],"categories_segments":[],"categories_sizes":[],"default_left":[0,0,0,0,0,0,0,0,0,0,0,0,0,0,0],"id":58,"left_children":[1,3,5,7,9,11,13,-1,-1,-1,-1,-1,-1,-1,-1],"loss_changes":[1.12505394E2,3.5761353E1,5.7792175E1,1.3866161E1,7.9918547E0,1.5538406E1,1.7933111E1,0E0,0E0,0E0,0E0,0E0,0E0,0E0,0E0],"parents":[2147483647,0,0,1,1,2,2,3,3,4,4,5,5,6,6],"right_children":[2,4,6,8,10,12,14,-1,-1,-1,-1,-1,-1,-1,-1],"split_conditions":[4.58E-1,2E1,1.7E0,-5.9E0,2.8E1,2.6E1,1E1,3.216606E-3,9.743596E-4,-2.106099E-3,8.088169E-4,-3.0259723E-3,-5.2561346E-3,-1.8748106E-3,5.942212E-4],"split_indices":[3,80,77,25,51,103,51,0,0,0,0,0,0,0,0],"split_type":[0,0,0,0,0,0,0,0,0,0,0,0,0,0,0],"sum_hessian":[4.5841494E3,1.6975795E3,2.88657E3,1.1939572E3,5.0362225E2,1.7096595E3,1.1769106E3,4.3273376E2,7.6122345E2,3.7925357E2,1.2436871E2,1.2945002E3,4.151592E2,6.121664E2,5.6474426E2],"tree_param":{"num_deleted":"0","num_feature":"104","num_nodes":"15","size_leaf_vector":"0"}},{"base_weights":[1.2200759E-1,-8.937459E-2,2.3082994E-1,3.502727E-2,-2.3239282E-1,1.3480748E-1,4.4600275E-1,-7.4803754E-4,1.519602E-3,-1.8251871E-3,-4.6863253E-3,2.744228E-3,1.6300599E-4,5.046755E-3,2.7568012E-3],"categories":[],"categories_nodes":[],"categories_segments":[],"categories_sizes":[],"default_left":[0,0,0,0,0,0,0,0,0,0,0,0,0,0,0],"id":59,"left_children":[1,3,5,7,9,11,13,-1,-1,-1,-1,-1,-1,-1,-1],"loss_changes":[1.0492323E2,2.7595531E1,6.2147156E1,1.067258E1,8.414726E0,3.4463127E1,9.140411E0,0E0,0E0,0E0,0E0,0E0,0E0,0E0,0E0],"parents":[2147483647,0,0,1,1,2,2,3,3,4,4,5,5,6,6],"right_children":[2,4,6,8,10,12,14,-1,-1,-1,-1,-1,-1,-1,-1],"split_conditions":[-1.5E0,5.19E-1,1.9E1,-4.8E0,2.9E1,9E0,2.37E1,-7.4803754E-4,1.519602E-3,-1.8251871E-3,-4.6863253E-3,2.744228E-3,1.6300599E-4,5.046755E-3,2.7568012E-3],"split_indices":[25,55,80,25,51,51,69,0,0,0,0,0,0,0,0],"split_type":[0,0,0,0,0,0,0,0,0,0,0,0,0,0,0],"sum_hessian":[4.5593677E3,1.5495739E3,3.009794E3,8.291273E2,7.2044653E2,2.082216E3,9.275779E2,4.2773297E2,4.0139435E2,5.963251E2,1.24121445E2,9.553653E2,1.1268508E3,6.8845557E2,2.3912231E2],"tree_param":{"num_deleted":"0","num_feature":"104","num_nodes":"15","size_leaf_vector":"0"}},{"base_weights":[-1.21525496E-1,-2.4200206E-1,8.234236E-2,6.9834203E-3,-3.3417434E-1,-9.486808E-2,2.0610176E-1,9.093539E-4,-1.9707256E-3,-2.3118812E-3,-4.3984656E-3,-1.7368684E-3,1.3529052E-3,1.0656181E-3,2.9632845E-3],"categories":[],"categories_nodes":[],"categories_segments":[],"categories_sizes":[],"default_left":[0,0,0,0,0,0,0,0,0,0,0,0,0,0,0],"id":60,"left_children":[1,3,5,7,9,11,13,-1,-1,-1,-1,-1,-1,-1,-1],"loss_changes":[1.118579E2,6.569142E1,3.7129745E1,1.3282513E1,2.2632645E1,1.2658201E1,8.919224E0,0E0,0E0,0E0,0E0,0E0,0E0,0E0,0E0],"parents":[2147483647,0,0,1,1,2,2,3,3,4,4,5,5,6,6],"right_children":[2,4,6,8,10,12,14,-1,-1,-1,-1,-1,-1,-1,-1],"split_conditions":[1.8E1,8E0,-7E-1,6.71E-1,6E-1,2.7E1,2.6E1,9.093539E-4,-1.9707256E-3,-2.3118812E-3,-4.3984656E-3,-1.7368684E-3,1.3529052E-3,1.0656181E-3,2.9632845E-3],"split_indices":[27,103,77,3,3,28,2,0,0,0,0,0,0,0,0],"split_type":[0,0,0,0,0,0,0,0,0,0,0,0,0,0,0],"sum_hessian":[4.5524233E3,2.8613245E3,1.6910988E3,7.733078E2,2.0880166E3,6.9547925E2,9.9561957E2,5.482876E2,2.2502016E2,1.0590623E3,1.0289545E3,5.182483E2,1.7723094E2,4.7441556E2,5.21204E2],"tree_param":{"num_deleted":"0","num_feature":"104","num_nodes":"15","size_leaf_vector":"0"}},{"base_weights":[1.2422159E-1,2.8608832E-1,-3.1243734E-2,4.3522652E-2,3.6305118E-1,1.706485E-1,-1.4273284E-1,2.864776E-3,-1.0768908E-4,3.0444234E-3,5.454554E-3,-2.547324E-4,2.7198233E-3,-2.72937E-3,-6.3281175E-4],"categories":[],"categories_nodes":[],"categories_segments":[],"categories_sizes":[],"default_left":[0,0,0,0,0,0,0,0,0,0,0,0,0,0,0],"id":61,"left_children":[1,3,5,7,9,11,13,-1,-1,-1,-1,-1,-1,-1,-1],"loss_changes":[1.14221214E2,4.149594E1,5.2154205E1,7.082714E0,1.7878403E1,1.6390703E1,1.5423437E1,0E0,0E0,0E0,0E0,0E0,0E0,0E0,0E0],"parents":[2147483647,0,0,1,1,2,2,3,3,4,4,5,5,6,6],"right_children":[2,4,6,8,10,12,14,-1,-1,-1,-1,-1,-1,-1,-1],"split_conditions":[1.5E1,7E0,-1.4E0,3E0,2.3E1,-4.8E0,8E0,2.864776E-3,-1.0768908E-4,3.0444234E-3,5.454554E-3,-2.547324E-4,2.7198233E-3,-2.72937E-3,-6.3281175E-4],"split_indices":[51,103,77,29,80,25,103,0,0,0,0,0,0,0,0],"split_type":[0,0,0,0,0,0,0,0,0,0,0,0,0,0,0],"sum_hessian":[4.5375977E3,2.2226196E3,2.3149778E3,5.357257E2,1.6868939E3,8.233919E2,1.4915859E3,9.7068245E1,4.3865747E2,1.2787002E3,4.081937E2,2.8075894E2,5.4263293E2,5.6433203E2,9.272539E2],"tree_param":{"num_deleted":"0","num_feature":"104","num_nodes":"15","size_leaf_vector":"0"}},{"base_weights":[-9.9063054E-2,-2.6833093E-1,6.174543E-2,-3.3555177E-1,9.812408E-3,-6.338814E-2,2.3695871E-1,-2.7706504E-3,-5.226379E-3,2.536642E-3,-4.363325E-4,-2.1368316E-3,6.9780735E-4,1.8036183E-3,4.097695E-3],"categories":[],"categories_nodes":[],"categories_segments":[],"categories_sizes":[],"default_left":[0,0,0,0,0,0,0,0,0,0,0,0,0,0,0],"id":62,"left_children":[1,3,5,7,9,11,13,-1,-1,-1,-1,-1,-1,-1,-1],"loss_changes":[1.2461766E2,4.1703842E1,5.1501095E1,1.9509903E1,5.6813593E0,2.744898E1,9.497078E0,0E0,0E0,0E0,0E0,0E0,0E0,0E0,0E0],"parents":[2147483647,0,0,1,1,2,2,3,3,4,4,5,5,6,6],"right_children":[2,4,6,8,10,12,14,-1,-1,-1,-1,-1,-1,-1,-1],"split_conditions":[1.5E1,5.1E0,5.45E-1,2.3E1,2E0,2.1E1,2.7E1,-2.7706504E-3,-5.226379E-3,2.536642E-3,-4.363325E-4,-2.1368316E-3,6.9780735E-4,1.8036183E-3,4.097695E-3],"split_indices":[51,77,55,80,85,28,51,0,0,0,0,0,0,0,0],"split_type":[0,0,0,0,0,0,0,0,0,0,0,0,0,0,0],"sum_hessian":[4.576606E3,2.2293313E3,2.3472747E3,1.7952534E3,4.3407782E2,1.3697014E3,9.775732E2,1.3695778E3,4.256756E2,7.7361435E1,3.5671637E2,6.4318976E2,7.2651166E2,7.379369E2,2.3963634E2],"tree_param":{"num_deleted":"0","num_feature":"104","num_nodes":"15","size_leaf_vector":"0"}},{"base_weights":[1.19209155E-1,2.0840946E-1,-1.4952002E-1,1.50843365E-2,3.08989E-1,4.697252E-2,-2.5039586E-1,1.8299893E-3,-1.0286088E-3,2.5413444E-3,4.9466966E-3,-2.575128E-4,3.0207857E-3,-5.6109242E-5,-3.0972825E-3],"categories":[],"categories_nodes":[],"categories_segments":[],"categories_sizes":[],"default_left":[0,0,0,0,0,0,0,0,0,0,0,0,0,0,0],"id":63,"left_children":[1,3,5,7,9,11,13,-1,-1,-1,-1,-1,-1,-1,-1],"loss_changes":[1.0851678E2,6.607378E1,2.2379255E1,2.3071745E1,2.2641632E1,7.125287E0,1.0830135E1,0E0,0E0,0E0,0E0,0E0,0E0,0E0,0E0],"parents":[2147483647,0,0,1,1,2,2,3,3,4,4,5,5,6,6],"right_children":[2,4,6,8,10,12,14,-1,-1,-1,-1,-1,-1,-1,-1],"split_conditions":[2.3E1,1E1,-1.5E0,9E0,2.6E1,2.8E1,1.2E1,1.8299893E-3,-1.0286088E-3,2.5413444E-3,4.9466966E-3,-2.575128E-4,3.0207857E-3,-5.6109242E-5,-3.0972825E-3],"split_indices":[51,103,77,51,103,80,47,0,0,0,0,0,0,0,0],"split_type":[0,0,0,0,0,0,0,0,0,0,0,0,0,0,0],"sum_hessian":[4.524754E3,3.3972998E3,1.1274543E3,1.1630115E3,2.2342883E3,3.8264597E2,7.4480835E2,4.7962875E2,6.833827E2,1.726583E3,5.0770538E2,2.984617E2,8.4184265E1,1.4552344E2,5.992849E2],"tree_param":{"num_deleted":"0","num_feature":"104","num_nodes":"15","size_leaf_vector":"0"}},{"base_weights":[-1.265415E-1,-2.778705E-1,1.9604651E-2,-1.4843628E-1,-4.1082954E-1,-1.8375339E-1,1.3228463E-1,-2.1979643E-3,4.162326E-4,-3.50888E-3,-5.543633E-3,-1.07276996E-4,-2.7575535E-3,5.529699E-4,3.018059E-3],"categories":[],"categories_nodes":[],"categories_segments":[],"categories_sizes":[],"default_left":[0,0,0,0,0,0,0,0,0,0,0,0,0,0,0],"id":64,"left_children":[1,3,5,7,9,11,13,-1,-1,-1,-1,-1,-1,-1,-1],"loss_changes":[1.00433E2,3.8332672E1,5.2978268E1,1.5362545E1,9.26889E0,1.3119825E1,1.9397863E1,0E0,0E0,0E0,0E0,0E0,0E0,0E0,0E0],"parents":[2147483647,0,0,1,1,2,2,3,3,4,4,5,5,6,6],"right_children":[2,4,6,8,10,12,14,-1,-1,-1,-1,-1,-1,-1,-1],"split_conditions":[1.5E1,1.3E1,-1.4E0,6.2E0,2.6E1,-4.6E0,2.6E1,-2.1979643E-3,4.162326E-4,-3.50888E-3,-5.543633E-3,-1.07276996E-4,-2.7575535E-3,5.529699E-4,3.018059E-3],"split_indices":[51,80,77,77,103,25,51,0,0,0,0,0,0,0,0],"split_type":[0,0,0,0,0,0,0,0,0,0,0,0,0,0,0],"sum_hessian":[4.5399136E3,2.2299648E3,2.309949E3,1.1310327E3,1.0989321E3,8.2336273E2,1.4865862E3,8.2217914E2,3.0885367E2,7.77629E2,3.213031E2,2.8621057E2,5.3715216E2,1.0232198E3,4.633664E2],"tree_param":{"num_deleted":"0","num_feature":"104","num_nodes":"15","size_leaf_vector":"0"}},{"base_weights":[1.1404404E-1,-3.989221E-2,2.8106892E-1,1.9025184E-1,-1.4616573E-1,1.493194E-1,4.189847E-1,-5.2707945E-4,3.0899586E-3,-6.096988E-4,-2.6083514E-3,2.1960936E-3,-3.2391257E-4,-1.410587E-3,4.3477747E-3],"categories":[],"categories_nodes":[],"categories_segments":[],"categories_sizes":[],"default_left":[0,0,0,0,0,0,0,0,0,0,0,0,0,0,0],"id":65,"left_children":[1,3,5,7,9,11,13,-1,-1,-1,-1,-1,-1,-1,-1],"loss_changes":[1.17081215E2,5.800238E1,3.962001E1,2.1631386E1,1.5831253E1,1.4292862E1,9.493576E0,0E0,0E0,0E0,0E0,0E0,0E0,0E0,0E0],"parents":[2147483647,0,0,1,1,2,2,3,3,4,4,5,5,6,6],"right_children":[2,4,6,8,10,12,14,-1,-1,-1,-1,-1,-1,-1,-1],"split_conditions":[6E-1,-2E0,1.3E1,-4.6E0,2.4E1,6.2E0,5E0,-5.2707945E-4,3.0899586E-3,-6.096988E-4,-2.6083514E-3,2.1960936E-3,-3.2391257E-4,-1.410587E-3,4.3477747E-3],"split_indices":[25,77,80,25,51,77,0,0,0,0,0,0,0,0,0],"split_type":[0,0,0,0,0,0,0,0,0,0,0,0,0,0,0],"sum_hessian":[4.5522715E3,2.3693513E3,2.18292E3,7.4822284E2,1.6211285E3,1.1174829E3,1.065437E3,2.4581725E2,5.024056E2,9.3097473E2,6.901538E2,8.0563556E2,3.1184735E2,2.9002985E1,1.0364341E3],"tree_param":{"num_deleted":"0","num_feature":"104","num_nodes":"15","size_leaf_vector":"0"}},{"base_weights":[-1.1323195E-1,-2.2219124E-1,1.0983374E-1,-8.851667E-2,-3.5554168E-1,-1.9466725E-1,1.8826047E-1,-2.3826542E-3,9.920669E-5,-2.7505353E-3,-4.708522E-3,-6.349705E-3,-1.3440886E-3,9.6519856E-4,2.9562695E-3],"categories":[],"categories_nodes":[],"categories_segments":[],"categories_sizes":[],"default_left":[0,0,0,0,0,0,0,0,0,0,0,0,0,0,0],"id":66,"left_children":[1,3,5,7,9,11,13,-1,-1,-1,-1,-1,-1,-1,-1],"loss_changes":[1.1190007E2,5.50988E1,3.612584E1,2.2789347E1,1.4237015E1,8.139551E0,1.1813068E1,0E0,0E0,0E0,0E0,0E0,0E0,0E0,0E0],"parents":[2147483647,0,0,1,1,2,2,3,3,4,4,5,5,6,6],"right_children":[2,4,6,8,10,12,14,-1,-1,-1,-1,-1,-1,-1,-1],"split_conditions":[1.9E1,1.4E1,3.59E-1,8E0,3.4E0,1.9E1,2.6E1,-2.3826542E-3,9.920669E-5,-2.7505353E-3,-4.708522E-3,-6.349705E-3,-1.3440886E-3,9.6519856E-4,2.9562695E-3],"split_indices":[28,81,55,51,25,51,51,0,0,0,0,0,0,0,0],"split_type":[0,0,0,0,0,0,0,0,0,0,0,0,0,0,0],"sum_hessian":[4.601974E3,3.0917654E3,1.5102086E3,1.5448372E3,1.5469283E3,3.089995E2,1.2012091E3,6.1216095E2,9.326762E2,9.130167E2,6.339116E2,3.6049698E1,2.729498E2,6.4876385E2,5.524452E2],"tree_param":{"num_deleted":"0","num_feature":"104","num_nodes":"15","size_leaf_vector":"0"}},{"base_weights":[1.19940035E-1,2.8072026E-1,-3.648625E-2,7.158396E-2,3.7859562E-1,1.9966121E-1,-1.334655E-1,-7.641511E-4,1.453213E-3,3.084434E-3,5.570126E-3,-3.021369E-4,3.1892615E-3,8.9249756E-5,-2.011808E-3],"categories":[],"categories_nodes":[],"categories_segments":[],"categories_sizes":[],"default_left":[0,0,0,0,0,0,0,0,0,0,0,0,0,0,0],"id":67,"left_children":[1,3,5,7,9,11,13,-1,-1,-1,-1,-1,-1,-1,-1],"loss_changes":[1.14878105E2,4.6077988E1,5.306314E1,7.860862E0,1.9029556E1,1.8504211E1,1.5836601E1,0E0,0E0,0E0,0E0,0E0,0E0,0E0,0E0],"parents":[2147483647,0,0,1,1,2,2,3,3,4,4,5,5,6,6],"right_children":[2,4,6,8,10,12,14,-1,-1,-1,-1,-1,-1,-1,-1],"split_conditions":[1.5E1,9E0,-2.4E0,6E0,2.3E1,-4.8E0,1.4E1,-7.641511E-4,1.453213E-3,3.084434E-3,5.570126E-3,-3.021369E-4,3.1892615E-3,8.9249756E-5,-2.011808E-3],"split_indices":[51,103,77,95,80,25,47,0,0,0,0,0,0,0,0],"split_type":[0,0,0,0,0,0,0,0,0,0,0,0,0,0,0],"sum_hessian":[4.5662646E3,2.2514026E3,2.3148623E3,7.1829944E2,1.5331031E3,6.7359033E2,1.6412719E3,2.3885486E2,4.794446E2,1.1023833E3,4.3071994E2,2.3035112E2,4.432392E2,5.2924774E2,1.1120242E3],"tree_param":{"num_deleted":"0","num_feature":"104","num_nodes":"15","size_leaf_vector":"0"}},{"base_weights":[-1.2023696E-1,-2.4790351E-1,6.5329164E-2,-4.7945136E-1,-1.5117528E-1,1.4834104E-1,-1.8078963E-1,-3.6634016E-3,-5.503547E-3,-2.0728328E-3,9.55437E-4,1.7900814E-4,2.2642605E-3,-2.5354167E-3,5.749005E-4],"categories":[],"categories_nodes":[],"categories_segments":[],"categories_sizes":[],"default_left":[0,0,0,0,0,0,0,0,0,0,0,0,0,0,0],"id":68,"left_children":[1,3,5,7,9,11,13,-1,-1,-1,-1,-1,-1,-1,-1],"loss_changes":[1.0782967E2,6.031633E1,3.7938896E1,6.166321E0,2.6366405E1,1.4134989E1,8.135674E0,0E0,0E0,0E0,0E0,0E0,0E0,0E0,0E0],"parents":[2147483647,0,0,1,1,2,2,3,3,4,4,5,5,6,6],"right_children":[2,4,6,8,10,12,14,-1,-1,-1,-1,-1,-1,-1,-1],"split_conditions":[1.7E1,-1.9E0,2.2E1,2.3E1,6.3E0,1.7E1,2.7E1,-3.6634016E-3,-5.503547E-3,-2.0728328E-3,9.55437E-4,1.7900814E-4,2.2642605E-3,-2.5354167E-3,5.749005E-4],"split_indices":[27,77,80,80,77,47,28,0,0,0,0,0,0,0,0],"split_type":[0,0,0,0,0,0,0,0,0,0,0,0,0,0,0],"sum_hessian":[4.5498994E3,2.6952642E3,1.854635E3,7.930076E2,1.9022566E3,1.3871643E3,4.6747073E2,3.0793307E2,4.8507452E2,1.5499353E3,3.523212E2,5.1990216E2,8.6726215E2,3.5807767E2,1.0939307E2],"tree_param":{"num_deleted":"0","num_feature":"104","num_nodes":"15","size_leaf_vector":"0"}},{"base_weights":[1.1201643E-1,2.0572601E-1,-1.4108922E-1,4.0315992E-1,1.1114188E-1,1.5216275E-1,-2.1616048E-1,3.1938995E-3,4.980785E-3,-7.373443E-5,2.6243725E-3,2.684092E-3,-6.127013E-4,-1.0516408E-3,-2.8896395E-3],"categories":[],"categories_nodes":[],"categories_segments":[],"categories_sizes":[],"default_left":[0,0,0,0,0,0,0,0,0,0,0,0,0,0,0],"id":69,"left_children":[1,3,5,7,9,11,13,-1,-1,-1,-1,-1,-1,-1,-1],"loss_changes":[1.0677528E2,6.1298096E1,2.6817116E1,8.297913E0,3.9849937E1,6.1834865E0,7.800709E0,0E0,0E0,0E0,0E0,0E0,0E0,0E0,0E0],"parents":[2147483647,0,0,1,1,2,2,3,3,4,4,5,5,6,6],"right_children":[2,4,6,8,10,12,14,-1,-1,-1,-1,-1,-1,-1,-1],"split_conditions":[2.2E1,-1.5E0,3.59E-1,2.3E1,2.9E0,2.7E1,5.14E-1,3.1938995E-3,4.980785E-3,-7.373443E-5,2.6243725E-3,2.684092E-3,-6.127013E-4,-1.0516408E-3,-2.8896395E-3],"split_indices":[29,77,55,1,25,28,55,0,0,0,0,0,0,0,0],"split_type":[0,0,0,0,0,0,0,0,0,0,0,0,0,0,0],"sum_hessian":[4.4995635E3,3.2839167E3,1.2156467E3,1.0625981E3,2.2213186E3,2.4756256E2,9.6808417E2,5.6676624E2,4.958319E2,1.2461298E3,9.751888E2,1.601041E2,8.745846E1,3.844282E2,5.8365594E2],"tree_param":{"num_deleted":"0","num_feature":"104","num_nodes":"15","size_leaf_vector":"0"}},{"base_weights":[-1.1235949E-1,-2.67669E-1,3.655602E-2,-3.2644677E-1,4.84269E-2,-9.4868094E-2,1.8847409E-1,-2.6940461E-3,-5.3114556E-3,6.7407213E-4,-8.311427E-3,4.910743E-4,-2.0180086E-3,8.663863E-4,3.2659785E-3],"categories":[],"categories_nodes":[],"categories_segments":[],"categories_sizes":[],"default_left":[0,0,0,0,0,0,0,0,0,0,0,0,0,0,0],"id":70,"left_children":[1,3,5,7,9,11,13,-1,-1,-1,-1,-1,-1,-1,-1],"loss_changes":[1.054212E2,4.146823E1,4.6490967E1,2.1825012E1,5.91066E0,1.9234016E1,1.5162582E1,0E0,0E0,0E0,0E0,0E0,0E0,0E0,0E0],"parents":[2147483647,0,0,1,1,2,2,3,3,4,4,5,5,6,6],"right_children":[2,4,6,8,10,12,14,-1,-1,-1,-1,-1,-1,-1,-1],"split_conditions":[1.5E1,6E0,6E-1,2.3E1,2.7E1,-3.7E0,2.4E1,-2.6940461E-3,-5.3114556E-3,6.7407213E-4,-8.311427E-3,4.910743E-4,-2.0180086E-3,8.663863E-4,3.2659785E-3],"split_indices":[51,77,77,80,95,25,51,0,0,0,0,0,0,0,0],"split_type":[0,0,0,0,0,0,0,0,0,0,0,0,0,0,0],"sum_hessian":[4.5567417E3,2.2300952E3,2.3266465E3,1.8804031E3,3.4969217E2,1.247667E3,1.0789795E3,1.4724114E3,4.0799167E2,3.4320938E2,6.4827843E0,5.3196454E2,7.1570245E2,6.2201184E2,4.5696765E2],"tree_param":{"num_deleted":"0","num_feature":"104","num_nodes":"15","size_leaf_vector":"0"}},{"base_weights":[1.0985501E-1,-3.7768286E-2,2.6951495E-1,1.7274868E-1,-1.5730861E-1,1.3416156E-1,3.9168322E-1,7.138898E-4,3.6682126E-3,-1.0936437E-3,-3.6797693E-3,2.1464056E-3,-3.8459762E-5,4.9426407E-3,3.0566736E-3],"categories":[],"categories_nodes":[],"categories_segments":[],"categories_sizes":[],"default_left":[0,0,0,0,0,0,0,0,0,0,0,0,0,0,0],"id":71,"left_children":[1,3,5,7,9,11,13,-1,-1,-1,-1,-1,-1,-1,-1],"loss_changes":[1.0755251E2,5.970979E1,3.6196487E1,1.6879852E1,1.5243507E1,1.1568171E1,1.0010757E1,0E0,0E0,0E0,0E0,0E0,0E0,0E0,0E0],"parents":[2147483647,0,0,1,1,2,2,3,3,4,4,5,5,6,6],"right_children":[2,4,6,8,10,12,14,-1,-1,-1,-1,-1,-1,-1,-1],"split_conditions":[6E-1,-1.3E0,1.2E1,4.42E-1,2.8E1,5.7E0,7E0,7.138898E-4,3.6682126E-3,-1.0936437E-3,-3.6797693E-3,2.1464056E-3,-3.8459762E-5,4.9426407E-3,3.0566736E-3],"split_indices":[25,77,80,3,51,77,51,0,0,0,0,0,0,0,0],"split_type":[0,0,0,0,0,0,0,0,0,0,0,0,0,0,0],"sum_hessian":[4.56177E3,2.3706267E3,2.1911436E3,8.584336E2,1.5121931E3,1.0404738E3,1.1506698E3,5.648126E2,2.9362094E2,1.2330848E3,2.7910825E2,6.5686694E2,3.836068E2,5.226369E2,6.280329E2],"tree_param":{"num_deleted":"0","num_feature":"104","num_nodes":"15","size_leaf_vector":"0"}},{"base_weights":[-1.0025648E-1,8.4195055E-2,-2.1933456E-1,-1.05862655E-1,1.9638208E-1,-2.867909E-1,5.62946E-2,5.4267275E-5,-2.361462E-3,-1.26314E-3,2.2387938E-3,-4.4039427E-3,-2.1419728E-3,-2.055123E-3,1.0429623E-3],"categories":[],"categories_nodes":[],"categories_segments":[],"categories_sizes":[],"default_left":[0,0,0,0,0,0,0,0,0,0,0,0,0,0,0],"id":72,"left_children":[1,3,5,7,9,11,13,-1,-1,-1,-1,-1,-1,-1,-1],"loss_changes":[1.00375015E2,3.8256187E1,5.1646423E1,9.66153E0,1.0037098E1,2.4783356E1,6.893358E0,0E0,0E0,0E0,0E0,0E0,0E0,0E0,0E0],"parents":[2147483647,0,0,1,1,2,2,3,3,4,4,5,5,6,6],"right_children":[2,4,6,8,10,12,14,-1,-1,-1,-1,-1,-1,-1,-1],"split_conditions":[4.69E-1,4.5E-1,4.9E0,-3.7E0,5E0,-2.5E0,3E0,5.4267275E-5,-2.361462E-3,-1.26314E-3,2.2387938E-3,-4.4039427E-3,-2.1419728E-3,-2.055123E-3,1.0429623E-3],"split_indices":[3,55,77,25,53,77,29,0,0,0,0,0,0,0,0],"split_type":[0,0,0,0,0,0,0,0,0,0,0,0,0,0,0],"sum_hessian":[4.5681104E3,1.792236E3,2.7758745E3,6.65262E2,1.1269739E3,2.2300586E3,5.45816E2,3.5930164E2,3.059604E2,8.82082E1,1.0387657E3,7.14069E2,1.5159896E3,8.406014E1,4.6175583E2],"tree_param":{"num_deleted":"0","num_feature":"104","num_nodes":"15","size_leaf_vector":"0"}},{"base_weights":[1.14195034E-1,-3.0509915E-2,2.5793377E-1,1.7248616E-1,-1.23612426E-1,3.3922088E-1,4.608582E-2,-2.0751098E-4,2.7615386E-3,-5.449723E-4,-2.7108027E-3,2.8592914E-3,5.5440823E-3,2.8933217E-3,-7.59205E-5],"categories":[],"categories_nodes":[],"categories_segments":[],"categories_sizes":[],"default_left":[0,0,0,0,0,0,0,0,0,0,0,0,0,0,0],"id":73,"left_children":[1,3,5,7,9,11,13,-1,-1,-1,-1,-1,-1,-1,-1],"loss_changes":[9.3952286E1,4.2576077E1,3.9005707E1,1.4196777E1,1.5724516E1,1.8619415E1,8.221805E0,0E0,0E0,0E0,0E0,0E0,0E0,0E0,0E0],"parents":[2147483647,0,0,1,1,2,2,3,3,4,4,5,5,6,6],"right_children":[2,4,6,8,10,12,14,-1,-1,-1,-1,-1,-1,-1,-1],"split_conditions":[3E-1,-2E0,3.8E0,-4.8E0,2.6E1,2.6E1,3E0,-2.0751098E-4,2.7615386E-3,-5.449723E-4,-2.7108027E-3,2.8592914E-3,5.5440823E-3,2.8933217E-3,-7.59205E-5],"split_indices":[25,77,77,25,51,103,29,0,0,0,0,0,0,0,0],"split_type":[0,0,0,0,0,0,0,0,0,0,0,0,0,0,0],"sum_hessian":[4.5156226E3,2.2506406E3,2.264982E3,7.074026E2,1.543238E3,1.636462E3,6.2851996E2,2.4727681E2,4.601258E2,1.051698E3,4.9153998E2,1.313499E3,3.2296295E2,1.12829994E2,5.1569E2],"tree_param":{"num_deleted":"0","num_feature":"104","num_nodes":"15","size_leaf_vector":"0"}},{"base_weights":[-1.13244094E-1,3.911538E-2,-2.7819E-1,-8.306376E-2,2.0592247E-1,-3.4762546E-1,-1.4673081E-2,-1.6540517E-3,1.7027621E-3,1.244446E-3,3.2077592E-3,-2.890839E-3,-5.310383E-3,2.549166E-3,-7.166357E-4],"categories":[],"categories_nodes":[],"categories_segments":[],"categories_sizes":[],"default_left":[0,0,0,0,0,0,0,0,0,0,0,0,0,0,0],"id":74,"left_children":[1,3,5,7,9,11,13,-1,-1,-1,-1,-1,-1,-1,-1],"loss_changes":[1.1426323E2,4.819977E1,3.9939743E1,2.8509829E1,9.316463E0,1.839804E1,7.029119E0,0E0,0E0,0E0,0E0,0E0,0E0,0E0,0E0],"parents":[2147483647,0,0,1,1,2,2,3,3,4,4,5,5,6,6],"right_children":[2,4,6,8,10,12,14,-1,-1,-1,-1,-1,-1,-1,-1],"split_conditions":[6E-1,5.45E-1,4.9E0,2.6E1,2.4E1,2.3E1,2E0,-1.6540517E-3,1.7027621E-3,1.244446E-3,3.2077592E-3,-2.890839E-3,-5.310383E-3,2.549166E-3,-7.166357E-4],"split_indices":[25,55,77,28,51,80,85,0,0,0,0,0,0,0,0],"split_type":[0,0,0,0,0,0,0,0,0,0,0,0,0,0,0],"sum_hessian":[4.5452593E3,2.3631736E3,2.1820857E3,1.3643481E3,9.988253E2,1.7267704E3,4.5531522E2,1.0299406E3,3.3440762E2,5.8552985E2,4.1329547E2,1.310926E3,4.1584433E2,7.884959E1,3.7646564E2],"tree_param":{"num_deleted":"0","num_feature":"104","num_nodes":"15","size_leaf_vector":"0"}},{"base_weights":[1.1430399E-1,-6.864818E-2,2.3404805E-1,1.5817083E-1,-1.6040073E-1,4.5158032E-1,1.4574625E-1,3.181312E-4,3.0761196E-3,-7.799945E-4,-2.8047406E-3,1.814904E-3,4.997548E-3,2.652822E-3,5.4662E-4],"categories":[],"categories_nodes":[],"categories_segments":[],"categories_sizes":[],"default_left":[0,0,0,0,0,0,0,0,0,0,0,0,0,0,0],"id":75,"left_children":[1,3,5,7,9,11,13,-1,-1,-1,-1,-1,-1,-1,-1],"loss_changes":[9.955931E1,3.7449497E1,5.2691162E1,9.77968E0,1.2651009E1,1.022113E1,2.1271526E1,0E0,0E0,0E0,0E0,0E0,0E0,0E0,0E0],"parents":[2147483647,0,0,1,1,2,2,3,3,4,4,5,5,6,6],"right_children":[2,4,6,8,10,12,14,-1,-1,-1,-1,-1,-1,-1,-1],"split_conditions":[4.69E-1,-2.4E0,-1.9E0,-3.5E0,2.3E1,1.1E1,8E0,3.181312E-4,3.0761196E-3,-7.799945E-4,-2.8047406E-3,1.814904E-3,4.997548E-3,2.652822E-3,5.4662E-4],"split_indices":[3,77,77,25,47,52,51,0,0,0,0,0,0,0,0],"split_type":[0,0,0,0,0,0,0,0,0,0,0,0,0,0,0],"sum_hessian":[4.5428115E3,1.7972664E3,2.745545E3,5.1742645E2,1.27984E3,7.9151843E2,1.9540266E3,2.8102383E2,2.3640263E2,7.599605E2,5.198794E2,1.2053085E2,6.7098755E2,8.4420593E2,1.1098206E3],"tree_param":{"num_deleted":"0","num_feature":"104","num_nodes":"15","size_leaf_vector":"0"}},{"base_weights":[-1.0753467E-1,-2.546677E-1,3.494785E-2,-3.186806E-1,1.3842108E-2,-1.7257822E-1,1.3219593E-1,-2.6585076E-3,-4.920344E-3,-3.1100016E-3,6.764443E-4,2.624325E-4,-2.7890338E-3,2.5643667E-3,6.2588556E-4],"categories":[],"categories_nodes":[],"categories_segments":[],"categories_sizes":[],"default_left":[0,0,0,0,0,0,0,0,0,0,0,0,0,0,0],"id":76,"left_children":[1,3,5,7,9,11,13,-1,-1,-1,-1,-1,-1,-1,-1],"loss_changes":[9.50611E1,3.8347015E1,4.6527668E1,1.6366577E1,7.543185E0,1.5559916E1,1.355817E1,0E0,0E0,0E0,0E0,0E0,0E0,0E0,0E0],"parents":[2147483647,0,0,1,1,2,2,3,3,4,4,5,5,6,6],"right_children":[2,4,6,8,10,12,14,-1,-1,-1,-1,-1,-1,-1,-1],"split_conditions":[1.5E1,5.1E0,-1.9E0,2.3E1,1.58E1,-4.8E0,8E0,-2.6585076E-3,-4.920344E-3,-3.1100016E-3,6.764443E-4,2.624325E-4,-2.7890338E-3,2.5643667E-3,6.2588556E-4],"split_indices":[51,77,77,80,63,25,103,0,0,0,0,0,0,0,0],"split_type":[0,0,0,0,0,0,0,0,0,0,0,0,0,0,0],"sum_hessian":[4.5330938E3,2.2297644E3,2.3033293E3,1.8003683E3,4.2939606E2,7.3470483E2,1.5686244E3,1.3817968E3,4.1857156E2,6.0334435E1,3.690616E2,2.5626266E2,4.7844214E2,5.623011E2,1.0063233E3],"tree_param":{"num_deleted":"0","num_feature":"104","num_nodes":"15","size_leaf_vector":"0"}},{"base_weights":[1.106283E-1,2.606349E-1,-3.200732E-2,3.2856196E-1,-2.0468438E-2,1.8193525E-1,-1.3161704E-1,2.7187231E-3,5.158509E-3,-2.814137E-3,3.4490123E-4,-6.2288734E-4,3.104952E-3,-9.436736E-4,-3.9421204E-3],"categories":[],"categories_nodes":[],"categories_segments":[],"categories_sizes":[],"default_left":[0,0,0,0,0,0,0,0,0,0,0,0,0,0,0],"id":77,"left_children":[1,3,5,7,9,11,13,-1,-1,-1,-1,-1,-1,-1,-1],"loss_changes":[9.799881E1,4.2631943E1,5.007147E1,1.8949066E1,6.2536964E0,2.3456968E1,1.5642477E1,0E0,0E0,0E0,0E0,0E0,0E0,0E0,0E0],"parents":[2147483647,0,0,1,1,2,2,3,3,4,4,5,5,6,6],"right_children":[2,4,6,8,10,12,14,-1,-1,-1,-1,-1,-1,-1,-1],"split_conditions":[1.5E1,5.1E0,-2E0,2.3E1,2E0,-4.8E0,7.5E0,2.7187231E-3,5.158509E-3,-2.814137E-3,3.4490123E-4,-6.2288734E-4,3.104952E-3,-9.436736E-4,-3.9421204E-3],"split_indices":[51,77,77,80,85,25,77,0,0,0,0,0,0,0,0],"split_type":[0,0,0,0,0,0,0,0,0,0,0,0,0,0,0],"sum_hessian":[4.5787896E3,2.2313271E3,2.3474626E3,1.7969381E3,4.34389E2,7.454826E2,1.6019801E3,1.3812925E3,4.1564566E2,7.4854866E1,3.5953412E2,2.5726825E2,4.8821436E2,1.4041567E3,1.9782332E2],"tree_param":{"num_deleted":"0","num_feature":"104","num_nodes":"15","size_leaf_vector":"0"}},{"base_weights":[-1.0607349E-1,3.9232906E-2,-2.6695284E-1,-1.6714253E-1,1.35439E-1,-1.4020695E-1,-3.9608192E-1,-3.0714574E-3,-3.2455096E-4,3.1400141E-3,7.3519815E-4,-2.0476845E-3,3.380637E-4,-3.4307837E-3,-5.7491967E-3],"categories":[],"categories_nodes":[],"categories_segments":[],"categories_sizes":[],"default_left":[0,0,0,0,0,0,0,0,0,0,0,0,0,0,0],"id":78,"left_children":[1,3,5,7,9,11,13,-1,-1,-1,-1,-1,-1,-1,-1],"loss_changes":[1.0656056E2,4.7589302E1,3.534845E1,1.4362211E1,1.804948E1,1.2288719E1,9.954544E0,0E0,0E0,0E0,0E0,0E0,0E0,0E0,0E0],"parents":[2147483647,0,0,1,1,2,2,3,3,4,4,5,5,6,6],"right_children":[2,4,6,8,10,12,14,-1,-1,-1,-1,-1,-1,-1,-1],"split_conditions":[6E-1,-1.9E0,1.3E1,2.1E1,-5.9E0,7E-1,2.7E1,-3.0714574E-3,-3.2455096E-4,3.1400141E-3,7.3519815E-4,-2.0476845E-3,3.380637E-4,-3.4307837E-3,-5.7491967E-3],"split_indices":[25,77,80,28,25,55,103,0,0,0,0,0,0,0,0],"split_type":[0,0,0,0,0,0,0,0,0,0,0,0,0,0,0],"sum_hessian":[4.5569414E3,2.3947537E3,2.1621877E3,7.6117975E2,1.6335739E3,1.0922157E3,1.0699722E3,3.7259692E2,3.8858286E2,4.1956418E2,1.2140096E3,7.965188E2,2.9569693E2,8.276063E2,2.4236583E2],"tree_param":{"num_deleted":"0","num_feature":"104","num_nodes":"15","size_leaf_vector":"0"}},{"base_weights":[1.0495207E-1,1.9455594E-1,-1.3736703E-1,1.0533629E-1,4.2066112E-1,8.244017E-2,-2.2749214E-1,2.682128E-3,2.4722135E-4,3.5405334E-3,5.6771487E-3,4.3365313E-3,1.11991474E-4,-2.6339975E-3,2.8722698E-4],"categories":[],"categories_nodes":[],"categories_segments":[],"categories_sizes":[],"default_left":[0,0,0,0,0,0,0,0,0,0,0,0,0,0,0],"id":79,"left_children":[1,3,5,7,9,11,13,-1,-1,-1,-1,-1,-1,-1,-1],"loss_changes":[9.8804054E1,6.69624E1,2.4359125E1,3.1283876E1,9.001297E0,8.953133E0,8.026894E0,0E0,0E0,0E0,0E0,0E0,0E0,0E0,0E0],"parents":[2147483647,0,0,1,1,2,2,3,3,4,4,5,5,6,6],"right_children":[2,4,6,8,10,12,14,-1,-1,-1,-1,-1,-1,-1,-1],"split_conditions":[2.2E1,2E1,4.07E-1,7E0,3.7E1,2.2E1,4.08E1,2.682128E-3,2.4722135E-4,3.5405334E-3,5.6771487E-3,4.3365313E-3,1.11991474E-4,-2.6339975E-3,2.8722698E-4],"split_indices":[29,80,55,29,54,51,5,0,0,0,0,0,0,0,0],"split_type":[0,0,0,0,0,0,0,0,0,0,0,0,0,0,0],"sum_hessian":[4.5482817E3,3.3205999E3,1.2276821E3,2.3821033E3,9.3849664E2,3.5702213E2,8.7066003E2,7.878891E2,1.5942141E3,6.48271E2,2.9022568E2,5.9348965E1,2.9767316E2,7.6361414E2,1.0704592E2],"tree_param":{"num_deleted":"0","num_feature":"104","num_nodes":"15","size_leaf_vector":"0"}},{"base_weights":[-1.1615594E-1,6.3988306E-2,-2.3385188E-1,-5.7383418E-2,2.3478363E-1,-5.9276994E-2,-3.3712202E-1,1.0325912E-3,-1.7493558E-3,1.872431E-3,4.486924E-3,1.61187E-3,-1.095537E-3,-2.4623082E-3,-4.2274287E-3],"categories":[],"categories_nodes":[],"categories_segments":[],"categories_sizes":[],"default_left":[0,0,0,0,0,0,0,0,0,0,0,0,0,0,0],"id":80,"left_children":[1,3,5,7,9,11,13,-1,-1,-1,-1,-1,-1,-1,-1],"loss_changes":[9.5453415E1,3.690315E1,4.9067352E1,1.9678024E1,7.4357796E0,1.124844E1,1.3207779E1,0E0,0E0,0E0,0E0,0E0,0E0,0E0,0E0],"parents":[2147483647,0,0,1,1,2,2,3,3,4,4,5,5,6,6],"right_children":[2,4,6,8,10,12,14,-1,-1,-1,-1,-1,-1,-1,-1],"split_conditions":[4.69E-1,5.45E-1,1.1E1,-4.8E0,2.8E1,3E0,6E-1,1.0325912E-3,-1.7493558E-3,1.872431E-3,4.486924E-3,1.61187E-3,-1.095537E-3,-2.4623082E-3,-4.2274287E-3],"split_indices":[3,55,103,25,47,85,3,0,0,0,0,0,0,0,0],"split_type":[0,0,0,0,0,0,0,0,0,0,0,0,0,0,0],"sum_hessian":[4.5003364E3,1.7785547E3,2.721782E3,1.0400975E3,7.384571E2,1.012224E3,1.709558E3,4.3954828E2,6.0054926E2,6.0571436E2,1.3274274E2,1.8756091E2,8.24663E2,8.311367E2,8.7842126E2],"tree_param":{"num_deleted":"0","num_feature":"104","num_nodes":"15","size_leaf_vector":"0"}},{"base_weights":[1.11217424E-1,