{"learner":{"attributes":{"best_iteration":"499","best_ntree_limit":"500"},"feature_names":[],"feature_types":[],"gradient_booster":{"model":{"gbtree_model_param":{"num_parallel_tree":"1","num_trees":"1000","size_leaf_vector":"0"},"tree_info":[0,1,0,1,0,1,0,1,0,1,0,1,0,1,0,1,0,1,0,1,0,1,0,1,0,1,0,1,0,1,0,1,0,1,0,1,0,1,0,1,0,1,0,1,0,1,0,1,0,1,0,1,0,1,0,1,0,1,0,1,0,1,0,1,0,1,0,1,0,1,0,1,0,1,0,1,0,1,0,1,0,1,0,1,0,1,0,1,0,1,0,1,0,1,0,1,0,1,0,1,0,1,0,1,0,1,0,1,0,1,0,1,0,1,0,1,0,1,0,1,0,1,0,1,0,1,0,1,0,1,0,1,0,1,0,1,0,1,0,1,0,1,0,1,0,1,0,1,0,1,0,1,0,1,0,1,0,1,0,1,0,1,0,1,0,1,0,1,0,1,0,1,0,1,0,1,0,1,0,1,0,1,0,1,0,1,0,1,0,1,0,1,0,1,0,1,0,1,0,1,0,1,0,1,0,1,0,1,0,1,0,1,0,1,0,1,0,1,0,1,0,1,0,1,0,1,0,1,0,1,0,1,0,1,0,1,0,1,0,1,0,1,0,1,0,1,0,1,0,1,0,1,0,1,0,1,0,1,0,1,0,1,0,1,0,1,0,1,0,1,0,1,0,1,0,1,0,1,0,1,0,1,0,1,0,1,0,1,0,1,0,1,0,1,0,1,0,1,0,1,0,1,0,1,0,1,0,1,0,1,0,1,0,1,0,1,0,1,0,1,0,1,0,1,0,1,0,1,0,1,0,1,0,1,0,1,0,1,0,1,0,1,0,1,0,1,0,1,0,1,0,1,0,1,0,1,0,1,0,1,0,1,0,1,0,1,0,1,0,1,0,1,0,1,0,1,0,1,0,1,0,1,0,1,0,1,0,1,0,1,0,1,0,1,0,1,0,1,0,1,0,1,0,1,0,1,0,1,0,1,0,1,0,1,0,1,0,1,0,1,0,1,0,1,0,1,0,1,0,1,0,1,0,1,0,1,0,1,0,1,0,1,0,1,0,1,0,1,0,1,0,1,0,1,0,1,0,1,0,1,0,1,0,1,0,1,0,1,0,1,0,1,0,1,0,1,0,1,0,1,0,1,0,1,0,1,0,1,0,1,0,1,0,1,0,1,0,1,0,1,0,1,0,1,0,1,0,1,0,1,0,1,0,1,0,1,0,1,0,1,0,1,0,1,0,1,0,1,0,1,0,1,0,1,0,1,0,1,0,1,0,1,0,1,0,1,0,1,0,1,0,1,0,1,0,1,0,1,0,1,0,1,0,1,0,1,0,1,0,1,0,1,0,1,0,1,0,1,0,1,0,1,0,1,0,1,0,1,0,1,0,1,0,1,0,1,0,1,0,1,0,1,0,1,0,1,0,1,0,1,0,1,0,1,0,1,0,1,0,1,0,1,0,1,0,1,0,1,0,1,0,1,0,1,0,1,0,1,0,1,0,1,0,1,0,1,0,1,0,1,0,1,0,1,0,1,0,1,0,1,0,1,0,1,0,1,0,1,0,1,0,1,0,1,0,1,0,1,0,1,0,1,0,1,0,1,0,1,0,1,0,1,0,1,0,1,0,1,0,1,0,1,0,1,0,1,0,1,0,1,0,1,0,1,0,1,0,1,0,1,0,1,0,1,0,1,0,1,0,1,0,1,0,1,0,1,0,1,0,1,0,1,0,1,0,1,0,1,0,1,0,1,0,1,0,1,0,1,0,1,0,1,0,1,0,1,0,1,0,1,0,1,0,1,0,1,0,1,0,1,0,1,0,1,0,1,0,1,0,1,0,1,0,1,0,1,0,1,0,1,0,1,0,1,0,1,0,1,0,1,0,1,0,1,0,1,0,1,0,1,0,1,0,1,0,1,0,1,0,1,0,1,0,1,0,1,0,1,0,1,0,1,0,1,0,1,0,1,0,1,0,1,0,1,0,1,0,1,0,1,0,1,0,1,0,1,0,1,0,1,0,1,0,1,0,1,0,1,0,1,0,1,0,1,0,1,0,1,0,1,0,1,0,1,0,1,0,1,0,1,0,1,0,1,0,1,0,1,0,1,0,1,0,1,0,1,0,1,0,1,0,1,0,1,0,1,0,1,0,1,0,1,0,1,0,1,0,1,0,1,0,1,0,1,0,1,0,1,0,1,0,1,0,1,0,1,0,1,0,1,0,1,0,1,0,1,0,1,0,1,0,1,0,1,0,1,0,1,0,1,0,1,0,1,0,1,0,1,0,1,0,1,0,1,0,1,0,1,0,1],"trees":[{"base_weights":[-1.5654609E-1,-2.862297E-1,1.7058377E-1,-9.9211566E-2,-4.437673E-1,2.4816176E-1,-1.9396552E-1,-5.12928E-3,8.0495357E-4,-6.7855464E-3,-1.1870358E-2,1.0421053E-2,3.8042266E-3,-4.3478262E-4,-8.842105E-3],"categories":[],"categories_nodes":[],"categories_segments":[],"categories_sizes":[],"default_left":[0,0,0,0,0,0,0,0,0,0,0,0,0,0,0],"id":0,"left_children":[1,3,5,7,9,11,13,-1,-1,-1,-1,-1,-1,-1,-1],"loss_changes":[1.9706305E2,9.7947876E1,3.7350777E1,3.338825E1,2.8042267E1,1.7106674E1,9.905192E0,0E0,0E0,0E0,0E0,0E0,0E0,0E0,0E0],"parents":[2147483647,0,0,1,1,2,2,3,3,4,4,5,5,6,6],"right_children":[2,4,6,8,10,12,14,-1,-1,-1,-1,-1,-1,-1,-1],"split_conditions":[2.2E1,1.2E1,2.5E1,1E1,6E-1,5E0,-4.5E0,-5.12928E-3,8.0495357E-4,-6.7855464E-3,-1.1870358E-2,1.0421053E-2,3.8042266E-3,-4.3478262E-4,-8.842105E-3],"split_indices":[51,80,81,51,3,103,25,0,0,0,0,0,0,0,0],"split_type":[0,0,0,0,0,0,0,0,0,0,0,0,0,0,0],"sum_hessian":[4.643E3,3.325E3,1.318E3,1.521E3,1.804E3,1.087E3,2.31E2,7.145E2,8.065E2,1.0645E3,7.395E2,1.89E2,8.98E2,1.37E2,9.4E1],"tree_param":{"num_deleted":"0","num_feature":"104","num_nodes":"15","size_leaf_vector":"0"}},{"base_weights":[1.605126E-1,-1.13916256E-1,3.099631E-1,5.2071005E-2,-2.9358974E-1,4.2927918E-1,5.9678257E-2,-3.144654E-3,4.749164E-3,-6.2970296E-3,8.0851065E-3,1.1183851E-2,6.4188573E-3,-1.7336152E-3,4.0081386E-3],"categories":[],"categories_nodes":[],"categories_segments":[],"categories_sizes":[],"default_left":[0,0,0,0,0,0,0,0,0,0,0,0,0,0,0],"id":1,"left_children":[1,3,5,7,9,11,13,-1,-1,-1,-1,-1,-1,-1,-1],"loss_changes":[1.888616E2,4.844867E1,8.899597E1,3.282522E1,1.1700455E1,2.8229584E1,1.9862494E1,0E0,0E0,0E0,0E0,0E0,0E0,0E0,0E0],"parents":[2147483647,0,0,1,1,2,2,3,3,4,4,5,5,6,6],"right_children":[2,4,6,8,10,12,14,-1,-1,-1,-1,-1,-1,-1,-1],"split_conditions":[4.47E-1,5.15E-1,2.9E0,-4.7E0,4.75E-1,-1.7E0,2.9E0,-3.144654E-3,4.749164E-3,-6.2970296E-3,8.0851065E-3,1.1183851E-2,6.4188573E-3,-1.7336152E-3,4.0081386E-3],"split_indices":[3,55,77,25,7,77,25,0,0,0,0,0,0,0,0],"split_type":[0,0,0,0,0,0,0,0,0,0,0,0,0,0,0],"sum_hessian":[4.603E3,1.623E3,2.98E3,8.44E2,7.79E2,2.0175E3,9.625E2,3.965E2,4.475E2,7.565E2,2.25E1,9.155E2,1.102E3,4.72E2,4.905E2],"tree_param":{"num_deleted":"0","num_feature":"104","num_nodes":"15","size_leaf_vector":"0"}},{"base_weights":[-1.5284978E-1,-3.5174927E-1,3.862547E-2,-1.8501051E-1,-5.0197697E-1,-2.2747676E-1,1.6218252E-1,-5.3065275E-3,3.0935984E-4,-8.248133E-3,-1.3032233E-2,1.0264448E-3,-7.362058E-3,1.6063651E-3,6.760874E-3],"categories":[],"categories_nodes":[],"categories_segments":[],"categories_sizes":[],"default_left":[0,0,0,0,0,0,0,0,0,0,0,0,0,0,0],"id":2,"left_children":[1,3,5,7,9,11,13,-1,-1,-1,-1,-1,-1,-1,-1],"loss_changes":[1.7675555E2,5.692746E1,7.7809525E1,1.7401577E1,1.577298E1,2.9442196E1,2.3237446E1,0E0,0E0,0E0,0E0,0E0,0E0,0E0,0E0],"parents":[2147483647,0,0,1,1,2,2,3,3,4,4,5,5,6,6],"right_children":[2,4,6,8,10,12,14,-1,-1,-1,-1,-1,-1,-1,-1],"split_conditions":[1.5E1,1.2E1,-1.9E0,6.2E0,2.3E1,-4.8E0,2.6E1,-5.3065275E-3,3.0935984E-4,-8.248133E-3,-1.3032233E-2,1.0264448E-3,-7.362058E-3,1.6063651E-3,6.760874E-3],"split_indices":[51,80,77,77,80,25,51,0,0,0,0,0,0,0,0],"split_type":[0,0,0,0,0,0,0,0,0,0,0,0,0,0,0],"sum_hessian":[4.6398047E3,2.2753713E3,2.3644333E3,1.0794803E3,1.1958911E3,7.4947144E2,1.6149619E3,7.704847E2,3.0899573E2,7.504394E2,4.454517E2,2.5149797E2,4.9797348E2,1.1029772E3,5.119848E2],"tree_param":{"num_deleted":"0","num_feature":"104","num_nodes":"15","size_leaf_vector":"0"}},{"base_weights":[1.5714349E-1,2.6467392E-1,-2.266432E-1,9.509969E-2,4.5141393E-1,-8.289227E-2,-3.843441E-1,5.5624805E-3,-8.600429E-4,6.5426696E-3,1.1545965E-2,2.483118E-4,-4.554747E-3,-3.1181066E-3,-8.81796E-3],"categories":[],"categories_nodes":[],"categories_segments":[],"categories_sizes":[],"default_left":[0,0,0,0,0,0,0,0,0,0,0,0,0,0,0],"id":3,"left_children":[1,3,5,7,9,11,13,-1,-1,-1,-1,-1,-1,-1,-1],"loss_changes":[1.8926926E2,1.1338039E2,2.2727947E1,4.7491943E1,2.6475983E1,7.271002E0,6.1128464E0,0E0,0E0,0E0,0E0,0E0,0E0,0E0,0E0],"parents":[2147483647,0,0,1,1,2,2,3,3,4,4,5,5,6,6],"right_children":[2,4,6,8,10,12,14,-1,-1,-1,-1,-1,-1,-1,-1],"split_conditions":[2.4E1,1.4E1,4E-1,1E1,5.57E-1,1.057E2,1.1E1,5.5624805E-3,-8.600429E-4,6.5426696E-3,1.1545965E-2,2.483118E-4,-4.554747E-3,-3.1181066E-3,-8.81796E-3],"split_indices":[51,80,77,51,3,76,53,0,0,0,0,0,0,0,0],"split_type":[0,0,0,0,0,0,0,0,0,0,0,0,0,0,0],"sum_hessian":[4.583807E3,3.5808303E3,1.00297675E3,1.8774612E3,1.7033691E3,5.254933E2,4.7748346E2,8.06975E2,1.0704861E3,8.58956E2,8.4441315E2,3.174958E2,2.0799748E2,9.549727E1,3.8198618E2],"tree_param":{"num_deleted":"0","num_feature":"104","num_nodes":"15","size_leaf_vector":"0"}},{"base_weights":[-1.3792242E-1,1.5064074E-1,-2.8811002E-1,2.6042265E-1,-1.2782213E-1,-5.0448086E-2,-4.1076696E-1,3.3771177E-3,8.371779E-3,2.0092232E-3,-6.797395E-3,3.959495E-3,-2.84667E-3,-6.732563E-3,-1.16349375E-2],"categories":[],"categories_nodes":[],"categories_segments":[],"categories_sizes":[],"default_left":[0,0,0,0,0,0,0,0,0,0,0,0,0,0,0],"id":4,"left_children":[1,3,5,7,9,11,13,-1,-1,-1,-1,-1,-1,-1,-1],"loss_changes":[2.0023596E2,4.83912E1,8.855136E1,1.6365807E1,2.1718819E1,2.3663788E1,2.5206757E1,0E0,0E0,0E0,0E0,0E0,0E0,0E0,0E0],"parents":[2147483647,0,0,1,1,2,2,3,3,4,4,5,5,6,6],"right_children":[2,4,6,8,10,12,14,-1,-1,-1,-1,-1,-1,-1,-1],"split_conditions":[4.41E-1,2.2E1,1E1,2.7E1,-4.7E0,6E-1,2.3E1,3.3771177E-3,8.371779E-3,2.0092232E-3,-6.797395E-3,3.959495E-3,-2.84667E-3,-6.732563E-3,-1.16349375E-2],"split_indices":[3,103,103,51,25,25,80,0,0,0,0,0,0,0,0],"split_type":[0,0,0,0,0,0,0,0,0,0,0,0,0,0,0],"sum_hessian":[4.6182656E3,1.580865E3,3.0374006E3,1.1338987E3,4.4696628E2,1.0344487E3,2.0029519E3,7.194546E2,4.1444412E2,2.154964E2,2.3146988E2,2.789961E2,7.554527E2,1.3992084E3,6.037436E2],"tree_param":{"num_deleted":"0","num_feature":"104","num_nodes":"15","size_leaf_vector":"0"}},{"base_weights":[1.5530194E-1,-1.6031225E-1,2.7980047E-1,7.158872E-2,-2.842113E-1,9.863046E-2,4.3490538E-1,-1.2817278E-3,6.125357E-3,-4.2702793E-3,-1.05458945E-2,4.9805176E-3,-7.642774E-4,1.204311E-2,6.948382E-3],"categories":[],"categories_nodes":[],"categories_segments":[],"categories_sizes":[],"default_left":[0,0,0,0,0,0,0,0,0,0,0,0,0,0,0],"id":5,"left_children":[1,3,5,7,9,11,13,-1,-1,-1,-1,-1,-1,-1,-1],"loss_changes":[1.8072699E2,3.7412243E1,9.262875E1,1.4474308E1,1.4467667E1,3.1342133E1,2.5784119E1,0E0,0E0,0E0,0E0,0E0,0E0,0E0,0E0],"parents":[2147483647,0,0,1,1,2,2,3,3,4,4,5,5,6,6],"right_children":[2,4,6,8,10,12,14,-1,-1,-1,-1,-1,-1,-1,-1],"split_conditions":[-2.4E0,-1.5E0,1.2E1,-4.8E0,3.5E1,1E1,8E0,-1.2817278E-3,6.125357E-3,-4.2702793E-3,-1.05458945E-2,4.9805176E-3,-7.642774E-4,1.204311E-2,6.948382E-3],"split_indices":[25,77,80,25,53,51,51,0,0,0,0,0,0,0,0],"split_type":[0,0,0,0,0,0,0,0,0,0,0,0,0,0,0],"sum_hessian":[4.59727E3,1.3003885E3,3.2968813E3,4.52977E2,8.4741156E2,1.5214225E3,1.7754589E3,2.874946E2,1.654824E2,6.579381E2,1.8947345E2,7.244327E2,7.969898E2,6.077405E2,1.1677184E3],"tree_param":{"num_deleted":"0","num_feature":"104","num_nodes":"15","size_leaf_vector":"0"}},{"base_weights":[-1.3599057E-1,1.24069855E-1,-2.8102577E-1,-1.7599507E-1,2.0837346E-1,-2.7282529E-2,-3.738721E-1,8.166119E-4,-7.1389168E-3,2.0050432E-3,6.724447E-3,2.9765256E-3,-4.218398E-3,-5.8907317E-3,-1.087641E-2],"categories":[],"categories_nodes":[],"categories_segments":[],"categories_sizes":[],"default_left":[0,0,0,0,0,0,0,0,0,0,0,0,0,0,0],"id":6,"left_children":[1,3,5,7,9,11,13,-1,-1,-1,-1,-1,-1,-1,-1],"loss_changes":[1.7138377E2,4.1198627E1,6.870538E1,1.4038294E1,1.7532036E1,2.533524E1,2.8629974E1,0E0,0E0,0E0,0E0,0E0,0E0,0E0,0E0],"parents":[2147483647,0,0,1,1,2,2,3,3,4,4,5,5,6,6],"right_children":[2,4,6,8,10,12,14,-1,-1,-1,-1,-1,-1,-1,-1],"split_conditions":[4.46E-1,3.59E-1,8E0,-4.8E0,2.6E1,2.9E0,2.2E1,8.166119E-4,-7.1389168E-3,2.0050432E-3,6.724447E-3,2.9765256E-3,-4.218398E-3,-5.8907317E-3,-1.087641E-2],"split_indices":[3,55,103,25,51,25,80,0,0,0,0,0,0,0,0],"split_type":[0,0,0,0,0,0,0,0,0,0,0,0,0,0,0],"sum_hessian":[4.5419053E3,1.6261765E3,2.9157285E3,3.5643097E2,1.2697456E3,7.8142816E2,2.1343003E3,1.6249474E2,1.9393623E2,6.8891614E2,5.8082947E2,3.989875E2,3.8244067E2,1.4569147E3,6.773857E2],"tree_param":{"num_deleted":"0","num_feature":"104","num_nodes":"15","size_leaf_vector":"0"}},{"base_weights":[1.4173184E-1,3.4375605E-1,-5.018603E-2,1.8353894E-1,4.8613378E-1,1.9192958E-1,-1.7978393E-1,5.6138826E-3,7.348892E-4,8.0490215E-3,1.2568401E-2,-8.674337E-4,6.8904245E-3,-1.8438924E-3,-7.4935835E-3],"categories":[],"categories_nodes":[],"categories_segments":[],"categories_sizes":[],"default_left":[0,0,0,0,0,0,0,0,0,0,0,0,0,0,0],"id":7,"left_children":[1,3,5,7,9,11,13,-1,-1,-1,-1,-1,-1,-1,-1],"loss_changes":[1.7739528E2,5.075479E1,7.367797E1,1.496962E1,1.3791779E1,2.9412739E1,2.6070656E1,0E0,0E0,0E0,0E0,0E0,0E0,0E0,0E0],"parents":[2147483647,0,0,1,1,2,2,3,3,4,4,5,5,6,6],"right_children":[2,4,6,8,10,12,14,-1,-1,-1,-1,-1,-1,-1,-1],"split_conditions":[1.5E1,1.2E1,-1.5E0,5.1E0,2.3E1,-4.1E0,2.6E1,5.6138826E-3,7.348892E-4,8.0490215E-3,1.2568401E-2,-8.674337E-4,6.8904245E-3,-1.8438924E-3,-7.4935835E-3],"split_indices":[51,80,77,77,80,25,51,0,0,0,0,0,0,0,0],"split_type":[0,0,0,0,0,0,0,0,0,0,0,0,0,0,0],"sum_hessian":[4.5738936E3,2.227891E3,2.3460022E3,1.0493503E3,1.1785408E3,8.1776587E2,1.5282365E3,6.308882E2,4.1846222E2,7.445044E2,4.3403632E2,3.2197925E2,4.9578665E2,1.0553962E3,4.728402E2],"tree_param":{"num_deleted":"0","num_feature":"104","num_nodes":"15","size_leaf_vector":"0"}},{"base_weights":[-1.3927323E-1,1.764342E-1,-2.640073E-1,-7.043224E-2,2.9459357E-1,-3.7099135E-1,-2.828711E-2,1.4846154E-3,-6.563142E-3,2.397959E-3,7.873586E-3,-5.8468976E-3,-1.1194767E-2,2.0945242E-3,-3.8883795E-3],"categories":[],"categories_nodes":[],"categories_segments":[],"categories_sizes":[],"default_left":[0,0,0,0,0,0,0,0,0,0,0,0,0,0,0],"id":8,"left_children":[1,3,5,7,9,11,13,-1,-1,-1,-1,-1,-1,-1,-1],"loss_changes":[1.7913408E2,3.7606613E1,8.2206436E1,1.56052475E1,1.5040474E1,3.312268E1,2.2534456E1,0E0,0E0,0E0,0E0,0E0,0E0,0E0,0E0],"parents":[2147483647,0,0,1,1,2,2,3,3,4,4,5,5,6,6],"right_children":[2,4,6,8,10,12,14,-1,-1,-1,-1,-1,-1,-1,-1],"split_conditions":[-2.4E0,-1.9E0,3E0,-4.5E0,1.7E1,2.3E1,3.1E0,1.4846154E-3,-6.563142E-3,2.397959E-3,7.873586E-3,-5.8468976E-3,-1.1194767E-2,2.0945242E-3,-3.8883795E-3],"split_indices":[25,77,77,25,47,80,25,0,0,0,0,0,0,0,0],"split_type":[0,0,0,0,0,0,0,0,0,0,0,0,0,0,0],"sum_hessian":[4.546737E3,1.2875293E3,3.2592075E3,4.169058E2,8.706235E2,2.2413665E3,1.017841E3,2.6747943E2,1.4942635E2,3.1589215E2,5.547313E2,1.5839294E3,6.574371E2,5.654687E2,4.523723E2],"tree_param":{"num_deleted":"0","num_feature":"104","num_nodes":"15","size_leaf_vector":"0"}},{"base_weights":[1.4048131E-1,-1.6803552E-1,2.6191217E-1,6.2899545E-2,-2.81212E-1,2.012677E-2,3.668182E-1,-1.6721128E-3,6.0485946E-3,-9.821425E-3,-4.4666026E-3,-4.362173E-3,2.6323195E-3,5.873185E-3,1.0837688E-2],"categories":[],"categories_nodes":[],"categories_segments":[],"categories_sizes":[],"default_left":[0,0,0,0,0,0,0,0,0,0,0,0,0,0,0],"id":9,"left_children":[1,3,5,7,9,11,13,-1,-1,-1,-1,-1,-1,-1,-1],"loss_changes":[1.7200867E2,3.3917316E1,8.354843E1,1.5023865E1,1.0465851E1,2.653222E1,2.926419E1,0E0,0E0,0E0,0E0,0E0,0E0,0E0,0E0],"parents":[2147483647,0,0,1,1,2,2,3,3,4,4,5,5,6,6],"right_children":[2,4,6,8,10,12,14,-1,-1,-1,-1,-1,-1,-1,-1],"split_conditions":[-2.4E0,-1.9E0,9E0,-4.7E0,5E0,7E-1,2.3E1,-1.6721128E-3,6.0485946E-3,-9.821425E-3,-4.4666026E-3,-4.362173E-3,2.6323195E-3,5.873185E-3,1.0837688E-2],"split_indices":[25,77,103,25,103,25,80,0,0,0,0,0,0,0,0],"split_type":[0,0,0,0,0,0,0,0,0,0,0,0,0,0,0],"sum_hessian":[4.589197E3,1.2960262E3,3.2931707E3,4.264023E2,8.696239E2,9.9684766E2,2.296323E3,2.649813E2,1.6142104E2,1.8638254E2,6.832414E2,3.174816E2,6.79366E2,1.6214204E3,6.7490265E2],"tree_param":{"num_deleted":"0","num_feature":"104","num_nodes":"15","size_leaf_vector":"0"}},{"base_weights":[-1.3922617E-1,1.114838E-1,-2.92455E-1,-4.814061E-2,3.0052245E-1,-4.337844E-1,-9.695175E-2,2.9765305E-3,-4.0971613E-3,4.256111E-3,8.488687E-3,-1.1147253E-2,-7.061437E-3,-4.9596173E-3,7.474989E-4],"categories":[],"categories_nodes":[],"categories_segments":[],"categories_sizes":[],"default_left":[0,0,0,0,0,0,0,0,0,0,0,0,0,0,0],"id":10,"left_children":[1,3,5,7,9,11,13,-1,-1,-1,-1,-1,-1,-1,-1],"loss_changes":[1.7612053E2,5.250405E1,7.857234E1,2.9169565E1,8.567085E0,1.6272064E1,2.425444E1,0E0,0E0,0E0,0E0,0E0,0E0,0E0,0E0],"parents":[2147483647,0,0,1,1,2,2,3,3,4,4,5,5,6,6],"right_children":[2,4,6,8,10,12,14,-1,-1,-1,-1,-1,-1,-1,-1],"split_conditions":[4.6E-1,5.23E-1,1.6E0,-4.7E0,2.6E1,8E0,9E0,2.9765305E-3,-4.0971613E-3,4.256111E-3,8.488687E-3,-1.1147253E-2,-7.061437E-3,-4.9596173E-3,7.474989E-4],"split_indices":[3,55,77,25,51,51,51,0,0,0,0,0,0,0,0],"split_type":[0,0,0,0,0,0,0,0,0,0,0,0,0,0,0],"sum_hessian":[4.5827134E3,1.7384951E3,2.8442185E3,9.42984E2,7.955111E2,1.650124E3,1.1940945E3,4.1785803E2,5.25126E2,4.6737503E2,3.2813608E2,6.4960864E2,1.00051544E3,5.6170264E2,6.3239185E2],"tree_param":{"num_deleted":"0","num_feature":"104","num_nodes":"15","size_leaf_vector":"0"}},{"base_weights":[1.3353275E-1,3.2251567E-1,-4.867828E-2,4.174695E-1,8.28708E-2,2.0305029E-1,-1.6576713E-1,7.10835E-3,1.1657444E-2,3.877372E-4,6.931328E-3,-1.3166505E-3,7.2336323E-3,-1.3343976E-3,-5.904916E-3],"categories":[],"categories_nodes":[],"categories_segments":[],"categories_sizes":[],"default_left":[0,0,0,0,0,0,0,0,0,0,0,0,0,0,0],"id":11,"left_children":[1,3,5,7,9,11,13,-1,-1,-1,-1,-1,-1,-1,-1],"loss_changes":[1.589733E2,5.1531403E1,6.933064E1,1.6448395E1,1.077976E1,3.1879265E1,2.056654E1,0E0,0E0,0E0,0E0,0E0,0E0,0E0,0E0],"parents":[2147483647,0,0,1,1,2,2,3,3,4,4,5,5,6,6],"right_children":[2,4,6,8,10,12,14,-1,-1,-1,-1,-1,-1,-1,-1],"split_conditions":[1.5E1,3.8E0,-1.9E0,2.3E1,1.14E1,-4.3E0,2.4E1,7.10835E-3,1.1657444E-2,3.877372E-4,6.931328E-3,-1.3166505E-3,7.2336323E-3,-1.3343976E-3,-5.904916E-3],"split_indices":[51,77,77,80,66,25,51,0,0,0,0,0,0,0,0],"split_type":[0,0,0,0,0,0,0,0,0,0,0,0,0,0,0],"sum_hessian":[4.6151943E3,2.2651204E3,2.350074E3,1.6217836E3,6.433369E2,7.4584735E2,1.6042267E3,1.1816339E3,4.4014966E2,5.193729E2,1.2396397E2,2.7696756E2,4.688798E2,9.0978455E2,6.944421E2],"tree_param":{"num_deleted":"0","num_feature":"104","num_nodes":"15","size_leaf_vector":"0"}},{"base_weights":[-1.2871383E-1,-2.605985E-1,1.4495178E-1,-1.1465305E-1,-4.2782512E-1,-1.4538737E-1,2.2648393E-1,1.9387822E-4,-5.0391234E-3,-6.6572726E-3,-1.1342425E-2,8.108056E-4,-6.279884E-3,7.6600923E-3,2.5725663E-3],"categories":[],"categories_nodes":[],"categories_segments":[],"categories_sizes":[],"default_left":[0,0,0,0,0,0,0,0,0,0,0,0,0,0,0],"id":12,"left_children":[1,3,5,7,9,11,13,-1,-1,-1,-1,-1,-1,-1,-1],"loss_changes":[1.6580624E2,7.560095E1,3.5404823E1,2.8284376E1,1.8914001E1,1.0302029E1,1.7825478E1,0E0,0E0,0E0,0E0,0E0,0E0,0E0,0E0],"parents":[2147483647,0,0,1,1,2,2,3,3,4,4,5,5,6,6],"right_children":[2,4,6,8,10,12,14,-1,-1,-1,-1,-1,-1,-1,-1],"split_conditions":[1.9E1,1.4E1,3.72E-1,2.9E0,3.4E0,-4.7E0,-5.9E0,1.9387822E-4,-5.0391234E-3,-6.6572726E-3,-1.1342425E-2,8.108056E-4,-6.279884E-3,7.6600923E-3,2.5725663E-3],"split_indices":[28,80,55,25,25,25,25,0,0,0,0,0,0,0,0],"split_type":[0,0,0,0,0,0,0,0,0,0,0,0,0,0,0],"sum_hessian":[4.591904E3,3.098652E3,1.4932518E3,1.6555083E3,1.4431437E3,3.272212E2,1.1660306E3,8.6922986E2,7.862785E2,8.601491E2,5.829946E2,1.559786E2,1.7124258E2,4.4743747E2,7.185932E2],"tree_param":{"num_deleted":"0","num_feature":"104","num_nodes":"15","size_leaf_vector":"0"}},{"base_weights":[1.4125799E-1,2.5843653E-1,-1.3431929E-1,8.254227E-2,3.9952213E-1,2.2688169E-2,-3.1736732E-1,4.8363246E-3,-1.2294451E-3,6.4371824E-3,1.0857614E-2,-2.5570171E-3,3.663494E-3,-9.509238E-3,-4.584964E-3],"categories":[],"categories_nodes":[],"categories_segments":[],"categories_sizes":[],"default_left":[0,0,0,0,0,0,0,0,0,0,0,0,0,0,0],"id":13,"left_children":[1,3,5,7,9,11,13,-1,-1,-1,-1,-1,-1,-1,-1],"loss_changes":[1.4736484E2,7.9418396E1,3.9147194E1,3.273034E1,1.9602325E1,1.7756773E1,8.651707E0,0E0,0E0,0E0,0E0,0E0,0E0,0E0,0E0],"parents":[2147483647,0,0,1,1,2,2,3,3,4,4,5,5,6,6],"right_children":[2,4,6,8,10,12,14,-1,-1,-1,-1,-1,-1,-1,-1],"split_conditions":[2E1,1.3E1,5.17E-1,1E1,2.3E1,-4.7E0,-6.2E0,4.8363246E-3,-1.2294451E-3,6.4371824E-3,1.0857614E-2,-2.5570171E-3,3.663494E-3,-9.509238E-3,-4.584964E-3],"split_indices":[28,103,55,51,80,25,25,0,0,0,0,0,0,0,0],"split_type":[0,0,0,0,0,0,0,0,0,0,0,0,0,0,0],"sum_hessian":[4.5614697E3,3.2006006E3,1.3608691E3,1.4252712E3,1.7753293E3,7.33012E2,6.2785706E2,6.764581E2,7.488132E2,1.1536152E3,6.217142E2,3.7833286E2,3.5467917E2,2.231349E2,4.0472217E2],"tree_param":{"num_deleted":"0","num_feature":"104","num_nodes":"15","size_leaf_vector":"0"}},{"base_weights":[-1.3863593E-1,-3.237163E-1,4.1688133E-2,-4.3060344E-1,-9.67258E-2,1.8396209E-1,-1.6866085E-1,-7.1329763E-3,-1.2242881E-2,-4.160015E-3,4.6437408E-4,7.417752E-3,2.3205979E-3,-5.743302E-3,1.770874E-3],"categories":[],"categories_nodes":[],"categories_segments":[],"categories_sizes":[],"default_left":[0,0,0,0,0,0,0,0,0,0,0,0,0,0,0],"id":14,"left_children":[1,3,5,7,9,11,13,-1,-1,-1,-1,-1,-1,-1,-1],"loss_changes":[1.5291367E2,5.4814957E1,6.950338E1,2.0415192E1,9.682814E0,1.7547146E1,2.8589193E1,0E0,0E0,0E0,0E0,0E0,0E0,0E0,0E0],"parents":[2147483647,0,0,1,1,2,2,3,3,4,4,5,5,6,6],"right_children":[2,4,6,8,10,12,14,-1,-1,-1,-1,-1,-1,-1,-1],"split_conditions":[1.5E1,3.2E0,1.8E1,2.3E1,6E0,-5.9E0,2.6E1,-7.1329763E-3,-1.2242881E-2,-4.160015E-3,4.6437408E-4,7.417752E-3,2.3205979E-3,-5.743302E-3,1.770874E-3],"split_indices":[51,77,81,80,77,25,51,0,0,0,0,0,0,0,0],"split_type":[0,0,0,0,0,0,0,0,0,0,0,0,0,0,0],"sum_hessian":[4.5803545E3,2.2599746E3,2.3203796E3,1.5358595E3,7.241152E2,1.3842432E3,9.361366E2,1.0934022E3,4.4245728E2,3.7525204E2,3.488631E2,3.6778067E2,1.01646246E3,6.4078516E2,2.953514E2],"tree_param":{"num_deleted":"0","num_feature":"104","num_nodes":"15","size_leaf_vector":"0"}},{"base_weights":[1.3977979E-1,3.2965204E-1,-4.4237264E-2,2.600212E-1,6.115154E-1,1.9731909E-1,-1.5430991E-1,6.4102327E-3,4.7322907E-4,1.2522983E-2,-3.544599E-3,-1.2311321E-3,7.059901E-3,-8.9413277E-4,-5.875014E-3],"categories":[],"categories_nodes":[],"categories_segments":[],"categories_sizes":[],"default_left":[0,0,0,0,0,0,0,0,0,0,0,0,0,0,0],"id":15,"left_children":[1,3,5,7,9,11,13,-1,-1,-1,-1,-1,-1,-1,-1],"loss_changes":[1.6114807E2,4.439064E1,6.2324425E1,2.6041931E1,5.292557E0,2.9596102E1,2.4593185E1,0E0,0E0,0E0,0E0,0E0,0E0,0E0,0E0],"parents":[2147483647,0,0,1,1,2,2,3,3,4,4,5,5,6,6],"right_children":[2,4,6,8,10,12,14,-1,-1,-1,-1,-1,-1,-1,-1],"split_conditions":[1.5E1,2.3E1,-2E0,5.6E0,4.74E-1,-4.3E0,2.4E1,6.4102327E-3,4.7322907E-4,1.2522983E-2,-3.544599E-3,-1.2311321E-3,7.059901E-3,-8.9413277E-4,-5.875014E-3],"split_indices":[51,80,77,77,59,25,51,0,0,0,0,0,0,0,0],"split_type":[0,0,0,0,0,0,0,0,0,0,0,0,0,0,0],"sum_hessian":[4.610755E3,2.268885E3,2.3418699E3,1.8209617E3,4.4792337E2,7.328422E2,1.6090276E3,1.449613E3,3.7134863E2,4.399667E2,7.9566483E0,2.7543018E2,4.5741202E2,9.0164056E2,7.07387E2],"tree_param":{"num_deleted":"0","num_feature":"104","num_nodes":"15","size_leaf_vector":"0"}},{"base_weights":[-1.3371447E-1,-2.4898967E-1,1.5714125E-1,-3.8336095E-1,-5.784444E-2,2.3002227E-1,-1.3127759E-1,-1.05871605E-2,-6.1400468E-3,-4.508459E-3,1.8036346E-3,-3.1458362E-4,5.5655856E-3,5.534214E-4,-6.8874196E-3],"categories":[],"categories_nodes":[],"categories_segments":[],"categories_sizes":[],"default_left":[0,0,0,0,0,0,0,0,0,0,0,0,0,0,0],"id":16,"left_children":[1,3,5,7,9,11,13,-1,-1,-1,-1,-1,-1,-1,-1],"loss_changes":[1.5401718E2,8.446246E1,2.7443249E1,2.1368317E1,3.3731583E1,1.2354839E1,8.941402E0,0E0,0E0,0E0,0E0,0E0,0E0,0E0,0E0],"parents":[2147483647,0,0,1,1,2,2,3,3,4,4,5,5,6,6],"right_children":[2,4,6,8,10,12,14,-1,-1,-1,-1,-1,-1,-1,-1],"split_conditions":[2.2E1,1.6E0,2.4E1,8E0,1E1,2E1,-4.8E0,-1.05871605E-2,-6.1400468E-3,-4.508459E-3,1.8036346E-3,-3.1458362E-4,5.5655856E-3,5.534214E-4,-6.8874196E-3],"split_indices":[51,77,81,51,51,28,25,0,0,0,0,0,0,0,0],"split_type":[0,0,0,0,0,0,0,0,0,0,0,0,0,0,0],"sum_hessian":[4.591459E3,3.2883337E3,1.3031252E3,1.9303385E3,1.3579952E3,1.0404219E3,2.6270337E2,6.608555E2,1.2694829E3,6.366871E2,7.213081E2,1.7088E2,8.6954193E2,1.509662E2,1.1173717E2],"tree_param":{"num_deleted":"0","num_feature":"104","num_nodes":"15","size_leaf_vector":"0"}},{"base_weights":[1.308503E-1,-1.5079613E-1,2.4222162E-1,5.5617016E-2,-2.6719904E-1,8.8069215E-2,3.911026E-1,-1.560835E-3,5.2846223E-3,2.576518E-3,-6.334252E-3,4.759918E-3,-9.560671E-4,1.1023869E-2,6.156111E-3],"categories":[],"categories_nodes":[],"categories_segments":[],"categories_sizes":[],"default_left":[0,0,0,0,0,0,0,0,0,0,0,0,0,0,0],"id":17,"left_children":[1,3,5,7,9,11,13,-1,-1,-1,-1,-1,-1,-1,-1],"loss_changes":[1.4432716E2,3.1349749E1,7.563019E1,1.3155936E1,1.639563E1,3.303377E1,2.2190948E1,0E0,0E0,0E0,0E0,0E0,0E0,0E0,0E0],"parents":[2147483647,0,0,1,1,2,2,3,3,4,4,5,5,6,6],"right_children":[2,4,6,8,10,12,14,-1,-1,-1,-1,-1,-1,-1,-1],"split_conditions":[-2.4E0,-1.4E0,1.4E1,-4.8E0,5E0,1E1,8E0,-1.560835E-3,5.2846223E-3,2.576518E-3,-6.334252E-3,4.759918E-3,-9.560671E-4,1.1023869E-2,6.156111E-3],"split_indices":[25,77,81,25,53,51,51,0,0,0,0,0,0,0,0],"split_type":[0,0,0,0,0,0,0,0,0,0,0,0,0,0,0],"sum_hessian":[4.5990283E3,1.3031484E3,3.2958801E3,4.7008517E2,8.3306323E2,1.6200553E3,1.6758248E3,2.8689673E2,1.8318845E2,9.240195E1,7.4066125E2,7.698374E2,8.5021783E2,5.716116E2,1.1042134E3],"tree_param":{"num_deleted":"0","num_feature":"104","num_nodes":"15","size_leaf_vector":"0"}},{"base_weights":[-1.2453128E-1,6.850274E-2,-3.0434185E-1,-8.484084E-2,2.4061853E-1,-1.6058452E-1,-4.513121E-1,2.2252472E-3,-3.991544E-3,3.179037E-3,8.112306E-3,-4.8600356E-3,-3.1506448E-4,-7.3093018E-3,-1.166208E-2],"categories":[],"categories_nodes":[],"categories_segments":[],"categories_sizes":[],"default_left":[0,0,0,0,0,0,0,0,0,0,0,0,0,0,0],"id":18,"left_children":[1,3,5,7,9,11,13,-1,-1,-1,-1,-1,-1,-1,-1],"loss_changes":[1.5838585E2,5.8116226E1,4.9840057E1,2.6230812E1,1.3913906E1,1.426992E1,1.2996887E1,0E0,0E0,0E0,0E0,0E0,0E0,0E0,0E0],"parents":[2147483647,0,0,1,1,2,2,3,3,4,4,5,5,6,6],"right_children":[2,4,6,8,10,12,14,-1,-1,-1,-1,-1,-1,-1,-1],"split_conditions":[1E-1,5.15E-1,1.3E1,-4.7E0,2.6E1,5.1E0,2.3E1,2.2252472E-3,-3.991544E-3,3.179037E-3,8.112306E-3,-4.8600356E-3,-3.1506448E-4,-7.3093018E-3,-1.166208E-2],"split_indices":[25,55,80,25,51,77,80,0,0,0,0,0,0,0,0],"split_type":[0,0,0,0,0,0,0,0,0,0,0,0,0,0,0],"sum_hessian":[4.561576E3,2.2001953E3,2.3613809E3,1.1638185E3,1.0363768E3,1.1947965E3,1.1665842E3,4.2959705E2,7.3422144E2,6.9456085E2,3.4181595E2,7.610423E2,4.3375427E2,7.087135E2,4.5787076E2],"tree_param":{"num_deleted":"0","num_feature":"104","num_nodes":"15","size_leaf_vector":"0"}},{"base_weights":[1.3197488E-1,-3.8518887E-2,2.9872885E-1,1.8432038E-1,-1.605104E-1,2.2563411E-1,5.9728354E-1,5.826016E-3,-2.6835361E-3,-5.9868377E-3,-1.5988847E-3,5.81613E-3,-2.6316952E-6,1.2619816E-2,5.4913545E-3],"categories":[],"categories_nodes":[],"categories_segments":[],"categories_sizes":[],"default_left":[0,0,0,0,0,0,0,0,0,0,0,0,0,0,0],"id":19,"left_children":[1,3,5,7,9,11,13,-1,-1,-1,-1,-1,-1,-1,-1],"loss_changes":[1.3122742E2,6.2090595E1,5.078572E1,2.7573845E1,1.6483562E1,2.7603699E1,4.812195E0,0E0,0E0,0E0,0E0,0E0,0E0,0E0,0E0],"parents":[2147483647,0,0,1,1,2,2,3,3,4,4,5,5,6,6],"right_children":[2,4,6,8,10,12,14,-1,-1,-1,-1,-1,-1,-1,-1],"split_conditions":[3E-1,-1.5E0,2.3E1,2.6E1,8E0,5.3E0,4.61E-1,5.826016E-3,-2.6835361E-3,-5.9868377E-3,-1.5988847E-3,5.81613E-3,-2.6316952E-6,1.2619816E-2,5.4913545E-3],"split_indices":[25,77,80,28,103,77,59,0,0,0,0,0,0,0,0],"split_type":[0,0,0,0,0,0,0,0,0,0,0,0,0,0,0],"sum_hessian":[4.61432E3,2.2819558E3,2.3323643E3,8.071116E2,1.4748442E3,1.8750532E3,4.5731094E2,6.042385E2,2.0287306E2,5.4058813E2,9.3425604E2,1.4548031E3,4.2025003E2,4.1319772E2,4.4113216E1],"tree_param":{"num_deleted":"0","num_feature":"104","num_nodes":"15","size_leaf_vector":"0"}},{"base_weights":[-1.2965529E-1,8.675033E-2,-2.595872E-1,-1.3963073E-1,2.126262E-1,-3.632117E-1,-4.1876074E-2,1.2874429E-3,-6.113267E-3,8.108937E-3,3.1977384E-3,-5.895828E-3,-1.0542299E-2,-5.0910306E-3,9.806405E-4],"categories":[],"categories_nodes":[],"categories_segments":[],"categories_sizes":[],"default_left":[0,0,0,0,0,0,0,0,0,0,0,0,0,0,0],"id":20,"left_children":[1,3,5,7,9,11,13,-1,-1,-1,-1,-1,-1,-1,-1],"loss_changes":[1.2887866E2,4.9042423E1,6.45905E1,2.085812E1,1.1179939E1,2.1601303E1,1.7888983E1,0E0,0E0,0E0,0E0,0E0,0E0,0E0,0E0],"parents":[2147483647,0,0,1,1,2,2,3,3,4,4,5,5,6,6],"right_children":[2,4,6,8,10,12,14,-1,-1,-1,-1,-1,-1,-1,-1],"split_conditions":[4.6E-1,-1.5E0,2.9E0,-4.7E0,5E0,2.3E1,6E0,1.2874429E-3,-6.113267E-3,8.108937E-3,3.1977384E-3,-5.895828E-3,-1.0542299E-2,-5.0910306E-3,9.806405E-4],"split_indices":[3,77,77,25,103,80,51,0,0,0,0,0,0,0,0],"split_type":[0,0,0,0,0,0,0,0,0,0,0,0,0,0,0],"sum_hessian":[4.5816934E3,1.7189917E3,2.8627017E3,6.142273E2,1.1047644E3,1.9390831E3,9.236185E2,2.7587466E2,3.383526E2,2.3583556E2,8.689289E2,1.369989E3,5.690941E2,2.7603854E2,6.4758E2],"tree_param":{"num_deleted":"0","num_feature":"104","num_nodes":"15","size_leaf_vector":"0"}},{"base_weights":[1.2906131E-1,-1.0615695E-1,2.728971E-1,1.7156155E-1,-1.9452636E-1,3.815102E-1,3.244886E-2,-2.5003043E-4,6.2886453E-3,-8.332673E-3,-2.8933012E-3,1.0027773E-2,5.79848E-3,-5.005969E-3,1.9568475E-3],"categories":[],"categories_nodes":[],"categories_segments":[],"categories_sizes":[],"default_left":[0,0,0,0,0,0,0,0,0,0,0,0,0,0,0],"id":21,"left_children":[1,3,5,7,9,11,13,-1,-1,-1,-1,-1,-1,-1,-1],"loss_changes":[1.5527731E2,4.2783875E1,7.435895E1,1.1075503E1,1.4579498E1,2.1390991E1,1.6428526E1,0E0,0E0,0E0,0E0,0E0,0E0,0E0,0E0],"parents":[2147483647,0,0,1,1,2,2,3,3,4,4,5,5,6,6],"right_children":[2,4,6,8,10,12,14,-1,-1,-1,-1,-1,-1,-1,-1],"split_conditions":[4.6E-1,3.72E-1,3.2E0,-4.7E0,5E0,-1.9E0,2E-1,-2.5003043E-4,6.2886453E-3,-8.332673E-3,-2.8933012E-3,1.0027773E-2,5.79848E-3,-5.005969E-3,1.9568475E-3],"split_indices":[3,55,77,25,103,77,25,0,0,0,0,0,0,0,0],"split_type":[0,0,0,0,0,0,0,0,0,0,0,0,0,0,0],"sum_hessian":[4.5876934E3,1.7409447E3,2.8467485E3,4.2001678E2,1.320928E3,1.9605568E3,8.8619183E2,1.8394693E2,2.3606987E2,2.4082344E2,1.0801045E3,8.471873E2,1.1133694E3,1.6592793E2,7.2026385E2],"tree_param":{"num_deleted":"0","num_feature":"104","num_nodes":"15","size_leaf_vector":"0"}},{"base_weights":[-1.2029623E-1,-2.9849187E-1,5.0538708E-2,-3.7980962E-1,-8.446719E-2,-1.9532141E-1,1.4954944E-1,-6.300116E-3,-1.1055231E-2,-5.566711E-4,-5.9779505E-3,2.1727532E-4,-7.3867305E-3,1.0178633E-3,5.598946E-3],"categories":[],"categories_nodes":[],"categories_segments":[],"categories_sizes":[],"default_left":[0,0,0,0,0,0,0,0,0,0,0,0,0,0,0],"id":22,"left_children":[1,3,5,7,9,11,13,-1,-1,-1,-1,-1,-1,-1,-1],"loss_changes":[1.4018869E2,3.9194687E1,5.7276432E1,1.8128845E1,7.5435243E0,2.4244043E1,2.1561089E1,0E0,0E0,0E0,0E0,0E0,0E0,0E0,0E0],"parents":[2147483647,0,0,1,1,2,2,3,3,4,4,5,5,6,6],"right_children":[2,4,6,8,10,12,14,-1,-1,-1,-1,-1,-1,-1,-1],"split_conditions":[1.5E1,3.8E0,-2.4E0,2.3E1,5.1E0,-3.5E0,2.4E1,-6.300116E-3,-1.1055231E-2,-5.566711E-4,-5.9779505E-3,2.1727532E-4,-7.3867305E-3,1.0178633E-3,5.598946E-3],"split_indices":[51,77,77,80,73,25,51,0,0,0,0,0,0,0,0],"split_type":[0,0,0,0,0,0,0,0,0,0,0,0,0,0,0],"sum_hessian":[4.6036064E3,2.2528948E3,2.3507114E3,1.6320354E3,6.2085944E2,6.745985E2,1.6761129E3,1.1892526E3,4.4278275E2,4.920365E2,1.2882295E2,3.0918832E2,3.6541016E2,9.5498315E2,7.211298E2],"tree_param":{"num_deleted":"0","num_feature":"104","num_nodes":"15","size_leaf_vector":"0"}},{"base_weights":[1.2719841E-1,-8.486366E-2,2.57299E-1,6.166493E-2,-2.573984E-1,3.5690698E-1,4.253527E-2,-2.184452E-3,3.9549065E-3,-8.074054E-3,-3.8065526E-3,5.7609044E-3,1.0532635E-2,-4.9904645E-3,2.198715E-3],"categories":[],"categories_nodes":[],"categories_segments":[],"categories_sizes":[],"default_left":[0,0,0,0,0,0,0,0,0,0,0,0,0,0,0],"id":23,"left_children":[1,3,5,7,9,11,13,-1,-1,-1,-1,-1,-1,-1,-1],"loss_changes":[1.2693451E2,4.4253815E1,6.097867E1,2.2044357E1,7.8106117E0,2.2611923E1,1.783316E1,0E0,0E0,0E0,0E0,0E0,0E0,0E0,0E0],"parents":[2147483647,0,0,1,1,2,2,3,3,4,4,5,5,6,6],"right_children":[2,4,6,8,10,12,14,-1,-1,-1,-1,-1,-1,-1,-1],"split_conditions":[4.6E-1,5.23E-1,3E0,-4.9E0,-6.2E0,2.3E1,2E-1,-2.184452E-3,3.9549065E-3,-8.074054E-3,-3.8065526E-3,5.7609044E-3,1.0532635E-2,-4.9904645E-3,2.198715E-3],"split_indices":[3,55,77,25,25,80,25,0,0,0,0,0,0,0,0],"split_type":[0,0,0,0,0,0,0,0,0,0,0,0,0,0,0],"sum_hessian":[4.599052E3,1.7488307E3,2.850221E3,9.460345E2,8.027962E2,1.9466826E3,9.035383E2,4.194692E2,5.2656525E2,2.5076747E2,5.520287E2,1.3867424E3,5.5994025E2,1.689116E2,7.346267E2],"tree_param":{"num_deleted":"0","num_feature":"104","num_nodes":"15","size_leaf_vector":"0"}},{"base_weights":[-1.1935782E-1,1.1833847E-1,-2.3549478E-1,-6.4877965E-2,2.3637559E-1,-4.5715228E-1,-1.425032E-1,1.9784847E-3,-4.817425E-3,-1.6253847E-3,5.571419E-3,-7.2194813E-3,-1.1150007E-2,-5.4433728E-3,-8.354388E-4],"categories":[],"categories_nodes":[],"categories_segments":[],"categories_sizes":[],"default_left":[0,0,0,0,0,0,0,0,0,0,0,0,0,0,0],"id":24,"left_children":[1,3,5,7,9,11,13,-1,-1,-1,-1,-1,-1,-1,-1],"loss_changes":[1.24979065E2,3.215912E1,6.2617188E1,1.683511E1,1.2141342E1,8.468445E0,2.7988632E1,0E0,0E0,0E0,0E0,0E0,0E0,0E0,0E0],"parents":[2147483647,0,0,1,1,2,2,3,3,4,4,5,5,6,6],"right_children":[2,4,6,8,10,12,14,-1,-1,-1,-1,-1,-1,-1,-1],"split_conditions":[-1.6E0,-1.1E0,-1.9E0,-4.8E0,6E0,2.3E1,9E0,1.9784847E-3,-4.817425E-3,-1.6253847E-3,5.571419E-3,-7.2194813E-3,-1.1150007E-2,-5.4433728E-3,-8.354388E-4],"split_indices":[25,77,77,25,53,1,51,0,0,0,0,0,0,0,0],"split_type":[0,0,0,0,0,0,0,0,0,0,0,0,0,0,0],"sum_hessian":[4.525344E3,1.4853254E3,3.040019E3,5.821564E2,9.03169E2,8.972916E2,2.1427273E3,3.0174823E2,2.8040817E2,1.0579828E2,7.973707E2,4.6051242E2,4.3677917E2,9.3607336E2,1.206654E3],"tree_param":{"num_deleted":"0","num_feature":"104","num_nodes":"15","size_leaf_vector":"0"}},{"base_weights":[1.2380492E-1,2.8974238E-1,-3.6222115E-2,1.572833E-1,4.4394732E-1,1.1335615E-1,-2.1254049E-1,5.4083685E-3,9.761544E-4,7.2582094E-3,1.1186141E-2,-1.7895541E-3,4.4027367E-3,-7.624567E-3,-3.227558E-3],"categories":[],"categories_nodes":[],"categories_segments":[],"categories_sizes":[],"default_left":[0,0,0,0,0,0,0,0,0,0,0,0,0,0,0],"id":25,"left_children":[1,3,5,7,9,11,13,-1,-1,-1,-1,-1,-1,-1,-1],"loss_changes":[1.2099674E2,4.5620316E1,6.1217533E1,1.477298E1,9.454361E0,2.7222595E1,9.1325E0,0E0,0E0,0E0,0E0,0E0,0E0,0E0,0E0],"parents":[2147483647,0,0,1,1,2,2,3,3,4,4,5,5,6,6],"right_children":[2,4,6,8,10,12,14,-1,-1,-1,-1,-1,-1,-1,-1],"split_conditions":[1.5E1,1.4E1,5.24E-1,7E0,2.3E1,-4.7E0,4E0,5.4083685E-3,9.761544E-4,7.2582094E-3,1.1186141E-2,-1.7895541E-3,4.4027367E-3,-7.624567E-3,-3.227558E-3],"split_indices":[51,80,55,29,80,25,103,0,0,0,0,0,0,0,0],"split_type":[0,0,0,0,0,0,0,0,0,0,0,0,0,0,0],"sum_hessian":[4.555152E3,2.2358806E3,2.3192712E3,1.2038319E3,1.0320487E3,1.2549779E3,1.0642932E3,5.885295E2,6.153025E2,6.0864166E2,4.2340695E2,4.32876E2,8.221019E2,2.4617615E2,8.1811707E2],"tree_param":{"num_deleted":"0","num_feature":"104","num_nodes":"15","size_leaf_vector":"0"}},{"base_weights":[-1.22133985E-1,-2.2550751E-1,1.558344E-1,-1.3235559E-1,-4.4706047E-1,-1.5313591E-1,2.2809273E-1,-5.9517776E-3,-8.4592885E-4,-7.7840243E-3,-1.1810921E-2,-4.4365588E-5,-6.3912338E-3,8.880466E-3,3.613496E-3],"categories":[],"categories_nodes":[],"categories_segments":[],"categories_sizes":[],"default_left":[0,0,0,0,0,0,0,0,0,0,0,0,0,0,0],"id":26,"left_children":[1,3,5,7,9,11,13,-1,-1,-1,-1,-1,-1,-1,-1],"loss_changes":[1.318121E2,6.893907E1,2.7802671E1,3.5032745E1,7.982239E0,5.935371E0,1.0244942E1,0E0,0E0,0E0,0E0,0E0,0E0,0E0,0E0],"parents":[2147483647,0,0,1,1,2,2,3,3,4,4,5,5,6,6],"right_children":[2,4,6,8,10,12,14,-1,-1,-1,-1,-1,-1,-1,-1],"split_conditions":[2.2E1,2.1E1,-4.1E0,8E0,3.7E1,-4.7E0,5E0,-5.9517776E-3,-8.4592885E-4,-7.7840243E-3,-1.1810921E-2,-4.4365588E-5,-6.3912338E-3,8.880466E-3,3.613496E-3],"split_indices":[29,103,77,51,54,25,103,0,0,0,0,0,0,0,0],"split_type":[0,0,0,0,0,0,0,0,0,0,0,0,0,0,0],"sum_hessian":[4.5850063E3,3.3422483E3,1.2427583E3,2.354075E3,9.881732E2,2.3534105E2,1.0074173E3,8.2963074E2,1.5244442E3,7.068535E2,2.813197E2,1.2395235E2,1.11388695E2,1.7988718E2,8.275301E2],"tree_param":{"num_deleted":"0","num_feature":"104","num_nodes":"15","size_leaf_vector":"0"}},{"base_weights":[1.1159384E-1,2.1411715E-1,-1.4631352E-1,5.7316143E-2,3.5078385E-1,-2.1863493E-1,1.3075155E-1,3.9300085E-3,-1.3921544E-3,5.4581305E-3,9.378413E-3,-1.4979469E-3,-6.000854E-3,5.256819E-3,-2.3607418E-3],"categories":[],"categories_nodes":[],"categories_segments":[],"categories_sizes":[],"default_left":[0,0,0,0,0,0,0,0,0,0,0,0,0,0,0],"id":27,"left_children":[1,3,5,7,9,11,13,-1,-1,-1,-1,-1,-1,-1,-1],"loss_changes":[1.2107367E2,7.0183334E1,2.6132076E1,2.6986279E1,1.5974121E1,1.2070103E1,8.913131E0,0E0,0E0,0E0,0E0,0E0,0E0,0E0,0E0],"parents":[2147483647,0,0,1,1,2,2,3,3,4,4,5,5,6,6],"right_children":[2,4,6,8,10,12,14,-1,-1,-1,-1,-1,-1,-1,-1],"split_conditions":[2.2E1,1.2E1,2.4E1,1E1,6.03E-1,1.7E1,2.7E1,3.9300085E-3,-1.3921544E-3,5.4581305E-3,9.378413E-3,-1.4979469E-3,-6.000854E-3,5.256819E-3,-2.3607418E-3],"split_indices":[51,80,81,51,3,47,28,0,0,0,0,0,0,0,0],"split_type":[0,0,0,0,0,0,0,0,0,0,0,0,0,0,0],"sum_hessian":[4.576739E3,3.275022E3,1.3017166E3,1.5258252E3,1.7491969E3,1.0324344E3,2.6928214E2,7.275014E2,7.9832385E2,1.0562279E3,6.92969E2,3.7400064E2,6.5843384E2,1.7585756E2,9.342458E1],"tree_param":{"num_deleted":"0","num_feature":"104","num_nodes":"15","size_leaf_vector":"0"}},{"base_weights":[-1.154239E-1,-2.746759E-1,3.9539915E-2,-3.3638772E-1,2.359912E-2,-9.902075E-2,2.0415618E-1,-5.491938E-3,-1.0820763E-2,5.2208067E-3,-5.3088437E-4,2.0326653E-3,-4.2989324E-3,7.345339E-3,2.9397192E-3],"categories":[],"categories_nodes":[],"categories_segments":[],"categories_sizes":[],"default_left":[0,0,0,0,0,0,0,0,0,0,0,0,0,0,0],"id":28,"left_children":[1,3,5,7,9,11,13,-1,-1,-1,-1,-1,-1,-1,-1],"loss_changes":[1.1328737E2,4.1679184E1,5.3103455E1,2.3572433E1,4.6386952E0,2.943089E1,9.867447E0,0E0,0E0,0E0,0E0,0E0,0E0,0E0,0E0],"parents":[2147483647,0,0,1,1,2,2,3,3,4,4,5,5,6,6],"right_children":[2,4,6,8,10,12,14,-1,-1,-1,-1,-1,-1,-1,-1],"split_conditions":[1.5E1,5.5E0,5.23E-1,2.3E1,2E0,-4.4E0,-5.9E0,-5.491938E-3,-1.0820763E-2,5.2208067E-3,-5.3088437E-4,2.0326653E-3,-4.2989324E-3,7.345339E-3,2.9397192E-3],"split_indices":[51,77,55,80,85,25,25,0,0,0,0,0,0,0,0],"split_type":[0,0,0,0,0,0,0,0,0,0,0,0,0,0,0],"sum_hessian":[4.589127E3,2.2628682E3,2.326259E3,1.8748433E3,3.8802484E2,1.2633074E3,1.0629515E3,1.441844E3,4.3299933E2,6.6922806E1,3.2110205E2,4.6264563E2,8.006618E2,2.7446344E2,7.8848816E2],"tree_param":{"num_deleted":"0","num_feature":"104","num_nodes":"15","size_leaf_vector":"0"}},{"base_weights":[1.1505607E-1,2.3583095E-1,-1.16765074E-1,3.267543E-1,2.0556591E-2,9.951917E-2,-2.047542E-1,9.006565E-3,5.0293426E-3,2.7353838E-3,-2.450764E-3,-2.0125045E-3,5.3709946E-3,-1.5600879E-3,-5.875337E-3],"categories":[],"categories_nodes":[],"categories_segments":[],"categories_sizes":[],"default_left":[0,0,0,0,0,0,0,0,0,0,0,0,0,0,0],"id":29,"left_children":[1,3,5,7,9,11,13,-1,-1,-1,-1,-1,-1,-1,-1],"loss_changes":[1.26642624E2,5.819658E1,2.9511843E1,1.9336075E1,1.4718031E1,1.5210382E1,1.2408813E1,0E0,0E0,0E0,0E0,0E0,0E0,0E0,0E0],"parents":[2147483647,0,0,1,1,2,2,3,3,4,4,5,5,6,6],"right_children":[2,4,6,8,10,12,14,-1,-1,-1,-1,-1,-1,-1,-1],"split_conditions":[1.9E1,3.4E0,-2.4E0,8E0,1.1E1,3.33E-1,2.1E1,9.006565E-3,5.0293426E-3,2.7353838E-3,-2.450764E-3,-2.0125045E-3,5.3709946E-3,-1.5600879E-3,-5.875337E-3],"split_indices":[27,77,77,51,51,3,53,0,0,0,0,0,0,0,0],"split_type":[0,0,0,0,0,0,0,0,0,0,0,0,0,0,0],"sum_hessian":[4.521263E3,2.9725813E3,1.5486816E3,2.0895293E3,8.830522E2,4.4780655E2,1.1008751E3,7.891922E2,1.300337E3,4.8732315E2,3.9572903E2,2.0521814E2,2.4258841E2,4.549394E2,6.4593567E2],"tree_param":{"num_deleted":"0","num_feature":"104","num_nodes":"15","size_leaf_vector":"0"}},{"base_weights":[-1.11587696E-1,1.387062E-1,-2.0865358E-1,-5.0267845E-2,2.581802E-1,-6.074041E-2,-3.3674765E-1,2.344335E-3,-3.3590894E-3,-5.1471434E-4,6.171674E-3,-3.4734323E-3,7.839249E-4,-9.78605E-3,-5.149976E-3],"categories":[],"categories_nodes":[],"categories_segments":[],"categories_sizes":[],"default_left":[0,0,0,0,0,0,0,0,0,0,0,0,0,0,0],"id":30,"left_children":[1,3,5,7,9,11,13,-1,-1,-1,-1,-1,-1,-1,-1],"loss_changes":[1.1028146E2,2.8657393E1,6.1942368E1,9.722483E0,1.113361E1,1.715E1,2.1059875E1,0E0,0E0,0E0,0E0,0E0,0E0,0E0,0E0],"parents":[2147483647,0,0,1,1,2,2,3,3,4,4,5,5,6,6],"right_children":[2,4,6,8,10,12,14,-1,-1,-1,-1,-1,-1,-1,-1],"split_conditions":[-2.4E0,-1.2E0,1.2E1,-6.6E0,7E0,1E1,8E0,2.344335E-3,-3.3590894E-3,-5.1471434E-4,6.171674E-3,-3.4734323E-3,7.839249E-4,-9.78605E-3,-5.149976E-3],"split_indices":[25,77,80,25,53,51,51,0,0,0,0,0,0,0,0],"split_type":[0,0,0,0,0,0,0,0,0,0,0,0,0,0,0],"sum_hessian":[4.5370747E3,1.267716E3,3.269359E3,4.9126035E2,7.764556E2,1.517983E3,1.7513759E3,2.0273871E2,2.8852164E2,1.17135735E2,6.593199E2,7.123124E2,8.0567065E2,5.9698975E2,1.1543861E3],"tree_param":{"num_deleted":"0","num_feature":"104","num_nodes":"15","size_leaf_vector":"0"}},{"base_weights":[1.0447882E-1,-9.193119E-2,2.3509744E-1,1.5673694E-1,-1.7203283E-1,3.194505E-1,5.2215606E-3,-9.976287E-4,6.0966113E-3,-1.9184961E-3,-6.7296424E-3,8.677632E-3,4.5310813E-3,2.4863712E-3,-2.884391E-3],"categories":[],"categories_nodes":[],"categories_segments":[],"categories_sizes":[],"default_left":[0,0,0,0,0,0,0,0,0,0,0,0,0,0,0],"id":31,"left_children":[1,3,5,7,9,11,13,-1,-1,-1,-1,-1,-1,-1,-1],"loss_changes":[1.1604719E2,3.6021683E1,5.267305E1,1.3503216E1,1.7080456E1,2.102658E1,1.3014789E1,0E0,0E0,0E0,0E0,0E0,0E0,0E0,0E0],"parents":[2147483647,0,0,1,1,2,2,3,3,4,4,5,5,6,6],"right_children":[2,4,6,8,10,12,14,-1,-1,-1,-1,-1,-1,-1,-1],"split_conditions":[4.72E-1,-3.2E0,3.8E0,-4.7E0,2.7E1,-1.4E0,1E1,-9.976287E-4,6.0966113E-3,-1.9184961E-3,-6.7296424E-3,8.677632E-3,4.5310813E-3,2.4863712E-3,-2.884391E-3],"split_indices":[3,77,77,25,51,77,51,0,0,0,0,0,0,0,0],"split_type":[0,0,0,0,0,0,0,0,0,0,0,0,0,0,0],"sum_hessian":[4.5215674E3,1.8060791E3,2.715488E3,4.3980103E2,1.3662781E3,1.9862449E3,7.292432E2,1.8389551E2,2.5590552E2,9.3509454E2,4.3118353E2,8.8832434E2,1.0979205E3,4.0591647E2,3.2332678E2],"tree_param":{"num_deleted":"0","num_feature":"104","num_nodes":"15","size_leaf_vector":"0"}},{"base_weights":[-1.17022276E-1,-2.0225465E-1,1.4896157E-1,-3.9239708E-1,-1.1171205E-1,2.1586623E-2,2.985569E-1,-5.8277915E-3,-1.047167E-2,7.1467553E-6,-5.3120446E-3,1.3170004E-3,-4.5661554E-3,4.70618E-3,1.0175382E-2],"categories":[],"categories_nodes":[],"categories_segments":[],"categories_sizes":[],"default_left":[0,0,0,0,0,0,0,0,0,0,0,0,0,0,0],"id":32,"left_children":[1,3,5,7,9,11,13,-1,-1,-1,-1,-1,-1,-1,-1],"loss_changes":[1.03765396E2,5.9622925E1,2.1163702E1,1.4656311E1,4.0515175E1,6.6645093E0,6.6724815E0,0E0,0E0,0E0,0E0,0E0,0E0,0E0,0E0],"parents":[2147483647,0,0,1,1,2,2,3,3,4,4,5,5,6,6],"right_children":[2,4,6,8,10,12,14,-1,-1,-1,-1,-1,-1,-1,-1],"split_conditions":[2.2E1,-1.6E0,5.23E-1,2.3E1,2.9E0,2.8E1,2.9E1,-5.8277915E-3,-1.047167E-2,7.1467553E-6,-5.3120446E-3,1.3170004E-3,-4.5661554E-3,4.70618E-3,1.0175382E-2],"split_indices":[28,77,55,1,25,81,51,0,0,0,0,0,0,0,0],"split_type":[0,0,0,0,0,0,0,0,0,0,0,0,0,0,0],"sum_hessian":[4.574796E3,3.464776E3,1.1100199E3,1.1165824E3,2.3481934E3,6.0015454E2,5.0986533E2,6.3267395E2,4.839085E2,1.3592947E3,9.888987E2,5.1047195E2,8.96826E1,3.935691E2,1.1629622E2],"tree_param":{"num_deleted":"0","num_feature":"104","num_nodes":"15","size_leaf_vector":"0"}},{"base_weights":[1.0788104E-1,2.6881066E-1,-4.4165917E-2,7.547627E-2,3.727072E-1,1.6124359E-1,-1.5242521E-1,3.4224498E-3,-1.4209276E-3,6.1259386E-3,1.0586274E-2,-7.4176665E-4,5.636251E-3,-1.1284433E-3,-5.6006587E-3],"categories":[],"categories_nodes":[],"categories_segments":[],"categories_sizes":[],"default_left":[0,0,0,0,0,0,0,0,0,0,0,0,0,0,0],"id":33,"left_children":[1,3,5,7,9,11,13,-1,-1,-1,-1,-1,-1,-1,-1],"loss_changes":[1.1177334E2,4.4545914E1,5.2269855E1,1.0900279E1,1.4847E1,1.9412321E1,1.883881E1,0E0,0E0,0E0,0E0,0E0,0E0,0E0,0E0],"parents":[2147483647,0,0,1,1,2,2,3,3,4,4,5,5,6,6],"right_children":[2,4,6,8,10,12,14,-1,-1,-1,-1,-1,-1,-1,-1],"split_conditions":[1.5E1,1E1,-1.5E0,6.2E0,2.3E1,-4.4E0,2.4E1,3.4224498E-3,-1.4209276E-3,6.1259386E-3,1.0586274E-2,-7.4176665E-4,5.636251E-3,-1.1284433E-3,-5.6006587E-3],"split_indices":[51,103,77,77,80,25,51,0,0,0,0,0,0,0,0],"split_type":[0,0,0,0,0,0,0,0,0,0,0,0,0,0,0],"sum_hessian":[4.566498E3,2.2180745E3,2.3484236E3,7.7592725E2,1.4421471E3,8.1036334E2,1.5380602E3,4.6936798E2,3.0655927E2,1.0147781E3,4.2736905E2,3.066412E2,5.0372214E2,8.785461E2,6.5951404E2],"tree_param":{"num_deleted":"0","num_feature":"104","num_nodes":"15","size_leaf_vector":"0"}},{"base_weights":[-1.1300866E-1,-2.6735914E-1,3.5159916E-2,-2.0629187E-1,-5.285435E-1,-1.6792753E-1,1.2927249E-1,-5.2545397E-3,-4.9935625E-4,-1.0762619E-2,1.23019E-2,4.6772914E-4,-5.824275E-3,6.3092224E-3,1.241691E-3],"categories":[],"categories_nodes":[],"categories_segments":[],"categories_sizes":[],"default_left":[0,0,0,0,0,0,0,0,0,0,0,0,0,0,0],"id":34,"left_children":[1,3,5,7,9,11,13,-1,-1,-1,-1,-1,-1,-1,-1],"loss_changes":[1.0310684E2,3.5109055E1,4.3999817E1,1.8323532E1,4.9119263E0,1.7202715E1,1.9656584E1,0E0,0E0,0E0,0E0,0E0,0E0,0E0,0E0],"parents":[2147483647,0,0,1,1,2,2,3,3,4,4,5,5,6,6],"right_children":[2,4,6,8,10,12,14,-1,-1,-1,-1,-1,-1,-1,-1],"split_conditions":[1.5E1,2.3E1,-1.9E0,5.1E0,4.79E-1,-4.1E0,-5.9E0,-5.2545397E-3,-4.9935625E-4,-1.0762619E-2,1.23019E-2,4.6772914E-4,-5.824275E-3,6.3092224E-3,1.241691E-3],"split_indices":[51,80,77,77,59,25,25,0,0,0,0,0,0,0,0],"split_type":[0,0,0,0,0,0,0,0,0,0,0,0,0,0,0],"sum_hessian":[4.5069985E3,2.2070554E3,2.2999429E3,1.790265E3,4.1679047E2,7.280609E2,1.571882E3,1.3649807E3,4.252842E2,4.138505E2,2.9399884E0,2.8563168E2,4.4242926E2,4.1583652E2,1.1560454E3],"tree_param":{"num_deleted":"0","num_feature":"104","num_nodes":"15","size_leaf_vector":"0"}},{"base_weights":[1.1584115E-1,2.0833717E-1,-9.672448E-2,6.9486536E-2,3.3168936E-1,3.6900055E-2,-2.519117E-1,3.6791577E-3,-7.556627E-4,9.613467E-3,5.291077E-3,-1.8194772E-3,3.944875E-3,-9.646584E-3,-4.088848E-3],"categories":[],"categories_nodes":[],"categories_segments":[],"categories_sizes":[],"default_left":[0,0,0,0,0,0,0,0,0,0,0,0,0,0,0],"id":35,"left_children":[1,3,5,7,9,11,13,-1,-1,-1,-1,-1,-1,-1,-1],"loss_changes":[8.918228E1,5.410324E1,2.8536398E1,1.8278107E1,1.6608673E1,1.5192034E1,6.8644943E0,0E0,0E0,0E0,0E0,0E0,0E0,0E0,0E0],"parents":[2147483647,0,0,1,1,2,2,3,3,4,4,5,5,6,6],"right_children":[2,4,6,8,10,12,14,-1,-1,-1,-1,-1,-1,-1,-1],"split_conditions":[2E1,1.2E1,5.17E-1,1E1,7E0,-4.3E0,3E0,3.6791577E-3,-7.556627E-4,9.613467E-3,5.291077E-3,-1.8194772E-3,3.944875E-3,-9.646584E-3,-4.088848E-3],"split_indices":[28,80,55,51,51,25,79,0,0,0,0,0,0,0,0],"split_type":[0,0,0,0,0,0,0,0,0,0,0,0,0,0,0],"sum_hessian":[4.5338657E3,3.1591917E3,1.374674E3,1.4869636E3,1.672228E3,7.390631E2,6.3561084E2,7.1898926E2,7.6797437E2,5.1754865E2,1.1546794E3,4.1140265E2,3.276605E2,1.07011734E2,5.2859906E2],"tree_param":{"num_deleted":"0","num_feature":"104","num_nodes":"15","size_leaf_vector":"0"}},{"base_weights":[-1.12352744E-1,-2.7435526E-1,4.2871956E-2,-2.1670759E-1,-5.2245337E-1,2.1265496E-1,-9.857485E-2,-5.356685E-3,-7.503301E-4,-1.0757034E-2,5.2124625E-3,7.49429E-3,3.1678563E-3,-4.704625E-3,1.0060723E-3],"categories":[],"categories_nodes":[],"categories_segments":[],"categories_sizes":[],"default_left":[0,0,0,0,0,0,0,0,0,0,0,0,0,0,0],"id":36,"left_children":[1,3,5,7,9,11,13,-1,-1,-1,-1,-1,-1,-1,-1],"loss_changes":[1.1490884E2,3.1864563E1,5.607746E1,1.6627098E1,5.214905E0,9.272156E0,2.5932524E1,0E0,0E0,0E0,0E0,0E0,0E0,0E0,0E0],"parents":[2147483647,0,0,1,1,2,2,3,3,4,4,5,5,6,6],"right_children":[2,4,6,8,10,12,14,-1,-1,-1,-1,-1,-1,-1,-1],"split_conditions":[1.5E1,2.3E1,1.4E1,5.4E0,4.74E-1,-5.9E0,2.2E1,-5.356685E-3,-7.503301E-4,-1.0757034E-2,5.2124625E-3,7.49429E-3,3.1678563E-3,-4.704625E-3,1.0060723E-3],"split_indices":[51,80,103,77,59,25,28,0,0,0,0,0,0,0,0],"split_type":[0,0,0,0,0,0,0,0,0,0,0,0,0,0,0],"sum_hessian":[4.568055E3,2.234852E3,2.3332031E3,1.8149961E3,4.1985596E2,1.0601584E3,1.2730447E3,1.4117126E3,4.032834E2,4.1206628E2,7.789688E0,2.6444885E2,7.957096E2,6.6346564E2,6.09579E2],"tree_param":{"num_deleted":"0","num_feature":"104","num_nodes":"15","size_leaf_vector":"0"}},{"base_weights":[1.1500213E-1,2.1367906E-1,-1.1310836E-1,9.391876E-2,3.5027137E-1,3.3887465E-2,-2.7636096E-1,-2.7352275E-4,4.3347073E-3,9.95319E-3,5.7147476E-3,-2.0801804E-3,3.5420833E-3,1.8613138E-3,-6.2777065E-3],"categories":[],"categories_nodes":[],"categories_segments":[],"categories_sizes":[],"default_left":[0,0,0,0,0,0,0,0,0,0,0,0,0,0,0],"id":37,"left_children":[1,3,5,7,9,11,13,-1,-1,-1,-1,-1,-1,-1,-1],"loss_changes":[1.0294112E2,5.2181747E1,3.3156578E1,2.2495531E1,1.4037674E1,1.43902235E1,9.103054E0,0E0,0E0,0E0,0E0,0E0,0E0,0E0,0E0],"parents":[2147483647,0,0,1,1,2,2,3,3,4,4,5,5,6,6],"right_children":[2,4,6,8,10,12,14,-1,-1,-1,-1,-1,-1,-1,-1],"split_conditions":[2E1,1.4E1,4E-1,2.8E0,7E0,-4.8E0,8E0,-2.7352275E-4,4.3347073E-3,9.95319E-3,5.7147476E-3,-2.0801804E-3,3.5420833E-3,1.8613138E-3,-6.2777065E-3],"split_indices":[28,80,77,25,51,25,53,0,0,0,0,0,0,0,0],"split_type":[0,0,0,0,0,0,0,0,0,0,0,0,0,0,0],"sum_hessian":[4.571208E3,3.1909275E3,1.3802805E3,1.7011205E3,1.4898069E3,7.267201E2,6.535605E2,9.0722455E2,7.9389594E2,4.5162854E2,1.0381783E3,3.7037628E2,3.5634378E2,6.012738E1,5.934331E2],"tree_param":{"num_deleted":"0","num_feature":"104","num_nodes":"15","size_leaf_vector":"0"}},{"base_weights":[-1.0889221E-1,-1.922524E-1,1.4888842E-1,-5.2107096E-2,-3.154176E-1,3.373435E-2,2.7847257E-1,-4.4657513E-3,1.1817445E-3,-1.1011756E-2,-5.493827E-3,1.684906E-3,-4.9772114E-3,5.834955E-3,-1.3566879E-2],"categories":[],"categories_nodes":[],"categories_segments":[],"categories_sizes":[],"default_left":[0,0,0,0,0,0,0,0,0,0,0,0,0,0,0],"id":38,"left_children":[1,3,5,7,9,11,13,-1,-1,-1,-1,-1,-1,-1,-1],"loss_changes":[9.7649376E1,5.9244904E1,1.656393E1,3.060361E1,1.734822E1,8.431392E0,6.8339653E0,0E0,0E0,0E0,0E0,0E0,0E0,0E0,0E0],"parents":[2147483647,0,0,1,1,2,2,3,3,4,4,5,5,6,6],"right_children":[2,4,6,8,10,12,14,-1,-1,-1,-1,-1,-1,-1,-1],"split_conditions":[2.2E1,1.2E1,5.15E-1,9E0,4E0,2.8E1,2.9E1,-4.4657513E-3,1.1817445E-3,-1.1011756E-2,-5.493827E-3,1.684906E-3,-4.9772114E-3,5.834955E-3,-1.3566879E-2],"split_indices":[28,80,55,51,51,81,26,0,0,0,0,0,0,0,0],"split_type":[0,0,0,0,0,0,0,0,0,0,0,0,0,0,0],"sum_hessian":[4.541899E3,3.4322458E3,1.1096533E3,1.6061208E3,1.826125E3,5.882073E2,5.214461E2,6.3206573E2,9.740552E2,2.677138E2,1.5584111E3,4.9960913E2,8.859812E1,5.14996E2,6.450126E0],"tree_param":{"num_deleted":"0","num_feature":"104","num_nodes":"15","size_leaf_vector":"0"}},{"base_weights":[1.1112664E-1,-7.248244E-2,2.2131248E-1,1.8871666E-1,-1.4436153E-1,7.9629734E-2,3.4036377E-1,-5.058034E-4,6.54426E-3,-1.2621753E-3,-5.1879957E-3,3.9531686E-3,-1.0200036E-3,5.953325E-3,9.925386E-3],"categories":[],"categories_nodes":[],"categories_segments":[],"categories_sizes":[],"default_left":[0,0,0,0,0,0,0,0,0,0,0,0,0,0,0],"id":39,"left_children":[1,3,5,7,9,11,13,-1,-1,-1,-1,-1,-1,-1,-1],"loss_changes":[9.136893E1,3.1836327E1,4.757666E1,1.0857876E1,1.2407818E1,1.9898327E1,1.0059021E1,0E0,0E0,0E0,0E0,0E0,0E0,0E0,0E0],"parents":[2147483647,0,0,1,1,2,2,3,3,4,4,5,5,6,6],"right_children":[2,4,6,8,10,12,14,-1,-1,-1,-1,-1,-1,-1,-1],"split_conditions":[4.6E-1,3.59E-1,1.3E1,3.17E-1,2.6E1,1E1,3.7E1,-5.058034E-4,6.54426E-3,-1.2621753E-3,-5.1879957E-3,3.9531686E-3,-1.0200036E-3,5.953325E-3,9.925386E-3],"split_indices":[3,55,103,3,51,51,54,0,0,0,0,0,0,0,0],"split_type":[0,0,0,0,0,0,0,0,0,0,0,0,0,0,0],"sum_hessian":[4.514463E3,1.6932479E3,2.821215E3,3.650562E2,1.3281917E3,1.2889302E3,1.5322849E3,1.4374951E2,2.2130672E2,7.793073E2,5.488844E2,6.768549E2,6.1207526E2,1.2051439E3,3.27141E2],"tree_param":{"num_deleted":"0","num_feature":"104","num_nodes":"15","size_leaf_vector":"0"}},{"base_weights":[-9.8248966E-2,8.936849E-2,-2.1263687E-1,-1.7718956E-1,1.6247745E-1,-2.890247E-1,-5.8017266E-3,-1.4782131E-4,-6.2994026E-3,4.2420428E-4,4.8101144E-3,-4.3342765E-3,-8.085661E-3,5.2053104E-3,-1.3064174E-3],"categories":[],"categories_nodes":[],"categories_segments":[],"categories_sizes":[],"default_left":[0,0,0,0,0,0,0,0,0,0,0,0,0,0,0],"id":40,"left_children":[1,3,5,7,9,11,13,-1,-1,-1,-1,-1,-1,-1,-1],"loss_changes":[9.732654E1,3.3509823E1,4.4507103E1,8.660045E0,1.4862354E1,1.7058472E1,1.2065254E1,0E0,0E0,0E0,0E0,0E0,0E0,0E0,0E0],"parents":[2147483647,0,0,1,1,2,2,3,3,4,4,5,5,6,6],"right_children":[2,4,6,8,10,12,14,-1,-1,-1,-1,-1,-1,-1,-1],"split_conditions":[4.6E-1,3.59E-1,3.8E0,-4.7E0,1.7E1,2E1,2E-1,-1.4782131E-4,-6.2994026E-3,4.2420428E-4,4.8101144E-3,-4.3342765E-3,-8.085661E-3,5.2053104E-3,-1.3064174E-3],"split_indices":[3,55,77,25,47,80,25,0,0,0,0,0,0,0,0],"split_type":[0,0,0,0,0,0,0,0,0,0,0,0,0,0,0],"sum_hessian":[4.5331206E3,1.717053E3,2.8160679E3,3.6926712E2,1.3477859E3,2.0562583E3,7.5980963E2,1.6588582E2,2.033813E2,4.8001282E2,8.67773E2,1.2653081E3,7.9095013E2,1.3828119E2,6.2152844E2],"tree_param":{"num_deleted":"0","num_feature":"104","num_nodes":"15","size_leaf_vector":"0"}},{"base_weights":[1.00192785E-1,-3.4761712E-2,2.728693E-1,1.8042086E-1,-1.3766578E-1,3.3746558E-1,2.7702482E-2,-5.8782706E-4,5.966545E-3,-7.0287037E-4,-4.5644674E-3,3.2667618E-3,7.705363E-3,5.5488963E-3,-9.4826234E-4],"categories":[],"categories_nodes":[],"categories_segments":[],"categories_sizes":[],"default_left":[0,0,0,0,0,0,0,0,0,0,0,0,0,0,0],"id":41,"left_children":[1,3,5,7,9,11,13,-1,-1,-1,-1,-1,-1,-1,-1],"loss_changes":[1.05531975E2,5.632618E1,3.1451889E1,2.0368069E1,1.5966473E1,1.3023834E1,7.8051243E0,0E0,0E0,0E0,0E0,0E0,0E0,0E0,0E0],"parents":[2147483647,0,0,1,1,2,2,3,3,4,4,5,5,6,6],"right_children":[2,4,6,8,10,12,14,-1,-1,-1,-1,-1,-1,-1,-1],"split_conditions":[1E0,-1.9E0,4.8E0,-4.1E0,2E1,1.3E1,6E0,-5.8782706E-4,5.966545E-3,-7.0287037E-4,-4.5644674E-3,3.2667618E-3,7.705363E-3,5.5488963E-3,-9.4826234E-4],"split_indices":[25,77,77,25,28,1,46,0,0,0,0,0,0,0,0],"split_type":[0,0,0,0,0,0,0,0,0,0,0,0,0,0,0],"sum_hessian":[4.527188E3,2.5416062E3,1.9855815E3,8.2199023E2,1.7196161E3,1.5712213E3,4.1436026E2,2.9600525E2,5.25985E2,8.0717896E2,9.124371E2,3.3938412E2,1.2318372E3,9.518804E1,3.191722E2],"tree_param":{"num_deleted":"0","num_feature":"104","num_nodes":"15","size_leaf_vector":"0"}},{"base_weights":[-9.881125E-2,-2.4188864E-1,3.3917524E-2,-3.0457488E-1,1.5710156E-2,2.913569E-1,-4.718967E-2,-4.9423864E-3,-9.693578E-3,1.3173142E-3,-5.5868016E-3,-3.478125E-4,6.553569E-3,-2.662315E-3,2.8434854E-3],"categories":[],"categories_nodes":[],"categories_segments":[],"categories_sizes":[],"default_left":[0,0,0,0,0,0,0,0,0,0,0,0,0,0,0],"id":42,"left_children":[1,3,5,7,9,11,13,-1,-1,-1,-1,-1,-1,-1,-1],"loss_changes":[8.599623E1,3.5193504E1,4.907803E1,1.8017075E1,6.34405E0,6.320324E0,2.9107275E1,0E0,0E0,0E0,0E0,0E0,0E0,0E0,0E0],"parents":[2147483647,0,0,1,1,2,2,3,3,4,4,5,5,6,6],"right_children":[2,4,6,8,10,12,14,-1,-1,-1,-1,-1,-1,-1,-1],"split_conditions":[1.5E1,5.1E0,8E0,2.3E1,6.1E0,4.3E0,2.6E1,-4.9423864E-3,-9.693578E-3,1.3173142E-3,-5.5868016E-3,-3.478125E-4,6.553569E-3,-2.662315E-3,2.8434854E-3],"split_indices":[51,77,103,80,20,21,51,0,0,0,0,0,0,0,0],"split_type":[0,0,0,0,0,0,0,0,0,0,0,0,0,0,0],"sum_hessian":[4.526953E3,2.1781519E3,2.348801E3,1.751697E3,4.2645486E2,5.620923E2,1.7867089E3,1.3298346E3,4.2186252E2,3.651584E2,6.129646E1,5.9220024E1,5.0287225E2,1.229229E3,5.5747986E2],"tree_param":{"num_deleted":"0","num_feature":"104","num_nodes":"15","size_leaf_vector":"0"}},{"base_weights":[1.0213716E-1,2.1163902E-1,-8.1702225E-2,2.9137868E-1,2.9022172E-3,1.3402013E-1,-1.6872285E-1,8.204618E-3,4.236899E-3,-6.831445E-3,1.1559243E-3,-1.181248E-3,5.012202E-3,-2.1344777E-3,-7.086955E-3],"categories":[],"categories_nodes":[],"categories_segments":[],"categories_sizes":[],"default_left":[0,0,0,0,0,0,0,0,0,0,0,0,0,0,0],"id":43,"left_children":[1,3,5,7,9,11,13,-1,-1,-1,-1,-1,-1,-1,-1],"loss_changes":[9.169707E1,4.75102E1,3.195E1,1.9436996E1,1.4958785E1,1.1032558E1,1.3914505E1,0E0,0E0,0E0,0E0,0E0,0E0,0E0,0E0],"parents":[2147483647,0,0,1,1,2,2,3,3,4,4,5,5,6,6],"right_children":[2,4,6,8,10,12,14,-1,-1,-1,-1,-1,-1,-1,-1],"split_conditions":[1.8E1,3.8E0,-2.4E0,8E0,2E0,3.2E-1,2.8E1,8.204618E-3,4.236899E-3,-6.831445E-3,1.1559243E-3,-1.181248E-3,5.012202E-3,-2.1344777E-3,-7.086955E-3],"split_indices":[27,77,77,51,85,3,51,0,0,0,0,0,0,0,0],"split_type":[0,0,0,0,0,0,0,0,0,0,0,0,0,0,0],"sum_hessian":[4.5532144E3,2.8534424E3,1.6997719E3,2.0644172E3,7.8902515E2,4.884282E2,1.2113438E3,8.2596625E2,1.238451E3,1.0773526E2,6.812899E2,1.8407626E2,3.0435193E2,9.092335E2,3.021102E2],"tree_param":{"num_deleted":"0","num_feature":"104","num_nodes":"15","size_leaf_vector":"0"}},{"base_weights":[-1.04933865E-1,1.15305506E-1,-1.9097884E-1,1.6494584E-1,-1.862185E-1,-6.457533E-2,-3.0089825E-1,7.775758E-4,4.7035846E-3,-6.448062E-3,1.240557E-3,9.317625E-4,-3.9520185E-3,-4.657415E-3,-8.348763E-3],"categories":[],"categories_nodes":[],"categories_segments":[],"categories_sizes":[],"default_left":[0,0,0,0,0,0,0,0,0,0,0,0,0,0,0],"id":44,"left_children":[1,3,5,7,9,11,13,-1,-1,-1,-1,-1,-1,-1,-1],"loss_changes":[8.541719E1,1.898834E1,4.500695E1,9.624613E0,6.0887637E0,2.2317474E1,1.3642487E1,0E0,0E0,0E0,0E0,0E0,0E0,0E0,0E0],"parents":[2147483647,0,0,1,1,2,2,3,3,4,4,5,5,6,6],"right_children":[2,4,6,8,10,12,14,-1,-1,-1,-1,-1,-1,-1,-1],"split_conditions":[-2.4E0,2.6E1,1.2E1,1.7E1,2.7E1,2.9E0,2.3E1,7.775758E-4,4.7035846E-3,-6.448062E-3,1.240557E-3,9.317625E-4,-3.9520185E-3,-4.657415E-3,-8.348763E-3],"split_indices":[25,81,80,47,28,25,80,0,0,0,0,0,0,0,0],"split_type":[0,0,0,0,0,0,0,0,0,0,0,0,0,0,0],"sum_hessian":[4.505224E3,1.2655647E3,3.2396594E3,1.0870543E3,1.7851035E2,1.5075809E3,1.7320784E3,3.8948782E2,6.975665E2,1.15080185E2,6.3430164E1,8.21631E2,6.8595E2,1.0955653E3,6.3651306E2],"tree_param":{"num_deleted":"0","num_feature":"104","num_nodes":"15","size_leaf_vector":"0"}},{"base_weights":[9.5892146E-2,2.3583089E-1,-3.686076E-2,2.875726E-1,-4.7215827E-2,8.980136E-2,-1.8588905E-1,4.6722614E-3,9.379135E-3,1.2239619E-3,-3.9307554E-3,-2.0557903E-3,3.8284038E-3,-6.8146437E-3,-2.6381796E-3],"categories":[],"categories_nodes":[],"categories_segments":[],"categories_sizes":[],"default_left":[0,0,0,0,0,0,0,0,0,0,0,0,0,0,0],"id":45,"left_children":[1,3,5,7,9,11,13,-1,-1,-1,-1,-1,-1,-1,-1],"loss_changes":[8.4293594E1,3.236293E1,4.3982063E1,1.816954E1,5.5523763E0,2.4673523E1,8.902065E0,0E0,0E0,0E0,0E0,0E0,0E0,0E0,0E0],"parents":[2147483647,0,0,1,1,2,2,3,3,4,4,5,5,6,6],"right_children":[2,4,6,8,10,12,14,-1,-1,-1,-1,-1,-1,-1,-1],"split_conditions":[1.5E1,6E0,7E-1,2.3E1,4.12E1,-4.7E0,-5.9E0,4.6722614E-3,9.379135E-3,1.2239619E-3,-3.9307554E-3,-2.0557903E-3,3.8284038E-3,-6.8146437E-3,-2.6381796E-3],"split_indices":[51,77,77,80,57,25,25,0,0,0,0,0,0,0,0],"split_type":[0,0,0,0,0,0,0,0,0,0,0,0,0,0,0],"sum_hessian":[4.5359897E3,2.2078518E3,2.3281382E3,1.8666138E3,3.412381E2,1.2587223E3,1.0694158E3,1.4404006E3,4.2621313E2,1.9804173E2,1.4319637E2,4.3475354E2,8.2396875E2,2.7506708E2,7.9434875E2],"tree_param":{"num_deleted":"0","num_feature":"104","num_nodes":"15","size_leaf_vector":"0"}},{"base_weights":[-9.620514E-2,-2.4101324E-1,4.296192E-2,-3.0319E-1,2.7938609E-3,-1.5874924E-1,1.3428158E-1,-4.8794704E-3,-9.87127E-3,1.1918E-3,-4.2367005E-3,5.2500986E-6,-5.7987752E-3,-1.8068866E-4,4.0989188E-3],"categories":[],"categories_nodes":[],"categories_segments":[],"categories_sizes":[],"default_left":[0,0,0,0,0,0,0,0,0,0,0,0,0,0,0],"id":46,"left_children":[1,3,5,7,9,11,13,-1,-1,-1,-1,-1,-1,-1,-1],"loss_changes":[9.122035E1,3.3626694E1,4.2549767E1,1.9804565E1,5.519295E0,1.5019081E1,1.610257E1,0E0,0E0,0E0,0E0,0E0,0E0,0E0,0E0],"parents":[2147483647,0,0,1,1,2,2,3,3,4,4,5,5,6,6],"right_children":[2,4,6,8,10,12,14,-1,-1,-1,-1,-1,-1,-1,-1],"split_conditions":[1.5E1,4.9E0,-2E0,2.3E1,2E1,-3.5E0,1.4E1,-4.8794704E-3,-9.87127E-3,1.1918E-3,-4.2367005E-3,5.2500986E-6,-5.7987752E-3,-1.8068866E-4,4.0989188E-3],"split_indices":[51,77,77,80,87,25,47,0,0,0,0,0,0,0,0],"split_type":[0,0,0,0,0,0,0,0,0,0,0,0,0,0,0],"sum_hessian":[4.5249863E3,2.2171912E3,2.3077952E3,1.7664576E3,4.507334E2,7.189674E2,1.5888278E3,1.3490969E3,4.1736075E2,3.5698788E2,9.3745514E1,3.254704E2,3.93497E2,5.2497876E2,1.063849E3],"tree_param":{"num_deleted":"0","num_feature":"104","num_nodes":"15","size_leaf_vector":"0"}},{"base_weights":[9.1649316E-2,1.68353E-1,-1.8355237E-1,-4.470194E-2,2.4504493E-1,-2.146231E-1,1.7258398E-1,-2.9202362E-3,2.079923E-3,8.040974E-3,3.4698907E-3,1.8093403E-3,-4.8742387E-3,8.033847E-3,-1.5134237E-3],"categories":[],"categories_nodes":[],"categories_segments":[],"categories_sizes":[],"default_left":[0,0,0,0,0,0,0,0,0,0,0,0,0,0,0],"id":47,"left_children":[1,3,5,7,9,11,13,-1,-1,-1,-1,-1,-1,-1,-1],"loss_changes":[9.599281E1,5.8109047E1,1.1006847E1,1.4205714E1,2.9302765E1,8.118065E0,4.586509E0,0E0,0E0,0E0,0E0,0E0,0E0,0E0,0E0],"parents":[2147483647,0,0,1,1,2,2,3,3,4,4,5,5,6,6],"right_children":[2,4,6,8,10,12,14,-1,-1,-1,-1,-1,-1,-1,-1],"split_conditions":[2.4E1,8E0,2.8E1,3.1E0,8E0,4E0,8.59E1,-2.9202362E-3,2.079923E-3,8.040974E-3,3.4698907E-3,1.8093403E-3,-4.8742387E-3,8.033847E-3,-1.5134237E-3],"split_indices":[51,103,81,25,51,53,58,0,0,0,0,0,0,0,0],"split_type":[0,0,0,0,0,0,0,0,0,0,0,0,0,0,0],"sum_hessian":[4.545022E3,3.5546619E3,9.9036035E2,9.4097943E2,2.6136824E3,9.1125616E2,7.910417E1,5.596803E2,3.8129913E2,8.167846E2,1.7968977E3,7.913728E1,8.321189E2,4.0817074E1,3.82871E1],"tree_param":{"num_deleted":"0","num_feature":"104","num_nodes":"15","size_leaf_vector":"0"}},{"base_weights":[-1.003673E-1,7.8925245E-2,-2.1145375E-1,-1.8436017E-2,2.3232634E-1,-7.626028E-2,-3.312958E-1,2.1818492E-3,-2.365927E-3,-9.901675E-4,5.4133856E-3,-2.8628223E-3,1.867755E-3,-1.0838332E-2,-5.7073897E-3],"categories":[],"categories_nodes":[],"categories_segments":[],"categories_sizes":[],"default_left":[0,0,0,0,0,0,0,0,0,0,0,0,0,0,0],"id":48,"left_children":[1,3,5,7,9,11,13,-1,-1,-1,-1,-1,-1,-1,-1],"loss_changes":[8.998767E1,2.5825253E1,4.5168976E1,1.3493359E1,7.2679214E0,1.4900381E1,1.4145767E1,0E0,0E0,0E0,0E0,0E0,0E0,0E0,0E0],"parents":[2147483647,0,0,1,1,2,2,3,3,4,4,5,5,6,6],"right_children":[2,4,6,8,10,12,14,-1,-1,-1,-1,-1,-1,-1,-1],"split_conditions":[4.6E-1,5.54E-1,1.2E1,-4.7E0,1.8E1,6.2E0,4E0,2.1818492E-3,-2.365927E-3,-9.901675E-4,5.4133856E-3,-2.8628223E-3,1.867755E-3,-1.0838332E-2,-5.7073897E-3],"split_indices":[3,55,80,25,28,77,51,0,0,0,0,0,0,0,0],"split_type":[0,0,0,0,0,0,0,0,0,0,0,0,0,0,0],"sum_hessian":[4.5163013E3,1.7278523E3,2.7884487E3,1.0575328E3,6.703195E2,1.3110702E3,1.4773785E3,4.6438672E2,5.931461E2,8.023934E1,5.900802E2,9.404644E2,3.7060574E2,2.6254242E2,1.214836E3],"tree_param":{"num_deleted":"0","num_feature":"104","num_nodes":"15","size_leaf_vector":"0"}},{"base_weights":[1.042174E-1,2.44967E-1,-2.8313993E-2,3.3040944E-1,8.7145865E-2,8.455091E-2,-1.7872994E-1,5.779016E-3,1.0476068E-2,6.564507E-4,6.2395153E-3,-2.047618E-3,3.699898E-3,1.0967868E-3,-4.268997E-3],"categories":[],"categories_nodes":[],"categories_segments":[],"categories_sizes":[],"default_left":[0,0,0,0,0,0,0,0,0,0,0,0,0,0,0],"id":49,"left_children":[1,3,5,7,9,11,13,-1,-1,-1,-1,-1,-1,-1,-1],"loss_changes":[8.436578E1,2.9546783E1,3.9572018E1,1.1254593E1,9.415092E0,2.5026577E1,8.114655E0,0E0,0E0,0E0,0E0,0E0,0E0,0E0,0E0],"parents":[2147483647,0,0,1,1,2,2,3,3,4,4,5,5,6,6],"right_children":[2,4,6,8,10,12,14,-1,-1,-1,-1,-1,-1,-1,-1],"split_conditions":[1.5E1,2.6E0,5.36E-1,2.6E1,2E1,-4.7E0,1E1,5.779016E-3,1.0476068E-2,6.564507E-4,6.2395153E-3,-2.047618E-3,3.699898E-3,1.0967868E-3,-4.268997E-3],"split_indices":[51,77,55,80,86,25,33,0,0,0,0,0,0,0,0],"split_type":[0,0,0,0,0,0,0,0,0,0,0,0,0,0,0],"sum_hessian":[4.521355E3,2.1922822E3,2.329073E3,1.4215686E3,7.707136E2,1.3308813E3,9.981915E2,1.1726722E3,2.488964E2,6.216554E2,1.490582E2,4.651648E2,8.6571655E2,1.2910326E2,8.690883E2],"tree_param":{"num_deleted":"0","num_feature":"104","num_nodes":"15","size_leaf_vector":"0"}},{"base_weights":[-9.6045904E-2,-1.8975629E-1,1.1662615E-1,-7.528183E-2,-3.214896E-1,-1.9520322E-2,2.652047E-1,-3.3740709E-3,5.195212E-4,-5.339859E-3,-9.774041E-3,5.546227E-4,-5.894789E-3,7.741345E-3,3.919798E-3],"categories":[],"categories_nodes":[],"categories_segments":[],"categories_sizes":[],"default_left":[0,0,0,0,0,0,0,0,0,0,0,0,0,0,0],"id":50,"left_children":[1,3,5,7,9,11,13,-1,-1,-1,-1,-1,-1,-1,-1],"loss_changes":[9.042898E1,4.7466263E1,2.8084286E1,1.5956166E1,1.3209549E1,9.440161E0,5.5232124E0,0E0,0E0,0E0,0E0,0E0,0E0,0E0,0E0],"parents":[2147483647,0,0,1,1,2,2,3,3,4,4,5,5,6,6],"right_children":[2,4,6,8,10,12,14,-1,-1,-1,-1,-1,-1,-1,-1],"split_conditions":[2E1,1.4E1,5.15E-1,1.1E1,3.7E1,2.8E1,-6.2E0,-3.3740709E-3,5.195212E-4,-5.339859E-3,-9.774041E-3,5.546227E-4,-5.894789E-3,7.741345E-3,3.919798E-3],"split_indices":[28,80,55,51,54,80,25,0,0,0,0,0,0,0,0],"split_type":[0,0,0,0,0,0,0,0,0,0,0,0,0,0,0],"sum_hessian":[4.535315E3,3.1482146E3,1.3871003E3,1.6852911E3,1.4629236E3,7.242862E2,6.628141E2,8.76217E2,8.090741E2,1.1052919E3,3.5763174E2,6.189244E2,1.0536183E2,2.3843063E2,4.2438345E2],"tree_param":{"num_deleted":"0","num_feature":"104","num_nodes":"15","size_leaf_vector":"0"}},{"base_weights":[1.039979E-1,2.4426301E-1,-3.23865E-2,1.3548844E-1,3.6008683E-1,1.4700136E-1,-1.258254E-1,3.783568E-3,-2.8495668E-4,9.220208E-3,5.0524585E-3,5.0979396E-3,-7.2369433E-4,-1.3769364E-3,-5.042004E-3],"categories":[],"categories_nodes":[],"categories_segments":[],"categories_sizes":[],"default_left":[0,0,0,0,0,0,0,0,0,0,0,0,0,0,0],"id":51,"left_children":[1,3,5,7,9,11,13,-1,-1,-1,-1,-1,-1,-1,-1],"loss_changes":[8.67931E1,2.8129456E1,3.85875E1,9.288158E0,1.1625E1,1.5594301E1,1.087211E1,0E0,0E0,0E0,0E0,0E0,0E0,0E0,0E0],"parents":[2147483647,0,0,1,1,2,2,3,3,4,4,5,5,6,6],"right_children":[2,4,6,8,10,12,14,-1,-1,-1,-1,-1,-1,-1,-1],"split_conditions":[1.5E1,1.3E1,-1.5E0,6.3E0,8E0,2.5E1,2.6E1,3.783568E-3,-2.8495668E-4,9.220208E-3,5.0524585E-3,5.0979396E-3,-7.2369433E-4,-1.3769364E-3,-5.042004E-3],"split_indices":[51,80,77,77,51,51,51,0,0,0,0,0,0,0,0],"split_type":[0,0,0,0,0,0,0,0,0,0,0,0,0,0,0],"sum_hessian":[4.535608E3,2.2356023E3,2.3000056E3,1.1540035E3,1.0815989E3,7.8751965E2,1.5124858E3,8.492352E2,3.0476828E2,5.5607605E2,5.255228E2,4.9536234E2,2.9215732E2,1.0432766E3,4.6920926E2],"tree_param":{"num_deleted":"0","num_feature":"104","num_nodes":"15","size_leaf_vector":"0"}},{"base_weights":[-9.904056E-2,-2.4024044E-1,3.2459904E-2,-1.8287212E-1,-4.826548E-1,-1.8696989E-1,1.0542436E-1,-4.6865917E-3,-3.698277E-4,-9.965739E-3,6.080582E-3,7.067237E-4,-5.58823E-3,7.584062E-4,5.092521E-3],"categories":[],"categories_nodes":[],"categories_segments":[],"categories_sizes":[],"default_left":[0,0,0,0,0,0,0,0,0,0,0,0,0,0,0],"id":52,"left_children":[1,3,5,7,9,11,13,-1,-1,-1,-1,-1,-1,-1,-1],"loss_changes":[8.316523E1,2.9947289E1,3.7161263E1,1.478186E1,5.226639E0,1.1913654E1,1.7530878E1,0E0,0E0,0E0,0E0,0E0,0E0,0E0,0E0],"parents":[2147483647,0,0,1,1,2,2,3,3,4,4,5,5,6,6],"right_children":[2,4,6,8,10,12,14,-1,-1,-1,-1,-1,-1,-1,-1],"split_conditions":[1.5E1,2.3E1,-3E0,5.1E0,4.74E-1,3.2E-1,2.6E1,-4.6865917E-3,-3.698277E-4,-9.965739E-3,6.080582E-3,7.067237E-4,-5.58823E-3,7.584062E-4,5.092521E-3],"split_indices":[51,80,77,77,59,3,51,0,0,0,0,0,0,0,0],"split_type":[0,0,0,0,0,0,0,0,0,0,0,0,0,0,0],"sum_hessian":[4.4775713E3,2.1587576E3,2.3188135E3,1.7470627E3,4.116949E2,5.7824994E2,1.7405635E3,1.3302256E3,4.168371E2,4.0403296E2,7.661936E0,1.7001385E2,4.0823608E2,1.1992399E3,5.413237E2],"tree_param":{"num_deleted":"0","num_feature":"104","num_nodes":"15","size_leaf_vector":"0"}},{"base_weights":[9.203482E-2,2.2955607E-1,-3.851188E-2,1.11315176E-1,3.3851603E-1,1.7579748E-1,-1.2377657E-1,3.4646238E-3,-4.536808E-4,5.071221E-3,8.506138E-3,4.5066516E-4,6.9445157E-3,-1.3763524E-3,-5.8300095E-3],"categories":[],"categories_nodes":[],"categories_segments":[],"categories_sizes":[],"default_left":[0,0,0,0,0,0,0,0,0,0,0,0,0,0,0],"id":53,"left_children":[1,3,5,7,9,11,13,-1,-1,-1,-1,-1,-1,-1,-1],"loss_changes":[8.083272E1,2.8210335E1,4.2240005E1,8.740294E0,8.302002E0,1.7280426E1,1.5220972E1,0E0,0E0,0E0,0E0,0E0,0E0,0E0,0E0],"parents":[2147483647,0,0,1,1,2,2,3,3,4,4,5,5,6,6],"right_children":[2,4,6,8,10,12,14,-1,-1,-1,-1,-1,-1,-1,-1],"split_conditions":[1.5E1,1.2E1,-2.4E0,6E0,2.7E1,4E-1,2.7E1,3.4646238E-3,-4.536808E-4,5.071221E-3,8.506138E-3,4.5066516E-4,6.9445157E-3,-1.3763524E-3,-5.8300095E-3],"split_indices":[51,80,77,77,1,3,51,0,0,0,0,0,0,0,0],"split_type":[0,0,0,0,0,0,0,0,0,0,0,0,0,0,0],"sum_hessian":[4.5009844E3,2.1915698E3,2.3094146E3,1.0519927E3,1.1395771E3,6.570028E2,1.6524119E3,7.193262E2,3.3266653E2,5.77861E2,5.617161E2,3.4747592E2,3.0952686E2,1.2456527E3,4.0675906E2],"tree_param":{"num_deleted":"0","num_feature":"104","num_nodes":"15","size_leaf_vector":"0"}},{"base_weights":[-8.935339E-2,-1.7122774E-1,1.0075188E-1,-2.542658E-1,7.886333E-3,-1.24128684E-1,1.6730015E-1,-4.2066807E-3,-9.450174E-3,-3.694017E-3,1.5497644E-3,1.558458E-2,-2.9474103E-3,2.7224037E-3,1.0260873E-2],"categories":[],"categories_nodes":[],"categories_segments":[],"categories_sizes":[],"default_left":[0,0,0,0,0,0,0,0,0,0,0,0,0,0,0],"id":54,"left_children":[1,3,5,7,9,11,13,-1,-1,-1,-1,-1,-1,-1,-1],"loss_changes":[7.016524E1,4.6860565E1,2.0333805E1,2.0539337E1,1.3404172E1,6.6344857E0,1.1225832E1,0E0,0E0,0E0,0E0,0E0,0E0,0E0,0E0],"parents":[2147483647,0,0,1,1,2,2,3,3,4,4,5,5,6,6],"right_children":[2,4,6,8,10,12,14,-1,-1,-1,-1,-1,-1,-1,-1],"split_conditions":[2E1,3.1E0,3.72E-1,3.7E1,6E0,1.68E1,7.59E-1,-4.2066807E-3,-9.450174E-3,-3.694017E-3,1.5497644E-3,1.558458E-2,-2.9474103E-3,2.7224037E-3,1.0260873E-2],"split_indices":[28,77,55,54,51,12,55,0,0,0,0,0,0,0,0],"split_type":[0,0,0,0,0,0,0,0,0,0,0,0,0,0,0],"sum_hessian":[4.505851E3,3.1495188E3,1.3563324E3,2.151606E3,9.97913E2,3.095233E2,1.0468092E3,1.7927032E3,3.5890265E2,2.644715E2,7.334415E2,6.9478803E0,3.0257538E2,9.614931E2,8.5316025E1],"tree_param":{"num_deleted":"0","num_feature":"104","num_nodes":"15","size_leaf_vector":"0"}},{"base_weights":[9.169062E-2,-7.017416E-2,2.0184846E-1,1.2235393E-1,-1.3324673E-1,3.114102E-1,5.5821396E-2,-1.4917494E-3,4.645379E-3,-6.2098084E-3,-1.8283998E-3,5.0466787E-3,8.91138E-3,3.924315E-3,-1.0070216E-3],"categories":[],"categories_nodes":[],"categories_segments":[],"categories_sizes":[],"default_left":[0,0,0,0,0,0,0,0,0,0,0,0,0,0,0],"id":55,"left_children":[1,3,5,7,9,11,13,-1,-1,-1,-1,-1,-1,-1,-1],"loss_changes":[8.02468E1,2.2152607E1,4.2824127E1,9.766014E0,1.0154688E1,1.2011246E1,1.7138084E1,0E0,0E0,0E0,0E0,0E0,0E0,0E0,0E0],"parents":[2147483647,0,0,1,1,2,2,3,3,4,4,5,5,6,6],"right_children":[2,4,6,8,10,12,14,-1,-1,-1,-1,-1,-1,-1,-1],"split_conditions":[4.72E-1,-3.2E0,1.6E0,3.17E-1,5E0,4.9E0,8E0,-1.4917494E-3,4.645379E-3,-6.2098084E-3,-1.8283998E-3,5.0466787E-3,8.91138E-3,3.924315E-3,-1.0070216E-3],"split_indices":[3,77,77,3,103,25,51,0,0,0,0,0,0,0,0],"split_type":[0,0,0,0,0,0,0,0,0,0,0,0,0,0,0],"sum_hessian":[4.4986973E3,1.8219323E3,2.6767651E3,4.4935202E2,1.3725802E3,1.528685E3,1.1480801E3,1.6107164E2,2.882804E2,2.6083795E2,1.1117423E3,1.0633322E3,4.6535287E2,4.9400183E2,6.5407825E2],"tree_param":{"num_deleted":"0","num_feature":"104","num_nodes":"15","size_leaf_vector":"0"}},{"base_weights":[-8.629489E-2,-2.2099233E-1,3.9130338E-2,-1.0916115E-1,-3.3975735E-1,-1.6360012E-1,1.1844064E-1,-3.439552E-3,8.784355E-4,-5.771766E-3,-1.016142E-2,2.114322E-3,-5.6611854E-3,1.0227665E-3,4.7333855E-3],"categories":[],"categories_nodes":[],"categories_segments":[],"categories_sizes":[],"default_left":[0,0,0,0,0,0,0,0,0,0,0,0,0,0,0],"id":56,"left_children":[1,3,5,7,9,11,13,-1,-1,-1,-1,-1,-1,-1,-1],"loss_changes":[7.646251E1,2.8945908E1,3.771078E1,1.0829301E1,8.96373E0,2.1251123E1,1.340019E1,0E0,0E0,0E0,0E0,0E0,0E0,0E0,0E0],"parents":[2147483647,0,0,1,1,2,2,3,3,4,4,5,5,6,6],"right_children":[2,4,6,8,10,12,14,-1,-1,-1,-1,-1,-1,-1,-1],"split_conditions":[1.5E1,1.3E1,-2.4E0,6.95E-1,2.6E1,3.33E-1,3.5E0,-3.439552E-3,8.784355E-4,-5.771766E-3,-1.016142E-2,2.114322E-3,-5.6611854E-3,1.0227665E-3,4.7333855E-3],"split_indices":[51,80,77,55,80,3,77,0,0,0,0,0,0,0,0],"split_type":[0,0,0,0,0,0,0,0,0,0,0,0,0,0,0],"sum_hessian":[4.5243813E3,2.1811863E3,2.343195E3,1.1243749E3,1.0568114E3,6.586112E2,1.6845837E3,7.9714777E2,3.272271E2,8.1251355E2,2.4429779E2,2.0240706E2,4.5620416E2,1.0744052E3,6.101786E2],"tree_param":{"num_deleted":"0","num_feature":"104","num_nodes":"15","size_leaf_vector":"0"}},{"base_weights":[8.7779164E-2,2.2616991E-1,-4.404614E-2,-1.7679776E-3,2.8594828E-1,1.1754797E-1,-1.442335E-1,-6.295677E-4,1.054166E-2,7.507833E-3,3.7596493E-3,-1.2958652E-3,4.3635136E-3,-6.7887097E-3,-1.9920734E-3],"categories":[],"categories_nodes":[],"categories_segments":[],"categories_sizes":[],"default_left":[0,0,0,0,0,0,0,0,0,0,0,0,0,0,0],"id":57,"left_children":[1,3,5,7,9,11,13,-1,-1,-1,-1,-1,-1,-1,-1],"loss_changes":[8.2037704E1,2.9891167E1,3.7311646E1,7.193583E0,1.515773E1,1.6200766E1,1.23582E1,0E0,0E0,0E0,0E0,0E0,0E0,0E0,0E0],"parents":[2147483647,0,0,1,1,2,2,3,3,4,4,5,5,6,6],"right_children":[2,4,6,8,10,12,14,-1,-1,-1,-1,-1,-1,-1,-1],"split_conditions":[1.5E1,6E0,-1.1E0,2.7E1,8E0,-4.8E0,-7E0,-6.295677E-4,1.054166E-2,7.507833E-3,3.7596493E-3,-1.2958652E-3,4.3635136E-3,-6.7887097E-3,-1.9920734E-3],"split_indices":[51,103,77,95,51,25,25,0,0,0,0,0,0,0,0],"split_type":[0,0,0,0,0,0,0,0,0,0,0,0,0,0,0],"sum_hessian":[4.495296E3,2.192688E3,2.3026082E3,4.5577307E2,1.7369148E3,8.811734E2,1.4214348E3,4.3242053E2,2.3352549E1,9.0647015E2,8.3044464E2,3.1348422E2,5.6768915E2,2.6328278E2,1.1581521E3],"tree_param":{"num_deleted":"0","num_feature":"104","num_nodes":"15","size_leaf_vector":"0"}},{"base_weights":[-9.018794E-2,8.350764E-2,-1.8584014E-1,-1.3412842E-1,1.4376715E-1,-3.5905617E-1,-1.1177771E-1,9.460323E-4,-5.974724E-3,-2.3537895E-3,3.421469E-3,-5.0898865E-3,-9.29375E-3,-5.634902E-3,-9.1573567E-4],"categories":[],"categories_nodes":[],"categories_segments":[],"categories_sizes":[],"default_left":[0,0,0,0,0,0,0,0,0,0,0,0,0,0,0],"id":58,"left_children":[1,3,5,7,9,11,13,-1,-1,-1,-1,-1,-1,-1,-1],"loss_changes":[7.5128815E1,2.1084103E1,3.7365807E1,1.04312935E1,9.004343E0,9.522415E0,2.2912392E1,0E0,0E0,0E0,0E0,0E0,0E0,0E0,0E0],"parents":[2147483647,0,0,1,1,2,2,3,3,4,4,5,5,6,6],"right_children":[2,4,6,8,10,12,14,-1,-1,-1,-1,-1,-1,-1,-1],"split_conditions":[4.46E-1,3.59E-1,-1.7E0,-4.7E0,5E0,2.3E1,6E0,9.460323E-4,-5.974724E-3,-2.3537895E-3,3.421469E-3,-5.0898865E-3,-9.29375E-3,-5.634902E-3,-9.1573567E-4],"split_indices":[3,55,77,25,53,1,51,0,0,0,0,0,0,0,0],"split_type":[0,0,0,0,0,0,0,0,0,0,0,0,0,0,0],"sum_hessian":[4.519985E3,1.605206E3,2.9147788E3,3.4781073E2,1.2573953E3,8.718536E2,2.0429253E3,1.6579015E2,1.8202057E2,1.1859016E2,1.1388052E3,4.398582E2,4.319954E2,5.704346E2,1.4724907E3],"tree_param":{"num_deleted":"0","num_feature":"104","num_nodes":"15","size_leaf_vector":"0"}},{"base_weights":[9.20353E-2,2.2196193E-1,-3.1980094E-2,2.665258E-1,-5.5902615E-2,1.4497441E-1,-1.1598963E-1,4.371235E-3,8.781859E-3,7.154915E-3,-1.9437056E-3,-1.418854E-3,4.750925E-3,-2.0511162E-4,-3.86993E-3],"categories":[],"categories_nodes":[],"categories_segments":[],"categories_sizes":[],"default_left":[0,0,0,0,0,0,0,0,0,0,0,0,0,0,0],"id":59,"left_children":[1,3,5,7,9,11,13,-1,-1,-1,-1,-1,-1,-1,-1],"loss_changes":[7.245198E1,2.720533E1,3.4226795E1,1.556842E1,5.231495E0,1.4833055E1,1.2790455E1,0E0,0E0,0E0,0E0,0E0,0E0,0E0,0E0],"parents":[2147483647,0,0,1,1,2,2,3,3,4,4,5,5,6,6],"right_children":[2,4,6,8,10,12,14,-1,-1,-1,-1,-1,-1,-1,-1],"split_conditions":[1.5E1,7E-1,-1.9E0,2.3E1,2E0,3.2E-1,1.7E1,4.371235E-3,8.781859E-3,7.154915E-3,-1.9437056E-3,-1.418854E-3,4.750925E-3,-2.0511162E-4,-3.86993E-3],"split_indices":[51,55,77,80,27,3,47,0,0,0,0,0,0,0,0],"split_type":[0,0,0,0,0,0,0,0,0,0,0,0,0,0,0],"sum_hessian":[4.4950796E3,2.1948362E3,2.3002432E3,1.8915159E3,3.0332022E2,7.402606E2,1.5599827E3,1.4818977E3,4.096182E2,2.6829134E1,2.764911E2,2.2220866E2,5.1805194E2,6.6031726E2,8.996654E2],"tree_param":{"num_deleted":"0","num_feature":"104","num_nodes":"15","size_leaf_vector":"0"}},{"base_weights":[-8.341368E-2,-1.8324986E-1,8.2496814E-2,-2.3500009E-1,4.631062E-2,2.4578263E-1,1.02798585E-2,-6.8742195E-3,-3.280648E-3,-6.103507E-3,1.6987288E-3,3.1605165E-3,8.126766E-3,-3.6010712E-3,1.7349775E-3],"categories":[],"categories_nodes":[],"categories_segments":[],"categories_sizes":[],"default_left":[0,0,0,0,0,0,0,0,0,0,0,0,0,0,0],"id":60,"left_children":[1,3,5,7,9,11,13,-1,-1,-1,-1,-1,-1,-1,-1],"loss_changes":[7.433067E1,3.329074E1,1.9881454E1,1.7581566E1,7.0338087E0,7.2207737E0,1.7047247E1,0E0,0E0,0E0,0E0,0E0,0E0,0E0,0E0],"parents":[2147483647,0,0,1,1,2,2,3,3,4,4,5,5,6,6],"right_children":[2,4,6,8,10,12,14,-1,-1,-1,-1,-1,-1,-1,-1],"split_conditions":[1.8E1,5.3E0,-6.4E0,8E0,1.56E1,2.3E1,-2.3E0,-6.8742195E-3,-3.280648E-3,-6.103507E-3,1.6987288E-3,3.1605165E-3,8.126766E-3,-3.6010712E-3,1.7349775E-3],"split_indices":[27,77,25,51,63,53,77,0,0,0,0,0,0,0,0],"split_type":[0,0,0,0,0,0,0,0,0,0,0,0,0,0,0],"sum_hessian":[4.485606E3,2.8003804E3,1.6852255E3,2.2852E3,5.151803E2,5.160376E2,1.1691879E3,9.010678E2,1.3841321E3,5.0325867E1,4.6485443E2,3.3494632E2,1.8109128E2,3.347161E2,8.344718E2],"tree_param":{"num_deleted":"0","num_feature":"104","num_nodes":"15","size_leaf_vector":"0"}},{"base_weights":[8.3115235E-2,-4.0152725E-2,2.0580629E-1,-2.3701277E-1,2.0974884E-2,6.5383896E-2,3.377506E-1,1.6360935E-3,-5.657162E-3,2.2672785E-3,-1.9501466E-3,2.7022723E-3,-1.6185035E-3,5.3302953E-3,9.283796E-3],"categories":[],"categories_nodes":[],"categories_segments":[],"categories_sizes":[],"default_left":[0,0,0,0,0,0,0,0,0,0,0,0,0,0,0],"id":61,"left_children":[1,3,5,7,9,11,13,-1,-1,-1,-1,-1,-1,-1,-1],"loss_changes":[6.763775E1,2.6857244E1,4.1503838E1,7.7522354E0,1.8659925E1,1.110048E1,1.028183E1,0E0,0E0,0E0,0E0,0E0,0E0,0E0,0E0],"parents":[2147483647,0,0,1,1,2,2,3,3,4,4,5,5,6,6],"right_children":[2,4,6,8,10,12,14,-1,-1,-1,-1,-1,-1,-1,-1],"split_conditions":[3E-1,8E0,1.2E1,9E0,2.4E1,6E0,2.3E1,1.6360935E-3,-5.657162E-3,2.2672785E-3,-1.9501466E-3,2.7022723E-3,-1.6185035E-3,5.3302953E-3,9.283796E-3],"split_indices":[25,103,80,53,51,77,80,0,0,0,0,0,0,0,0],"split_type":[0,0,0,0,0,0,0,0,0,0,0,0,0,0,0],"sum_hessian":[4.470703E3,2.230444E3,2.2402593E3,5.2779974E2,1.7026443E3,1.0859874E3,1.1542717E3,6.625627E1,4.615435E2,9.566889E2,7.459554E2,7.355207E2,3.5046674E2,7.402965E2,4.1397528E2],"tree_param":{"num_deleted":"0","num_feature":"104","num_nodes":"15","size_leaf_vector":"0"}},{"base_weights":[-8.429521E-2,-2.4698983E-1,-1.4159575E-3,1.9981345E-2,-3.1085745E-1,-1.21697836E-1,1.2085043E-1,2.0664802E-3,-6.024417E-3,-4.585208E-3,-8.302934E-3,-3.3437058E-3,1.0903999E-3,5.1154536E-3,8.14642E-4],"categories":[],"categories_nodes":[],"categories_segments":[],"categories_sizes":[],"default_left":[0,0,0,0,0,0,0,0,0,0,0,0,0,0,0],"id":62,"left_children":[1,3,5,7,9,11,13,-1,-1,-1,-1,-1,-1,-1,-1],"loss_changes":[6.0767925E1,2.5939934E1,4.3938766E1,7.916414E0,1.0349701E1,1.2081396E1,1.600579E1,0E0,0E0,0E0,0E0,0E0,0E0,0E0,0E0],"parents":[2147483647,0,0,1,1,2,2,3,3,4,4,5,5,6,6],"right_children":[2,4,6,8,10,12,14,-1,-1,-1,-1,-1,-1,-1,-1],"split_conditions":[-1.4E0,-4.8E0,1.5E1,2.8E1,2.3E1,7E-1,8E0,2.0664802E-3,-6.024417E-3,-4.585208E-3,-8.302934E-3,-3.3437058E-3,1.0903999E-3,5.1154536E-3,8.14642E-4],"split_indices":[77,25,51,81,1,55,103,0,0,0,0,0,0,0,0],"split_type":[0,0,0,0,0,0,0,0,0,0,0,0,0,0,0],"sum_hessian":[4.505692E3,1.5199674E3,2.9857246E3,2.9355862E2,1.2264088E3,1.5050791E3,1.4806455E3,2.3361945E2,5.9939163E1,6.898561E2,5.365527E2,1.1963215E3,3.0875757E2,5.508318E2,9.2981366E2],"tree_param":{"num_deleted":"0","num_feature":"104","num_nodes":"15","size_leaf_vector":"0"}},{"base_weights":[8.781708E-2,2.135715E-1,-3.1543963E-2,1.1910623E-1,3.2693344E-1,8.21699E-2,-1.64821E-1,1.4704956E-3,5.680876E-3,1.1848621E-6,7.097197E-3,-1.8025496E-3,3.5008993E-3,-4.9114707E-3,-1.6433729E-3],"categories":[],"categories_nodes":[],"categories_segments":[],"categories_sizes":[],"default_left":[0,0,0,0,0,0,0,0,0,0,0,0,0,0,0],"id":63,"left_children":[1,3,5,7,9,11,13,-1,-1,-1,-1,-1,-1,-1,-1],"loss_changes":[6.689174E1,2.3199135E1,3.467363E1,8.889776E0,8.99855E0,1.9773998E1,7.0096054E0,0E0,0E0,0E0,0E0,0E0,0E0,0E0,0E0],"parents":[2147483647,0,0,1,1,2,2,3,3,4,4,5,5,6,6],"right_children":[2,4,6,8,10,12,14,-1,-1,-1,-1,-1,-1,-1,-1],"split_conditions":[1.5E1,1.4E1,5.24E-1,4.77E-1,9E0,-4.7E0,8E0,1.4704956E-3,5.680876E-3,1.1848621E-6,7.097197E-3,-1.8025496E-3,3.5008993E-3,-4.9114707E-3,-1.6433729E-3],"split_indices":[51,80,55,7,52,25,103,0,0,0,0,0,0,0,0],"split_type":[0,0,0,0,0,0,0,0,0,0,0,0,0,0,0],"sum_hessian":[4.4549756E3,2.1690037E3,2.2859722E3,1.1842288E3,9.84775E2,1.2337244E3,1.0522477E3,9.2895294E2,2.5527576E2,7.7590706E1,9.071843E2,4.32115E2,8.0160944E2,5.312437E2,5.2100397E2],"tree_param":{"num_deleted":"0","num_feature":"104","num_nodes":"15","size_leaf_vector":"0"}},{"base_weights":[-8.242488E-2,-1.437338E-1,1.3430467E-1,-2.136693E-1,2.5227224E-3,1.7756292E-1,-1.3469699E-1,-2.9080736E-3,-6.6038775E-3,1.9241848E-3,-2.691448E-3,-8.216391E-3,3.8712008E-3,-6.659677E-3,1.9324635E-3],"categories":[],"categories_nodes":[],"categories_segments":[],"categories_sizes":[],"default_left":[0,0,0,0,0,0,0,0,0,0,0,0,0,0,0],"id":64,"left_children":[1,3,5,7,9,11,13,-1,-1,-1,-1,-1,-1,-1,-1],"loss_changes":[5.9391983E1,3.5631805E1,1.1495289E1,1.8698296E1,1.4499204E1,8.0769825E0,6.3222556E0,0E0,0E0,0E0,0E0,0E0,0E0,0E0,0E0],"parents":[2147483647,0,0,1,1,2,2,3,3,4,4,5,5,6,6],"right_children":[2,4,6,8,10,12,14,-1,-1,-1,-1,-1,-1,-1,-1],"split_conditions":[2.4E1,2.9E0,2.6E1,6E-1,3.1E0,4E0,1.029E2,-2.9080736E-3,-6.6038775E-3,1.9241848E-3,-2.691448E-3,-8.216391E-3,3.8712008E-3,-6.659677E-3,1.9324635E-3],"split_indices":[51,77,81,3,25,44,76,0,0,0,0,0,0,0,0],"split_type":[0,0,0,0,0,0,0,0,0,0,0,0,0,0,0],"sum_hessian":[4.467326E3,3.4825203E3,9.848059E2,2.3556553E3,1.126865E3,8.486708E2,1.3613515E2,1.4868411E3,8.6881415E2,6.695878E2,4.5727716E2,2.1809923E1,8.2686084E2,7.306477E1,6.307037E1],"tree_param":{"num_deleted":"0","num_feature":"104","num_nodes":"15","size_leaf_vector":"0"}},{"base_weights":[8.8515416E-2,-1.5731761E-2,2.3110019E-1,1.9071801E-1,-7.680782E-2,3.013633E-1,-4.0076368E-2,5.1371367E-3,-1.3356043E-3,4.2937594E-4,-3.0116166E-3,5.031922E-3,8.674299E-3,8.723553E-3,-1.555519E-3],"categories":[],"categories_nodes":[],"categories_segments":[],"categories_sizes":[],"default_left":[0,0,0,0,0,0,0,0,0,0,0,0,0,0,0],"id":65,"left_children":[1,3,5,7,9,11,13,-1,-1,-1,-1,-1,-1,-1,-1],"loss_changes":[6.659668E1,3.2658825E1,3.606566E1,1.0088028E1,1.4493342E1,9.79039E0,7.041063E0,0E0,0E0,0E0,0E0,0E0,0E0,0E0,0E0],"parents":[2147483647,0,0,1,1,2,2,3,3,4,4,5,5,6,6],"right_children":[2,4,6,8,10,12,14,-1,-1,-1,-1,-1,-1,-1,-1],"split_conditions":[5.45E-1,-3.4E0,4.9E0,2.6E1,1.7E1,2.2E1,2E0,5.1371367E-3,-1.3356043E-3,4.2937594E-4,-3.0116166E-3,5.031922E-3,8.674299E-3,8.723553E-3,-1.555519E-3],"split_indices":[3,77,77,28,47,80,51,0,0,0,0,0,0,0,0],"split_type":[0,0,0,0,0,0,0,0,0,0,0,0,0,0,0],"sum_hessian":[4.4791377E3,2.5879297E3,1.8912081E3,5.9033887E2,1.9975907E3,1.5019377E3,3.8927036E2,4.6969855E2,1.2064031E2,8.5684924E2,1.1407415E3,1.093615E3,4.0832285E2,2.777848E1,3.6149188E2],"tree_param":{"num_deleted":"0","num_feature":"104","num_nodes":"15","size_leaf_vector":"0"}},{"base_weights":[-8.34627E-2,-1.5328324E-1,1.06852874E-1,-2.6065573E-2,-2.6843852E-1,-2.6153175E-2,1.9489984E-1,-1.3951914E-3,3.2783523E-3,-8.098357E-3,-4.2694323E-3,2.6394278E-3,-2.0326986E-3,4.717259E-3,-1.3638679E-3],"categories":[],"categories_nodes":[],"categories_segments":[],"categories_sizes":[],"default_left":[0,0,0,0,0,0,0,0,0,0,0,0,0,0,0],"id":66,"left_children":[1,3,5,7,9,11,13,-1,-1,-1,-1,-1,-1,-1,-1],"loss_changes":[6.015177E1,4.8503036E1,1.4236627E1,1.308044E1,1.295137E1,5.8012385E0,7.897669E0,0E0,0E0,0E0,0E0,0E0,0E0,0E0,0E0],"parents":[2147483647,0,0,1,1,2,2,3,3,4,4,5,5,6,6],"right_children":[2,4,6,8,10,12,14,-1,-1,-1,-1,-1,-1,-1,-1],"split_conditions":[2.1E1,1.2E1,4.63E-1,7.3E0,7E0,-7.3E0,1.108E2,-1.3951914E-3,3.2783523E-3,-8.098357E-3,-4.2694323E-3,2.6394278E-3,-2.0326986E-3,4.717259E-3,-1.3638679E-3],"split_indices":[28,80,55,77,51,25,24,0,0,0,0,0,0,0,0],"split_type":[0,0,0,0,0,0,0,0,0,0,0,0,0,0,0],"sum_hessian":[4.5245635E3,3.3103127E3,1.2142505E3,1.5733655E3,1.7369474E3,4.8392447E2,7.30326E2,1.279685E3,2.936804E2,4.9687393E2,1.2400735E3,1.5612155E2,3.2780292E2,6.320245E2,9.83015E1],"tree_param":{"num_deleted":"0","num_feature":"104","num_nodes":"15","size_leaf_vector":"0"}},{"base_weights":[7.466142E-2,1.3810459E-1,-1.1881601E-1,3.741159E-2,2.5521573E-1,-1.5297544E-1,2.766234E-1,3.8267262E-3,-6.8964413E-4,4.0035415E-3,7.50771E-3,-3.2559042E-3,1.2536261E-2,-5.2685854E-3,7.868337E-3],"categories":[],"categories_nodes":[],"categories_segments":[],"categories_sizes":[],"default_left":[0,0,0,0,0,0,0,0,0,0,0,0,0,0,0],"id":67,"left_children":[1,3,5,7,9,11,13,-1,-1,-1,-1,-1,-1,-1,-1],"loss_changes":[5.51462E1,3.9880028E1,1.5030811E1,2.014725E1,1.0266998E1,7.927988E0,5.6911554E0,0E0,0E0,0E0,0E0,0E0,0E0,0E0,0E0],"parents":[2147483647,0,0,1,1,2,2,3,3,4,4,5,5,6,6],"right_children":[2,4,6,8,10,12,14,-1,-1,-1,-1,-1,-1,-1,-1],"split_conditions":[2.2E1,1.4E1,2.8E1,7E0,2.6E1,1.164E2,1.96E1,3.8267262E-3,-6.8964413E-4,4.0035415E-3,7.50771E-3,-3.2559042E-3,1.2536261E-2,-5.2685854E-3,7.868337E-3],"split_indices":[28,80,81,29,103,24,22,0,0,0,0,0,0,0,0],"split_type":[0,0,0,0,0,0,0,0,0,0,0,0,0,0,0],"sum_hessian":[4.4902905E3,3.3816877E3,1.1086028E3,1.8190098E3,1.562678E3,1.0210169E3,8.758582E1,5.785888E2,1.2404209E3,1.0736184E3,4.8905963E2,1.00910065E3,1.1916255E1,1.535035E1,7.223547E1],"tree_param":{"num_deleted":"0","num_feature":"104","num_nodes":"15","size_leaf_vector":"0"}},{"base_weights":[-7.902373E-2,-1.9414996E-1,2.8740946E-2,-1.2879746E-1,-3.7181354E-1,-6.6698395E-2,1.6469112E-1,-4.9285116E-3,-1.1695131E-3,-9.459774E-3,-4.750066E-3,-2.8861999E-3,1.862013E-3,2.524391E-3,6.8056546E-3],"categories":[],"categories_nodes":[],"categories_segments":[],"categories_sizes":[],"default_left":[0,0,0,0,0,0,0,0,0,0,0,0,0,0,0],"id":68,"left_children":[1,3,5,7,9,11,13,-1,-1,-1,-1,-1,-1,-1,-1],"loss_changes":[5.54957E1,2.5061478E1,2.9996933E1,1.3076189E1,7.7833405E0,1.6862474E1,6.3982906E0,0E0,0E0,0E0,0E0,0E0,0E0,0E0,0E0],"parents":[2147483647,0,0,1,1,2,2,3,3,4,4,5,5,6,6],"right_children":[2,4,6,8,10,12,14,-1,-1,-1,-1,-1,-1,-1,-1],"split_conditions":[1.5E1,2E1,5.45E-1,6E0,2.93E1,2.6E1,2.8E1,-4.9285116E-3,-1.1695131E-3,-9.459774E-3,-4.750066E-3,-2.8861999E-3,1.862013E-3,2.524391E-3,6.8056546E-3],"split_indices":[51,80,55,51,61,51,51,0,0,0,0,0,0,0,0],"split_type":[0,0,0,0,0,0,0,0,0,0,0,0,0,0,0],"sum_hessian":[4.4716504E3,2.1615938E3,2.310057E3,1.5815537E3,5.800401E2,1.3575459E3,9.525109E2,5.908042E2,9.907495E2,3.293905E2,2.506496E2,9.1381757E2,4.437283E2,7.827349E2,1.6977596E2],"tree_param":{"num_deleted":"0","num_feature":"104","num_nodes":"15","size_leaf_vector":"0"}},{"base_weights":[8.383991E-2,-6.6917256E-2,1.7595595E-1,1.4564781E-1,-1.2529254E-1,2.4961063E-1,2.3030037E-2,-1.5707577E-3,4.745987E-3,-1.502048E-3,-5.4340903E-3,4.2255465E-3,8.549929E-3,3.1986444E-3,-6.8897475E-4],"categories":[],"categories_nodes":[],"categories_segments":[],"categories_sizes":[],"default_left":[0,0,0,0,0,0,0,0,0,0,0,0,0,0,0],"id":69,"left_children":[1,3,5,7,9,11,13,-1,-1,-1,-1,-1,-1,-1,-1],"loss_changes":[6.1418983E1,2.0837753E1,3.0913544E1,7.455805E0,9.656576E0,1.2542503E1,7.0359006E0,0E0,0E0,0E0,0E0,0E0,0E0,0E0,0E0],"parents":[2147483647,0,0,1,1,2,2,3,3,4,4,5,5,6,6],"right_children":[2,4,6,8,10,12,14,-1,-1,-1,-1,-1,-1,-1,-1],"split_conditions":[4.6E-1,3.59E-1,3E0,-6.8E0,2.8E1,3.7E1,6E0,-1.5707577E-3,4.745987E-3,-1.502048E-3,-5.4340903E-3,4.2255465E-3,8.549929E-3,3.1986444E-3,-6.8897475E-4],"split_indices":[3,55,77,25,51,54,51,0,0,0,0,0,0,0,0],"split_type":[0,0,0,0,0,0,0,0,0,0,0,0,0,0,0],"sum_hessian":[4.4208716E3,1.6768354E3,2.7440361E3,3.6095947E2,1.315876E3,1.851604E3,8.924321E2,1.04786896E2,2.5617258E2,9.810755E2,3.348005E2,1.5251346E3,3.2646936E2,2.6336658E2,6.290655E2],"tree_param":{"num_deleted":"0","num_feature":"104","num_nodes":"15","size_leaf_vector":"0"}},{"base_weights":[-7.653403E-2,-2.0084985E-1,3.9450537E-2,-2.5306192E-1,6.7493636E-3,2.4347802E-1,-2.4852399E-2,-2.2941243E-3,-5.9078876E-3,-3.4620708E-3,1.4911216E-3,5.25439E-3,-7.7467817E-3,-2.159424E-3,2.298734E-3],"categories":[],"categories_nodes":[],"categories_segments":[],"categories_sizes":[],"default_left":[0,0,0,0,0,0,0,0,0,0,0,0,0,0,0],"id":70,"left_children":[1,3,5,7,9,11,13,-1,-1,-1,-1,-1,-1,-1,-1],"loss_changes":[6.453404E1,2.3416176E1,3.0390898E1,1.0075684E1,5.318869E0,6.8394966E0,2.0484049E1,0E0,0E0,0E0,0E0,0E0,0E0,0E0,0E0],"parents":[2147483647,0,0,1,1,2,2,3,3,4,4,5,5,6,6],"right_children":[2,4,6,8,10,12,14,-1,-1,-1,-1,-1,-1,-1,-1],"split_conditions":[1.5E1,4.9E0,8E0,4.5E0,9E0,4.46E1,2.5E1,-2.2941243E-3,-5.9078876E-3,-3.4620708E-3,1.4911216E-3,5.25439E-3,-7.7467817E-3,-2.159424E-3,2.298734E-3],"split_indices":[51,77,103,73,101,57,51,0,0,0,0,0,0,0,0],"split_type":[0,0,0,0,0,0,0,0,0,0,0,0,0,0,0],"sum_hessian":[4.474164E3,2.159169E3,2.314995E3,1.7250841E3,4.3408493E2,5.5409973E2,1.7608954E3,4.0502985E2,1.3200542E3,1.1842292E2,3.1566202E2,5.382648E2,1.58349085E1,1.1044283E3,6.5646704E2],"tree_param":{"num_deleted":"0","num_feature":"104","num_nodes":"15","size_leaf_vector":"0"}},{"base_weights":[7.561858E-2,1.4600122E-1,-1.07004456E-1,4.1576978E-2,2.6633596E-1,-1.5781184E-1,1.4840007E-1,5.5703423E-3,7.491652E-5,8.183703E-3,4.2269332E-3,-7.564057E-4,-4.3348577E-3,6.740855E-3,-1.6404195E-3],"categories":[],"categories_nodes":[],"categories_segments":[],"categories_sizes":[],"default_left":[0,0,0,0,0,0,0,0,0,0,0,0,0,0,0],"id":71,"left_children":[1,3,5,7,9,11,13,-1,-1,-1,-1,-1,-1,-1,-1],"loss_changes":[5.760961E1,4.0636124E1,1.6205997E1,1.5533465E1,1.1717407E1,7.350416E0,9.044177E0,0E0,0E0,0E0,0E0,0E0,0E0,0E0,0E0],"parents":[2147483647,0,0,1,1,2,2,3,3,4,4,5,5,6,6],"right_children":[2,4,6,8,10,12,14,-1,-1,-1,-1,-1,-1,-1,-1],"split_conditions":[2.2E1,1.4E1,2.5E1,4E0,7E0,1.7E1,2.6E1,5.5703423E-3,7.491652E-5,8.183703E-3,4.2269332E-3,-7.564057E-4,-4.3348577E-3,6.740855E-3,-1.6404195E-3],"split_indices":[29,80,81,43,51,47,28,0,0,0,0,0,0,0,0],"split_type":[0,0,0,0,0,0,0,0,0,0,0,0,0,0,0],"sum_hessian":[4.4798057E3,3.2337314E3,1.2460745E3,1.7320427E3,1.5016886E3,1.0396417E3,2.064328E2,2.3759573E2,1.4944469E3,4.156046E2,1.086084E3,3.429636E2,6.9667816E2,1.1325208E2,9.318071E1],"tree_param":{"num_deleted":"0","num_feature":"104","num_nodes":"15","size_leaf_vector":"0"}},{"base_weights":[-8.045728E-2,5.6125104E-2,-1.6371144E-1,-1.3808447E-1,1.08685546E-1,-9.829517E-2,-3.388323E-1,1.7965991E-3,-4.5243567E-3,2.9195042E-4,3.9142896E-3,-3.598209E-3,2.1543118E-4,-7.651919E-3,-1.6282296E-3],"categories":[],"categories_nodes":[],"categories_segments":[],"categories_sizes":[],"default_left":[0,0,0,0,0,0,0,0,0,0,0,0,0,0,0],"id":72,"left_children":[1,3,5,7,9,11,13,-1,-1,-1,-1,-1,-1,-1,-1],"loss_changes":[5.100716E1,1.7360168E1,3.1890198E1,7.2990527E0,1.0951997E1,1.8074005E1,8.502075E0,0E0,0E0,0E0,0E0,0E0,0E0,0E0,0E0],"parents":[2147483647,0,0,1,1,2,2,3,3,4,4,5,5,6,6],"right_children":[2,4,6,8,10,12,14,-1,-1,-1,-1,-1,-1,-1,-1],"split_conditions":[4.6E-1,3.59E-1,2E1,-6.9E0,2E1,1.1E1,2.46E1,1.7965991E-3,-4.5243567E-3,2.9195042E-4,3.9142896E-3,-3.598209E-3,2.1543118E-4,-7.651919E-3,-1.6282296E-3],"split_indices":[3,55,80,25,47,51,69,0,0,0,0,0,0,0,0],"split_type":[0,0,0,0,0,0,0,0,0,0,0,0,0,0,0],"sum_hessian":[4.4838945E3,1.6982163E3,2.7856782E3,3.6136267E2,1.3368536E3,2.0292244E3,7.56454E2,1.0076455E2,2.605981E2,6.429358E2,6.9391785E2,1.1603088E3,8.689155E2,6.461217E2,1.10332275E2],"tree_param":{"num_deleted":"0","num_feature":"104","num_nodes":"15","size_leaf_vector":"0"}},{"base_weights":[8.517873E-2,-4.903426E-2,1.7783731E-1,3.9132476E-2,-1.6625819E-1,2.3494476E-1,-5.8622852E-2,-1.6019823E-3,2.5311073E-3,-2.5938447E-3,-6.727219E-3,6.4498144E-3,2.9313073E-3,-1.7655516E-3,8.991122E-3],"categories":[],"categories_nodes":[],"categories_segments":[],"categories_sizes":[],"default_left":[0,0,0,0,0,0,0,0,0,0,0,0,0,0,0],"id":73,"left_children":[1,3,5,7,9,11,13,-1,-1,-1,-1,-1,-1,-1,-1],"loss_changes":[5.510915E1,1.8717182E1,3.5411552E1,1.0788695E1,4.791271E0,1.6290894E1,7.7363315E0,0E0,0E0,0E0,0E0,0E0,0E0,0E0,0E0],"parents":[2147483647,0,0,1,1,2,2,3,3,4,4,5,5,6,6],"right_children":[2,4,6,8,10,12,14,-1,-1,-1,-1,-1,-1,-1,-1],"split_conditions":[4.72E-1,5.36E-1,4.9E0,-4.7E0,2.8E1,4.53E-1,3.76E1,-1.6019823E-3,2.5311073E-3,-2.5938447E-3,-6.727219E-3,6.4498144E-3,2.9313073E-3,-1.7655516E-3,8.991122E-3],"split_indices":[3,55,77,25,47,59,15,0,0,0,0,0,0,0,0],"split_type":[0,0,0,0,0,0,0,0,0,0,0,0,0,0,0],"sum_hessian":[4.429725E3,1.8093746E3,2.6203506E3,1.0330562E3,7.763185E2,2.110621E3,5.097293E2,4.3705844E2,5.9599774E2,6.404149E2,1.3590358E2,1.0589794E3,1.0516418E3,4.824049E2,2.7324404E1],"tree_param":{"num_deleted":"0","num_feature":"104","num_nodes":"15","size_leaf_vector":"0"}},{"base_weights":[-7.562276E-2,-2.0066583E-1,4.1307986E-2,-2.57012E-1,3.7045956E-2,-4.0066414E-2,1.5545689E-1,-4.251964E-3,-8.042239E-3,1.3846373E-3,-9.0067005E-3,1.8497979E-3,-2.3950292E-3,3.337224E-3,-9.556521E-3],"categories":[],"categories_nodes":[],"categories_segments":[],"categories_sizes":[],"default_left":[0,0,0,0,0,0,0,0,0,0,0,0,0,0,0],"id":74,"left_children":[1,3,5,7,9,11,13,-1,-1,-1,-1,-1,-1,-1,-1],"loss_changes":[6.519088E1,2.8866646E1,2.141296E1,1.113916E1,6.5208426E0,1.4231018E1,7.0082397E0,0E0,0E0,0E0,0E0,0E0,0E0,0E0,0E0],"parents":[2147483647,0,0,1,1,2,2,3,3,4,4,5,5,6,6],"right_children":[2,4,6,8,10,12,14,-1,-1,-1,-1,-1,-1,-1,-1],"split_conditions":[1.5E1,5.1E0,5.45E-1,2.3E1,1.08E1,-4.3E0,1.37E1,-4.251964E-3,-8.042239E-3,1.3846373E-3,-9.0067005E-3,1.8497979E-3,-2.3950292E-3,3.337224E-3,-9.556521E-3],"split_indices":[51,77,55,80,25,25,66,0,0,0,0,0,0,0,0],"split_type":[0,0,0,0,0,0,0,0,0,0,0,0,0,0,0],"sum_hessian":[4.457032E3,2.1534575E3,2.3035747E3,1.7407552E3,4.127023E2,1.345234E3,9.583406E2,1.334685E3,4.060702E2,3.879412E2,2.4761103E1,5.0500165E2,8.402324E2,9.421113E2,1.6229258E1],"tree_param":{"num_deleted":"0","num_feature":"104","num_nodes":"15","size_leaf_vector":"0"}},{"base_weights":[7.032013E-2,1.445502E-1,-7.797451E-2,7.391782E-2,3.1574392E-1,1.6452773E-1,-1.4076665E-1,9.187588E-3,1.0314789E-3,5.005394E-3,9.940392E-3,1.1837551E-2,2.1428626E-3,-3.3498865E-3,2.4245905E-3],"categories":[],"categories_nodes":[],"categories_segments":[],"categories_sizes":[],"default_left":[0,0,0,0,0,0,0,0,0,0,0,0,0,0,0],"id":75,"left_children":[1,3,5,7,9,11,13,-1,-1,-1,-1,-1,-1,-1,-1],"loss_changes":[4.906025E1,3.5886593E1,2.266632E1,1.8094582E1,1.0167152E1,7.4482403E0,8.29529E0,0E0,0E0,0E0,0E0,0E0,0E0,0E0,0E0],"parents":[2147483647,0,0,1,1,2,2,3,3,4,4,5,5,6,6],"right_children":[2,4,6,8,10,12,14,-1,-1,-1,-1,-1,-1,-1,-1],"split_conditions":[1.9E1,2.1E1,3.59E-1,2E0,3.7E1,1.9E1,5.9E0,9.187588E-3,1.0314789E-3,5.005394E-3,9.940392E-3,1.1837551E-2,2.1428626E-3,-3.3498865E-3,2.4245905E-3],"split_indices":[28,103,55,51,54,51,73,0,0,0,0,0,0,0,0],"split_type":[0,0,0,0,0,0,0,0,0,0,0,0,0,0,0],"sum_hessian":[4.454788E3,2.968771E3,1.4860171E3,2.1026682E3,8.661029E2,3.0530682E2,1.1807103E3,1.14134605E2,1.9885336E3,6.380345E2,2.2806842E2,3.5040665E1,2.7026617E2,1.0717372E3,1.0897312E2],"tree_param":{"num_deleted":"0","num_feature":"104","num_nodes":"15","size_leaf_vector":"0"}},{"base_weights":[-6.70313E-2,-1.3573986E-1,8.7103136E-2,-6.905054E-2,-2.9334843E-1,2.8697704E-3,2.302734E-1,-3.800571E-3,-5.5349374E-5,-6.5118712E-3,-1.6279524E-3,-1.4589989E-3,2.2873739E-3,5.105723E-3,-2.8348425E-3],"categories":[],"categories_nodes":[],"categories_segments":[],"categories_sizes":[],"default_left":[0,0,0,0,0,0,0,0,0,0,0,0,0,0,0],"id":76,"left_children":[1,3,5,7,9,11,13,-1,-1,-1,-1,-1,-1,-1,-1],"loss_changes":[4.7078278E1,3.22939E1,1.6532001E1,1.7332859E1,6.2186203E0,7.313396E0,4.761219E0,0E0,0E0,0E0,0E0,0E0,0E0,0E0,0E0],"parents":[2147483647,0,0,1,1,2,2,3,3,4,4,5,5,6,6],"right_children":[2,4,6,8,10,12,14,-1,-1,-1,-1,-1,-1,-1,-1],"split_conditions":[2E1,1.9E1,5.61E-1,7E0,1.23E1,3.35E1,3E1,-3.800571E-3,-5.5349374E-5,-6.5118712E-3,-1.6279524E-3,-1.4589989E-3,2.2873739E-3,5.105723E-3,-2.8348425E-3],"split_indices":[28,80,55,27,14,67,48,0,0,0,0,0,0,0,0],"split_type":[0,0,0,0,0,0,0,0,0,0,0,0,0,0,0],"sum_hessian":[4.4432754E3,3.073375E3,1.3699003E3,2.160595E3,9.1278E2,8.631129E2,5.067873E2,7.641051E2,1.39649E3,7.917856E2,1.2099448E2,5.139623E2,3.4915063E2,4.7515372E2,3.1633587E1],"tree_param":{"num_deleted":"0","num_feature":"104","num_nodes":"15","size_leaf_vector":"0"}},{"base_weights":[7.524522E-2,1.9425727E-1,-3.465087E-2,1.0916036E-2,2.3979554E-1,-1.2242476E-1,9.514157E-2,4.7032945E-3,-1.6230555E-3,7.88668E-3,3.8354318E-3,-1.0177781E-3,-4.3486576E-3,-1.7704096E-3,3.1647752E-3],"categories":[],"categories_nodes":[],"categories_segments":[],"categories_sizes":[],"default_left":[0,0,0,0,0,0,0,0,0,0,0,0,0,0,0],"id":77,"left_children":[1,3,5,7,9,11,13,-1,-1,-1,-1,-1,-1,-1,-1],"loss_changes":[5.8710686E1,1.7989494E1,2.6606432E1,8.893045E0,1.2735329E1,9.456984E0,1.0934551E1,0E0,0E0,0E0,0E0,0E0,0E0,0E0,0E0],"parents":[2147483647,0,0,1,1,2,2,3,3,4,4,5,5,6,6],"right_children":[2,4,6,8,10,12,14,-1,-1,-1,-1,-1,-1,-1,-1],"split_conditions":[1.5E1,4.2E0,1.8E1,6E0,3.78E-1,2.4E1,-6.2E0,4.7032945E-3,-1.6230555E-3,7.88668E-3,3.8354318E-3,-1.0177781E-3,-4.3486576E-3,-1.7704096E-3,3.1647752E-3],"split_indices":[51,73,81,41,55,51,25,0,0,0,0,0,0,0,0],"split_type":[0,0,0,0,0,0,0,0,0,0,0,0,0,0,0],"sum_hessian":[4.4874263E3,2.1539917E3,2.3334348E3,4.2880856E2,1.7251832E3,1.3920792E3,9.413555E2,1.2435859E2,3.0444998E2,4.073006E2,1.3178826E3,7.950136E2,5.9706555E2,2.4060486E2,7.007507E2],"tree_param":{"num_deleted":"0","num_feature":"104","num_nodes":"15","size_leaf_vector":"0"}},{"base_weights":[-7.83792E-2,-1.9348256E-1,3.0044476E-2,-2.3718096E-1,6.4311184E-2,-1.3080843E-1,1.04165934E-1,-3.814601E-3,-8.112034E-3,-8.784256E-3,2.1622316E-3,2.1753629E-4,-3.9831907E-3,8.641628E-4,4.8132236E-3],"categories":[],"categories_nodes":[],"categories_segments":[],"categories_sizes":[],"default_left":[0,0,0,0,0,0,0,0,0,0,0,0,0,0,0],"id":78,"left_children":[1,3,5,7,9,11,13,-1,-1,-1,-1,-1,-1,-1,-1],"loss_changes":[5.5728367E1,2.4414566E1,2.7436508E1,1.441288E1,6.9883637E0,7.032878E0,1.3094963E1,0E0,0E0,0E0,0E0,0E0,0E0,0E0,0E0],"parents":[2147483647,0,0,1,1,2,2,3,3,4,4,5,5,6,6],"right_children":[2,4,6,8,10,12,14,-1,-1,-1,-1,-1,-1,-1,-1],"split_conditions":[1.5E1,6.2E0,-1.9E0,2.3E1,1.023E2,3.33E-1,2.6E1,-3.814601E-3,-8.112034E-3,-8.784256E-3,2.1622316E-3,2.1753629E-4,-3.9831907E-3,8.641628E-4,4.8132236E-3],"split_indices":[51,77,77,80,76,3,51,0,0,0,0,0,0,0,0],"split_type":[0,0,0,0,0,0,0,0,0,0,0,0,0,0,0],"sum_hessian":[4.4639727E3,2.164907E3,2.2990657E3,1.8511929E3,3.1371414E2,7.249873E2,1.5740785E3,1.452674E3,3.9851898E2,2.4382967E1,2.8933118E2,2.3620271E2,4.8878458E2,1.0890383E3,4.850401E2],"tree_param":{"num_deleted":"0","num_feature":"104","num_nodes":"15","size_leaf_vector":"0"}},{"base_weights":[7.5456426E-2,1.8512142E-1,-2.6926396E-2,2.3028082E-1,-2.9584477E-3,1.4075845E-1,-9.250668E-2,6.5786275E-3,3.2082226E-3,1.0304801E-2,-7.366411E-4,-1.447665E-3,4.6110554E-3,6.284433E-4,-3.0692085E-3],"categories":[],"categories_nodes":[],"categories_segments":[],"categories_sizes":[],"default_left":[0,0,0,0,0,0,0,0,0,0,0,0,0,0,0],"id":79,"left_children":[1,3,5,7,9,11,13,-1,-1,-1,-1,-1,-1,-1,-1],"loss_changes":[5.0036892E1,1.8275856E1,2.5365347E1,1.1906464E1,7.3489637E0,1.2429131E1,1.2528318E1,0E0,0E0,0E0,0E0,0E0,0E0,0E0,0E0],"parents":[2147483647,0,0,1,1,2,2,3,3,4,4,5,5,6,6],"right_children":[2,4,6,8,10,12,14,-1,-1,-1,-1,-1,-1,-1,-1],"split_conditions":[1.5E1,5.1E0,-2.4E0,9.4E0,2E0,3.2E-1,1.4E1,6.5786275E-3,3.2082226E-3,1.0304801E-2,-7.366411E-4,-1.447665E-3,4.6110554E-3,6.284433E-4,-3.0692085E-3],"split_indices":[51,77,77,60,51,3,47,0,0,0,0,0,0,0,0],"split_type":[0,0,0,0,0,0,0,0,0,0,0,0,0,0,0],"sum_hessian":[4.4550703E3,2.1506467E3,2.3044233E3,1.734061E3,4.165856E2,6.4754456E2,1.6568789E3,7.1741656E2,1.0166445E3,2.4688608E1,3.91897E2,1.9199841E2,4.555461E2,5.4641437E2,1.1104645E3],"tree_param":{"num_deleted":"0","num_feature":"104","num_nodes":"15","size_leaf_vector":"0"}},{"base_weights":[-7.418362E-2,7.7026114E-2,-1.3914455E-1,1.9346416E-1,-2.8806942E-2,-1.9923487E-1,6.0437445E-2,9.6260913E-4,5.4316144E-3,-4.2332213E-5,-8.551174E-3,-6.8366597E-3,-2.9325183E-3,1.9408095E-3,-4.6396637E-3],"categories":[],"categories_nodes":[],"categories_segments":[],"categories_sizes":[],"default_left":[0,0,0,0,0,0,0,0,0,0,0,0,0,0,0],"id":80,"left_children":[1,3,5,7,9,11,13,-1,-1,-1,-1,-1,-1,-1,-1],"loss_changes":[4.3303482E1,1.6334816E1,3.6989956E1,7.1514454E0,7.396211E0,1.7729744E1,7.6676855E0,0E0,0E0,0E0,0E0,0E0,0E0,0E0,0E0],"parents":[2147483647,0,0,1,1,2,2,3,3,4,4,5,5,6,6],"right_children":[2,4,6,8,10,12,14,-1,-1,-1,-1,-1,-1,-1,-1],"split_conditions":[9E0,6E-1,2.4E1,4.8E0,2.4E1,7E0,2.8E1,9.6260913E-4,5.4316144E-3,-4.2332213E-5,-8.551174E-3,-6.8366597E-3,-2.9325183E-3,1.9408095E-3,-4.6396637E-3],"split_indices":[103,25,51,72,102,51,81,0,0,0,0,0,0,0,0],"split_type":[0,0,0,0,0,0,0,0,0,0,0,0,0,0,0],"sum_hessian":[4.406409E3,1.3241036E3,3.0823057E3,6.3006976E2,6.940338E2,2.369036E3,7.132697E2,2.2083276E2,4.09237E2,6.514355E2,4.2598335E1,6.369814E2,1.7320546E3,6.345141E2,7.875561E1],"tree_param":{"num_deleted":"0","num_feature":"104","num_nodes":"15","size_leaf_vector":"0"}},{"base_weights":[6.997554E-2,1.3764861E-1,-9.826903E-2,2.5760848E-2,1.9737753E-1,1.4107777E-2,-2.1874648E-1,2.2503673E-3,-2.0855651E-3,6.46496E-3,