{"learner":{"attributes":{"best_iteration":"499","best_ntree_limit":"500"},"feature_names":[],"feature_types":[],"gradient_booster":{"model":{"gbtree_model_param":{"num_parallel_tree":"1","num_trees":"1500","size_leaf_vector":"0"},"tree_info":[0,1,2,0,1,2,0,1,2,0,1,2,0,1,2,0,1,2,0,1,2,0,1,2,0,1,2,0,1,2,0,1,2,0,1,2,0,1,2,0,1,2,0,1,2,0,1,2,0,1,2,0,1,2,0,1,2,0,1,2,0,1,2,0,1,2,0,1,2,0,1,2,0,1,2,0,1,2,0,1,2,0,1,2,0,1,2,0,1,2,0,1,2,0,1,2,0,1,2,0,1,2,0,1,2,0,1,2,0,1,2,0,1,2,0,1,2,0,1,2,0,1,2,0,1,2,0,1,2,0,1,2,0,1,2,0,1,2,0,1,2,0,1,2,0,1,2,0,1,2,0,1,2,0,1,2,0,1,2,0,1,2,0,1,2,0,1,2,0,1,2,0,1,2,0,1,2,0,1,2,0,1,2,0,1,2,0,1,2,0,1,2,0,1,2,0,1,2,0,1,2,0,1,2,0,1,2,0,1,2,0,1,2,0,1,2,0,1,2,0,1,2,0,1,2,0,1,2,0,1,2,0,1,2,0,1,2,0,1,2,0,1,2,0,1,2,0,1,2,0,1,2,0,1,2,0,1,2,0,1,2,0,1,2,0,1,2,0,1,2,0,1,2,0,1,2,0,1,2,0,1,2,0,1,2,0,1,2,0,1,2,0,1,2,0,1,2,0,1,2,0,1,2,0,1,2,0,1,2,0,1,2,0,1,2,0,1,2,0,1,2,0,1,2,0,1,2,0,1,2,0,1,2,0,1,2,0,1,2,0,1,2,0,1,2,0,1,2,0,1,2,0,1,2,0,1,2,0,1,2,0,1,2,0,1,2,0,1,2,0,1,2,0,1,2,0,1,2,0,1,2,0,1,2,0,1,2,0,1,2,0,1,2,0,1,2,0,1,2,0,1,2,0,1,2,0,1,2,0,1,2,0,1,2,0,1,2,0,1,2,0,1,2,0,1,2,0,1,2,0,1,2,0,1,2,0,1,2,0,1,2,0,1,2,0,1,2,0,1,2,0,1,2,0,1,2,0,1,2,0,1,2,0,1,2,0,1,2,0,1,2,0,1,2,0,1,2,0,1,2,0,1,2,0,1,2,0,1,2,0,1,2,0,1,2,0,1,2,0,1,2,0,1,2,0,1,2,0,1,2,0,1,2,0,1,2,0,1,2,0,1,2,0,1,2,0,1,2,0,1,2,0,1,2,0,1,2,0,1,2,0,1,2,0,1,2,0,1,2,0,1,2,0,1,2,0,1,2,0,1,2,0,1,2,0,1,2,0,1,2,0,1,2,0,1,2,0,1,2,0,1,2,0,1,2,0,1,2,0,1,2,0,1,2,0,1,2,0,1,2,0,1,2,0,1,2,0,1,2,0,1,2,0,1,2,0,1,2,0,1,2,0,1,2,0,1,2,0,1,2,0,1,2,0,1,2,0,1,2,0,1,2,0,1,2,0,1,2,0,1,2,0,1,2,0,1,2,0,1,2,0,1,2,0,1,2,0,1,2,0,1,2,0,1,2,0,1,2,0,1,2,0,1,2,0,1,2,0,1,2,0,1,2,0,1,2,0,1,2,0,1,2,0,1,2,0,1,2,0,1,2,0,1,2,0,1,2,0,1,2,0,1,2,0,1,2,0,1,2,0,1,2,0,1,2,0,1,2,0,1,2,0,1,2,0,1,2,0,1,2,0,1,2,0,1,2,0,1,2,0,1,2,0,1,2,0,1,2,0,1,2,0,1,2,0,1,2,0,1,2,0,1,2,0,1,2,0,1,2,0,1,2,0,1,2,0,1,2,0,1,2,0,1,2,0,1,2,0,1,2,0,1,2,0,1,2,0,1,2,0,1,2,0,1,2,0,1,2,0,1,2,0,1,2,0,1,2,0,1,2,0,1,2,0,1,2,0,1,2,0,1,2,0,1,2,0,1,2,0,1,2,0,1,2,0,1,2,0,1,2,0,1,2,0,1,2,0,1,2,0,1,2,0,1,2,0,1,2,0,1,2,0,1,2,0,1,2,0,1,2,0,1,2,0,1,2,0,1,2,0,1,2,0,1,2,0,1,2,0,1,2,0,1,2,0,1,2,0,1,2,0,1,2,0,1,2,0,1,2,0,1,2,0,1,2,0,1,2,0,1,2,0,1,2,0,1,2,0,1,2,0,1,2,0,1,2,0,1,2,0,1,2,0,1,2,0,1,2,0,1,2,0,1,2,0,1,2,0,1,2,0,1,2,0,1,2,0,1,2,0,1,2,0,1,2,0,1,2,0,1,2,0,1,2,0,1,2,0,1,2,0,1,2,0,1,2,0,1,2,0,1,2,0,1,2,0,1,2,0,1,2,0,1,2,0,1,2,0,1,2,0,1,2,0,1,2,0,1,2,0,1,2,0,1,2,0,1,2,0,1,2,0,1,2,0,1,2,0,1,2,0,1,2,0,1,2,0,1,2,0,1,2,0,1,2,0,1,2,0,1,2,0,1,2,0,1,2,0,1,2,0,1,2,0,1,2,0,1,2,0,1,2,0,1,2,0,1,2,0,1,2,0,1,2,0,1,2,0,1,2,0,1,2,0,1,2,0,1,2,0,1,2,0,1,2,0,1,2,0,1,2,0,1,2,0,1,2,0,1,2,0,1,2,0,1,2,0,1,2,0,1,2,0,1,2,0,1,2,0,1,2,0,1,2,0,1,2,0,1,2,0,1,2,0,1,2,0,1,2,0,1,2,0,1,2,0,1,2,0,1,2,0,1,2,0,1,2,0,1,2,0,1,2,0,1,2,0,1,2,0,1,2,0,1,2,0,1,2,0,1,2,0,1,2,0,1,2,0,1,2,0,1,2,0,1,2,0,1,2,0,1,2,0,1,2,0,1,2,0,1,2,0,1,2,0,1,2,0,1,2,0,1,2,0,1,2,0,1,2,0,1,2,0,1,2,0,1,2,0,1,2,0,1,2,0,1,2,0,1,2,0,1,2,0,1,2,0,1,2,0,1,2,0,1,2,0,1,2,0,1,2,0,1,2,0,1,2,0,1,2,0,1,2,0,1,2,0,1,2,0,1,2,0,1,2,0,1,2,0,1,2,0,1,2,0,1,2,0,1,2,0,1,2,0,1,2,0,1,2,0,1,2,0,1,2,0,1,2,0,1,2,0,1,2,0,1,2,0,1,2,0,1,2,0,1,2,0,1,2,0,1,2,0,1,2,0,1,2,0,1,2,0,1,2,0,1,2,0,1,2,0,1,2,0,1,2,0,1,2,0,1,2,0,1,2,0,1,2,0,1,2,0,1,2,0,1,2,0,1,2,0,1,2,0,1,2,0,1,2,0,1,2,0,1,2,0,1,2,0,1,2,0,1,2,0,1,2,0,1,2],"trees":[{"base_weights":[2.0039755E-1,-4.422548E-2,4.3514726E-1,1.4322162E-1,-2.3382469E-1,1.2928173E-1,5.812819E-1,5.6068175E-2,1.0508757E-1,-1.2974301E-1,-1.1922832E-1,4.6898526E-1,-1.4259101E-2,4.5519823E-1,7.4383503E-1,-4.649491E-2,7.328698E-2,1.20343715E-2,-7.675908E-2,1.6999549E-1,2.7692296E-2,2.0244114E-1,9.966002E-2,1.9810113E-1,2.7924198E-1,-3.549593E-2,5.868027E-2],"categories":[],"categories_nodes":[],"categories_segments":[],"categories_sizes":[],"default_left":[0,0,0,0,0,0,0,0,0,0,0,0,0,0,0,0,0,0,0,0,0,0,0,0,0,0,0],"id":0,"left_children":[1,3,5,7,9,11,13,15,-1,17,-1,19,-1,21,23,25,-1,-1,-1,-1,-1,-1,-1,-1,-1,-1,-1],"loss_changes":[3.1456238E2,9.539473E1,1.248645E2,2.434165E1,2.2669563E1,5.437991E1,3.8422546E1,1.8374325E1,0E0,1.7512474E1,0E0,1.1348099E1,0E0,2.861464E1,1.2258087E1,1.0744118E1,0E0,0E0,0E0,0E0,0E0,0E0,0E0,0E0,0E0,0E0,0E0],"parents":[2147483647,0,0,1,1,2,2,3,3,4,4,5,5,6,6,7,7,9,9,11,11,13,13,14,14,15,15],"right_children":[2,4,6,8,10,12,14,16,-1,18,-1,20,-1,22,24,26,-1,-1,-1,-1,-1,-1,-1,-1,-1,-1,-1],"split_conditions":[1.5E1,1.3E1,-1.9E0,6E0,2.3E1,-4.8E0,2.4E1,9E0,1.0508757E-1,3.4E0,-1.1922832E-1,2.8E1,-1.4259101E-2,8E0,2.7E1,1.23E1,7.328698E-2,1.20343715E-2,-7.675908E-2,1.6999549E-1,2.7692296E-2,2.0244114E-1,9.966002E-2,1.9810113E-1,2.7924198E-1,-3.549593E-2,5.868027E-2],"split_indices":[51,80,77,77,80,25,51,29,0,25,0,80,0,103,47,60,0,0,0,0,0,0,0,0,0,0,0],"split_type":[0,0,0,0,0,0,0,0,0,0,0,0,0,0,0,0,0,0,0,0,0,0,0,0,0,0,0],"sum_hessian":[5.4764443E3,2.6822222E3,2.7942222E3,1.3488888E3,1.3333333E3,9.0399994E2,1.8902222E3,9.5022217E2,3.9866666E2,8.1599994E2,5.173333E2,3.088889E2,5.951111E2,1.0666666E3,8.235555E2,6.1555554E2,3.3466666E2,3.4799997E2,4.6799997E2,2.4488887E2,6.3999996E1,3.813333E2,6.853333E2,5.724444E2,2.511111E2,4.7511108E2,1.4044444E2],"tree_param":{"num_deleted":"0","num_feature":"104","num_nodes":"27","size_leaf_vector":"0"}},{"base_weights":[5.494655E-1,7.939459E-1,3.1458437E-1,6.062227E-1,9.8326254E-1,6.198895E-1,1.6832145E-1,6.931433E-1,1.1934946E-1,8.7882495E-1,3.4379423E-1,2.7859443E-1,2.3888163E-1,2.9409924E-1,5.2553117E-3,7.9527843E-1,1.510427E-1,2.1232092E-1,3.012793E-1,5.408946E-2,1.9384615E-1,2.1970347E-2,1.2501213E-1,2.650648E-2,-5.5134434E-2,2.6002336E-1,1.6472898E-1],"categories":[],"categories_nodes":[],"categories_segments":[],"categories_sizes":[],"default_left":[0,0,0,0,0,0,0,0,0,0,0,0,0,0,0,0,0,0,0,0,0,0,0,0,0,0,0],"id":1,"left_children":[1,3,5,7,9,11,13,15,-1,17,-1,19,-1,21,23,25,-1,-1,-1,-1,-1,-1,-1,-1,-1,-1,-1],"loss_changes":[3.1428625E2,9.4763306E1,1.2471579E2,2.4175446E1,2.1668335E1,5.4257812E1,3.878761E1,1.8026337E1,0E0,1.682306E1,0E0,1.1079693E1,0E0,2.8881645E1,1.2969083E1,1.03714905E1,0E0,0E0,0E0,0E0,0E0,0E0,0E0,0E0,0E0,0E0,0E0],"parents":[2147483647,0,0,1,1,2,2,3,3,4,4,5,5,6,6,7,7,9,9,11,11,13,13,14,14,15,15],"right_children":[2,4,6,8,10,12,14,16,-1,18,-1,20,-1,22,24,26,-1,-1,-1,-1,-1,-1,-1,-1,-1,-1,-1],"split_conditions":[1.5E1,1.3E1,-1.9E0,6E0,2.3E1,-4.8E0,2.4E1,9E0,1.1934946E-1,3.4E0,3.4379423E-1,2.8E1,2.3888163E-1,8E0,2.7E1,1.23E1,1.510427E-1,2.1232092E-1,3.012793E-1,5.408946E-2,1.9384615E-1,2.1970347E-2,1.2501213E-1,2.650648E-2,-5.5134434E-2,2.6002336E-1,1.6472898E-1],"split_indices":[51,80,77,77,80,25,51,29,0,25,0,80,0,103,47,60,0,0,0,0,0,0,0,0,0,0,0],"split_type":[0,0,0,0,0,0,0,0,0,0,0,0,0,0,0,0,0,0,0,0,0,0,0,0,0,0,0],"sum_hessian":[5.4764443E3,2.6822222E3,2.7942222E3,1.3488888E3,1.3333333E3,9.0399994E2,1.8902222E3,9.5022217E2,3.9866666E2,8.1599994E2,5.173333E2,3.088889E2,5.951111E2,1.0666666E3,8.235555E2,6.1555554E2,3.3466666E2,3.4799997E2,4.6799997E2,2.4488887E2,6.3999996E1,3.813333E2,6.853333E2,5.724444E2,2.511111E2,4.7511108E2,1.4044444E2],"tree_param":{"num_deleted":"0","num_feature":"104","num_nodes":"27","size_leaf_vector":"0"}},{"base_weights":[-7.4986315E-1],"categories":[],"categories_nodes":[],"categories_segments":[],"categories_sizes":[],"default_left":[0],"id":2,"left_children":[-1],"loss_changes":[0E0],"parents":[2147483647],"right_children":[-1],"split_conditions":[-2.2495896E-1],"split_indices":[0],"split_type":[0],"sum_hessian":[5.4764443E3],"tree_param":{"num_deleted":"0","num_feature":"104","num_nodes":"1","size_leaf_vector":"0"}},{"base_weights":[1.6001144E-1,3.8174254E-1,1.7781202E-2,2.4347499E-1,1.5859395E-1,-1.1502988E-1,1.9520907E-1,1.20263256E-1,1.0992698E-1,-3.985724E-2,-8.110476E-2,1.5808346E-2,1.04276545E-1,-1.1253096E-2,6.9455005E-2,-8.7148845E-2,3.4164535E-3],"categories":[],"categories_nodes":[],"categories_segments":[],"categories_sizes":[],"default_left":[0,0,0,0,0,0,0,0,0,0,0,0,0,0,0,0,0],"id":3,"left_children":[1,3,5,7,-1,9,11,-1,13,15,-1,-1,-1,-1,-1,-1,-1],"loss_changes":[1.7557263E2,4.406244E1,7.997218E1,2.3554E1,0E0,2.2651968E1,3.1531387E1,0E0,1.0920779E1,1.6818026E1,0E0,0E0,0E0,0E0,0E0,0E0,0E0],"parents":[2147483647,0,0,1,1,2,2,3,3,5,5,6,6,8,8,9,9],"right_children":[2,4,6,8,-1,10,12,-1,14,16,-1,-1,-1,-1,-1,-1,-1],"split_conditions":[4.6E-1,5.14E-1,1.6E0,-4.9E0,1.5859395E-1,2.3E1,1E1,1.20263256E-1,3.71E-1,4E0,-8.110476E-2,1.5808346E-2,1.04276545E-1,-1.1253096E-2,6.9455005E-2,-8.7148845E-2,3.4164535E-3],"split_indices":[3,55,77,25,0,80,51,0,55,51,0,0,0,0,0,0,0],"split_type":[0,0,0,0,0,0,0,0,0,0,0,0,0,0,0,0,0],"sum_hessian":[5.566435E3,2.1746155E3,3.3918198E3,1.1216056E3,1.0530098E3,1.9400072E3,1.4518127E3,5.139048E2,6.0770087E2,1.3081401E3,6.3186707E2,7.508848E2,7.009279E2,2.7496957E2,3.3273126E2,2.2126666E2,1.0868734E3],"tree_param":{"num_deleted":"0","num_feature":"104","num_nodes":"17","size_leaf_vector":"0"}},{"base_weights":[4.0122962E-1,1.8175761E-1,5.277186E-1,3.216858E-1,6.364743E-3,6.3749295E-1,3.6744997E-1,4.731198E-2,1.3346222E-1,5.7699025E-1,2.2589834E-1,1.4945759E-1,2.1692541E-1,2.3370759E-1,1.5979898E-1,8.4432065E-2,-1.5995268E-3],"categories":[],"categories_nodes":[],"categories_segments":[],"categories_sizes":[],"default_left":[0,0,0,0,0,0,0,0,0,0,0,0,0,0,0,0,0],"id":4,"left_children":[1,3,5,7,-1,9,11,-1,-1,13,-1,-1,15,-1,-1,-1,-1],"loss_changes":[1.6124329E2,4.7761375E1,6.462146E1,2.2878822E1,0E0,1.4844849E1,2.9429321E1,0E0,0E0,1.2473267E1,0E0,0E0,1.0030628E1,0E0,0E0,0E0,0E0],"parents":[2147483647,0,0,1,1,2,2,3,3,5,5,6,6,9,9,12,12],"right_children":[2,4,6,8,-1,10,12,-1,-1,14,-1,-1,16,-1,-1,-1,-1],"split_conditions":[4.6E-1,5.14E-1,1.6E0,-4.9E0,6.364743E-3,2.3E1,1E1,4.731198E-2,1.3346222E-1,4E0,2.2589834E-1,1.4945759E-1,4.79E-1,2.3370759E-1,1.5979898E-1,8.4432065E-2,-1.5995268E-3],"split_indices":[3,55,77,25,0,80,51,0,0,51,0,0,59,0,0,0,0],"split_type":[0,0,0,0,0,0,0,0,0,0,0,0,0,0,0,0,0],"sum_hessian":[5.8107666E3,2.1254023E3,3.6853643E3,1.135071E3,9.903313E2,2.1854712E3,1.4998932E3,4.8789758E2,6.471735E2,1.4381342E3,7.4733704E2,8.014572E2,6.98436E2,2.5577605E2,1.1823582E3,5.411032E2,1.5733278E2],"tree_param":{"num_deleted":"0","num_feature":"104","num_nodes":"17","size_leaf_vector":"0"}},{"base_weights":[-6.769518E-1],"categories":[],"categories_nodes":[],"categories_segments":[],"categories_sizes":[],"default_left":[0],"id":5,"left_children":[-1],"loss_changes":[0E0],"parents":[2147483647],"right_children":[-1],"split_conditions":[-2.0308556E-1],"split_indices":[0],"split_type":[0],"sum_hessian":[4.759614E3],"tree_param":{"num_deleted":"0","num_feature":"104","num_nodes":"1","size_leaf_vector":"0"}},{"base_weights":[1.3455567E-1,4.384288E-2,3.2705662E-1,1.143206E-1,-1.5539654E-1,3.3967525E-2,3.7975577E-1,2.036044E-1,2.1321937E-3,-2.5734818E-2,-9.623439E-2,1.4576113E-1,9.37358E-2,1.3893005E-1,5.147308E-2,-1.7220737E-2,5.5297036E-2],"categories":[],"categories_nodes":[],"categories_segments":[],"categories_sizes":[],"default_left":[0,0,0,0,0,0,0,0,0,0,0,0,0,0,0,0,0],"id":6,"left_children":[1,3,5,7,9,-1,11,13,15,-1,-1,-1,-1,-1,-1,-1,-1],"loss_changes":[9.727579E1,5.3209663E1,2.006456E1,2.8034222E1,1.1373371E1,0E0,1.0069138E1,1.2873154E1,1.347486E1,0E0,0E0,0E0,0E0,0E0,0E0,0E0,0E0],"parents":[2147483647,0,0,1,1,2,2,3,3,4,4,6,6,7,7,8,8],"right_children":[2,4,6,8,10,-1,12,14,16,-1,-1,-1,-1,-1,-1,-1,-1],"split_conditions":[2E1,2E1,3.58E-1,2.8E0,3.7E1,3.3967525E-2,-6.2E0,3E0,5.7E0,-2.5734818E-2,-9.623439E-2,1.4576113E-1,9.37358E-2,1.3893005E-1,5.147308E-2,-1.7220737E-2,5.5297036E-2],"split_indices":[28,80,55,25,54,0,25,85,77,0,0,0,0,0,0,0,0],"split_type":[0,0,0,0,0,0,0,0,0,0,0,0,0,0,0,0,0],"sum_hessian":[5.5704395E3,3.7870735E3,1.783366E3,2.7978171E3,9.8925635E2,3.532343E2,1.4301316E3,1.5574913E3,1.2403258E3,6.972769E2,2.9197937E2,5.526179E2,8.7751373E2,1.6963121E2,1.3878602E3,9.3536237E2,3.0496347E2],"tree_param":{"num_deleted":"0","num_feature":"104","num_nodes":"17","size_leaf_vector":"0"}},{"base_weights":[3.073339E-1,3.800449E-1,9.648289E-2,2.7237648E-1,4.687385E-1,9.624876E-2,3.4952022E-2,5.708063E-2,1.1049421E-1,5.779678E-1,4.124326E-1,7.761696E-2,-5.7248816E-2,1.0548231E-2,1.8041733E-1,1.1023048E-1,1.739194E-1,-2.1132419E-2,4.406473E-2],"categories":[],"categories_nodes":[],"categories_segments":[],"categories_sizes":[],"default_left":[0,0,0,0,0,0,0,0,0,0,0,0,0,0,0,0,0,0,0],"id":7,"left_children":[1,3,5,7,9,-1,11,-1,-1,13,15,17,-1,-1,-1,-1,-1,-1,-1],"loss_changes":[9.066766E1,4.187976E1,2.0949196E1,1.5600159E1,1.4587463E1,0E0,1.1504162E1,0E0,0E0,1.0372345E1,1.1787811E1,1.0305294E1,0E0,0E0,0E0,0E0,0E0,0E0,0E0],"parents":[2147483647,0,0,1,1,2,2,3,3,4,4,6,6,9,9,10,10,11,11],"right_children":[2,4,6,8,10,-1,12,-1,-1,14,16,18,-1,-1,-1,-1,-1,-1,-1],"split_conditions":[2.2E1,1.2E1,3.58E-1,2.8E0,8E0,9.624876E-2,3.7E1,5.708063E-2,1.1049421E-1,4E0,3.7E1,-7.3E0,-5.7248816E-2,1.0548231E-2,1.8041733E-1,1.1023048E-1,1.739194E-1,-2.1132419E-2,4.406473E-2],"split_indices":[29,80,55,25,51,0,53,0,0,54,54,25,0,0,0,0,0,0,0],"split_type":[0,0,0,0,0,0,0,0,0,0,0,0,0,0,0,0,0,0,0],"sum_hessian":[5.915327E3,4.397921E3,1.517406E3,1.9883096E3,2.4096113E3,3.2569235E2,1.1917136E3,1.0729841E3,9.153255E2,8.164645E2,1.5931469E3,1.0028631E3,1.8885048E2,3.3878162E1,7.825863E2,1.2579872E3,3.3515967E2,3.196272E2,6.832359E2],"tree_param":{"num_deleted":"0","num_feature":"104","num_nodes":"19","size_leaf_vector":"0"}},{"base_weights":[-6.31519E-1],"categories":[],"categories_nodes":[],"categories_segments":[],"categories_sizes":[],"default_left":[0],"id":8,"left_children":[-1],"loss_changes":[0E0],"parents":[2147483647],"right_children":[-1],"split_conditions":[-1.8945572E-1],"split_indices":[0],"split_type":[0],"sum_hessian":[4.0653171E3],"tree_param":{"num_deleted":"0","num_feature":"104","num_nodes":"1","size_leaf_vector":"0"}},{"base_weights":[1.16696864E-1,7.230494E-3,2.0941857E-1,9.663041E-2,-2.9430076E-2,1.2489058E-1,9.023869E-2,3.948291E-2,6.790633E-2,1.0537335E-2,6.421155E-2,2.3432259E-2,-8.205148E-2],"categories":[],"categories_nodes":[],"categories_segments":[],"categories_sizes":[],"default_left":[0,0,0,0,0,0,0,0,0,0,0,0,0],"id":9,"left_children":[1,3,5,7,-1,9,-1,11,-1,-1,-1,-1,-1],"loss_changes":[5.6199326E1,2.3930288E1,2.3117096E1,1.01812315E1,0E0,1.2468033E1,0E0,1.1571404E1,0E0,0E0,0E0,0E0,0E0],"parents":[2147483647,0,0,1,1,2,2,3,3,5,5,7,7],"right_children":[2,4,6,8,-1,10,-1,12,-1,-1,-1,-1,-1],"split_conditions":[1.5E1,1.3E1,6E-1,1.2E1,-2.9430076E-2,2.2E1,9.023869E-2,4.85E-1,6.790633E-2,1.0537335E-2,6.421155E-2,2.3432259E-2,-8.205148E-2],"split_indices":[51,80,77,60,0,28,0,7,0,0,0,0,0],"split_type":[0,0,0,0,0,0,0,0,0,0,0,0,0],"sum_hessian":[5.5360786E3,2.539292E3,2.9967866E3,1.3735599E3,1.1657322E3,1.5579645E3,1.4388221E3,9.544147E2,4.1914526E2,7.769851E2,7.809793E2,8.5024023E2,1.04174416E2],"tree_param":{"num_deleted":"0","num_feature":"104","num_nodes":"13","size_leaf_vector":"0"}},{"base_weights":[2.4112599E-1,3.329215E-1,1.4886974E-1,1.1484474E-1,6.0354702E-2,2.3188998E-1,1.4013672E-2,9.3313545E-2,4.228654E-2],"categories":[],"categories_nodes":[],"categories_segments":[],"categories_sizes":[],"default_left":[0,0,0,0,0,0,0,0,0],"id":10,"left_children":[1,3,5,-1,-1,7,-1,-1,-1],"loss_changes":[4.997162E1,1.9378357E1,2.498912E1,0E0,0E0,1.1659462E1,0E0,0E0,0E0],"parents":[2147483647,0,0,1,1,2,2,5,5],"right_children":[2,4,6,-1,-1,8,-1,-1,-1],"split_conditions":[1.5E1,3.8E0,6E-1,1.1484474E-1,6.0354702E-2,2.2E1,1.4013672E-2,9.3313545E-2,4.228654E-2],"split_indices":[51,77,77,0,0,28,0,0,0],"split_type":[0,0,0,0,0,0,0,0,0],"sum_hessian":[5.90559E3,2.9588787E3,2.9467112E3,2.1446995E3,8.141792E2,1.6249194E3,1.3217917E3,8.67433E2,7.574864E2],"tree_param":{"num_deleted":"0","num_feature":"104","num_nodes":"9","size_leaf_vector":"0"}},{"base_weights":[-6.009E-1],"categories":[],"categories_nodes":[],"categories_segments":[],"categories_sizes":[],"default_left":[0],"id":11,"left_children":[-1],"loss_changes":[0E0],"parents":[2147483647],"right_children":[-1],"split_conditions":[-1.8027E-1],"split_indices":[0],"split_type":[0],"sum_hessian":[3.4444849E3],"tree_param":{"num_deleted":"0","num_feature":"104","num_nodes":"1","size_leaf_vector":"0"}},{"base_weights":[1.0287992E-1,-3.3261023E-2,1.4253923E-1,1.6503667E-2,-1.299542E-1,1.721802E-1,-3.993249E-2,4.70598E-1,-4.786242E-2,3.245548E-2,6.828665E-2,5.5643525E-3,-1.02777086E-1,2.0603579E-2,4.1409743E-1],"categories":[],"categories_nodes":[],"categories_segments":[],"categories_sizes":[],"default_left":[0,0,0,0,0,0,0,0,0,0,0,0,0,0,0],"id":12,"left_children":[1,3,5,-1,7,9,11,13,-1,-1,-1,-1,-1,-1,-1],"loss_changes":[2.9665798E1,1.0592068E1,2.301754E1,0E0,1.0596426E1,1.2961472E1,1.0543463E1,1.0163395E1,0E0,0E0,0E0,0E0,0E0,0E0,0E0],"parents":[2147483647,0,0,1,1,2,2,4,4,5,5,6,6,7,7],"right_children":[2,4,6,-1,8,10,12,14,-1,-1,-1,-1,-1,-1,-1],"split_conditions":[8E0,1.2E1,2.6E1,1.6503667E-2,4E0,1.7E1,2.9E1,2.3E1,-4.786242E-2,3.245548E-2,6.828665E-2,5.5643525E-3,-1.02777086E-1,2.0603579E-2,4.1409743E-1],"split_indices":[51,80,103,0,54,47,1,84,0,0,0,0,0,0,0],"split_type":[0,0,0,0,0,0,0,0,0,0,0,0,0,0,0],"sum_hessian":[5.492547E3,1.2391167E3,4.2534307E3,6.479869E2,5.9112976E2,3.6590977E3,5.9433276E2,2.7055689E1,5.640741E2,1.6998986E3,1.9591991E3,4.9887717E2,9.5455635E1,1.9511122E1,7.5445666E0],"tree_param":{"num_deleted":"0","num_feature":"104","num_nodes":"15","size_leaf_vector":"0"}},{"base_weights":[1.9158441E-1,2.365971E-1,8.158977E-2,1.9959044E-1,3.6608222E-1,4.3002717E-2,-9.552268E-3,9.73102E-2,5.087749E-2,1.19209684E-1,-2.4631717E-3],"categories":[],"categories_nodes":[],"categories_segments":[],"categories_sizes":[],"default_left":[0,0,0,0,0,0,0,0,0,0,0],"id":13,"left_children":[1,3,5,7,9,-1,-1,-1,-1,-1,-1],"loss_changes":[2.8943878E1,1.9815506E1,1.1914196E1,1.20360565E1,1.0791504E1,0E0,0E0,0E0,0E0,0E0,0E0],"parents":[2147483647,0,0,1,1,2,2,3,3,4,4],"right_children":[2,4,6,8,10,-1,-1,-1,-1,-1,-1],"split_conditions":[2E1,2.2E1,5.61E-1,5E0,4.66E-1,4.3002717E-2,-9.552268E-3,9.73102E-2,5.087749E-2,1.19209684E-1,-2.4631717E-3],"split_indices":[28,80,55,47,59,0,0,0,0,0,0],"split_type":[0,0,0,0,0,0,0,0,0,0,0],"sum_hessian":[5.8487793E3,4.149531E3,1.6992485E3,3.2291777E3,9.203531E2,1.1000876E3,5.991608E2,6.239817E2,2.605196E3,8.4930646E2,7.104666E1],"tree_param":{"num_deleted":"0","num_feature":"104","num_nodes":"11","size_leaf_vector":"0"}},{"base_weights":[-5.7916546E-1],"categories":[],"categories_nodes":[],"categories_segments":[],"categories_sizes":[],"default_left":[0],"id":14,"left_children":[-1],"loss_changes":[0E0],"parents":[2147483647],"right_children":[-1],"split_conditions":[-1.7374964E-1],"split_indices":[0],"split_type":[0],"sum_hessian":[2.909916E3],"tree_param":{"num_deleted":"0","num_feature":"104","num_nodes":"1","size_leaf_vector":"0"}},{"base_weights":[9.1184035E-2,1.3644351E-1,1.1888693E-2,1.14232734E-1,8.901679E-2,6.0623728E-2,-6.3538942E-3,2.6207961E-2,7.330403E-2],"categories":[],"categories_nodes":[],"categories_segments":[],"categories_sizes":[],"default_left":[0,0,0,0,0,0,0,0,0],"id":15,"left_children":[1,3,5,7,-1,-1,-1,-1,-1],"loss_changes":[1.9579887E1,1.2331413E1,1.2480379E1,1.0651291E1,0E0,0E0,0E0,0E0,0E0],"parents":[2147483647,0,0,1,1,2,2,3,3],"right_children":[2,4,6,8,-1,-1,-1,-1,-1],"split_conditions":[5.2E0,7.5E0,-6.2E0,2.6E1,8.901679E-2,6.0623728E-2,-6.3538942E-3,2.6207961E-2,7.330403E-2],"split_indices":[73,77,25,51,0,0,0,0,0],"split_type":[0,0,0,0,0,0,0,0,0],"sum_hessian":[5.455183E3,3.4724746E3,1.9827084E3,3.0513452E3,4.2112943E2,2.9291513E2,1.6897932E3,2.530404E3,5.209411E2],"tree_param":{"num_deleted":"0","num_feature":"104","num_nodes":"9","size_leaf_vector":"0"}},{"base_weights":[1.5353717E-1,1.7787142E-1,5.1328954E-3,1.3263763E-1,7.630476E-2,4.5908835E-2,-2.2880057E-2],"categories":[],"categories_nodes":[],"categories_segments":[],"categories_sizes":[],"default_left":[0,0,0,0,0,0,0],"id":16,"left_children":[1,3,-1,5,-1,-1,-1],"loss_changes":[1.918541E1,1.6934174E1,0E0,1.3149742E1,0E0,0E0,0E0],"parents":[2147483647,0,0,1,1,3,3],"right_children":[2,4,-1,6,-1,-1,-1],"split_conditions":[2.6E1,5.2E0,5.1328954E-3,8.1E0,7.630476E-2,4.5908835E-2,-2.2880057E-2],"split_indices":[51,73,0,77,0,0,0],"split_type":[0,0,0,0,0,0,0],"sum_hessian":[5.778901E3,4.9039004E3,8.7500055E2,3.0830967E3,1.8208038E3,2.809154E3,2.7394272E2],"tree_param":{"num_deleted":"0","num_feature":"104","num_nodes":"7","size_leaf_vector":"0"}},{"base_weights":[-5.6321675E-1],"categories":[],"categories_nodes":[],"categories_segments":[],"categories_sizes":[],"default_left":[0],"id":17,"left_children":[-1],"loss_changes":[0E0],"parents":[2147483647],"right_children":[-1],"split_conditions":[-1.6896503E-1],"split_indices":[0],"split_type":[0],"sum_hessian":[2.4579937E3],"tree_param":{"num_deleted":"0","num_feature":"104","num_nodes":"1","size_leaf_vector":"0"}},{"base_weights":[8.119772E-2,9.619372E-2,-3.4974404E-2,-1.1972519E-2,3.5197105E-2],"categories":[],"categories_nodes":[],"categories_segments":[],"categories_sizes":[],"default_left":[0,0,0,0,0],"id":18,"left_children":[1,3,-1,-1,-1],"loss_changes":[1.6109657E1,1.4515713E1,0E0,0E0,0E0],"parents":[2147483647,0,0,1,1],"right_children":[2,4,-1,-1,-1],"split_conditions":[2.8E1,5E0,-3.4974404E-2,-1.1972519E-2,3.5197105E-2],"split_indices":[81,47,0,0,0],"split_type":[0,0,0,0,0],"sum_hessian":[5.4268535E3,5.044856E3,3.8199744E2,6.778438E2,4.367012E3],"tree_param":{"num_deleted":"0","num_feature":"104","num_nodes":"5","size_leaf_vector":"0"}},{"base_weights":[1.2346278E-1,1.0808852E-1,9.075136E-2,1.5550457E-1,1.4925855E-2,8.490541E-2,3.8487352E-2],"categories":[],"categories_nodes":[],"categories_segments":[],"categories_sizes":[],"default_left":[0,0,0,0,0,0,0],"id":19,"left_children":[1,3,-1,5,-1,-1,-1],"loss_changes":[1.5702454E1,1.4557999E1,0E0,1.0042023E1,0E0,0E0,0E0],"parents":[2147483647,0,0,1,1,3,3],"right_children":[2,4,-1,6,-1,-1,-1],"split_conditions":[2.8E1,1.7E1,9.075136E-2,4E0,1.4925855E-2,8.490541E-2,3.8487352E-2],"split_indices":[81,47,0,33,0,0,0],"split_type":[0,0,0,0,0,0,0],"sum_hessian":[5.7153975E3,5.2649053E3,4.504922E2,2.9033533E3,2.361552E3,5.0898926E2,2.3943638E3],"tree_param":{"num_deleted":"0","num_feature":"104","num_nodes":"7","size_leaf_vector":"0"}},{"base_weights":[-5.5116117E-1],"categories":[],"categories_nodes":[],"categories_segments":[],"categories_sizes":[],"default_left":[0],"id":20,"left_children":[-1],"loss_changes":[0E0],"parents":[2147483647],"right_children":[-1],"split_conditions":[-1.6534835E-1],"split_indices":[0],"split_type":[0],"sum_hessian":[2.0791387E3],"tree_param":{"num_deleted":"0","num_feature":"104","num_nodes":"1","size_leaf_vector":"0"}},{"base_weights":[7.1917295E-2,3.006984E-2,3.6015492E-2,1.5804678E-2,-5.7815544E-2],"categories":[],"categories_nodes":[],"categories_segments":[],"categories_sizes":[],"default_left":[0,0,0,0,0],"id":21,"left_children":[1,3,-1,-1,-1],"loss_changes":[1.0897142E1,1.4600721E1,0E0,0E0,0E0],"parents":[2147483647,0,0,1,1],"right_children":[2,4,-1,-1,-1],"split_conditions":[2.94E1,4.77E-1,3.6015492E-2,1.5804678E-2,-5.7815544E-2],"split_indices":[61,7,0,0,0],"split_type":[0,0,0,0,0],"sum_hessian":[5.410682E3,2.8952283E3,2.5154536E3,2.6291409E3,2.6608725E2],"tree_param":{"num_deleted":"0","num_feature":"104","num_nodes":"5","size_leaf_vector":"0"}},{"base_weights":[9.996697E-2,5.3368032E-2,7.497581E-2,1.533266E-2,5.347209E-2],"categories":[],"categories_nodes":[],"categories_segments":[],"categories_sizes":[],"default_left":[0,0,0,0,0],"id":22,"left_children":[1,-1,3,-1,-1],"loss_changes":[1.1013908E1,0E0,1.0561838E1,0E0,0E0],"parents":[2147483647,0,0,2,2],"right_children":[2,-1,4,-1,-1],"split_conditions":[8E0,5.3368032E-2,2.5E1,1.533266E-2,5.347209E-2],"split_indices":[51,0,93,0,0],"split_type":[0,0,0,0,0],"sum_hessian":[5.661338E3,1.3732393E3,4.2880986E3,3.4842893E3,8.0380945E2],"tree_param":{"num_deleted":"0","num_feature":"104","num_nodes":"5","size_leaf_vector":"0"}},{"base_weights":[-5.4184353E-1],"categories":[],"categories_nodes":[],"categories_segments":[],"categories_sizes":[],"default_left":[0],"id":23,"left_children":[-1],"loss_changes":[0E0],"parents":[2147483647],"right_children":[-1],"split_conditions":[-1.6255307E-1],"split_indices":[0],"split_type":[0],"sum_hessian":[1.761945E3],"tree_param":{"num_deleted":"0","num_feature":"104","num_nodes":"1","size_leaf_vector":"0"}},{"base_weights":[6.355205E-2],"categories":[],"categories_nodes":[],"categories_segments":[],"categories_sizes":[],"default_left":[0],"id":24,"left_children":[-1],"loss_changes":[0E0],"parents":[2147483647],"right_children":[-1],"split_conditions":[1.9065617E-2],"split_indices":[0],"split_type":[0],"sum_hessian":[5.4011187E3],"tree_param":{"num_deleted":"0","num_feature":"104","num_nodes":"1","size_leaf_vector":"0"}},{"base_weights":[8.133191E-2],"categories":[],"categories_nodes":[],"categories_segments":[],"categories_sizes":[],"default_left":[0],"id":25,"left_children":[-1],"loss_changes":[0E0],"parents":[2147483647],"right_children":[-1],"split_conditions":[2.4399573E-2],"split_indices":[0],"split_type":[0],"sum_hessian":[5.6166187E3],"tree_param":{"num_deleted":"0","num_feature":"104","num_nodes":"1","size_leaf_vector":"0"}},{"base_weights":[-5.344997E-1],"categories":[],"categories_nodes":[],"categories_segments":[],"categories_sizes":[],"default_left":[0],"id":26,"left_children":[-1],"loss_changes":[0E0],"parents":[2147483647],"right_children":[-1],"split_conditions":[-1.6034992E-1],"split_indices":[0],"split_type":[0],"sum_hessian":[1.4961147E3],"tree_param":{"num_deleted":"0","num_feature":"104","num_nodes":"1","size_leaf_vector":"0"}},{"base_weights":[5.605181E-2],"categories":[],"categories_nodes":[],"categories_segments":[],"categories_sizes":[],"default_left":[0],"id":27,"left_children":[-1],"loss_changes":[0E0],"parents":[2147483647],"right_children":[-1],"split_conditions":[1.6815543E-2],"split_indices":[0],"split_type":[0],"sum_hessian":[5.4070063E3],"tree_param":{"num_deleted":"0","num_feature":"104","num_nodes":"1","size_leaf_vector":"0"}},{"base_weights":[6.631065E-2],"categories":[],"categories_nodes":[],"categories_segments":[],"categories_sizes":[],"default_left":[0],"id":28,"left_children":[-1],"loss_changes":[0E0],"parents":[2147483647],"right_children":[-1],"split_conditions":[1.9893195E-2],"split_indices":[0],"split_type":[0],"sum_hessian":[5.5929727E3],"tree_param":{"num_deleted":"0","num_feature":"104","num_nodes":"1","size_leaf_vector":"0"}},{"base_weights":[-5.286323E-1],"categories":[],"categories_nodes":[],"categories_segments":[],"categories_sizes":[],"default_left":[0],"id":29,"left_children":[-1],"loss_changes":[0E0],"parents":[2147483647],"right_children":[-1],"split_conditions":[-1.5858969E-1],"split_indices":[0],"split_type":[0],"sum_hessian":[1.2741179E3],"tree_param":{"num_deleted":"0","num_feature":"104","num_nodes":"1","size_leaf_vector":"0"}},{"base_weights":[4.9244516E-2],"categories":[],"categories_nodes":[],"categories_segments":[],"categories_sizes":[],"default_left":[0],"id":30,"left_children":[-1],"loss_changes":[0E0],"parents":[2147483647],"right_children":[-1],"split_conditions":[1.4773355E-2],"split_indices":[0],"split_type":[0],"sum_hessian":[5.412468E3],"tree_param":{"num_deleted":"0","num_feature":"104","num_nodes":"1","size_leaf_vector":"0"}},{"base_weights":[5.438912E-2],"categories":[],"categories_nodes":[],"categories_segments":[],"categories_sizes":[],"default_left":[0],"id":31,"left_children":[-1],"loss_changes":[0E0],"parents":[2147483647],"right_children":[-1],"split_conditions":[1.6316736E-2],"split_indices":[0],"split_type":[0],"sum_hessian":[5.5721836E3],"tree_param":{"num_deleted":"0","num_feature":"104","num_nodes":"1","size_leaf_vector":"0"}},{"base_weights":[-5.2385134E-1],"categories":[],"categories_nodes":[],"categories_segments":[],"categories_sizes":[],"default_left":[0],"id":32,"left_children":[-1],"loss_changes":[0E0],"parents":[2147483647],"right_children":[-1],"split_conditions":[-1.5715541E-1],"split_indices":[0],"split_type":[0],"sum_hessian":[1.0865302E3],"tree_param":{"num_deleted":"0","num_feature":"104","num_nodes":"1","size_leaf_vector":"0"}},{"base_weights":[4.31093E-2],"categories":[],"categories_nodes":[],"categories_segments":[],"categories_sizes":[],"default_left":[0],"id":33,"left_children":[-1],"loss_changes":[0E0],"parents":[2147483647],"right_children":[-1],"split_conditions":[1.2932791E-2],"split_indices":[0],"split_type":[0],"sum_hessian":[5.4174404E3],"tree_param":{"num_deleted":"0","num_feature":"104","num_nodes":"1","size_leaf_vector":"0"}},{"base_weights":[4.4869434E-2],"categories":[],"categories_nodes":[],"categories_segments":[],"categories_sizes":[],"default_left":[0],"id":34,"left_children":[-1],"loss_changes":[0E0],"parents":[2147483647],"right_children":[-1],"split_conditions":[1.3460831E-2],"split_indices":[0],"split_type":[0],"sum_hessian":[5.554227E3],"tree_param":{"num_deleted":"0","num_feature":"104","num_nodes":"1","size_leaf_vector":"0"}},{"base_weights":[-5.1991266E-1],"categories":[],"categories_nodes":[],"categories_segments":[],"categories_sizes":[],"default_left":[0],"id":35,"left_children":[-1],"loss_changes":[0E0],"parents":[2147483647],"right_children":[-1],"split_conditions":[-1.559738E-1],"split_indices":[0],"split_type":[0],"sum_hessian":[9.277042E2],"tree_param":{"num_deleted":"0","num_feature":"104","num_nodes":"1","size_leaf_vector":"0"}},{"base_weights":[3.761945E-2],"categories":[],"categories_nodes":[],"categories_segments":[],"categories_sizes":[],"default_left":[0],"id":36,"left_children":[-1],"loss_changes":[0E0],"parents":[2147483647],"right_children":[-1],"split_conditions":[1.1285835E-2],"split_indices":[0],"split_type":[0],"sum_hessian":[5.421897E3],"tree_param":{"num_deleted":"0","num_feature":"104","num_nodes":"1","size_leaf_vector":"0"}},{"base_weights":[3.721873E-2],"categories":[],"categories_nodes":[],"categories_segments":[],"categories_sizes":[],"default_left":[0],"id":37,"left_children":[-1],"loss_changes":[0E0],"parents":[2147483647],"right_children":[-1],"split_conditions":[1.116562E-2],"split_indices":[0],"split_type":[0],"sum_hessian":[5.538871E3],"tree_param":{"num_deleted":"0","num_feature":"104","num_nodes":"1","size_leaf_vector":"0"}},{"base_weights":[-5.166355E-1],"categories":[],"categories_nodes":[],"categories_segments":[],"categories_sizes":[],"default_left":[0],"id":38,"left_children":[-1],"loss_changes":[0E0],"parents":[2147483647],"right_children":[-1],"split_conditions":[-1.5499064E-1],"split_indices":[0],"split_type":[0],"sum_hessian":[7.929705E2],"tree_param":{"num_deleted":"0","num_feature":"104","num_nodes":"1","size_leaf_vector":"0"}},{"base_weights":[3.2739867E-2],"categories":[],"categories_nodes":[],"categories_segments":[],"categories_sizes":[],"default_left":[0],"id":39,"left_children":[-1],"loss_changes":[0E0],"parents":[2147483647],"right_children":[-1],"split_conditions":[9.821961E-3],"split_indices":[0],"split_type":[0],"sum_hessian":[5.4258394E3],"tree_param":{"num_deleted":"0","num_feature":"104","num_nodes":"1","size_leaf_vector":"0"}},{"base_weights":[3.1029396E-2],"categories":[],"categories_nodes":[],"categories_segments":[],"categories_sizes":[],"default_left":[0],"id":40,"left_children":[-1],"loss_changes":[0E0],"parents":[2147483647],"right_children":[-1],"split_conditions":[9.308819E-3],"split_indices":[0],"split_type":[0],"sum_hessian":[5.525807E3],"tree_param":{"num_deleted":"0","num_feature":"104","num_nodes":"1","size_leaf_vector":"0"}},{"base_weights":[-5.1388294E-1],"categories":[],"categories_nodes":[],"categories_segments":[],"categories_sizes":[],"default_left":[0],"id":41,"left_children":[-1],"loss_changes":[0E0],"parents":[2147483647],"right_children":[-1],"split_conditions":[-1.5416488E-1],"split_indices":[0],"split_type":[0],"sum_hessian":[6.784689E2],"tree_param":{"num_deleted":"0","num_feature":"104","num_nodes":"1","size_leaf_vector":"0"}},{"base_weights":[2.8428417E-2],"categories":[],"categories_nodes":[],"categories_segments":[],"categories_sizes":[],"default_left":[0],"id":42,"left_children":[-1],"loss_changes":[0E0],"parents":[2147483647],"right_children":[-1],"split_conditions":[8.528525E-3],"split_indices":[0],"split_type":[0],"sum_hessian":[5.4292925E3],"tree_param":{"num_deleted":"0","num_feature":"104","num_nodes":"1","size_leaf_vector":"0"}},{"base_weights":[2.598909E-2],"categories":[],"categories_nodes":[],"categories_segments":[],"categories_sizes":[],"default_left":[0],"id":43,"left_children":[-1],"loss_changes":[0E0],"parents":[2147483647],"right_children":[-1],"split_conditions":[7.796727E-3],"split_indices":[0],"split_type":[0],"sum_hessian":[5.5147197E3],"tree_param":{"num_deleted":"0","num_feature":"104","num_nodes":"1","size_leaf_vector":"0"}},{"base_weights":[-5.115496E-1],"categories":[],"categories_nodes":[],"categories_segments":[],"categories_sizes":[],"default_left":[0],"id":44,"left_children":[-1],"loss_changes":[0E0],"parents":[2147483647],"right_children":[-1],"split_conditions":[-1.5346488E-1],"split_indices":[0],"split_type":[0],"sum_hessian":[5.810025E2],"tree_param":{"num_deleted":"0","num_feature":"104","num_nodes":"1","size_leaf_vector":"0"}},{"base_weights":[2.4638414E-2],"categories":[],"categories_nodes":[],"categories_segments":[],"categories_sizes":[],"default_left":[0],"id":45,"left_children":[-1],"loss_changes":[0E0],"parents":[2147483647],"right_children":[-1],"split_conditions":[7.3915245E-3],"split_indices":[0],"split_type":[0],"sum_hessian":[5.4322935E3],"tree_param":{"num_deleted":"0","num_feature":"104","num_nodes":"1","size_leaf_vector":"0"}},{"base_weights":[2.1857873E-2],"categories":[],"categories_nodes":[],"categories_segments":[],"categories_sizes":[],"default_left":[0],"id":46,"left_children":[-1],"loss_changes":[0E0],"parents":[2147483647],"right_children":[-1],"split_conditions":[6.557362E-3],"split_indices":[0],"split_type":[0],"sum_hessian":[5.5053145E3],"tree_param":{"num_deleted":"0","num_feature":"104","num_nodes":"1","size_leaf_vector":"0"}},{"base_weights":[-5.0955236E-1],"categories":[],"categories_nodes":[],"categories_segments":[],"categories_sizes":[],"default_left":[0],"id":47,"left_children":[-1],"loss_changes":[0E0],"parents":[2147483647],"right_children":[-1],"split_conditions":[-1.5286571E-1],"split_indices":[0],"split_type":[0],"sum_hessian":[4.9791644E2],"tree_param":{"num_deleted":"0","num_feature":"104","num_nodes":"1","size_leaf_vector":"0"}},{"base_weights":[2.1321043E-2],"categories":[],"categories_nodes":[],"categories_segments":[],"categories_sizes":[],"default_left":[0],"id":48,"left_children":[-1],"loss_changes":[0E0],"parents":[2147483647],"right_children":[-1],"split_conditions":[6.396313E-3],"split_indices":[0],"split_type":[0],"sum_hessian":[5.4348867E3],"tree_param":{"num_deleted":"0","num_feature":"104","num_nodes":"1","size_leaf_vector":"0"}},{"base_weights":[1.8450929E-2],"categories":[],"categories_nodes":[],"categories_segments":[],"categories_sizes":[],"default_left":[0],"id":49,"left_children":[-1],"loss_changes":[0E0],"parents":[2147483647],"right_children":[-1],"split_conditions":[5.535279E-3],"split_indices":[0],"split_type":[0],"sum_hessian":[5.4973325E3],"tree_param":{"num_deleted":"0","num_feature":"104","num_nodes":"1","size_leaf_vector":"0"}},{"base_weights":[-5.0782484E-1],"categories":[],"categories_nodes":[],"categories_segments":[],"categories_sizes":[],"default_left":[0],"id":50,"left_children":[-1],"loss_changes":[0E0],"parents":[2147483647],"right_children":[-1],"split_conditions":[-1.5234746E-1],"split_indices":[0],"split_type":[0],"sum_hessian":[4.269982E2],"tree_param":{"num_deleted":"0","num_feature":"104","num_nodes":"1","size_leaf_vector":"0"}},{"base_weights":[1.8427778E-2],"categories":[],"categories_nodes":[],"categories_segments":[],"categories_sizes":[],"default_left":[0],"id":51,"left_children":[-1],"loss_changes":[0E0],"parents":[2147483647],"right_children":[-1],"split_conditions":[5.5283336E-3],"split_indices":[0],"split_type":[0],"sum_hessian":[5.437118E3],"tree_param":{"num_deleted":"0","num_feature":"104","num_nodes":"1","size_leaf_vector":"0"}},{"base_weights":[1.562507E-2],"categories":[],"categories_nodes":[],"categories_segments":[],"categories_sizes":[],"default_left":[0],"id":52,"left_children":[-1],"loss_changes":[0E0],"parents":[2147483647],"right_children":[-1],"split_conditions":[4.6875216E-3],"split_indices":[0],"split_type":[0],"sum_hessian":[5.490552E3],"tree_param":{"num_deleted":"0","num_feature":"104","num_nodes":"1","size_leaf_vector":"0"}},{"base_weights":[-5.06313E-1],"categories":[],"categories_nodes":[],"categories_segments":[],"categories_sizes":[],"default_left":[0],"id":53,"left_children":[-1],"loss_changes":[0E0],"parents":[2147483647],"right_children":[-1],"split_conditions":[-1.5189391E-1],"split_indices":[0],"split_type":[0],"sum_hessian":[3.663979E2],"tree_param":{"num_deleted":"0","num_feature":"104","num_nodes":"1","size_leaf_vector":"0"}},{"base_weights":[1.5911784E-2],"categories":[],"categories_nodes":[],"categories_segments":[],"categories_sizes":[],"default_left":[0],"id":54,"left_children":[-1],"loss_changes":[0E0],"parents":[2147483647],"right_children":[-1],"split_conditions":[4.7735353E-3],"split_indices":[0],"split_type":[0],"sum_hessian":[5.439032E3],"tree_param":{"num_deleted":"0","num_feature":"104","num_nodes":"1","size_leaf_vector":"0"}},{"base_weights":[1.3268889E-2],"categories":[],"categories_nodes":[],"categories_segments":[],"categories_sizes":[],"default_left":[0],"id":55,"left_children":[-1],"loss_changes":[0E0],"parents":[2147483647],"right_children":[-1],"split_conditions":[3.980667E-3],"split_indices":[0],"split_type":[0],"sum_hessian":[5.4847837E3],"tree_param":{"num_deleted":"0","num_feature":"104","num_nodes":"1","size_leaf_vector":"0"}},{"base_weights":[-5.04972E-1],"categories":[],"categories_nodes":[],"categories_segments":[],"categories_sizes":[],"default_left":[0],"id":56,"left_children":[-1],"loss_changes":[0E0],"parents":[2147483647],"right_children":[-1],"split_conditions":[-1.514916E-1],"split_indices":[0],"split_type":[0],"sum_hessian":[3.1456378E2],"tree_param":{"num_deleted":"0","num_feature":"104","num_nodes":"1","size_leaf_vector":"0"}},{"base_weights":[1.3729048E-2],"categories":[],"categories_nodes":[],"categories_segments":[],"categories_sizes":[],"default_left":[0],"id":57,"left_children":[-1],"loss_changes":[0E0],"parents":[2147483647],"right_children":[-1],"split_conditions":[4.1187145E-3],"split_indices":[0],"split_type":[0],"sum_hessian":[5.440671E3],"tree_param":{"num_deleted":"0","num_feature":"104","num_nodes":"1","size_leaf_vector":"0"}},{"base_weights":[1.1295072E-2],"categories":[],"categories_nodes":[],"categories_segments":[],"categories_sizes":[],"default_left":[0],"id":58,"left_children":[-1],"loss_changes":[0E0],"parents":[2147483647],"right_children":[-1],"split_conditions":[3.3885217E-3],"split_indices":[0],"split_type":[0],"sum_hessian":[5.47987E3],"tree_param":{"num_deleted":"0","num_feature":"104","num_nodes":"1","size_leaf_vector":"0"}},{"base_weights":[-5.0376385E-1],"categories":[],"categories_nodes":[],"categories_segments":[],"categories_sizes":[],"default_left":[0],"id":59,"left_children":[-1],"loss_changes":[0E0],"parents":[2147483647],"right_children":[-1],"split_conditions":[-1.5112916E-1],"split_indices":[0],"split_type":[0],"sum_hessian":[2.701901E2],"tree_param":{"num_deleted":"0","num_feature":"104","num_nodes":"1","size_leaf_vector":"0"}},{"base_weights":[1.1839086E-2],"categories":[],"categories_nodes":[],"categories_segments":[],"categories_sizes":[],"default_left":[0],"id":60,"left_children":[-1],"loss_changes":[0E0],"parents":[2147483647],"right_children":[-1],"split_conditions":[3.551726E-3],"split_indices":[0],"split_type":[0],"sum_hessian":[5.4420713E3],"tree_param":{"num_deleted":"0","num_feature":"104","num_nodes":"1","size_leaf_vector":"0"}},{"base_weights":[9.63465E-3],"categories":[],"categories_nodes":[],"categories_segments":[],"categories_sizes":[],"default_left":[0],"id":61,"left_children":[-1],"loss_changes":[0E0],"parents":[2147483647],"right_children":[-1],"split_conditions":[2.8903952E-3],"split_indices":[0],"split_type":[0],"sum_hessian":[5.4756787E3],"tree_param":{"num_deleted":"0","num_feature":"104","num_nodes":"1","size_leaf_vector":"0"}},{"base_weights":[-5.0265604E-1],"categories":[],"categories_nodes":[],"categories_segments":[],"categories_sizes":[],"default_left":[0],"id":62,"left_children":[-1],"loss_changes":[0E0],"parents":[2147483647],"right_children":[-1],"split_conditions":[-1.5079682E-1],"split_indices":[0],"split_type":[0],"sum_hessian":[2.3217506E2],"tree_param":{"num_deleted":"0","num_feature":"104","num_nodes":"1","size_leaf_vector":"0"}},{"base_weights":[1.0205108E-2],"categories":[],"categories_nodes":[],"categories_segments":[],"categories_sizes":[],"default_left":[0],"id":63,"left_children":[-1],"loss_changes":[0E0],"parents":[2147483647],"right_children":[-1],"split_conditions":[3.0615325E-3],"split_indices":[0],"split_type":[0],"sum_hessian":[5.443268E3],"tree_param":{"num_deleted":"0","num_feature":"104","num_nodes":"1","size_leaf_vector":"0"}},{"base_weights":[8.232804E-3],"categories":[],"categories_nodes":[],"categories_segments":[],"categories_sizes":[],"default_left":[0],"id":64,"left_children":[-1],"loss_changes":[0E0],"parents":[2147483647],"right_children":[-1],"split_conditions":[2.4698414E-3],"split_indices":[0],"split_type":[0],"sum_hessian":[5.4720986E3],"tree_param":{"num_deleted":"0","num_feature":"104","num_nodes":"1","size_leaf_vector":"0"}},{"base_weights":[-5.0161976E-1],"categories":[],"categories_nodes":[],"categories_segments":[],"categories_sizes":[],"default_left":[0],"id":65,"left_children":[-1],"loss_changes":[0E0],"parents":[2147483647],"right_children":[-1],"split_conditions":[-1.5048593E-1],"split_indices":[0],"split_type":[0],"sum_hessian":[1.9958676E2],"tree_param":{"num_deleted":"0","num_feature":"104","num_nodes":"1","size_leaf_vector":"0"}},{"base_weights":[8.79421E-3],"categories":[],"categories_nodes":[],"categories_segments":[],"categories_sizes":[],"default_left":[0],"id":66,"left_children":[-1],"loss_changes":[0E0],"parents":[2147483647],"right_children":[-1],"split_conditions":[2.6382632E-3],"split_indices":[0],"split_type":[0],"sum_hessian":[5.444289E3],"tree_param":{"num_deleted":"0","num_feature":"104","num_nodes":"1","size_leaf_vector":"0"}},{"base_weights":[7.045502E-3],"categories":[],"categories_nodes":[],"categories_segments":[],"categories_sizes":[],"default_left":[0],"id":67,"left_children":[-1],"loss_changes":[0E0],"parents":[2147483647],"right_children":[-1],"split_conditions":[2.1136506E-3],"split_indices":[0],"split_type":[0],"sum_hessian":[5.4690366E3],"tree_param":{"num_deleted":"0","num_feature":"104","num_nodes":"1","size_leaf_vector":"0"}},{"base_weights":[-5.006291E-1],"categories":[],"categories_nodes":[],"categories_segments":[],"categories_sizes":[],"default_left":[0],"id":68,"left_children":[-1],"loss_changes":[0E0],"parents":[2147483647],"right_children":[-1],"split_conditions":[-1.5018874E-1],"split_indices":[0],"split_type":[0],"sum_hessian":[1.7163507E2],"tree_param":{"num_deleted":"0","num_feature":"104","num_nodes":"1","size_leaf_vector":"0"}},{"base_weights":[7.57706E-3],"categories":[],"categories_nodes":[],"categories_segments":[],"categories_sizes":[],"default_left":[0],"id":69,"left_children":[-1],"loss_changes":[0E0],"parents":[2147483647],"right_children":[-1],"split_conditions":[2.2731181E-3],"split_indices":[0],"split_type":[0],"sum_hessian":[5.445161E3],"tree_param":{"num_deleted":"0","num_feature":"104","num_nodes":"1","size_leaf_vector":"0"}},{"base_weights":[6.037232E-3],"categories":[],"categories_nodes":[],"categories_segments":[],"categories_sizes":[],"default_left":[0],"id":70,"left_children":[-1],"loss_changes":[0E0],"parents":[2147483647],"right_children":[-1],"split_conditions":[1.8111697E-3],"split_indices":[0],"split_type":[0],"sum_hessian":[5.4664155E3],"tree_param":{"num_deleted":"0","num_feature":"104","num_nodes":"1","size_leaf_vector":"0"}},{"base_weights":[-4.9966022E-1],"categories":[],"categories_nodes":[],"categories_segments":[],"categories_sizes":[],"default_left":[0],"id":71,"left_children":[-1],"loss_changes":[0E0],"parents":[2147483647],"right_children":[-1],"split_conditions":[-1.4989807E-1],"split_indices":[0],"split_type":[0],"sum_hessian":[1.4764888E2],"tree_param":{"num_deleted":"0","num_feature":"104","num_nodes":"1","size_leaf_vector":"0"}},{"base_weights":[6.5277945E-3],"categories":[],"categories_nodes":[],"categories_segments":[],"categories_sizes":[],"default_left":[0],"id":72,"left_children":[-1],"loss_changes":[0E0],"parents":[2147483647],"right_children":[-1],"split_conditions":[1.9583385E-3],"split_indices":[0],"split_type":[0],"sum_hessian":[5.445906E3],"tree_param":{"num_deleted":"0","num_feature":"104","num_nodes":"1","size_leaf_vector":"0"}},{"base_weights":[5.1790862E-3],"categories":[],"categories_nodes":[],"categories_segments":[],"categories_sizes":[],"default_left":[0],"id":73,"left_children":[-1],"loss_changes":[0E0],"parents":[2147483647],"right_children":[-1],"split_conditions":[1.5537259E-3],"split_indices":[0],"split_type":[0],"sum_hessian":[5.46417E3],"tree_param":{"num_deleted":"0","num_feature":"104","num_nodes":"1","size_leaf_vector":"0"}},{"base_weights":[-4.9869037E-1],"categories":[],"categories_nodes":[],"categories_segments":[],"categories_sizes":[],"default_left":[0],"id":74,"left_children":[-1],"loss_changes":[0E0],"parents":[2147483647],"right_children":[-1],"split_conditions":[-1.4960712E-1],"split_indices":[0],"split_type":[0],"sum_hessian":[1.270571E2],"tree_param":{"num_deleted":"0","num_feature":"104","num_nodes":"1","size_leaf_vector":"0"}},{"base_weights":[5.6238263E-3],"categories":[],"categories_nodes":[],"categories_segments":[],"categories_sizes":[],"default_left":[0],"id":75,"left_children":[-1],"loss_changes":[0E0],"parents":[2147483647],"right_children":[-1],"split_conditions":[1.687148E-3],"split_indices":[0],"split_type":[0],"sum_hessian":[5.4465415E3],"tree_param":{"num_deleted":"0","num_feature":"104","num_nodes":"1","size_leaf_vector":"0"}},{"base_weights":[4.4472422E-3],"categories":[],"categories_nodes":[],"categories_segments":[],"categories_sizes":[],"default_left":[0],"id":76,"left_children":[-1],"loss_changes":[0E0],"parents":[2147483647],"right_children":[-1],"split_conditions":[1.3341727E-3],"split_indices":[0],"split_type":[0],"sum_hessian":[5.462244E3],"tree_param":{"num_deleted":"0","num_feature":"104","num_nodes":"1","size_leaf_vector":"0"}},{"base_weights":[-4.9769756E-1],"categories":[],"categories_nodes":[],"categories_segments":[],"categories_sizes":[],"default_left":[0],"id":77,"left_children":[-1],"loss_changes":[0E0],"parents":[2147483647],"right_children":[-1],"split_conditions":[-1.4930928E-1],"split_indices":[0],"split_type":[0],"sum_hessian":[1.0937305E2],"tree_param":{"num_deleted":"0","num_feature":"104","num_nodes":"1","size_leaf_vector":"0"}},{"base_weights":[4.845329E-3],"categories":[],"categories_nodes":[],"categories_segments":[],"categories_sizes":[],"default_left":[0],"id":78,"left_children":[-1],"loss_changes":[0E0],"parents":[2147483647],"right_children":[-1],"split_conditions":[1.4535987E-3],"split_indices":[0],"split_type":[0],"sum_hessian":[5.447085E3],"tree_param":{"num_deleted":"0","num_feature":"104","num_nodes":"1","size_leaf_vector":"0"}},{"base_weights":[3.822154E-3],"categories":[],"categories_nodes":[],"categories_segments":[],"categories_sizes":[],"default_left":[0],"id":79,"left_children":[-1],"loss_changes":[0E0],"parents":[2147483647],"right_children":[-1],"split_conditions":[1.1466462E-3],"split_indices":[0],"split_type":[0],"sum_hessian":[5.4605913E3],"tree_param":{"num_deleted":"0","num_feature":"104","num_nodes":"1","size_leaf_vector":"0"}},{"base_weights":[-4.966599E-1],"categories":[],"categories_nodes":[],"categories_segments":[],"categories_sizes":[],"default_left":[0],"id":80,"left_children":[-1],"loss_changes":[0E0],"parents":[2147483647],"right_children":[-1],"split_conditions":[-1.4899798E-1],"split_indices":[0],"split_type":[0],"sum_hessian":[9.418144E1],"tree_param":{"num_deleted":"0","num_feature":"104","num_nodes":"1","size_leaf_vector":"0"}},{"base_weights":[4.175127E-3],"categories":[],"categories_nodes":[],"categories_segments":[],"categories_sizes":[],"default_left":[0],"id":81,"left_children":[-1],"loss_changes":[0E0],"parents":[2147483647],"right_children":[-1],"split_conditions":[1.2525382E-3],"split_indices":[0],"split_type":[0],"sum_hessian":[5.4475493E3],"tree_param":{"num_deleted":"0","num_feature":"104","num_nodes":"1","size_leaf_vector":"0"}},{"base_weights":[3.2875033E-3],"categories":[],"categories_nodes":[],"categories_segments":[],"categories_sizes":[],"default_left":[0],"id":82,"left_children":[-1],"loss_changes":[0E0],"parents":[2147483647],"right_children":[-1],"split_conditions":[9.86251E-4],"split_indices":[0],"split_type":[0],"sum_hessian":[5.459173E3],"tree_param":{"num_deleted":"0","num_feature":"104","num_nodes":"1","size_leaf_vector":"0"}},{"base_weights":[-4.9555525E-1],"categories":[],"categories_nodes":[],"categories_segments":[],"categories_sizes":[],"default_left":[0],"id":83,"left_children":[-1],"loss_changes":[0E0],"parents":[2147483647],"right_children":[-1],"split_conditions":[-1.4866658E-1],"split_indices":[0],"split_type":[0],"sum_hessian":[8.112751E1],"tree_param":{"num_deleted":"0","num_feature":"104","num_nodes":"1","size_leaf_vector":"0"}},{"base_weights":[3.598261E-3],"categories":[],"categories_nodes":[],"categories_segments":[],"categories_sizes":[],"default_left":[0],"id":84,"left_children":[-1],"loss_changes":[0E0],"parents":[2147483647],"right_children":[-1],"split_conditions":[1.0794783E-3],"split_indices":[0],"split_type":[0],"sum_hessian":[5.447947E3],"tree_param":{"num_deleted":"0","num_feature":"104","num_nodes":"1","size_leaf_vector":"0"}},{"base_weights":[2.8297233E-3],"categories":[],"categories_nodes":[],"categories_segments":[],"categories_sizes":[],"default_left":[0],"id":85,"left_children":[-1],"loss_changes":[0E0],"parents":[2147483647],"right_children":[-1],"split_conditions":[8.48917E-4],"split_indices":[0],"split_type":[0],"sum_hessian":[5.4579546E3],"tree_param":{"num_deleted":"0","num_feature":"104","num_nodes":"1","size_leaf_vector":"0"}},{"base_weights":[-4.943606E-1],"categories":[],"categories_nodes":[],"categories_segments":[],"categories_sizes":[],"default_left":[0],"id":86,"left_children":[-1],"loss_changes":[0E0],"parents":[2147483647],"right_children":[-1],"split_conditions":[-1.4830819E-1],"split_indices":[0],"split_type":[0],"sum_hessian":[6.990785E1],"tree_param":{"num_deleted":"0","num_feature":"104","num_nodes":"1","size_leaf_vector":"0"}},{"base_weights":[3.1018236E-3],"categories":[],"categories_nodes":[],"categories_segments":[],"categories_sizes":[],"default_left":[0],"id":87,"left_children":[-1],"loss_changes":[0E0],"parents":[2147483647],"right_children":[-1],"split_conditions":[9.3054713E-4],"split_indices":[0],"split_type":[0],"sum_hessian":[5.4482866E3],"tree_param":{"num_deleted":"0","num_feature":"104","num_nodes":"1","size_leaf_vector":"0"}},{"base_weights":[2.4373773E-3],"categories":[],"categories_nodes":[],"categories_segments":[],"categories_sizes":[],"default_left":[0],"id":88,"left_children":[-1],"loss_changes":[0E0],"parents":[2147483647],"right_children":[-1],"split_conditions":[7.3121325E-4],"split_indices":[0],"split_type":[0],"sum_hessian":[5.456907E3],"tree_param":{"num_deleted":"0","num_feature":"104","num_nodes":"1","size_leaf_vector":"0"}},{"base_weights":[-4.9305192E-1],"categories":[],"categories_nodes":[],"categories_segments":[],"categories_sizes":[],"default_left":[0],"id":89,"left_children":[-1],"loss_changes":[0E0],"parents":[2147483647],"right_children":[-1],"split_conditions":[-1.4791559E-1],"split_indices":[0],"split_type":[0],"sum_hessian":[6.026275E1],"tree_param":{"num_deleted":"0","num_feature":"104","num_nodes":"1","size_leaf_vector":"0"}},{"base_weights":[2.6746732E-3],"categories":[],"categories_nodes":[],"categories_segments":[],"categories_sizes":[],"default_left":[0],"id":90,"left_children":[-1],"loss_changes":[0E0],"parents":[2147483647],"right_children":[-1],"split_conditions":[8.02402E-4],"split_indices":[0],"split_type":[0],"sum_hessian":[5.4485776E3],"tree_param":{"num_deleted":"0","num_feature":"104","num_nodes":"1","size_leaf_vector":"0"}},{"base_weights":[2.1008416E-3],"categories":[],"categories_nodes":[],"categories_segments":[],"categories_sizes":[],"default_left":[0],"id":91,"left_children":[-1],"loss_changes":[0E0],"parents":[2147483647],"right_children":[-1],"split_conditions":[6.302525E-4],"split_indices":[0],"split_type":[0],"sum_hessian":[5.4560073E3],"tree_param":{"num_deleted":"0","num_feature":"104","num_nodes":"1","size_leaf_vector":"0"}},{"base_weights":[-4.9160373E-1],"categories":[],"categories_nodes":[],"categories_segments":[],"categories_sizes":[],"default_left":[0],"id":92,"left_children":[-1],"loss_changes":[0E0],"parents":[2147483647],"right_children":[-1],"split_conditions":[-1.4748113E-1],"split_indices":[0],"split_type":[0],"sum_hessian":[5.1969788E1],"tree_param":{"num_deleted":"0","num_feature":"104","num_nodes":"1","size_leaf_vector":"0"}},{"base_weights":[2.3071433E-3],"categories":[],"categories_nodes":[],"categories_segments":[],"categories_sizes":[],"default_left":[0],"id":93,"left_children":[-1],"loss_changes":[0E0],"parents":[2147483647],"right_children":[-1],"split_conditions":[6.92143E-4],"split_indices":[0],"split_type":[0],"sum_hessian":[5.4488267E3],"tree_param":{"num_deleted":"0","num_feature":"104","num_nodes":"1","size_leaf_vector":"0"}},{"base_weights":[1.812002E-3],"categories":[],"categories_nodes":[],"categories_segments":[],"categories_sizes":[],"default_left":[0],"id":94,"left_children":[-1],"loss_changes":[0E0],"parents":[2147483647],"right_children":[-1],"split_conditions":[5.4360065E-4],"split_indices":[0],"split_type":[0],"sum_hessian":[5.455234E3],"tree_param":{"num_deleted":"0","num_feature":"104","num_nodes":"1","size_leaf_vector":"0"}},{"base_weights":[-4.899888E-1],"categories":[],"categories_nodes":[],"categories_segments":[],"categories_sizes":[],"default_left":[0],"id":95,"left_children":[-1],"loss_changes":[0E0],"parents":[2147483647],"right_children":[-1],"split_conditions":[-1.4699665E-1],"split_indices":[0],"split_type":[0],"sum_hessian":[4.4838272E1],"tree_param":{"num_deleted":"0","num_feature":"104","num_nodes":"1","size_leaf_vector":"0"}},{"base_weights":[1.9909164E-3],"categories":[],"categories_nodes":[],"categories_segments":[],"categories_sizes":[],"default_left":[0],"id":96,"left_children":[-1],"loss_changes":[0E0],"parents":[2147483647],"right_children":[-1],"split_conditions":[5.97275E-4],"split_indices":[0],"split_type":[0],"sum_hessian":[5.4490405E3],"tree_param":{"num_deleted":"0","num_feature":"104","num_nodes":"1","size_leaf_vector":"0"}},{"base_weights":[1.5639784E-3],"categories":[],"categories_nodes":[],"categories_segments":[],"categories_sizes":[],"default_left":[0],"id":97,"left_children":[-1],"loss_changes":[0E0],"parents":[2147483647],"right_children":[-1],"split_conditions":[4.6919353E-4],"split_indices":[0],"split_type":[0],"sum_hessian":[5.4545684E3],"tree_param":{"num_deleted":"0","num_feature":"104","num_nodes":"1","size_leaf_vector":"0"}},{"base_weights":[-4.88178E-1],"categories":[],"categories_nodes":[],"categories_segments":[],"categories_sizes":[],"default_left":[0],"id":98,"left_children":[-1],"loss_changes":[0E0],"parents":[2147483647],"right_children":[-1],"split_conditions":[-1.4645341E-1],"split_indices":[0],"split_type":[0],"sum_hessian":[3.8704685E1],"tree_param":{"num_deleted":"0","num_feature":"104","num_nodes":"1","size_leaf_vector":"0"}},{"base_weights":[1.71885E-3],"categories":[],"categories_nodes":[],"categories_segments":[],"categories_sizes":[],"default_left":[0],"id":99,"left_children":[-1],"loss_changes":[0E0],"parents":[2147483647],"right_children":[-1],"split_conditions":[5.1565503E-4],"split_indices":[0],"split_type":[0],"sum_hessian":[5.4492236E3],"tree_param":{"num_deleted":"0","num_feature":"104","num_nodes":"1","size_leaf_vector":"0"}},{"base_weights":[1.3508857E-3],"categories":[],"categories_nodes":[],"categories_segments":[],"categories_sizes":[],"default_left":[0],"id":100,"left_children":[-1],"loss_changes":[0E0],"parents":[2147483647],"right_children":[-1],"split_conditions":[4.0526575E-4],"split_indices":[0],"split_type":[0],"sum_hessian":[5.453996E3],"tree_param":{"num_deleted":"0","num_feature":"104","num_nodes":"1","size_leaf_vector":"0"}},{"base_weights":[-4.8614022E-1],"categories":[],"categories_nodes":[],"categories_segments":[],"categories_sizes":[],"default_left":[0],"id":101,"left_children":[-1],"loss_changes":[0E0],"parents":[2147483647],"right_children":[-1],"split_conditions":[-1.4584208E-1],"split_indices":[0],"split_type":[0],"sum_hessian":[3.3428707E1],"tree_param":{"num_deleted":"0","num_feature":"104","num_nodes":"1","size_leaf_vector":"0"}},{"base_weights":[1.4847553E-3],"categories":[],"categories_nodes":[],"categories_segments":[],"categories_sizes":[],"default_left":[0],"id":102,"left_children":[-1],"loss_changes":[0E0],"parents":[2147483647],"right_children":[-1],"split_conditions":[4.4542662E-4],"split_indices":[0],"split_type":[0],"sum_hessian":[5.4493804E3],"tree_param":{"num_deleted":"0","num_feature":"104","num_nodes":"1","size_leaf_vector":"0"}},{"base_weights":[1.1677516E-3],"categories":[],"categories_nodes":[],"categories_segments":[],"categories_sizes":[],"default_left":[0],"id":103,"left_children":[-1],"loss_changes":[0E0],"parents":[2147483647],"right_children":[-1],"split_conditions":[3.5032548E-4],"split_indices":[0],"split_type":[0],"sum_hessian":[5.4535034E3],"tree_param":{"num_deleted":"0","num_feature":"104","num_nodes":"1","size_leaf_vector":"0"}},{"base_weights":[-4.8384207E-1],"categories":[],"categories_nodes":[],"categories_segments":[],"categories_sizes":[],"default_left":[0],"id":104,"left_children":[-1],"loss_changes":[0E0],"parents":[2147483647],"right_children":[-1],"split_conditions":[-1.4515263E-1],"split_indices":[0],"split_type":[0],"sum_hessian":[2.8889885E1],"tree_param":{"num_deleted":"0","num_feature":"104","num_nodes":"1","size_leaf_vector":"0"}},{"base_weights":[1.2833189E-3],"categories":[],"categories_nodes":[],"categories_segments":[],"categories_sizes":[],"default_left":[0],"id":105,"left_children":[-1],"loss_changes":[0E0],"parents":[2147483647],"right_children":[-1],"split_conditions":[3.8499568E-4],"split_indices":[0],"split_type":[0],"sum_hessian":[5.449515E3],"tree_param":{"num_deleted":"0","num_feature":"104","num_nodes":"1","size_leaf_vector":"0"}},{"base_weights":[1.0103197E-3],"categories":[],"categories_nodes":[],"categories_segments":[],"categories_sizes":[],"default_left":[0],"id":106,"left_children":[-1],"loss_changes":[0E0],"parents":[2147483647],"right_children":[-1],"split_conditions":[3.030959E-4],"split_indices":[0],"split_type":[0],"sum_hessian":[5.4530796E3],"tree_param":{"num_deleted":"0","num_feature":"104","num_nodes":"1","size_leaf_vector":"0"}},{"base_weights":[-4.8124832E-1],"categories":[],"categories_nodes":[],"categories_segments":[],"categories_sizes":[],"default_left":[0],"id":107,"left_children":[-1],"loss_changes":[0E0],"parents":[2147483647],"right_children":[-1],"split_conditions":[-1.443745E-1],"split_indices":[0],"split_type":[0],"sum_hessian":[2.4984787E1],"tree_param":{"num_deleted":"0","num_feature":"104","num_nodes":"1","size_leaf_vector":"0"}},{"base_weights":[1.1100047E-3],"categories":[],"categories_nodes":[],"categories_segments":[],"categories_sizes":[],"default_left":[0],"id":108,"left_children":[-1],"loss_changes":[0E0],"parents":[2147483647],"right_children":[-1],"split_conditions":[3.3300143E-4],"split_indices":[0],"split_type":[0],"sum_hessian":[5.449631E3],"tree_param":{"num_deleted":"0","num_feature":"104","num_nodes":"1","size_leaf_vector":"0"}},{"base_weights":[8.749251E-4],"categories":[],"categories_nodes":[],"categories_segments":[],"categories_sizes":[],"default_left":[0],"id":109,"left_children":[-1],"loss_changes":[0E0],"parents":[2147483647],"right_children":[-1],"split_conditions":[2.6247755E-4],"split_indices":[0],"split_type":[0],"sum_hessian":[5.4527153E3],"tree_param":{"num_deleted":"0","num_feature":"104","num_nodes":"1","size_leaf_vector":"0"}},{"base_weights":[-4.7832188E-1],"categories":[],"categories_nodes":[],"categories_segments":[],"categories_sizes":[],"default_left":[0],"id":110,"left_children":[-1],"loss_changes":[0E0],"parents":[2147483647],"right_children":[-1],"split_conditions":[-1.4349657E-1],"split_indices":[0],"split_type":[0],"sum_hessian":[2.1624546E1],"tree_param":{"num_deleted":"0","num_feature":"104","num_nodes":"1","size_leaf_vector":"0"}},{"base_weights":[9.608702E-4],"categories":[],"categories_nodes":[],"categories_segments":[],"categories_sizes":[],"default_left":[0],"id":111,"left_children":[-1],"loss_changes":[0E0],"parents":[2147483647],"right_children":[-1],"split_conditions":[2.8826107E-4],"split_indices":[0],"split_type":[0],"sum_hessian":[5.44973E3],"tree_param":{"num_deleted":"0","num_feature":"104","num_nodes":"1","size_leaf_vector":"0"}},{"base_weights":[7.584447E-4],"categories":[],"categories_nodes":[],"categories_segments":[],"categories_sizes":[],"default_left":[0],"id":112,"left_children":[-1],"loss_changes":[0E0],"parents":[2147483647],"right_children":[-1],"split_conditions":[2.2753343E-4],"split_indices":[0],"split_type":[0],"sum_hessian":[5.4524014E3],"tree_param":{"num_deleted":"0","num_feature":"104","num_nodes":"1","size_leaf_vector":"0"}},{"base_weights":[-4.7502428E-1],"categories":[],"categories_nodes":[],"categories_segments":[],"categories_sizes":[],"default_left":[0],"id":113,"left_children":[-1],"loss_changes":[0E0],"parents":[2147483647],"right_children":[-1],"split_conditions":[-1.4250728E-1],"split_indices":[0],"split_type":[0],"sum_hessian":[1.8732801E1],"tree_param":{"num_deleted":"0","num_feature":"104","num_nodes":"1","size_leaf_vector":"0"}},{"base_weights":[8.3251914E-4],"categories":[],"categories_nodes":[],"categories_segments":[],"categories_sizes":[],"default_left":[0],"id":114,"left_children":[-1],"loss_changes":[0E0],"parents":[2147483647],"right_children":[-1],"split_conditions":[2.4975574E-4],"split_indices":[0],"split_type":[0],"sum_hessian":[5.4498154E3],"tree_param":{"num_deleted":"0","num_feature":"104","num_nodes":"1","size_leaf_vector":"0"}},{"base_weights":[6.582307E-4],"categories":[],"categories_nodes":[],"categories_segments":[],"categories_sizes":[],"default_left":[0],"id":115,"left_children":[-1],"loss_changes":[0E0],"parents":[2147483647],"right_children":[-1],"split_conditions":[1.9746921E-4],"split_indices":[0],"split_type":[0],"sum_hessian":[5.4521313E3],"tree_param":{"num_deleted":"0","num_feature":"104","num_nodes":"1","size_leaf_vector":"0"}},{"base_weights":[-4.713164E-1],"categories":[],"categories_nodes":[],"categories_segments":[],"categories_sizes":[],"default_left":[0],"id":116,"left_children":[-1],"loss_changes":[0E0],"parents":[2147483647],"right_children":[-1],"split_conditions":[-1.4139493E-1],"split_indices":[0],"split_type":[0],"sum_hessian":[1.624392E1],"tree_param":{"num_deleted":"0","num_feature":"104","num_nodes":"1","size_leaf_vector":"0"}},{"base_weights":[7.22011E-4],"categories":[],"categories_nodes":[],"categories_segments":[],"categories_sizes":[],"default_left":[0],"id":117,"left_children":[-1],"loss_changes":[0E0],"parents":[2147483647],"right_children":[-1],"split_conditions":[2.1660332E-4],"split_indices":[0],"split_type":[0],"sum_hessian":[5.4498887E3],"tree_param":{"num_deleted":"0","num_feature":"104","num_nodes":"1","size_leaf_vector":"0"}},{"base_weights":[5.7202316E-4],"categories":[],"categories_nodes":[],"categories_segments":[],"categories_sizes":[],"default_left":[0],"id":118,"left_children":[-1],"loss_changes":[0E0],"parents":[2147483647],"right_children":[-1],"split_conditions":[1.7160695E-4],"split_indices":[0],"split_type":[0],"sum_hessian":[5.451899E3],"tree_param":{"num_deleted":"0","num_feature":"104","num_nodes":"1","size_leaf_vector":"0"}},{"base_weights":[-4.6715915E-1],"categories":[],"categories_nodes":[],"categories_segments":[],"categories_sizes":[],"default_left":[0],"id":119,"left_children":[-1],"loss_changes":[0E0],"parents":[2147483647],"right_children":[-1],"split_conditions":[-1.4014775E-1],"split_indices":[0],"split_type":[0],"sum_hessian":[1.4101463E1],"tree_param":{"num_deleted":"0","num_feature":"104","num_nodes":"1","size_leaf_vector":"0"}},{"base_weights":[6.269227E-4],"categories":[],"categories_nodes":[],"categories_segments":[],"categories_sizes":[],"default_left":[0],"id":120,"left_children":[-1],"loss_changes":[0E0],"parents":[2147483647],"right_children":[-1],"split_conditions":[1.8807682E-4],"split_indices":[0],"split_type":[0],"sum_hessian":[5.4499517E3],"tree_param":{"num_deleted":"0","num_feature":"104","num_nodes":"1","size_leaf_vector":"0"}},{"base_weights":[4.977709E-4],"categories":[],"categories_nodes":[],"categories_segments":[],"categories_sizes":[],"default_left":[0],"id":121,"left_children":[-1],"loss_changes":[0E0],"parents":[2147483647],"right_children":[-1],"split_conditions":[1.4933127E-4],"split_indices":[0],"split_type":[0],"sum_hessian":[5.4516987E3],"tree_param":{"num_deleted":"0","num_feature":"104","num_nodes":"1","size_leaf_vector":"0"}},{"base_weights":[-4.625149E-1],"categories":[],"categories_nodes":[],"categories_segments":[],"categories_sizes":[],"default_left":[0],"id":122,"left_children":[-1],"loss_changes":[0E0],"parents":[2147483647],"right_children":[-1],"split_conditions":[-1.3875447E-1],"split_indices":[0],"split_type":[0],"sum_hessian":[1.2256918E1],"tree_param":{"num_deleted":"0","num_feature":"104","num_nodes":"1","size_leaf_vector":"0"}},{"base_weights":[5.4503966E-4],"categories":[],"categories_nodes":[],"categories_segments":[],"categories_sizes":[],"default_left":[0],"id":123,"left_children":[-1],"loss_changes":[0E0],"parents":[2147483647],"right_children":[-1],"split_conditions":[1.635119E-4],"split_indices":[0],"split_type":[0],"sum_hessian":[5.450006E3],"tree_param":{"num_deleted":"0","num_feature":"104","num_nodes":"1","size_leaf_vector":"0"}},{"base_weights":[4.3384856E-4],"categories":[],"categories_nodes":[],"categories_segments":[],"categories_sizes":[],"default_left":[0],"id":124,"left_children":[-1],"loss_changes":[0E0],"parents":[2147483647],"right_children":[-1],"split_conditions":[1.3015457E-4],"split_indices":[0],"split_type":[0],"sum_hessian":[5.4515264E3],"tree_param":{"num_deleted":"0","num_feature":"104","num_nodes":"1","size_leaf_vector":"0"}},{"base_weights":[-4.5734861E-1],"categories":[],"categories_nodes":[],"categories_segments":[],"categories_sizes":[],"default_left":[0],"id":125,"left_children":[-1],"loss_changes":[0E0],"parents":[2147483647],"right_children":[-1],"split_conditions":[-1.3720459E-1],"split_indices":[0],"split_type":[0],"sum_hessian":[1.0668546E1],"tree_param":{"num_deleted":"0","num_feature":"104","num_nodes":"1","size_leaf_vector":"0"}},{"base_weights":[4.7451953E-4],"categories":[],"categories_nodes":[],"categories_segments":[],"categories_sizes":[],"default_left":[0],"id":126,"left_children":[-1],"loss_changes":[0E0],"parents":[2147483647],"right_children":[-1],"split_conditions":[1.4235587E-4],"split_indices":[0],"split_type":[0],"sum_hessian":[5.4500522E3],"tree_param":{"num_deleted":"0","num_feature":"104","num_nodes":"1","size_leaf_vector":"0"}},{"base_weights":[3.7879412E-4],"categories":[],"categories_nodes":[],"categories_segments":[],"categories_sizes":[],"default_left":[0],"id":127,"left_children":[-1],"loss_changes":[0E0],"parents":[2147483647],"right_children":[-1],"split_conditions":[1.1363824E-4],"split_indices":[0],"split_type":[0],"sum_hessian":[5.4513774E3],"tree_param":{"num_deleted":"0","num_feature":"104","num_nodes":"1","size_leaf_vector":"0"}},{"base_weights":[-4.516296E-1],"categories":[],"categories_nodes":[],"categories_segments":[],"categories_sizes":[],"default_left":[0],"id":128,"left_children":[-1],"loss_changes":[0E0],"parents":[2147483647],"right_children":[-1],"split_conditions":[-1.3548888E-1],"split_indices":[0],"split_type":[0],"sum_hessian":[9.300445E0],"tree_param":{"num_deleted":"0","num_feature":"104","num_nodes":"1","size_leaf_vector":"0"}},{"base_weights":[4.1377885E-4],"categories":[],"categories_nodes":[],"categories_segments":[],"categories_sizes":[],"default_left":[0],"id":129,"left_children":[-1],"loss_changes":[0E0],"parents":[2147483647],"right_children":[-1],"split_conditions":[1.2413366E-4],"split_indices":[0],"split_type":[0],"sum_hessian":[5.4500923E3],"tree_param":{"num_deleted":"0","num_feature":"104","num_nodes":"1","size_leaf_vector":"0"}},{"base_weights":[3.313605E-4],"categories":[],"categories_nodes":[],"categories_segments":[],"categories_sizes":[],"default_left":[0],"id":130,"left_children":[-1],"loss_changes":[0E0],"parents":[2147483647],"right_children":[-1],"split_conditions":[9.940816E-5],"split_indices":[0],"split_type":[0],"sum_hessian":[5.4512495E3],"tree_param":{"num_deleted":"0","num_feature":"104","num_nodes":"1","size_leaf_vector":"0"}},{"base_weights":[-4.4533324E-1],"categories":[],"categories_nodes":[],"categories_segments":[],"categories_sizes":[],"default_left":[0],"id":131,"left_children":[-1],"loss_changes":[0E0],"parents":[2147483647],"right_children":[-1],"split_conditions":[-1.3359998E-1],"split_indices":[0],"split_type":[0],"sum_hessian":[8.121733E0],"tree_param":{"num_deleted":"0","num_feature":"104","num_nodes":"1","size_leaf_vector":"0"}},{"base_weights":[3.6145202E-4],"categories":[],"categories_nodes":[],"categories_segments":[],"categories_sizes":[],"default_left":[0],"id":132,"left_children":[-1],"loss_changes":[0E0],"parents":[2147483647],"right_children":[-1],"split_conditions":[1.0843561E-4],"split_indices":[0],"split_type":[0],"sum_hessian":[5.450127E3],"tree_param":{"num_deleted":"0","num_feature":"104","num_nodes":"1","size_leaf_vector":"0"}},{"base_weights":[2.904592E-4],"categories":[],"categories_nodes":[],"categories_segments":[],"categories_sizes":[],"default_left":[0],"id":133,"left_children":[-1],"loss_changes":[0E0],"parents":[2147483647],"right_children":[-1],"split_conditions":[8.713776E-5],"split_indices":[0],"split_type":[0],"sum_hessian":[5.451139E3],"tree_param":{"num_deleted":"0","num_feature":"104","num_nodes":"1","size_leaf_vector":"0"}},{"base_weights":[-4.3844303E-1],"categories":[],"categories_nodes":[],"categories_segments":[],"categories_sizes":[],"default_left":[0],"id":134,"left_children":[-1],"loss_changes":[0E0],"parents":[2147483647],"right_children":[-1],"split_conditions":[-1.3153292E-1],"split_indices":[0],"split_type":[0],"sum_hessian":[7.1058373E0],"tree_param":{"num_deleted":"0","num_feature":"104","num_nodes":"1","size_leaf_vector":"0"}},{"base_weights":[3.1633538E-4],"categories":[],"categories_nodes":[],"categories_segments":[],"categories_sizes":[],"default_left":[0],"id":135,"left_children":[-1],"loss_changes":[0E0],"parents":[2147483647],"right_children":[-1],"split_conditions":[9.490062E-5],"split_indices":[0],"split_type":[0],"sum_hessian":[5.4501567E3],"tree_param":{"num_deleted":"0","num_feature":"104","num_nodes":"1","size_leaf_vector":"0"}},{"base_weights":[2.5520162E-4],"categories":[],"categories_nodes":[],"categories_segments":[],"categories_sizes":[],"default_left":[0],"id":136,"left_children":[-1],"loss_changes":[0E0],"parents":[2147483647],"right_children":[-1],"split_conditions":[7.656049E-5],"split_indices":[0],"split_type":[0],"sum_hessian":[5.451044E3],"tree_param":{"num_deleted":"0","num_feature":"104","num_nodes":"1","size_leaf_vector":"0"}},{"base_weights":[-4.3095204E-1],"categories":[],"categories_nodes":[],"categories_segments":[],"categories_sizes":[],"default_left":[0],"id":137,"left_children":[-1],"loss_changes":[0E0],"parents":[2147483647],"right_children":[-1],"split_conditions":[-1.2928562E-1],"split_indices":[0],"split_type":[0],"sum_hessian":[6.2298894E0],"tree_param":{"num_deleted":"0","num_feature":"104","num_nodes":"1","size_leaf_vector":"0"}},{"base_weights":[2.774229E-4],"categories":[],"categories_nodes":[],"categories_segments":[],"categories_sizes":[],"default_left":[0],"id":138,"left_children":[-1],"loss_changes":[0E0],"parents":[2147483647],"right_children":[-1],"split_conditions":[8.322687E-5],"split_indices":[0],"split_type":[0],"sum_hessian":[5.450182E3],"tree_param":{"num_deleted":"0","num_feature":"104","num_nodes":"1","size_leaf_vector":"0"}},{"base_weights":[2.2476859E-4],"categories":[],"categories_nodes":[],"categories_segments":[],"categories_sizes":[],"default_left":[0],"id":139,"left_children":[-1],"loss_changes":[0E0],"parents":[2147483647],"right_children":[-1],"split_conditions":[6.743058E-5],"split_indices":[0],"split_type":[0],"sum_hessian":[5.450962E3],"tree_param":{"num_deleted":"0","num_feature":"104","num_nodes":"1","size_leaf_vector":"0"}},{"base_weights":[-4.2286497E-1],"categories":[],"categories_nodes":[],"categories_segments":[],"categories_sizes":[],"default_left":[0],"id":140,"left_children":[-1],"loss_changes":[0E0],"parents":[2147483647],"right_children":[-1],"split_conditions":[-1.268595E-1],"split_indices":[0],"split_type":[0],"sum_hessian":[5.474221E0],"tree_param":{"num_deleted":"0","num_feature":"104","num_nodes":"1","size_leaf_vector":"0"}},{"base_weights":[2.4388338E-4],"categories":[],"categories_nodes":[],"categories_segments":[],"categories_sizes":[],"default_left":[0],"id":141,"left_children":[-1],"loss_changes":[0E0],"parents":[2147483647],"right_children":[-1],"split_conditions":[7.3165014E-5],"split_indices":[0],"split_type":[0],"sum_hessian":[5.450204E3],"tree_param":{"num_deleted":"0","num_feature":"104","num_nodes":"1","size_leaf_vector":"0"}},{"base_weights":[1.9845895E-4],"categories":[],"categories_nodes":[],"categories_segments":[],"categories_sizes":[],"default_left":[0],"id":142,"left_children":[-1],"loss_changes":[0E0],"parents":[2147483647],"right_children":[-1],"split_conditions":[5.9537688E-5],"split_indices":[0],"split_type":[0],"sum_hessian":[5.450891E3],"tree_param":{"num_deleted":"0","num_feature":"104","num_nodes":"1","size_leaf_vector":"0"}},{"base_weights":[-4.1419885E-1],"categories":[],"categories_nodes":[],"categories_segments":[],"categories_sizes":[],"default_left":[0],"id":143,"left_children":[-1],"loss_changes":[0E0],"parents":[2147483647],"right_children":[-1],"split_conditions":[-1.2425966E-1],"split_indices":[0],"split_type":[0],"sum_hessian":[4.821906E0],"tree_param":{"num_deleted":"0","num_feature":"104","num_nodes":"1","size_leaf_vector":"0"}},{"base_weights":[2.1486987E-4],"categories":[],"categories_nodes":[],"categories_segments":[],"categories_sizes":[],"default_left":[0],"id":144,"left_children":[-1],"loss_changes":[0E0],"parents":[2147483647],"right_children":[-1],"split_conditions":[6.446096E-5],"split_indices":[0],"split_type":[0],"sum_hessian":[5.450223E3],"tree_param":{"num_deleted":"0","num_feature":"104","num_nodes":"1","size_leaf_vector":"0"}},{"base_weights":[1.7576806E-4],"categories":[],"categories_nodes":[],"categories_segments":[],"categories_sizes":[],"default_left":[0],"id":145,"left_children":[-1],"loss_changes":[0E0],"parents":[2147483647],"right_children":[-1],"split_conditions":[5.273042E-5],"split_indices":[0],"split_type":[0],"sum_hessian":[5.45083E3],"tree_param":{"num_deleted":"0","num_feature":"104","num_nodes":"1","size_leaf_vector":"0"}},{"base_weights":[-4.049841E-1],"categories":[],"categories_nodes":[],"categories_segments":[],"categories_sizes":[],"default_left":[0],"id":146,"left_children":[-1],"loss_changes":[0E0],"parents":[2147483647],"right_children":[-1],"split_conditions":[-1.2149523E-1],"split_indices":[0],"split_type":[0],"sum_hessian":[4.2583866E0],"tree_param":{"num_deleted":"0","num_feature":"104","num_nodes":"1","size_leaf_vector":"0"}},{"base_weights":[1.8982428E-4],"categories":[],"categories_nodes":[],"categories_segments":[],"categories_sizes":[],"default_left":[0],"id":147,"left_children":[-1],"loss_changes":[0E0],"parents":[2147483647],"right_children":[-1],"split_conditions":[5.6947287E-5],"split_indices":[0],"split_type":[0],"sum_hessian":[5.4502397E3],"tree_param":{"num_deleted":"0","num_feature":"104","num_nodes":"1","size_leaf_vector":"0"}},{"base_weights":[1.5611177E-4],"categories":[],"categories_nodes":[],"categories_segments":[],"categories_sizes":[],"default_left":[0],"id":148,"left_children":[-1],"loss_changes":[0E0],"parents":[2147483647],"right_children":[-1],"split_conditions":[4.683353E-5],"split_indices":[0],"split_type":[0],"sum_hessian":[5.450777E3],"tree_param":{"num_deleted":"0","num_feature":"104","num_nodes":"1","size_leaf_vector":"0"}},{"base_weights":[-3.9526397E-1],"categories":[],"categories_nodes":[],"categories_segments":[],"categories_sizes":[],"default_left":[0],"id":149,"left_children":[-1],"loss_changes":[0E0],"parents":[2147483647],"right_children":[-1],"split_conditions":[-1.18579194E-1],"split_indices":[0],"split_type":[0],"sum_hessian":[3.7711391E0],"tree_param":{"num_deleted":"0","num_feature":"104","num_nodes":"1","size_leaf_vector":"0"}},{"base_weights":[1.6818283E-4],"categories":[],"categories_nodes":[],"categories_segments":[],"categories_sizes":[],"default_left":[0],"id":150,"left_children":[-1],"loss_changes":[0E0],"parents":[2147483647],"right_children":[-1],"split_conditions":[5.045485E-5],"split_indices":[0],"split_type":[0],"sum_hessian":[5.450254E3],"tree_param":{"num_deleted":"0","num_feature":"104","num_nodes":"1","size_leaf_vector":"0"}},{"base_weights":[1.3906334E-4],"categories":[],"categories_nodes":[],"categories_segments":[],"categories_sizes":[],"default_left":[0],"id":151,"left_children":[-1],"loss_changes":[0E0],"parents":[2147483647],"right_children":[-1],"split_conditions":[4.1719002E-5],"split_indices":[0],"split_type":[0],"sum_hessian":[5.450731E3],"tree_param":{"num_deleted":"0","num_feature":"104","num_nodes":"1","size_leaf_vector":"0"}},{"base_weights":[-3.8509414E-1],"categories":[],"categories_nodes":[],"categories_segments":[],"categories_sizes":[],"default_left":[0],"id":152,"left_children":[-1],"loss_changes":[0E0],"parents":[2147483647],"right_children":[-1],"split_conditions":[-1.1552825E-1],"split_indices":[0],"split_type":[0],"sum_hessian":[3.3493989E0],"tree_param":{"num_deleted":"0","num_feature":"104","num_nodes":"1","size_leaf_vector":"0"}},{"base_weights":[1.4945403E-4],"categories":[],"categories_nodes":[],"categories_segments":[],"categories_sizes":[],"default_left":[0],"id":153,"left_children":[-1],"loss_changes":[0E0],"parents":[2147483647],"right_children":[-1],"split_conditions":[4.483621E-5],"split_indices":[0],"split_type":[0],"sum_hessian":[5.450266E3],"tree_param":{"num_deleted":"0","num_feature":"104","num_nodes":"1","size_leaf_vector":"0"}},{"base_weights":[1.2425997E-4],"categories":[],"categories_nodes":[],"categories_segments":[],"categories_sizes":[],"default_left":[0],"id":154,"left_children":[-1],"loss_changes":[0E0],"parents":[2147483647],"right_children":[-1],"split_conditions":[3.727799E-5],"split_indices":[0],"split_type":[0],"sum_hessian":[5.450691E3],"tree_param":{"num_deleted":"0","num_feature":"104","num_nodes":"1","size_leaf_vector":"0"}},{"base_weights":[-3.7454093E-1],"categories":[],"categories_nodes":[],"categories_segments":[],"categories_sizes":[],"default_left":[0],"id":155,"left_children":[-1],"loss_changes":[0E0],"parents":[2147483647],"right_children":[-1],"split_conditions":[-1.1236228E-1],"split_indices":[0],"split_type":[0],"sum_hessian":[2.9839177E0],"tree_param":{"num_deleted":"0","num_feature":"104","num_nodes":"1","size_leaf_vector":"0"}},{"base_weights":[1.3321433E-4],"categories":[],"categories_nodes":[],"categories_segments":[],"categories_sizes":[],"default_left":[0],"id":156,"left_children":[-1],"loss_changes":[0E0],"parents":[2147483647],"right_children":[-1],"split_conditions":[3.99643E-5],"split_indices":[0],"split_type":[0],"sum_hessian":[5.4502764E3],"tree_param":{"num_deleted":"0","num_feature":"104","num_nodes":"1","size_leaf_vector":"0"}},{"base_weights":[1.1140468E-4],"categories":[],"categories_nodes":[],"categories_segments":[],"categories_sizes":[],"default_left":[0],"id":157,"left_children":[-1],"loss_changes":[0E0],"parents":[2147483647],"right_children":[-1],"split_conditions":[3.3421406E-5],"split_indices":[0],"split_type":[0],"sum_hessian":[5.4506562E3],"tree_param":{"num_deleted":"0","num_feature":"104","num_nodes":"1","size_leaf_vector":"0"}},{"base_weights":[-3.6367893E-1],"categories":[],"categories_nodes":[],"categories_segments":[],"categories_sizes":[],"default_left":[0],"id":158,"left_children":[-1],"loss_changes":[0E0],"parents":[2147483647],"right_children":[-1],"split_conditions":[-1.0910369E-1],"split_indices":[0],"split_type":[0],"sum_hessian":[2.6667488E0],"tree_param":{"num_deleted":"0","num_feature":"104","num_nodes":"1","size_leaf_vector":"0"}},{"base_weights":[1.19097596E-4],"categories":[],"categories_nodes":[],"categories_segments":[],"categories_sizes":[],"default_left":[0],"id":159,"left_children":[-1],"loss_changes":[0E0],"parents":[2147483647],"right_children":[-1],"split_conditions":[3.572928E-5],"split_indices":[0],"split_type":[0],"sum_hessian":[5.4502856E3],"tree_param":{"num_deleted":"0","num_feature":"104","num_nodes":"1","size_leaf_vector":"0"}},{"base_weights":[1.0022929E-4],"categories":[],"categories_nodes":[],"categories_segments":[],"categories_sizes":[],"default_left":[0],"id":160,"left_children":[-1],"loss_changes":[0E0],"parents":[2147483647],"right_children":[-1],"split_conditions":[3.0068788E-5],"split_indices":[0],"split_type":[0],"sum_hessian":[5.4506265E3],"tree_param":{"num_deleted":"0","num_feature":"104","num_nodes":"1","size_leaf_vector":"0"}},{"base_weights":[-3.5258844E-1],"categories":[],"categories_nodes":[],"categories_segments":[],"categories_sizes":[],"default_left":[0],"id":161,"left_children":[-1],"loss_changes":[0E0],"parents":[2147483647],"right_children":[-1],"split_conditions":[-1.0577654E-1],"split_indices":[0],"split_type":[0],"sum_hessian":[2.391074E0],"tree_param":{"num_deleted":"0","num_feature":"104","num_nodes":"1","size_leaf_vector":"0"}},{"base_weights":[1.0681005E-4],"categories":[],"categories_nodes":[],"categories_segments":[],"categories_sizes":[],"default_left":[0],"id":162,"left_children":[-1],"loss_changes":[0E0],"parents":[2147483647],"right_children":[-1],"split_conditions":[3.2043015E-5],"split_indices":[0],"split_type":[0],"sum_hessian":[5.450294E3],"tree_param":{"num_deleted":"0","num_feature":"104","num_nodes":"1","size_leaf_vector":"0"}},{"base_weights":[9.049703E-5],"categories":[],"categories_nodes":[],"categories_segments":[],"categories_sizes":[],"default_left":[0],"id":163,"left_children":[-1],"loss_changes":[0E0],"parents":[2147483647],"right_children":[-1],"split_conditions":[2.714911E-5],"split_indices":[0],"split_type":[0],"sum_hessian":[5.4506E3],"tree_param":{"num_deleted":"0","num_feature":"104","num_nodes":"1","size_leaf_vector":"0"}},{"base_weights":[-3.4135237E-1],"categories":[],"categories_nodes":[],"categories_segments":[],"categories_sizes":[],"default_left":[0],"id":164,"left_children":[-1],"loss_changes":[0E0],"parents":[2147483647],"right_children":[-1],"split_conditions":[-1.0240572E-1],"split_indices":[0],"split_type":[0],"sum_hessian":[2.1510444E0],"tree_param":{"num_deleted":"0","num_feature":"104","num_nodes":"1","size_leaf_vector":"0"}},{"base_weights":[9.612404E-5],"categories":[],"categories_nodes":[],"categories_segments":[],"categories_sizes":[],"default_left":[0],"id":165,"left_children":[-1],"loss_changes":[0E0],"parents":[2147483647],"right_children":[-1],"split_conditions":[2.8837212E-5],"split_indices":[0],"split_type":[0],"sum_hessian":[5.450301E3],"tree_param":{"num_deleted":"0","num_feature":"104","num_nodes":"1","size_leaf_vector":"0"}},{"base_weights":[8.197784E-5],"categories":[],"categories_nodes":[],"categories_segments":[],"categories_sizes":[],"default_left":[0],"id":166,"left_children":[-1],"loss_changes":[0E0],"parents":[2147483647],"right_children":[-1],"split_conditions":[2.4593353E-5],"split_indices":[0],"split_type":[0],"sum_hessian":[5.450577E3],"tree_param":{"num_deleted":"0","num_feature":"104","num_nodes":"1","size_leaf_vector":"0"}},{"base_weights":[-3.300532E-1],"categories":[],"categories_nodes":[],"categories_segments":[],"categories_sizes":[],"default_left":[0],"id":167,"left_children":[-1],"loss_changes":[0E0],"parents":[2147483647],"right_children":[-1],"split_conditions":[-9.9015966E-2],"split_indices":[0],"split_type":[0],"sum_hessian":[1.9416453E0],"tree_param":{"num_deleted":"0","num_feature":"104","num_nodes":"1","size_leaf_vector":"0"}},{"base_weights":[8.6786335E-5],"categories":[],"categories_nodes":[],"categories_segments":[],"categories_sizes":[],"default_left":[0],"id":168,"left_children":[-1],"loss_changes":[0E0],"parents":[2147483647],"right_children":[-1],"split_conditions":[2.6035901E-5],"split_indices":[0],"split_type":[0],"sum_hessian":[5.4503066E3],"tree_param":{"num_deleted":"0","num_feature":"104","num_nodes":"1","size_leaf_vector":"0"}},{"base_weights":[7.452073E-5],"categories":[],"categories_nodes":[],"categories_segments":[],"categories_sizes":[],"default_left":[0],"id":169,"left_children":[-1],"loss_changes":[0E0],"parents":[2147483647],"right_children":[-1],"split_conditions":[2.235622E-5],"split_indices":[0],"split_type":[0],"sum_hessian":[5.450557E3],"tree_param":{"num_deleted":"0","num_feature":"104","num_nodes":"1","size_leaf_vector":"0"}},{"base_weights":[-3.1877032E-1],"categories":[],"categories_nodes":[],"categories_segments":[],"categories_sizes":[],"default_left":[0],"id":170,"left_children":[-1],"loss_changes":[0E0],"parents":[2147483647],"right_children":[-1],"split_conditions":[-9.56311E-2],"split_indices":[0],"split_type":[0],"sum_hessian":[1.7585824E0],"tree_param":{"num_deleted":"0","num_feature":"104","num_nodes":"1","size_leaf_vector":"0"}},{"base_weights":[7.8664656E-5],"categories":[],"categories_nodes":[],"categories_segments":[],"categories_sizes":[],"default_left":[0],"id":171,"left_children":[-1],"loss_changes":[0E0],"parents":[2147483647],"right_children":[-1],"split_conditions":[2.3599398E-5],"split_indices":[0],"split_type":[0],"sum_hessian":[5.450312E3],"tree_param":{"num_deleted":"0","num_feature":"104","num_nodes":"1","size_leaf_vector":"0"}},{"base_weights":[6.7929584E-5],"categories":[],"categories_nodes":[],"categories_segments":[],"categories_sizes":[],"default_left":[0],"id":172,"left_children":[-1],"loss_changes":[0E0],"parents":[2147483647],"right_children":[-1],"split_conditions":[2.0378877E-5],"split_indices":[0],"split_type":[0],"sum_hessian":[5.4505396E3],"tree_param":{"num_deleted":"0","num_feature":"104","num_nodes":"1","size_leaf_vector":"0"}},{"base_weights":[-3.075777E-1],"categories":[],"categories_nodes":[],"categories_segments":[],"categories_sizes":[],"default_left":[0],"id":173,"left_children":[-1],"loss_changes":[0E0],"parents":[2147483647],"right_children":[-1],"split_conditions":[-9.227331E-2],"split_indices":[0],"split_type":[0],"sum_hessian":[1.5981809E0],"tree_param":{"num_deleted":"0","num_feature":"104","num_nodes":"1","size_leaf_vector":"0"}},{"base_weights":[7.151296E-5],"categories":[],"categories_nodes":[],"categories_segments":[],"categories_sizes":[],"default_left":[0],"id":174,"left_children":[-1],"loss_changes":[0E0],"parents":[2147483647],"right_children":[-1],"split_conditions":[2.1453889E-5],"split_indices":[0],"split_type":[0],"sum_hessian":[5.450317E3],"tree_param":{"num_deleted":"0","num_feature":"104","num_nodes":"1","size_leaf_vector":"0"}},{"base_weights":[6.215514E-5],"categories":[],"categories_nodes":[],"categories_segments":[],"categories_sizes":[],"default_left":[0],"id":175,"left_children":[-1],"loss_changes":[0E0],"parents":[2147483647],"right_children":[-1],"split_conditions":[1.8646542E-5],"split_indices":[0],"split_type":[0],"sum_hessian":[5.4505244E3],"tree_param":{"num_deleted":"0","num_feature":"104","num_nodes":"1","size_leaf_vector":"0"}},{"base_weights":[-2.965419E-1],"categories":[],"categories_nodes":[],"categories_segments":[],"categories_sizes":[],"default_left":[0],"id":176,"left_children":[-1],"loss_changes":[0E0],"parents":[2147483647],"right_children":[-1],"split_conditions":[-8.896257E-2],"split_indices":[0],"split_type":[0],"sum_hessian":[1.4572958E0],"tree_param":{"num_deleted":"0","num_feature":"104","num_nodes":"1","size_leaf_vector":"0"}},{"base_weights":[6.521218E-5],"categories":[],"categories_nodes":[],"categories_segments":[],"categories_sizes":[],"default_left":[0],"id":177,"left_children":[-1],"loss_changes":[0E0],"parents":[2147483647],"right_children":[-1],"split_conditions":[1.9563655E-5],"split_indices":[0],"split_type":[0],"sum_hessian":[5.450321E3],"tree_param":{"num_deleted":"0","num_feature":"104","num_nodes":"1","size_leaf_vector":"0"}},{"base_weights":[5.7076624E-5],"categories":[],"categories_nodes":[],"categories_segments":[],"categories_sizes":[],"default_left":[0],"id":178,"left_children":[-1],"loss_changes":[0E0],"parents":[2147483647],"right_children":[-1],"split_conditions":[1.7122988E-5],"split_indices":[0],"split_type":[0],"sum_hessian":[5.4505107E3],"tree_param":{"num_deleted":"0","num_feature":"104","num_nodes":"1","size_leaf_vector":"0"}},{"base_weights":[-2.85721E-1],"categories":[],"categories_nodes":[],"categories_segments":[],"categories_sizes":[],"default_left":[0],"id":179,"left_children":[-1],"loss_changes":[0E0],"parents":[2147483647],"right_children":[-1],"split_conditions":[-8.571631E-2],"split_indices":[0],"split_type":[0],"sum_hessian":[1.3332375E0],"tree_param":{"num_deleted":"0","num_feature":"104","num_nodes":"1","size_leaf_vector":"0"}},{"base_weights":[5.9704547E-5],"categories":[],"categories_nodes":[],"categories_segments":[],"categories_sizes":[],"default_left":[0],"id":180,"left_children":[-1],"loss_changes":[0E0],"parents":[2147483647],"right_children":[-1],"split_conditions":[1.7911365E-5],"split_indices":[0],"split_type":[0],"sum_hessian":[5.450324E3],"tree_param":{"num_deleted":"0","num_feature":"104","num_nodes":"1","size_leaf_vector":"0"}},{"base_weights":[5.253985E-5],"categories":[],"categories_nodes":[],"categories_segments":[],"categories_sizes":[],"default_left":[0],"id":181,"left_children":[-1],"loss_changes":[0E0],"parents":[2147483647],"right_children":[-1],"split_conditions":[1.5761956E-5],"split_indices":[0],"split_type":[0],"sum_hessian":[5.4504985E3],"tree_param":{"num_deleted":"0","num_feature":"104","num_nodes":"1","size_leaf_vector":"0"}},{"base_weights":[-2.7516395E-1],"categories":[],"categories_nodes":[],"categories_segments":[],"categories_sizes":[],"default_left":[0],"id":182,"left_children":[-1],"loss_changes":[0E0],"parents":[2147483647],"right_children":[-1],"split_conditions":[-8.2549185E-2],"split_indices":[0],"split_type":[0],"sum_hessian":[1.223707E0],"tree_param":{"num_deleted":"0","num_feature":"104","num_nodes":"1","size_leaf_vector":"0"}},{"base_weights":[5.480269E-5],"categories":[],"categories_nodes":[],"categories_segments":[],"categories_sizes":[],"default_left":[0],"id":183,"left_children":[-1],"loss_changes":[0E0],"parents":[2147483647],"right_children":[-1],"split_conditions":[1.6440808E-5],"split_indices":[0],"split_type":[0],"sum_hessian":[5.4503276E3],"tree_param":{"num_deleted":"0","num_feature":"104","num_nodes":"1","size_leaf_vector":"0"}},{"base_weights":[4.8542523E-5],"categories":[],"categories_nodes":[],"categories_segments":[],"categories_sizes":[],"default_left":[0],"id":184,"left_children":[-1],"loss_changes":[0E0],"parents":[2147483647],"right_children":[-1],"split_conditions":[1.4562757E-5],"split_indices":[0],"split_type":[0],"sum_hessian":[5.450488E3],"tree_param":{"num_deleted":"0","num_feature":"104","num_nodes":"1","size_leaf_vector":"0"}},{"base_weights":[-2.6491034E-1],"categories":[],"categories_nodes":[],"categories_segments":[],"categories_sizes":[],"default_left":[0],"id":185,"left_children":[-1],"loss_changes":[0E0],"parents":[2147483647],"right_children":[-1],"split_conditions":[-7.947311E-2],"split_indices":[0],"split_type":[0],"sum_hessian":[1.1267382E0],"tree_param":{"num_deleted":"0","num_feature":"104","num_nodes":"1","size_leaf_vector":"0"}},{"base_weights":[5.0463896E-5],"categories":[],"categories_nodes":[],"categories_segments":[],"categories_sizes":[],"default_left":[0],"id":186,"left_children":[-1],"loss_changes":[0E0],"parents":[2147483647],"right_children":[-1],"split_conditions":[1.513917E-5],"split_indices":[0],"split_type":[0],"sum_hessian":[5.45033E3],"tree_param":{"num_deleted":"0","num_feature":"104","num_nodes":"1","size_leaf_vector":"0"}},{"base_weights":[4.4987984E-5],"categories":[],"categories_nodes":[],"categories_segments":[],"categories_sizes":[],"default_left":[0],"id":187,"left_children":[-1],"loss_changes":[0E0],"parents":[2147483647],"right_children":[-1],"split_conditions":[1.3496396E-5],"split_indices":[0],"split_type":[0],"sum_hessian":[5.4504785E3],"tree_param":{"num_deleted":"0","num_feature":"104","num_nodes":"1","size_leaf_vector":"0"}},{"base_weights":[-2.549908E-1],"categories":[],"categories_nodes":[],"categories_segments":[],"categories_sizes":[],"default_left":[0],"id":188,"left_children":[-1],"loss_changes":[0E0],"parents":[2147483647],"right_children":[-1],"split_conditions":[-7.649724E-2],"split_indices":[0],"split_type":[0],"sum_hessian":[1.0406495E0],"tree_param":{"num_deleted":"0","num_feature":"104","num_nodes":"1","size_leaf_vector":"0"}},{"base_weights":[4.6614336E-5],"categories":[],"categories_nodes":[],"categories_segments":[],"categories_sizes":[],"default_left":[0],"id":189,"left_children":[-1],"loss_changes":[0E0],"parents":[2147483647],"right_children":[-1],"split_conditions":[1.3984301E-5],"split_indices":[0],"split_type":[0],"sum_hessian":[5.4503325E3],"tree_param":{"num_deleted":"0","num_feature":"104","num_nodes":"1","size_leaf_vector":"0"}},{"base_weights":[4.1805994E-5],"categories":[],"categories_nodes":[],"categories_segments":[],"categories_sizes":[],"default_left":[0],"id":190,"left_children":[-1],"loss_changes":[0E0],"parents":[2147483647],"right_children":[-1],"split_conditions":[1.2541798E-5],"split_indices":[0],"split_type":[0],"sum_hessian":[5.4504697E3],"tree_param":{"num_deleted":"0","num_feature":"104","num_nodes":"1","size_leaf_vector":"0"}},{"base_weights":[0E0],"categories":[],"categories_nodes":[],"categories_segments":[],"categories_sizes":[],"default_left":[0],"id":191,"left_children":[-1],"loss_changes":[0E0],"parents":[2147483647],"right_children":[-1],"split_conditions":[0E0],"split_indices":[0],"split_type":[0],"sum_hessian":[9.6400386E-1],"tree_param":{"num_deleted":"0","num_feature":"104","num_nodes":"1","size_leaf_vector":"0"}},{"base_weights":[4.5883928E-5],"categories":[],"categories_nodes":[],"categories_segments":[],"categories_sizes":[],"default_left":[0],"id":192,"left_children":[-1],"loss_changes":[0E0],"parents":[2147483647],"right_children":[-1],"split_conditions":[1.3765179E-5],"split_indices":[0],"split_type":[0],"sum_hessian":[5.4503335E3],"tree_param":{"num_deleted":"0","num_feature":"104","num_nodes":"1","size_leaf_vector":"0"}},{"base_weights":[4.2536463E-5],"categories":[],"categories_nodes":[],"categories_segments":[],"categories_sizes":[],"default_left":[0],"id":193,"left_children":[-1],"loss_changes":[0E0],"parents":[2147483647],"right_children":[-1],"split_conditions":[1.2760939E-5],"split_indices":[0],"split_type":[0],"sum_hessian":[5.450471E3],"tree_param":{"num_deleted":"0","num_feature":"104","num_nodes":"1","size_leaf_vector":"0"}},{"base_weights":[0E0],"categories":[],"categories_nodes":[],"categories_segments":[],"categories_sizes":[],"default_left":[0],"id":194,"left_children":[-1],"loss_changes":[0E0],"parents":[2147483647],"right_children":[-1],"split_conditions":[0E0],"split_indices":[0],"split_type":[0],"sum_hessian":[9.6399117E-1],"tree_param":{"num_deleted":"0","num_feature":"104","num_nodes":"1","size_leaf_vector":"0"}},{"base_weights":[4.538967E-5],"categories":[],"categories_nodes":[],"categories_segments":[],"categories_sizes":[],"default_left":[0],"id":195,"left_children":[-1],"loss_changes":[0E0],"parents":[2147483647],"right_children":[-1],"split_conditions":[1.3616901E-5],"split_indices":[0],"split_type":[0],"sum_hessian":[5.4503345E3],"tree_param":{"num_deleted":"0","num_feature":"104","num_nodes":"1","size_leaf_vector":"0"}},{"base_weights":[4.3027794E-5],"categories":[],"categories_nodes":[],"categories_segments":[],"categories_sizes":[],"default_left":[0],"id":196,"left_children":[-1],"loss_changes":[0E0],"parents":[2147483647],"right_children":[-1],"split_conditions":[1.2908339E-5],"split_indices":[0],"split_type":[0],"sum_hessian":[5.4504717E3],"tree_param":{"num_deleted":"0","num_feature":"104","num_nodes":"1","size_leaf_vector":"0"}},{"base_weights":[0E0],"categories":[],"categories_nodes":[],"categories_segments":[],"categories_sizes":[],"default_left":[0],"id":197,"left_children":[-1],"loss_changes":[0E0],"parents":[2147483647],"right_children":[-1],"split_conditions":[0E0],"split_indices":[0],"split_type":[0],"sum_hessian":[9.6397847E-1],"tree_param":{"num_deleted":"0","num_feature":"104","num_nodes":"1","size_leaf_vector":"0"}},{"base_weights":[4.504063E-5],"categories":[],"categories_nodes":[],"categories_segments":[],"categories_sizes":[],"default_left":[0],"id":198,"left_children":[-1],"loss_changes":[0E0],"parents":[2147483647],"right_children":[-1],"split_conditions":[1.3512189E-5],"split_indices":[0],"split_type":[0],"sum_hessian":[5.450335E3],"tree_param":{"num_deleted":"0","num_feature":"104","num_nodes":"1","size_leaf_vector":"0"}},{"base_weights":[4.337809E-5],"categories":[],"categories_nodes":[],"categories_segments":[],"categories_sizes":[],"default_left":[0],"id":199,"left_children":[-1],"loss_changes":[0E0],"parents":[2147483647],"right_children":[-1],"split_conditions":[1.3013428E-5],"split_indices":[0],"split_type":[0],"sum_hessian":[5.450472E3],"tree_param":{"num_deleted":"0","num_feature":"104","num_nodes":"1","size_leaf_vector":"0"}},{"base_weights":[0E0],"categories":[],"categories_nodes":[],"categories_segments":[],"categories_sizes":[],"default_left":[0],"id":200,"left_children":[-1],"loss_changes":[0E0],"parents":[2147483647],"right_children":[-1],"split_conditions":[0E0],"split_indices":[0],"split_type":[0],"sum_hessian":[9.639658E-1],"tree_param":{"num_deleted":"0","num_feature":"104","num_nodes":"1","size_leaf_vector":"0"}},{"base_weights":[4.478788E-5],"categories":[],"categories_nodes":[],"categories_segments":[],"categories_sizes":[],"default_left":[0],"id":201,"left_children":[-1],"loss_changes":[0E0],"parents":[2147483647],"right_children":[-1],"split_conditions":[1.34363645E-5],"split_indices":[0],"split_type":[0],"sum_hessian":[5.4503354E3],"tree_param":{"num_deleted":"0","num_feature":"104","num_nodes":"1","size_leaf_vector":"0"}},{"base_weights":[4.3628726E-5],"categories":[],"categories_nodes":[],"categories_segments":[],"categories_sizes":[],"default_left":[0],"id":202,"left_children":[-1],"loss_changes":[0E0],"parents":[2147483647],"right_children":[-1],"split_conditions":[1.3088618E-5],"split_indices":[0],"split_type":[0],"sum_hessian":[5.4504727E3],"tree_param":{"num_deleted":"0","num_feature":"104","num_nodes":"1","size_leaf_vector":"0"}},{"base_weights":[0E0],"categories":[],"categories_nodes":[],"categories_segments":[],"categories_sizes":[],"default_left":[0],"id":203,"left_children":[-1],"loss_changes":[0E0],"parents":[2147483647],"right_children":[-1],"split_conditions":[0E0],"split_indices":[0],"split_type":[0],"sum_hessian":[9.63953E-1],