{"learner":{"attributes":{"best_iteration":"499","best_ntree_limit":"500"},"feature_names":[],"feature_types":[],"gradient_booster":{"model":{"gbtree_model_param":{"num_parallel_tree":"1","num_trees":"1500","size_leaf_vector":"0"},"tree_info":[0,1,2,0,1,2,0,1,2,0,1,2,0,1,2,0,1,2,0,1,2,0,1,2,0,1,2,0,1,2,0,1,2,0,1,2,0,1,2,0,1,2,0,1,2,0,1,2,0,1,2,0,1,2,0,1,2,0,1,2,0,1,2,0,1,2,0,1,2,0,1,2,0,1,2,0,1,2,0,1,2,0,1,2,0,1,2,0,1,2,0,1,2,0,1,2,0,1,2,0,1,2,0,1,2,0,1,2,0,1,2,0,1,2,0,1,2,0,1,2,0,1,2,0,1,2,0,1,2,0,1,2,0,1,2,0,1,2,0,1,2,0,1,2,0,1,2,0,1,2,0,1,2,0,1,2,0,1,2,0,1,2,0,1,2,0,1,2,0,1,2,0,1,2,0,1,2,0,1,2,0,1,2,0,1,2,0,1,2,0,1,2,0,1,2,0,1,2,0,1,2,0,1,2,0,1,2,0,1,2,0,1,2,0,1,2,0,1,2,0,1,2,0,1,2,0,1,2,0,1,2,0,1,2,0,1,2,0,1,2,0,1,2,0,1,2,0,1,2,0,1,2,0,1,2,0,1,2,0,1,2,0,1,2,0,1,2,0,1,2,0,1,2,0,1,2,0,1,2,0,1,2,0,1,2,0,1,2,0,1,2,0,1,2,0,1,2,0,1,2,0,1,2,0,1,2,0,1,2,0,1,2,0,1,2,0,1,2,0,1,2,0,1,2,0,1,2,0,1,2,0,1,2,0,1,2,0,1,2,0,1,2,0,1,2,0,1,2,0,1,2,0,1,2,0,1,2,0,1,2,0,1,2,0,1,2,0,1,2,0,1,2,0,1,2,0,1,2,0,1,2,0,1,2,0,1,2,0,1,2,0,1,2,0,1,2,0,1,2,0,1,2,0,1,2,0,1,2,0,1,2,0,1,2,0,1,2,0,1,2,0,1,2,0,1,2,0,1,2,0,1,2,0,1,2,0,1,2,0,1,2,0,1,2,0,1,2,0,1,2,0,1,2,0,1,2,0,1,2,0,1,2,0,1,2,0,1,2,0,1,2,0,1,2,0,1,2,0,1,2,0,1,2,0,1,2,0,1,2,0,1,2,0,1,2,0,1,2,0,1,2,0,1,2,0,1,2,0,1,2,0,1,2,0,1,2,0,1,2,0,1,2,0,1,2,0,1,2,0,1,2,0,1,2,0,1,2,0,1,2,0,1,2,0,1,2,0,1,2,0,1,2,0,1,2,0,1,2,0,1,2,0,1,2,0,1,2,0,1,2,0,1,2,0,1,2,0,1,2,0,1,2,0,1,2,0,1,2,0,1,2,0,1,2,0,1,2,0,1,2,0,1,2,0,1,2,0,1,2,0,1,2,0,1,2,0,1,2,0,1,2,0,1,2,0,1,2,0,1,2,0,1,2,0,1,2,0,1,2,0,1,2,0,1,2,0,1,2,0,1,2,0,1,2,0,1,2,0,1,2,0,1,2,0,1,2,0,1,2,0,1,2,0,1,2,0,1,2,0,1,2,0,1,2,0,1,2,0,1,2,0,1,2,0,1,2,0,1,2,0,1,2,0,1,2,0,1,2,0,1,2,0,1,2,0,1,2,0,1,2,0,1,2,0,1,2,0,1,2,0,1,2,0,1,2,0,1,2,0,1,2,0,1,2,0,1,2,0,1,2,0,1,2,0,1,2,0,1,2,0,1,2,0,1,2,0,1,2,0,1,2,0,1,2,0,1,2,0,1,2,0,1,2,0,1,2,0,1,2,0,1,2,0,1,2,0,1,2,0,1,2,0,1,2,0,1,2,0,1,2,0,1,2,0,1,2,0,1,2,0,1,2,0,1,2,0,1,2,0,1,2,0,1,2,0,1,2,0,1,2,0,1,2,0,1,2,0,1,2,0,1,2,0,1,2,0,1,2,0,1,2,0,1,2,0,1,2,0,1,2,0,1,2,0,1,2,0,1,2,0,1,2,0,1,2,0,1,2,0,1,2,0,1,2,0,1,2,0,1,2,0,1,2,0,1,2,0,1,2,0,1,2,0,1,2,0,1,2,0,1,2,0,1,2,0,1,2,0,1,2,0,1,2,0,1,2,0,1,2,0,1,2,0,1,2,0,1,2,0,1,2,0,1,2,0,1,2,0,1,2,0,1,2,0,1,2,0,1,2,0,1,2,0,1,2,0,1,2,0,1,2,0,1,2,0,1,2,0,1,2,0,1,2,0,1,2,0,1,2,0,1,2,0,1,2,0,1,2,0,1,2,0,1,2,0,1,2,0,1,2,0,1,2,0,1,2,0,1,2,0,1,2,0,1,2,0,1,2,0,1,2,0,1,2,0,1,2,0,1,2,0,1,2,0,1,2,0,1,2,0,1,2,0,1,2,0,1,2,0,1,2,0,1,2,0,1,2,0,1,2,0,1,2,0,1,2,0,1,2,0,1,2,0,1,2,0,1,2,0,1,2,0,1,2,0,1,2,0,1,2,0,1,2,0,1,2,0,1,2,0,1,2,0,1,2,0,1,2,0,1,2,0,1,2,0,1,2,0,1,2,0,1,2,0,1,2,0,1,2,0,1,2,0,1,2,0,1,2,0,1,2,0,1,2,0,1,2,0,1,2,0,1,2,0,1,2,0,1,2,0,1,2,0,1,2,0,1,2,0,1,2,0,1,2,0,1,2,0,1,2,0,1,2,0,1,2,0,1,2,0,1,2,0,1,2,0,1,2,0,1,2,0,1,2,0,1,2,0,1,2,0,1,2,0,1,2,0,1,2,0,1,2,0,1,2,0,1,2,0,1,2,0,1,2,0,1,2,0,1,2,0,1,2,0,1,2,0,1,2,0,1,2,0,1,2,0,1,2,0,1,2,0,1,2,0,1,2,0,1,2,0,1,2,0,1,2,0,1,2,0,1,2,0,1,2,0,1,2,0,1,2,0,1,2,0,1,2,0,1,2,0,1,2,0,1,2,0,1,2,0,1,2,0,1,2,0,1,2,0,1,2,0,1,2,0,1,2,0,1,2,0,1,2,0,1,2,0,1,2,0,1,2,0,1,2,0,1,2,0,1,2,0,1,2,0,1,2,0,1,2,0,1,2,0,1,2,0,1,2,0,1,2,0,1,2,0,1,2,0,1,2,0,1,2,0,1,2,0,1,2,0,1,2,0,1,2,0,1,2,0,1,2,0,1,2,0,1,2,0,1,2,0,1,2,0,1,2,0,1,2,0,1,2,0,1,2,0,1,2,0,1,2,0,1,2,0,1,2,0,1,2,0,1,2,0,1,2,0,1,2,0,1,2,0,1,2,0,1,2,0,1,2,0,1,2,0,1,2,0,1,2,0,1,2,0,1,2,0,1,2],"trees":[{"base_weights":[1.9601594E-1,4.98829E-1,1.6286917E-2,1.9148932E-1,6.39606E-1,2.6401037E-1,-1.3107327E-1,4.5436427E-1,-3.0173864E-3,8.184216E-1,5.3783077E-1,7.680968E-2,4.2955098E-1,-3.9054904E-2,-3.3039653E-1,1.7149606E-1,2.4959205E-2,1.152E-1,2.6567507E-1,1.9067119E-1,9.328143E-2,-1.8237097E-2,7.23052E-2,9.304952E-2,1.7456172E-1,9.9181175E-2,-1.7010994E-1,-1.1338585E-1,1.7282115E-2,-2.70862E-2,5.8754943E-2,5.8174893E-2,-6.521094E-2],"categories":[],"categories_nodes":[],"categories_segments":[],"categories_sizes":[],"default_left":[0,0,0,0,0,0,0,0,0,0,0,0,0,0,0,0,0,0,0,0,0,0,0,0,0,0,0,0,0,0,0,0,0],"id":0,"left_children":[1,3,5,7,9,11,13,15,-1,17,19,21,23,25,27,-1,-1,-1,-1,-1,-1,-1,-1,-1,-1,29,31,-1,-1,-1,-1,-1,-1],"loss_changes":[2.9809796E2,8.814563E1,1.2554947E2,3.4036495E1,2.5016174E1,3.97194E1,3.9541348E1,1.2088718E1,0E0,1.4407074E1,1.9635498E1,1.3644441E1,1.219545E1,2.676694E1,1.2587593E1,0E0,0E0,0E0,0E0,0E0,0E0,0E0,0E0,0E0,0E0,1.3190714E1,1.3088383E1,0E0,0E0,0E0,0E0,0E0,0E0],"parents":[2147483647,0,0,1,1,2,2,3,3,4,4,5,5,6,6,7,7,9,9,10,10,11,11,12,12,13,13,14,14,25,25,26,26],"right_children":[2,4,6,8,10,12,14,16,-1,18,20,22,24,26,28,-1,-1,-1,-1,-1,-1,-1,-1,-1,-1,30,32,-1,-1,-1,-1,-1,-1],"split_conditions":[4.58E-1,-2E0,1.1E1,-4.9E0,-5.9E0,9E0,2.3E1,2.8E1,-3.0173864E-3,5E0,5.2E0,5.4E0,1.5E1,6E-1,4.6E-1,1.7149606E-1,2.4959205E-2,1.152E-1,2.6567507E-1,1.9067119E-1,9.328143E-2,-1.8237097E-2,7.23052E-2,9.304952E-2,1.7456172E-1,-1.3E0,4E0,-1.1338585E-1,1.7282115E-2,-2.70862E-2,5.8754943E-2,5.8174893E-2,-6.521094E-2],"split_indices":[3,77,103,25,25,51,80,81,0,53,73,77,51,3,59,0,0,0,0,0,0,0,0,0,0,77,53,0,0,0,0,0,0],"split_type":[0,0,0,0,0,0,0,0,0,0,0,0,0,0,0,0,0,0,0,0,0,0,0,0,0,0,0,0,0,0,0,0,0],"sum_hessian":[5.4764443E3,2.039111E3,3.437333E3,6.413333E2,1.3977777E3,1.2817777E3,2.1555554E3,2.7777777E2,3.6355554E2,5.0444443E2,8.9333325E2,6.0222217E2,6.7955554E2,1.4755554E3,6.7999994E2,2.1066666E2,6.711111E1,6.844444E1,4.3599997E2,6.231111E2,2.702222E2,3.2799997E2,2.742222E2,3.8266666E2,2.968889E2,7.1822217E2,7.573333E2,6.057778E2,7.422222E1,2.4266666E2,4.7555554E2,8.6666664E1,6.706666E2],"tree_param":{"num_deleted":"0","num_feature":"104","num_nodes":"33","size_leaf_vector":"0"}},{"base_weights":[5.538471E-1,2.508033E-1,7.334949E-1,5.57343E-1,1.0985777E-1,4.854049E-1,8.8072544E-1,2.9294536E-1,2.274002E-1,-6.990552E-2,2.1133056E-1,6.7194694E-1,3.193469E-1,7.885469E-1,1.0792952E0,5.2440934E-2,1.9673736E-1,1.0655999E-1,-4.1189946E-2,1.1322766E-1,1.3088898E-1,2.4255319E-1,1.5187727E-1,1.3136403E-1,4.9682945E-2,6.49776E-1,9.1912085E-1,3.3499035E-1,1.7393258E-1,1.7205217E-1,-5.288564E-2,2.511628E-1,1.657729E-1,1.6425855E-1,2.8987595E-1,7.088803E-2,-4.2910933E-2],"categories":[],"categories_nodes":[],"categories_segments":[],"categories_sizes":[],"default_left":[0,0,0,0,0,0,0,0,0,0,0,0,0,0,0,0,0,0,0,0,0,0,0,0,0,0,0,0,0,0,0,0,0,0,0,0,0],"id":1,"left_children":[1,3,5,7,9,11,13,15,-1,17,19,21,23,25,27,-1,-1,-1,-1,29,-1,-1,-1,-1,-1,31,33,-1,-1,35,-1,-1,-1,-1,-1,-1,-1],"loss_changes":[2.9801453E2,8.808258E1,1.2516235E2,3.385591E1,2.5529999E1,3.952176E1,3.8622314E1,1.1835854E1,0E0,1.4529593E1,1.9688377E1,1.3239899E1,1.2329216E1,2.6157715E1,1.2054504E1,0E0,0E0,0E0,0E0,1.0659236E1,0E0,0E0,0E0,0E0,0E0,1.2640503E1,1.275238E1,0E0,0E0,1.0543729E1,0E0,0E0,0E0,0E0,0E0,0E0,0E0],"parents":[2147483647,0,0,1,1,2,2,3,3,4,4,5,5,6,6,7,7,9,9,10,10,11,11,12,12,13,13,14,14,19,19,25,25,26,26,29,29],"right_children":[2,4,6,8,10,12,14,16,-1,18,20,22,24,26,28,-1,-1,-1,-1,30,-1,-1,-1,-1,-1,32,34,-1,-1,36,-1,-1,-1,-1,-1,-1,-1],"split_conditions":[4.58E-1,-2E0,1.1E1,-4.9E0,-5.9E0,9E0,2.3E1,2.8E1,2.274002E-1,5E0,5.2E0,5.4E0,1.5E1,6E-1,4.66E-1,5.2440934E-2,1.9673736E-1,1.0655999E-1,-4.1189946E-2,7.5E0,1.3088898E-1,2.4255319E-1,1.5187727E-1,1.3136403E-1,4.9682945E-2,-1.3E0,4E0,3.3499035E-1,1.7393258E-1,4.2E1,-5.288564E-2,2.511628E-1,1.657729E-1,1.6425855E-1,2.8987595E-1,7.088803E-2,-4.2910933E-2],"split_indices":[3,77,103,25,25,51,80,81,0,53,73,77,51,3,59,0,0,0,0,77,0,0,0,0,0,77,53,0,0,2,0,0,0,0,0,0,0],"split_type":[0,0,0,0,0,0,0,0,0,0,0,0,0,0,0,0,0,0,0,0,0,0,0,0,0,0,0,0,0,0,0,0,0,0,0,0,0],"sum_hessian":[5.4764443E3,2.039111E3,3.437333E3,6.413333E2,1.3977777E3,1.2817777E3,2.1555554E3,2.7777777E2,3.6355554E2,5.0444443E2,8.9333325E2,6.0222217E2,6.7955554E2,1.4755554E3,6.7999994E2,2.1066666E2,6.711111E1,6.844444E1,4.3599997E2,6.231111E2,2.702222E2,3.2799997E2,2.742222E2,3.8266666E2,2.968889E2,7.1822217E2,7.573333E2,6.3155554E2,4.8444443E1,5.1822217E2,1.04888885E2,2.4266666E2,4.7555554E2,8.6666664E1,6.706666E2,4.3066663E2,8.755555E1],"tree_param":{"num_deleted":"0","num_feature":"104","num_nodes":"37","size_leaf_vector":"0"}},{"base_weights":[-7.4986315E-1],"categories":[],"categories_nodes":[],"categories_segments":[],"categories_sizes":[],"default_left":[0],"id":2,"left_children":[-1],"loss_changes":[0E0],"parents":[2147483647],"right_children":[-1],"split_conditions":[-2.2495896E-1],"split_indices":[0],"split_type":[0],"sum_hessian":[5.4764443E3],"tree_param":{"num_deleted":"0","num_feature":"104","num_nodes":"1","size_leaf_vector":"0"}},{"base_weights":[1.5686584E-1,4.243357E-2,4.0809307E-1,1.8506876E-1,-1.2611549E-1,3.7715815E-2,4.7859082E-1,3.2648303E-2,2.939902E-1,-3.6765873E-2,-2.591034E-1,3.825758E-1,1.7378889E-1,7.107471E-2,-1.0394341E-2,6.449276E-2,1.3340257E-1,-6.67993E-2,1.2967882E-2,-5.0568074E-2,-1.3056482E-1,1.4806613E-1,5.950817E-2],"categories":[],"categories_nodes":[],"categories_segments":[],"categories_sizes":[],"default_left":[0,0,0,0,0,0,0,0,0,0,0,0,0,0,0,0,0,0,0,0,0,0,0],"id":3,"left_children":[1,3,5,7,9,-1,11,13,15,17,19,21,-1,-1,-1,-1,-1,-1,-1,-1,-1,-1,-1],"loss_changes":[1.5991199E2,9.19375E1,3.4593964E1,3.4376266E1,2.082054E1,0E0,1.3244507E1,1.1890008E1,1.42853775E1,1.561919E1,1.1157425E1,1.4537628E1,0E0,0E0,0E0,0E0,0E0,0E0,0E0,0E0,0E0,0E0,0E0],"parents":[2147483647,0,0,1,1,2,2,3,3,4,4,6,6,7,7,8,8,9,9,10,10,11,11],"right_children":[2,4,6,8,10,-1,12,14,16,18,20,22,-1,-1,-1,-1,-1,-1,-1,-1,-1,-1,-1],"split_conditions":[2E1,1.4E1,3.6E-1,9E0,2.3E1,3.7715815E-2,5.57E-1,4E0,5.3E0,7E0,3.7E1,-3.9E0,1.7378889E-1,7.107471E-2,-1.0394341E-2,6.449276E-2,1.3340257E-1,-6.67993E-2,1.2967882E-2,-5.0568074E-2,-1.3056482E-1,1.4806613E-1,5.950817E-2],"split_indices":[28,80,55,51,80,0,55,81,77,51,54,25,0,0,0,0,0,0,0,0,0,0,0],"split_type":[0,0,0,0,0,0,0,0,0,0,0,0,0,0,0,0,0,0,0,0,0,0,0],"sum_hessian":[5.5620483E3,3.8222217E3,1.7398267E3,2.0702056E3,1.7520161E3,3.4814407E2,1.3916825E3,8.6335706E2,1.2068485E3,1.0487062E3,7.0331E2,7.148891E2,6.7679346E2,2.1332378E2,6.5003326E2,7.9329626E2,4.1355228E2,3.149626E2,7.337436E2,4.657932E2,2.3751677E2,4.4507843E2,2.6981067E2],"tree_param":{"num_deleted":"0","num_feature":"104","num_nodes":"23","size_leaf_vector":"0"}},{"base_weights":[4.0418625E-1,5.058479E-1,1.5324584E-1,3.7684283E-1,6.4553094E-1,2.9285553E-1,-2.2905506E-3,1.5349844E-1,2.7097356E-1,5.73836E-1,2.2329369E-1,4.3442056E-2,1.3099168E-1,1.0449807E-1,3.5175685E-2,2.0527633E-1,1.4308815E-1],"categories":[],"categories_nodes":[],"categories_segments":[],"categories_sizes":[],"default_left":[0,0,0,0,0,0,0,0,0,0,0,0,0,0,0,0,0],"id":4,"left_children":[1,3,5,7,9,11,-1,-1,13,15,-1,-1,-1,-1,-1,-1,-1],"loss_changes":[1.4822919E2,7.430261E1,3.7681034E1,3.0592072E1,1.3629639E1,1.9056252E1,0E0,0E0,1.4324867E1,1.2022827E1,0E0,0E0,0E0,0E0,0E0,0E0,0E0],"parents":[2147483647,0,0,1,1,2,2,3,3,4,4,5,5,8,8,9,9],"right_children":[2,4,6,8,10,12,-1,-1,14,16,-1,-1,-1,-1,-1,-1,-1],"split_conditions":[2E1,1.4E1,5.15E-1,9E0,2.3E1,-4.9E0,-2.2905506E-3,1.5349844E-1,5.3E0,1.2E1,2.2329369E-1,4.3442056E-2,1.3099168E-1,1.0449807E-1,3.5175685E-2,2.0527633E-1,1.4308815E-1],"split_indices":[28,80,55,51,80,25,0,0,77,47,0,0,0,0,0,0,0],"split_type":[0,0,0,0,0,0,0,0,0,0,0,0,0,0,0,0,0],"sum_hessian":[5.8124355E3,4.135881E3,1.6765546E3,2.1520452E3,1.9838357E3,8.971785E2,7.7937604E2,9.449151E2,1.2071301E3,1.1534664E3,8.3036926E2,4.4302176E2,4.541568E2,8.021954E2,4.049347E2,5.362209E2,6.1724554E2],"tree_param":{"num_deleted":"0","num_feature":"104","num_nodes":"17","size_leaf_vector":"0"}},{"base_weights":[-6.7693806E-1],"categories":[],"categories_nodes":[],"categories_segments":[],"categories_sizes":[],"default_left":[0],"id":5,"left_children":[-1],"loss_changes":[0E0],"parents":[2147483647],"right_children":[-1],"split_conditions":[-2.0308143E-1],"split_indices":[0],"split_type":[0],"sum_hessian":[4.759203E3],"tree_param":{"num_deleted":"0","num_feature":"104","num_nodes":"1","size_leaf_vector":"0"}},{"base_weights":[1.3237587E-1,-8.023985E-3,2.566894E-1,-9.282334E-2,4.5098346E-2,6.450185E-2,3.2663542E-1,-3.3059295E-2,-7.820845E-2,6.7922056E-2,-2.426207E-2,1.3012654E-1,2.6980773E-1,-6.6333264E-2,5.183337E-3,5.566718E-2,1.1178766E-1],"categories":[],"categories_nodes":[],"categories_segments":[],"categories_sizes":[],"default_left":[0,0,0,0,0,0,0,0,0,0,0,0,0,0,0,0,0],"id":6,"left_children":[1,3,5,7,-1,9,11,13,-1,-1,-1,-1,15,-1,-1,-1,-1],"loss_changes":[9.7104645E1,3.5110554E1,3.9645905E1,1.7074636E1,0E0,1.858007E1,1.3051071E1,1.1901209E1,0E0,0E0,0E0,0E0,1.2197113E1,0E0,0E0,0E0,0E0],"parents":[2147483647,0,0,1,1,2,2,3,3,5,5,6,6,7,7,12,12],"right_children":[2,4,6,8,-1,10,12,14,-1,-1,-1,-1,16,-1,-1,-1,-1],"split_conditions":[1.5E1,2.9E0,-2.4E0,2.3E1,4.5098346E-2,-3.5E0,8E0,4E0,-7.820845E-2,6.7922056E-2,-2.426207E-2,1.3012654E-1,2.4E1,-6.6333264E-2,5.183337E-3,5.566718E-2,1.1178766E-1],"split_indices":[51,77,77,80,0,25,103,51,0,0,0,0,51,0,0,0,0],"split_type":[0,0,0,0,0,0,0,0,0,0,0,0,0,0,0,0,0],"sum_hessian":[5.5624697E3,2.612662E3,2.9498079E3,1.7017615E3,9.1090063E2,7.876203E2,2.1621875E3,1.255859E3,4.4590247E2,3.7236215E2,4.1525812E2,7.471618E2,1.4150256E3,2.644652E2,9.9139386E2,7.792783E2,6.357474E2],"tree_param":{"num_deleted":"0","num_feature":"104","num_nodes":"17","size_leaf_vector":"0"}},{"base_weights":[3.0940372E-1,4.276802E-1,1.8833733E-1,4.7415406E-1,6.64382E-2,3.6907375E-1,1.11309685E-1,4.3215764E-1,1.8290368E-1,3.6015272E-2,1.320544E-1,1.8457949E-1,3.3064054E-3,1.6626403E-1,1.1615618E-1,1.1443097E-2,7.662171E-2],"categories":[],"categories_nodes":[],"categories_segments":[],"categories_sizes":[],"default_left":[0,0,0,0,0,0,0,0,0,0,0,0,0,0,0,0,0],"id":7,"left_children":[1,3,5,7,-1,9,11,13,-1,-1,-1,15,-1,-1,-1,-1,-1],"loss_changes":[8.4665405E1,2.8577942E1,4.0699966E1,1.36328125E1,0E0,1.5424805E1,1.5086304E1,1.0035278E1,0E0,0E0,0E0,1.2295486E1,0E0,0E0,0E0,0E0,0E0],"parents":[2147483647,0,0,1,1,2,2,3,3,5,5,6,6,7,7,11,11],"right_children":[2,4,6,8,-1,10,12,14,-1,-1,-1,16,-1,-1,-1,-1,-1],"split_conditions":[1.5E1,5.1E0,-2.4E0,2.3E1,6.64382E-2,-6.5E0,2.4E1,4E0,1.8290368E-1,3.6015272E-2,1.320544E-1,8E0,3.3064054E-3,1.6626403E-1,1.1615618E-1,1.1443097E-2,7.662171E-2],"split_indices":[51,77,77,80,0,25,51,27,0,0,0,103,0,0,0,0,0],"split_type":[0,0,0,0,0,0,0,0,0,0,0,0,0,0,0,0,0],"sum_hessian":[5.917296E3,2.991855E3,2.925441E3,2.4405508E3,5.513044E2,8.7307654E2,2.0523643E3,1.8663849E3,5.741657E2,1.945255E2,6.785511E2,1.1854467E3,8.669177E2,4.9945953E2,1.3669254E3,3.8695047E2,7.984962E2],"tree_param":{"num_deleted":"0","num_feature":"104","num_nodes":"17","size_leaf_vector":"0"}},{"base_weights":[-6.31523E-1],"categories":[],"categories_nodes":[],"categories_segments":[],"categories_sizes":[],"default_left":[0],"id":8,"left_children":[-1],"loss_changes":[0E0],"parents":[2147483647],"right_children":[-1],"split_conditions":[-1.8945691E-1],"split_indices":[0],"split_type":[0],"sum_hessian":[4.0647456E3],"tree_param":{"num_deleted":"0","num_feature":"104","num_nodes":"1","size_leaf_vector":"0"}},{"base_weights":[1.1503671E-1,1.2014261E-2,2.0381087E-1,6.040495E-2,-3.683693E-2,1.2824813E-1,8.9522146E-2,-1.3268636E-1,1.2320722E-2,1.8493775E-2,7.7678405E-2,-1.1573861E-1,-2.6441103E-2],"categories":[],"categories_nodes":[],"categories_segments":[],"categories_sizes":[],"default_left":[0,0,0,0,0,0,0,0,0,0,0,0,0],"id":9,"left_children":[1,3,5,-1,7,9,-1,11,-1,-1,-1,-1,-1],"loss_changes":[5.0512085E1,2.366287E1,2.1167854E1,0E0,1.5192717E1,1.4354065E1,0E0,1.0251207E1,0E0,0E0,0E0,0E0,0E0],"parents":[2147483647,0,0,1,1,2,2,4,4,5,5,7,7],"right_children":[2,4,6,-1,8,10,-1,12,-1,-1,-1,-1,-1],"split_conditions":[1.5E1,4.2E0,5.42E-1,6.040495E-2,2.75E1,2.6E1,8.9522146E-2,3E0,1.2320722E-2,1.8493775E-2,7.7678405E-2,-1.1573861E-1,-2.6441103E-2],"split_indices":[51,73,55,0,61,51,0,51,0,0,0,0,0],"split_type":[0,0,0,0,0,0,0,0,0,0,0,0,0],"sum_hessian":[5.52229E3,2.556549E3,2.9657412E3,5.236982E2,2.0328508E3,1.6500503E3,1.3156909E3,9.111456E2,1.1217052E3,1.09397E3,5.5608026E2,1.3522115E2,7.759245E2],"tree_param":{"num_deleted":"0","num_feature":"104","num_nodes":"13","size_leaf_vector":"0"}},{"base_weights":[2.428983E-1,2.949999E-1,9.142886E-2,6.3087344E-2,3.6660343E-1,1.23402225E-2,8.2140386E-2,1.4286259E-1,9.646509E-2],"categories":[],"categories_nodes":[],"categories_segments":[],"categories_sizes":[],"default_left":[0,0,0,0,0,0,0,0,0],"id":10,"left_children":[1,3,5,-1,7,-1,-1,-1,-1],"loss_changes":[4.655066E1,2.6556488E1,1.3857437E1,0E0,1.1590759E1,0E0,0E0,0E0,0E0],"parents":[2147483647,0,0,1,1,2,2,4,4],"right_children":[2,4,6,-1,8,-1,-1,-1,-1],"split_conditions":[2.2E1,1.2E1,2.4E1,6.3087344E-2,7E0,1.23402225E-2,8.2140386E-2,1.4286259E-1,9.646509E-2],"split_indices":[29,80,81,0,51,0,0,0,0],"split_type":[0,0,0,0,0,0,0,0,0],"sum_hessian":[5.9010396E3,4.390033E3,1.5110063E3,2.0127899E3,2.3772432E3,1.1853385E3,3.256679E2,6.8972125E2,1.6875219E3],"tree_param":{"num_deleted":"0","num_feature":"104","num_nodes":"9","size_leaf_vector":"0"}},{"base_weights":[-6.008213E-1],"categories":[],"categories_nodes":[],"categories_segments":[],"categories_sizes":[],"default_left":[0],"id":11,"left_children":[-1],"loss_changes":[0E0],"parents":[2147483647],"right_children":[-1],"split_conditions":[-1.802464E-1],"split_indices":[0],"split_type":[0],"sum_hessian":[3.4425806E3],"tree_param":{"num_deleted":"0","num_feature":"104","num_nodes":"1","size_leaf_vector":"0"}},{"base_weights":[1.01710044E-1,1.4764236E-1,-1.3221845E-2,1.777388E-1,-1.164774E-2,1.9848177E-2,-2.985923E-2,1.5657264E-1,1.1018513E-1,1.2919766E-1,8.611645E-2,4.7472958E-2,-5.5793715E-3],"categories":[],"categories_nodes":[],"categories_segments":[],"categories_sizes":[],"default_left":[0,0,0,0,0,0,0,0,0,0,0,0,0],"id":12,"left_children":[1,3,5,7,-1,-1,-1,9,-1,11,-1,-1,-1],"loss_changes":[2.8960453E1,2.2002075E1,1.0744268E1,1.3481972E1,0E0,0E0,0E0,1.0812843E1,0E0,1.0789032E1,0E0,0E0,0E0],"parents":[2147483647,0,0,1,1,2,2,3,3,7,7,9,9],"right_children":[2,4,6,8,-1,-1,-1,10,-1,12,-1,-1,-1],"split_conditions":[2.9E0,2.6E1,1.2E1,7.5E0,-1.164774E-2,1.9848177E-2,-2.985923E-2,2.7E1,1.1018513E-1,2.5E1,8.611645E-2,4.7472958E-2,-5.5793715E-3],"split_indices":[25,103,80,77,0,0,0,47,0,93,0,0,0],"split_type":[0,0,0,0,0,0,0,0,0,0,0,0,0],"sum_hessian":[5.484512E3,3.9182903E3,1.5662219E3,3.3737974E3,5.444929E2,8.1596936E2,7.502525E2,3.0365383E3,3.3725897E2,2.5115984E3,5.2494E2,2.099018E3,4.1258026E2],"tree_param":{"num_deleted":"0","num_feature":"104","num_nodes":"13","size_leaf_vector":"0"}},{"base_weights":[1.9270405E-1,2.3070389E-1,7.2133735E-2,2.0244214E-1,1.18782945E-1,3.174097E-2,-4.694307E-2,1.6854431E-2,2.280914E-1,9.2901364E-2,5.557936E-2],"categories":[],"categories_nodes":[],"categories_segments":[],"categories_sizes":[],"default_left":[0,0,0,0,0,0,0,0,0,0,0],"id":13,"left_children":[1,3,5,7,-1,-1,-1,-1,9,-1,-1],"loss_changes":[2.6794067E1,2.0696365E1,1.0821669E1,1.4247421E1,0E0,0E0,0E0,0E0,1.1240707E1,0E0,0E0],"parents":[2147483647,0,0,1,1,2,2,3,3,8,8],"right_children":[2,4,6,8,-1,-1,-1,-1,10,-1,-1],"split_conditions":[2.3E1,2.6E1,3.7E1,4E0,1.18782945E-1,3.174097E-2,-4.694307E-2,1.6854431E-2,8E0,9.2901364E-2,5.557936E-2],"split_indices":[51,103,53,81,0,0,0,0,51,0,0],"split_type":[0,0,0,0,0,0,0,0,0,0,0],"sum_hessian":[5.850747E3,4.447976E3,1.4027709E3,3.8002283E3,6.4774817E2,1.2231622E3,1.7960869E2,5.674766E2,3.2327515E3,1.1107266E3,2.1220251E3],"tree_param":{"num_deleted":"0","num_feature":"104","num_nodes":"11","size_leaf_vector":"0"}},{"base_weights":[-5.7917815E-1],"categories":[],"categories_nodes":[],"categories_segments":[],"categories_sizes":[],"default_left":[0],"id":14,"left_children":[-1],"loss_changes":[0E0],"parents":[2147483647],"right_children":[-1],"split_conditions":[-1.7375346E-1],"split_indices":[0],"split_type":[0],"sum_hessian":[2.9093086E3],"tree_param":{"num_deleted":"0","num_feature":"104","num_nodes":"1","size_leaf_vector":"0"}},{"base_weights":[9.047624E-2,3.7632164E-2,1.5103333E-1,6.9935836E-2,-1.0369996E-1,5.79344E-2,-3.484755E-4,3.737708E-2,-6.4170156E-3,-8.470598E-2,5.5433842E-3],"categories":[],"categories_nodes":[],"categories_segments":[],"categories_sizes":[],"default_left":[0,0,0,0,0,0,0,0,0,0,0],"id":15,"left_children":[1,3,5,7,9,-1,-1,-1,-1,-1,-1],"loss_changes":[1.7408886E1,1.3280915E1,1.6239357E1,1.1817525E1,1.1820322E1,0E0,0E0,0E0,0E0,0E0,0E0],"parents":[2147483647,0,0,1,1,2,2,3,3,4,4],"right_children":[2,4,6,8,10,-1,-1,-1,-1,-1,-1],"split_conditions":[1.7E1,4.77E-1,2.2E1,5.2E0,2.87E1,5.79344E-2,-3.484755E-4,3.737708E-2,-6.4170156E-3,-8.470598E-2,5.5433842E-3],"split_indices":[47,7,80,73,61,0,0,0,0,0,0],"split_type":[0,0,0,0,0,0,0,0,0,0,0],"sum_hessian":[5.4409126E3,2.906355E3,2.5345576E3,2.36606E3,5.4029486E2,1.9853477E3,5.492099E2,1.479989E3,8.8607104E2,2.1889992E2,3.2139496E2],"tree_param":{"num_deleted":"0","num_feature":"104","num_nodes":"11","size_leaf_vector":"0"}},{"base_weights":[1.5438737E-1,1.2550037E-3,1.7379913E-1,1.3089244E-1,7.415809E-2,4.6061896E-2,-1.0620458E-2],"categories":[],"categories_nodes":[],"categories_segments":[],"categories_sizes":[],"default_left":[0,0,0,0,0,0,0],"id":16,"left_children":[1,-1,3,5,-1,-1,-1],"loss_changes":[1.6837463E1,0E0,1.607228E1,1.2167824E1,0E0,0E0,0E0],"parents":[2147483647,0,0,2,2,3,3],"right_children":[2,-1,4,6,-1,-1,-1],"split_conditions":[-6.3E0,1.2550037E-3,5.2E0,7.3E0,7.415809E-2,4.6061896E-2,-1.0620458E-2],"split_indices":[25,0,73,77,0,0,0],"split_type":[0,0,0,0,0,0,0],"sum_hessian":[5.773962E3,6.609428E2,5.113019E3,3.2284426E3,1.8845763E3,2.8415369E3,3.8690585E2],"tree_param":{"num_deleted":"0","num_feature":"104","num_nodes":"7","size_leaf_vector":"0"}},{"base_weights":[-5.632067E-1],"categories":[],"categories_nodes":[],"categories_segments":[],"categories_sizes":[],"default_left":[0],"id":17,"left_children":[-1],"loss_changes":[0E0],"parents":[2147483647],"right_children":[-1],"split_conditions":[-1.68962E-1],"split_indices":[0],"split_type":[0],"sum_hessian":[2.4562595E3],"tree_param":{"num_deleted":"0","num_feature":"104","num_nodes":"1","size_leaf_vector":"0"}},{"base_weights":[8.066054E-2,9.899109E-2,-4.397529E-2,-5.0408147E-2,3.2346323E-2,1.3255249E-2,-6.480745E-2],"categories":[],"categories_nodes":[],"categories_segments":[],"categories_sizes":[],"default_left":[0,0,0,0,0,0,0],"id":18,"left_children":[1,3,5,-1,-1,-1,-1],"loss_changes":[1.2377102E1,1.1150444E1,1.055207E1,0E0,0E0,0E0,0E0],"parents":[2147483647,0,0,1,1,2,2],"right_children":[2,4,6,-1,-1,-1,-1],"split_conditions":[2.6E1,2E0,2.3E1,-5.0408147E-2,3.2346323E-2,1.3255249E-2,-6.480745E-2],"split_indices":[103,51,1,0,0,0,0],"split_type":[0,0,0,0,0,0,0],"sum_hessian":[5.414614E3,4.7205537E3,6.940599E2,1.5052927E2,4.5700244E3,4.5940207E2,2.3465779E2],"tree_param":{"num_deleted":"0","num_feature":"104","num_nodes":"7","size_leaf_vector":"0"}},{"base_weights":[1.2414955E-1,1.0477256E-1,7.19437E-2,4.4492885E-2,1.5260352E-2],"categories":[],"categories_nodes":[],"categories_segments":[],"categories_sizes":[],"default_left":[0,0,0,0,0],"id":19,"left_children":[1,3,-1,-1,-1],"loss_changes":[1.2776497E1,1.1478233E1,0E0,0E0,0E0],"parents":[2147483647,0,0,1,1],"right_children":[2,4,-1,-1,-1],"split_conditions":[2.6E1,1.7E1,7.19437E-2,4.4492885E-2,1.5260352E-2],"split_indices":[103,47,0,0,0],"split_type":[0,0,0,0,0],"sum_hessian":[5.710959E3,4.89312E3,8.178392E2,2.7059016E3,2.1872185E3],"tree_param":{"num_deleted":"0","num_feature":"104","num_nodes":"5","size_leaf_vector":"0"}},{"base_weights":[-5.511792E-1],"categories":[],"categories_nodes":[],"categories_segments":[],"categories_sizes":[],"default_left":[0],"id":20,"left_children":[-1],"loss_changes":[0E0],"parents":[2147483647],"right_children":[-1],"split_conditions":[-1.6535376E-1],"split_indices":[0],"split_type":[0],"sum_hessian":[2.0781125E3],"tree_param":{"num_deleted":"0","num_feature":"104","num_nodes":"1","size_leaf_vector":"0"}},{"base_weights":[7.164918E-2,5.46373E-2,5.445952E-2,-1.9584121E-3,2.8107442E-2,-5.2380774E-2,8.657668E-3],"categories":[],"categories_nodes":[],"categories_segments":[],"categories_sizes":[],"default_left":[0,0,0,0,0,0,0],"id":21,"left_children":[1,3,-1,5,-1,-1,-1],"loss_changes":[1.0084152E1,1.0338633E1,0E0,1.0171194E1,0E0,0E0,0E0],"parents":[2147483647,0,0,1,1,3,3],"right_children":[2,4,-1,6,-1,-1,-1],"split_conditions":[2.7E1,4.53E-1,5.445952E-2,5E0,2.8107442E-2,-5.2380774E-2,8.657668E-3],"split_indices":[47,59,0,47,0,0,0],"split_type":[0,0,0,0,0,0,0],"sum_hessian":[5.3988975E3,4.6764004E3,7.2249713E2,1.9097778E3,2.7666228E3,2.8855792E2,1.6212198E3],"tree_param":{"num_deleted":"0","num_feature":"104","num_nodes":"7","size_leaf_vector":"0"}},{"base_weights":[1.0038667E-1,4.348497E-2,1.7411128E-2],"categories":[],"categories_nodes":[],"categories_segments":[],"categories_sizes":[],"default_left":[0,0,0],"id":22,"left_children":[1,-1,-1],"loss_changes":[1.0669914E1,0E0,0E0],"parents":[2147483647,0,0],"right_children":[2,-1,-1],"split_conditions":[1.5E1,4.348497E-2,1.7411128E-2],"split_indices":[51,0,0],"split_type":[0,0,0],"sum_hessian":[5.6571924E3,2.755372E3,2.9018203E3],"tree_param":{"num_deleted":"0","num_feature":"104","num_nodes":"3","size_leaf_vector":"0"}},{"base_weights":[-5.418575E-1],"categories":[],"categories_nodes":[],"categories_segments":[],"categories_sizes":[],"default_left":[0],"id":23,"left_children":[-1],"loss_changes":[0E0],"parents":[2147483647],"right_children":[-1],"split_conditions":[-1.6255724E-1],"split_indices":[0],"split_type":[0],"sum_hessian":[1.7612814E3],"tree_param":{"num_deleted":"0","num_feature":"104","num_nodes":"1","size_leaf_vector":"0"}},{"base_weights":[6.3552886E-2],"categories":[],"categories_nodes":[],"categories_segments":[],"categories_sizes":[],"default_left":[0],"id":24,"left_children":[-1],"loss_changes":[0E0],"parents":[2147483647],"right_children":[-1],"split_conditions":[1.9065866E-2],"split_indices":[0],"split_type":[0],"sum_hessian":[5.3838994E3],"tree_param":{"num_deleted":"0","num_feature":"104","num_nodes":"1","size_leaf_vector":"0"}},{"base_weights":[8.1562E-2],"categories":[],"categories_nodes":[],"categories_segments":[],"categories_sizes":[],"default_left":[0],"id":25,"left_children":[-1],"loss_changes":[0E0],"parents":[2147483647],"right_children":[-1],"split_conditions":[2.44686E-2],"split_indices":[0],"split_type":[0],"sum_hessian":[5.6074673E3],"tree_param":{"num_deleted":"0","num_feature":"104","num_nodes":"1","size_leaf_vector":"0"}},{"base_weights":[-5.3448945E-1],"categories":[],"categories_nodes":[],"categories_segments":[],"categories_sizes":[],"default_left":[0],"id":26,"left_children":[-1],"loss_changes":[0E0],"parents":[2147483647],"right_children":[-1],"split_conditions":[-1.6034684E-1],"split_indices":[0],"split_type":[0],"sum_hessian":[1.4951263E3],"tree_param":{"num_deleted":"0","num_feature":"104","num_nodes":"1","size_leaf_vector":"0"}},{"base_weights":[5.6122094E-2],"categories":[],"categories_nodes":[],"categories_segments":[],"categories_sizes":[],"default_left":[0],"id":27,"left_children":[-1],"loss_changes":[0E0],"parents":[2147483647],"right_children":[-1],"split_conditions":[1.6836628E-2],"split_indices":[0],"split_type":[0],"sum_hessian":[5.3898955E3],"tree_param":{"num_deleted":"0","num_feature":"104","num_nodes":"1","size_leaf_vector":"0"}},{"base_weights":[6.644736E-2],"categories":[],"categories_nodes":[],"categories_segments":[],"categories_sizes":[],"default_left":[0],"id":28,"left_children":[-1],"loss_changes":[0E0],"parents":[2147483647],"right_children":[-1],"split_conditions":[1.9934209E-2],"split_indices":[0],"split_type":[0],"sum_hessian":[5.582781E3],"tree_param":{"num_deleted":"0","num_feature":"104","num_nodes":"1","size_leaf_vector":"0"}},{"base_weights":[-5.286223E-1],"categories":[],"categories_nodes":[],"categories_segments":[],"categories_sizes":[],"default_left":[0],"id":29,"left_children":[-1],"loss_changes":[0E0],"parents":[2147483647],"right_children":[-1],"split_conditions":[-1.5858671E-1],"split_indices":[0],"split_type":[0],"sum_hessian":[1.27321E3],"tree_param":{"num_deleted":"0","num_feature":"104","num_nodes":"1","size_leaf_vector":"0"}},{"base_weights":[4.9355175E-2],"categories":[],"categories_nodes":[],"categories_segments":[],"categories_sizes":[],"default_left":[0],"id":30,"left_children":[-1],"loss_changes":[0E0],"parents":[2147483647],"right_children":[-1],"split_conditions":[1.4806553E-2],"split_indices":[0],"split_type":[0],"sum_hessian":[5.3955137E3],"tree_param":{"num_deleted":"0","num_feature":"104","num_nodes":"1","size_leaf_vector":"0"}},{"base_weights":[5.4460865E-2],"categories":[],"categories_nodes":[],"categories_segments":[],"categories_sizes":[],"default_left":[0],"id":31,"left_children":[-1],"loss_changes":[0E0],"parents":[2147483647],"right_children":[-1],"split_conditions":[1.633826E-2],"split_indices":[0],"split_type":[0],"sum_hessian":[5.5611504E3],"tree_param":{"num_deleted":"0","num_feature":"104","num_nodes":"1","size_leaf_vector":"0"}},{"base_weights":[-5.2384216E-1],"categories":[],"categories_nodes":[],"categories_segments":[],"categories_sizes":[],"default_left":[0],"id":32,"left_children":[-1],"loss_changes":[0E0],"parents":[2147483647],"right_children":[-1],"split_conditions":[-1.5715265E-1],"split_indices":[0],"split_type":[0],"sum_hessian":[1.0857118E3],"tree_param":{"num_deleted":"0","num_feature":"104","num_nodes":"1","size_leaf_vector":"0"}},{"base_weights":[4.3240387E-2],"categories":[],"categories_nodes":[],"categories_segments":[],"categories_sizes":[],"default_left":[0],"id":33,"left_children":[-1],"loss_changes":[0E0],"parents":[2147483647],"right_children":[-1],"split_conditions":[1.29721165E-2],"split_indices":[0],"split_type":[0],"sum_hessian":[5.400668E3],"tree_param":{"num_deleted":"0","num_feature":"104","num_nodes":"1","size_leaf_vector":"0"}},{"base_weights":[4.4897284E-2],"categories":[],"categories_nodes":[],"categories_segments":[],"categories_sizes":[],"default_left":[0],"id":34,"left_children":[-1],"loss_changes":[0E0],"parents":[2147483647],"right_children":[-1],"split_conditions":[1.3469186E-2],"split_indices":[0],"split_type":[0],"sum_hessian":[5.542517E3],"tree_param":{"num_deleted":"0","num_feature":"104","num_nodes":"1","size_leaf_vector":"0"}},{"base_weights":[-5.199043E-1],"categories":[],"categories_nodes":[],"categories_segments":[],"categories_sizes":[],"default_left":[0],"id":35,"left_children":[-1],"loss_changes":[0E0],"parents":[2147483647],"right_children":[-1],"split_conditions":[-1.559713E-1],"split_indices":[0],"split_type":[0],"sum_hessian":[9.269766E2],"tree_param":{"num_deleted":"0","num_feature":"104","num_nodes":"1","size_leaf_vector":"0"}},{"base_weights":[3.7757635E-2],"categories":[],"categories_nodes":[],"categories_segments":[],"categories_sizes":[],"default_left":[0],"id":36,"left_children":[-1],"loss_changes":[0E0],"parents":[2147483647],"right_children":[-1],"split_conditions":[1.1327291E-2],"split_indices":[0],"split_type":[0],"sum_hessian":[5.405314E3],"tree_param":{"num_deleted":"0","num_feature":"104","num_nodes":"1","size_leaf_vector":"0"}},{"base_weights":[3.721799E-2],"categories":[],"categories_nodes":[],"categories_segments":[],"categories_sizes":[],"default_left":[0],"id":37,"left_children":[-1],"loss_changes":[0E0],"parents":[2147483647],"right_children":[-1],"split_conditions":[1.1165397E-2],"split_indices":[0],"split_type":[0],"sum_hessian":[5.5266147E3],"tree_param":{"num_deleted":"0","num_feature":"104","num_nodes":"1","size_leaf_vector":"0"}},{"base_weights":[-5.16628E-1],"categories":[],"categories_nodes":[],"categories_segments":[],"categories_sizes":[],"default_left":[0],"id":38,"left_children":[-1],"loss_changes":[0E0],"parents":[2147483647],"right_children":[-1],"split_conditions":[-1.5498841E-1],"split_indices":[0],"split_type":[0],"sum_hessian":[7.923297E2],"tree_param":{"num_deleted":"0","num_feature":"104","num_nodes":"1","size_leaf_vector":"0"}},{"base_weights":[3.2876637E-2],"categories":[],"categories_nodes":[],"categories_segments":[],"categories_sizes":[],"default_left":[0],"id":39,"left_children":[-1],"loss_changes":[0E0],"parents":[2147483647],"right_children":[-1],"split_conditions":[9.862991E-3],"split_indices":[0],"split_type":[0],"sum_hessian":[5.409444E3],"tree_param":{"num_deleted":"0","num_feature":"104","num_nodes":"1","size_leaf_vector":"0"}},{"base_weights":[3.1010939E-2],"categories":[],"categories_nodes":[],"categories_segments":[],"categories_sizes":[],"default_left":[0],"id":40,"left_children":[-1],"loss_changes":[0E0],"parents":[2147483647],"right_children":[-1],"split_conditions":[9.303282E-3],"split_indices":[0],"split_type":[0],"sum_hessian":[5.51311E3],"tree_param":{"num_deleted":"0","num_feature":"104","num_nodes":"1","size_leaf_vector":"0"}},{"base_weights":[-5.138764E-1],"categories":[],"categories_nodes":[],"categories_segments":[],"categories_sizes":[],"default_left":[0],"id":41,"left_children":[-1],"loss_changes":[0E0],"parents":[2147483647],"right_children":[-1],"split_conditions":[-1.5416291E-1],"split_indices":[0],"split_type":[0],"sum_hessian":[6.779083E2],"tree_param":{"num_deleted":"0","num_feature":"104","num_nodes":"1","size_leaf_vector":"0"}},{"base_weights":[2.85586E-2],"categories":[],"categories_nodes":[],"categories_segments":[],"categories_sizes":[],"default_left":[0],"id":42,"left_children":[-1],"loss_changes":[0E0],"parents":[2147483647],"right_children":[-1],"split_conditions":[8.567581E-3],"split_indices":[0],"split_type":[0],"sum_hessian":[5.4130747E3],"tree_param":{"num_deleted":"0","num_feature":"104","num_nodes":"1","size_leaf_vector":"0"}},{"base_weights":[2.5960457E-2],"categories":[],"categories_nodes":[],"categories_segments":[],"categories_sizes":[],"default_left":[0],"id":43,"left_children":[-1],"loss_changes":[0E0],"parents":[2147483647],"right_children":[-1],"split_conditions":[7.788137E-3],"split_indices":[0],"split_type":[0],"sum_hessian":[5.501664E3],"tree_param":{"num_deleted":"0","num_feature":"104","num_nodes":"1","size_leaf_vector":"0"}},{"base_weights":[-5.115437E-1],"categories":[],"categories_nodes":[],"categories_segments":[],"categories_sizes":[],"default_left":[0],"id":44,"left_children":[-1],"loss_changes":[0E0],"parents":[2147483647],"right_children":[-1],"split_conditions":[-1.5346311E-1],"split_indices":[0],"split_type":[0],"sum_hessian":[5.8051447E2],"tree_param":{"num_deleted":"0","num_feature":"104","num_nodes":"1","size_leaf_vector":"0"}},{"base_weights":[2.47591E-2],"categories":[],"categories_nodes":[],"categories_segments":[],"categories_sizes":[],"default_left":[0],"id":45,"left_children":[-1],"loss_changes":[0E0],"parents":[2147483647],"right_children":[-1],"split_conditions":[7.4277306E-3],"split_indices":[0],"split_type":[0],"sum_hessian":[5.41624E3],"tree_param":{"num_deleted":"0","num_feature":"104","num_nodes":"1","size_leaf_vector":"0"}},{"base_weights":[2.1824205E-2],"categories":[],"categories_nodes":[],"categories_segments":[],"categories_sizes":[],"default_left":[0],"id":46,"left_children":[-1],"loss_changes":[0E0],"parents":[2147483647],"right_children":[-1],"split_conditions":[6.547262E-3],"split_indices":[0],"split_type":[0],"sum_hessian":[5.491967E3],"tree_param":{"num_deleted":"0","num_feature":"104","num_nodes":"1","size_leaf_vector":"0"}},{"base_weights":[-5.0954705E-1],"categories":[],"categories_nodes":[],"categories_segments":[],"categories_sizes":[],"default_left":[0],"id":47,"left_children":[-1],"loss_changes":[0E0],"parents":[2147483647],"right_children":[-1],"split_conditions":[-1.5286413E-1],"split_indices":[0],"split_type":[0],"sum_hessian":[4.9749295E2],"tree_param":{"num_deleted":"0","num_feature":"104","num_nodes":"1","size_leaf_vector":"0"}},{"base_weights":[2.143088E-2],"categories":[],"categories_nodes":[],"categories_segments":[],"categories_sizes":[],"default_left":[0],"id":48,"left_children":[-1],"loss_changes":[0E0],"parents":[2147483647],"right_children":[-1],"split_conditions":[6.4292643E-3],"split_indices":[0],"split_type":[0],"sum_hessian":[5.4189834E3],"tree_param":{"num_deleted":"0","num_feature":"104","num_nodes":"1","size_leaf_vector":"0"}},{"base_weights":[1.8415602E-2],"categories":[],"categories_nodes":[],"categories_segments":[],"categories_sizes":[],"default_left":[0],"id":49,"left_children":[-1],"loss_changes":[0E0],"parents":[2147483647],"right_children":[-1],"split_conditions":[5.524681E-3],"split_indices":[0],"split_type":[0],"sum_hessian":[5.4837456E3],"tree_param":{"num_deleted":"0","num_feature":"104","num_nodes":"1","size_leaf_vector":"0"}},{"base_weights":[-5.0782007E-1],"categories":[],"categories_nodes":[],"categories_segments":[],"categories_sizes":[],"default_left":[0],"id":50,"left_children":[-1],"loss_changes":[0E0],"parents":[2147483647],"right_children":[-1],"split_conditions":[-1.5234603E-1],"split_indices":[0],"split_type":[0],"sum_hessian":[4.2663156E2],"tree_param":{"num_deleted":"0","num_feature":"104","num_nodes":"1","size_leaf_vector":"0"}},{"base_weights":[1.8526383E-2],"categories":[],"categories_nodes":[],"categories_segments":[],"categories_sizes":[],"default_left":[0],"id":51,"left_children":[-1],"loss_changes":[0E0],"parents":[2147483647],"right_children":[-1],"split_conditions":[5.557915E-3],"split_indices":[0],"split_type":[0],"sum_hessian":[5.421349E3],"tree_param":{"num_deleted":"0","num_feature":"104","num_nodes":"1","size_leaf_vector":"0"}},{"base_weights":[1.5590255E-2],"categories":[],"categories_nodes":[],"categories_segments":[],"categories_sizes":[],"default_left":[0],"id":52,"left_children":[-1],"loss_changes":[0E0],"parents":[2147483647],"right_children":[-1],"split_conditions":[4.677077E-3],"split_indices":[0],"split_type":[0],"sum_hessian":[5.476767E3],"tree_param":{"num_deleted":"0","num_feature":"104","num_nodes":"1","size_leaf_vector":"0"}},{"base_weights":[-5.063086E-1],"categories":[],"categories_nodes":[],"categories_segments":[],"categories_sizes":[],"default_left":[0],"id":53,"left_children":[-1],"loss_changes":[0E0],"parents":[2147483647],"right_children":[-1],"split_conditions":[-1.5189259E-1],"split_indices":[0],"split_type":[0],"sum_hessian":[3.6608105E2],"tree_param":{"num_deleted":"0","num_feature":"104","num_nodes":"1","size_leaf_vector":"0"}},{"base_weights":[1.5999433E-2],"categories":[],"categories_nodes":[],"categories_segments":[],"categories_sizes":[],"default_left":[0],"id":54,"left_children":[-1],"loss_changes":[0E0],"parents":[2147483647],"right_children":[-1],"split_conditions":[4.79983E-3],"split_indices":[0],"split_type":[0],"sum_hessian":[5.423383E3],"tree_param":{"num_deleted":"0","num_feature":"104","num_nodes":"1","size_leaf_vector":"0"}},{"base_weights":[1.3235851E-2],"categories":[],"categories_nodes":[],"categories_segments":[],"categories_sizes":[],"default_left":[0],"id":55,"left_children":[-1],"loss_changes":[0E0],"parents":[2147483647],"right_children":[-1],"split_conditions":[3.9707557E-3],"split_indices":[0],"split_type":[0],"sum_hessian":[5.470835E3],"tree_param":{"num_deleted":"0","num_feature":"104","num_nodes":"1","size_leaf_vector":"0"}},{"base_weights":[-5.049678E-1],"categories":[],"categories_nodes":[],"categories_segments":[],"categories_sizes":[],"default_left":[0],"id":56,"left_children":[-1],"loss_changes":[0E0],"parents":[2147483647],"right_children":[-1],"split_conditions":[-1.5149035E-1],"split_indices":[0],"split_type":[0],"sum_hessian":[3.1429028E2],"tree_param":{"num_deleted":"0","num_feature":"104","num_nodes":"1","size_leaf_vector":"0"}},{"base_weights":[1.380638E-2],"categories":[],"categories_nodes":[],"categories_segments":[],"categories_sizes":[],"default_left":[0],"id":57,"left_children":[-1],"loss_changes":[0E0],"parents":[2147483647],"right_children":[-1],"split_conditions":[4.141914E-3],"split_indices":[0],"split_type":[0],"sum_hessian":[5.425127E3],"tree_param":{"num_deleted":"0","num_feature":"104","num_nodes":"1","size_leaf_vector":"0"}},{"base_weights":[1.1264513E-2],"categories":[],"categories_nodes":[],"categories_segments":[],"categories_sizes":[],"default_left":[0],"id":58,"left_children":[-1],"loss_changes":[0E0],"parents":[2147483647],"right_children":[-1],"split_conditions":[3.379354E-3],"split_indices":[0],"split_type":[0],"sum_hessian":[5.4657847E3],"tree_param":{"num_deleted":"0","num_feature":"104","num_nodes":"1","size_leaf_vector":"0"}},{"base_weights":[-5.0375986E-1],"categories":[],"categories_nodes":[],"categories_segments":[],"categories_sizes":[],"default_left":[0],"id":59,"left_children":[-1],"loss_changes":[0E0],"parents":[2147483647],"right_children":[-1],"split_conditions":[-1.5112796E-1],"split_indices":[0],"split_type":[0],"sum_hessian":[2.699542E2],"tree_param":{"num_deleted":"0","num_feature":"104","num_nodes":"1","size_leaf_vector":"0"}},{"base_weights":[1.1906923E-2],"categories":[],"categories_nodes":[],"categories_segments":[],"categories_sizes":[],"default_left":[0],"id":60,"left_children":[-1],"loss_changes":[0E0],"parents":[2147483647],"right_children":[-1],"split_conditions":[3.572077E-3],"split_indices":[0],"split_type":[0],"sum_hessian":[5.42662E3],"tree_param":{"num_deleted":"0","num_feature":"104","num_nodes":"1","size_leaf_vector":"0"}},{"base_weights":[9.6069025E-3],"categories":[],"categories_nodes":[],"categories_segments":[],"categories_sizes":[],"default_left":[0],"id":61,"left_children":[-1],"loss_changes":[0E0],"parents":[2147483647],"right_children":[-1],"split_conditions":[2.8820708E-3],"split_indices":[0],"split_type":[0],"sum_hessian":[5.461479E3],"tree_param":{"num_deleted":"0","num_feature":"104","num_nodes":"1","size_leaf_vector":"0"}},{"base_weights":[-5.0265217E-1],"categories":[],"categories_nodes":[],"categories_segments":[],"categories_sizes":[],"default_left":[0],"id":62,"left_children":[-1],"loss_changes":[0E0],"parents":[2147483647],"right_children":[-1],"split_conditions":[-1.5079565E-1],"split_indices":[0],"split_type":[0],"sum_hessian":[2.3197173E2],"tree_param":{"num_deleted":"0","num_feature":"104","num_nodes":"1","size_leaf_vector":"0"}},{"base_weights":[1.0264384E-2],"categories":[],"categories_nodes":[],"categories_segments":[],"categories_sizes":[],"default_left":[0],"id":63,"left_children":[-1],"loss_changes":[0E0],"parents":[2147483647],"right_children":[-1],"split_conditions":[3.0793152E-3],"split_indices":[0],"split_type":[0],"sum_hessian":[5.427897E3],"tree_param":{"num_deleted":"0","num_feature":"104","num_nodes":"1","size_leaf_vector":"0"}},{"base_weights":[8.207905E-3],"categories":[],"categories_nodes":[],"categories_segments":[],"categories_sizes":[],"default_left":[0],"id":64,"left_children":[-1],"loss_changes":[0E0],"parents":[2147483647],"right_children":[-1],"split_conditions":[2.4623717E-3],"split_indices":[0],"split_type":[0],"sum_hessian":[5.4578022E3],"tree_param":{"num_deleted":"0","num_feature":"104","num_nodes":"1","size_leaf_vector":"0"}},{"base_weights":[-5.016159E-1],"categories":[],"categories_nodes":[],"categories_segments":[],"categories_sizes":[],"default_left":[0],"id":65,"left_children":[-1],"loss_changes":[0E0],"parents":[2147483647],"right_children":[-1],"split_conditions":[-1.5048477E-1],"split_indices":[0],"split_type":[0],"sum_hessian":[1.9941156E2],"tree_param":{"num_deleted":"0","num_feature":"104","num_nodes":"1","size_leaf_vector":"0"}},{"base_weights":[8.845805E-3],"categories":[],"categories_nodes":[],"categories_segments":[],"categories_sizes":[],"default_left":[0],"id":66,"left_children":[-1],"loss_changes":[0E0],"parents":[2147483647],"right_children":[-1],"split_conditions":[2.6537417E-3],"split_indices":[0],"split_type":[0],"sum_hessian":[5.428989E3],"tree_param":{"num_deleted":"0","num_feature":"104","num_nodes":"1","size_leaf_vector":"0"}},{"base_weights":[7.023404E-3],"categories":[],"categories_nodes":[],"categories_segments":[],"categories_sizes":[],"default_left":[0],"id":67,"left_children":[-1],"loss_changes":[0E0],"parents":[2147483647],"right_children":[-1],"split_conditions":[2.1070212E-3],"split_indices":[0],"split_type":[0],"sum_hessian":[5.454659E3],"tree_param":{"num_deleted":"0","num_feature":"104","num_nodes":"1","size_leaf_vector":"0"}},{"base_weights":[-5.0062513E-1],"categories":[],"categories_nodes":[],"categories_segments":[],"categories_sizes":[],"default_left":[0],"id":68,"left_children":[-1],"loss_changes":[0E0],"parents":[2147483647],"right_children":[-1],"split_conditions":[-1.5018755E-1],"split_indices":[0],"split_type":[0],"sum_hessian":[1.7148416E2],"tree_param":{"num_deleted":"0","num_feature":"104","num_nodes":"1","size_leaf_vector":"0"}},{"base_weights":[7.6218434E-3],"categories":[],"categories_nodes":[],"categories_segments":[],"categories_sizes":[],"default_left":[0],"id":69,"left_children":[-1],"loss_changes":[0E0],"parents":[2147483647],"right_children":[-1],"split_conditions":[2.2865532E-3],"split_indices":[0],"split_type":[0],"sum_hessian":[5.429922E3],"tree_param":{"num_deleted":"0","num_feature":"104","num_nodes":"1","size_leaf_vector":"0"}},{"base_weights":[6.017771E-3],"categories":[],"categories_nodes":[],"categories_segments":[],"categories_sizes":[],"default_left":[0],"id":70,"left_children":[-1],"loss_changes":[0E0],"parents":[2147483647],"right_children":[-1],"split_conditions":[1.8053314E-3],"split_indices":[0],"split_type":[0],"sum_hessian":[5.4519697E3],"tree_param":{"num_deleted":"0","num_feature":"104","num_nodes":"1","size_leaf_vector":"0"}},{"base_weights":[-4.9965602E-1],"categories":[],"categories_nodes":[],"categories_segments":[],"categories_sizes":[],"default_left":[0],"id":71,"left_children":[-1],"loss_changes":[0E0],"parents":[2147483647],"right_children":[-1],"split_conditions":[-1.4989682E-1],"split_indices":[0],"split_type":[0],"sum_hessian":[1.4751892E2],"tree_param":{"num_deleted":"0","num_feature":"104","num_nodes":"1","size_leaf_vector":"0"}},{"base_weights":[6.5665995E-3],"categories":[],"categories_nodes":[],"categories_segments":[],"categories_sizes":[],"default_left":[0],"id":72,"left_children":[-1],"loss_changes":[0E0],"parents":[2147483647],"right_children":[-1],"split_conditions":[1.9699798E-3],"split_indices":[0],"split_type":[0],"sum_hessian":[5.430719E3],"tree_param":{"num_deleted":"0","num_feature":"104","num_nodes":"1","size_leaf_vector":"0"}},{"base_weights":[5.162038E-3],"categories":[],"categories_nodes":[],"categories_segments":[],"categories_sizes":[],"default_left":[0],"id":73,"left_children":[-1],"loss_changes":[0E0],"parents":[2147483647],"right_children":[-1],"split_conditions":[1.5486114E-3],"split_indices":[0],"split_type":[0],"sum_hessian":[5.4496655E3],"tree_param":{"num_deleted":"0","num_feature":"104","num_nodes":"1","size_leaf_vector":"0"}},{"base_weights":[-4.9868587E-1],"categories":[],"categories_nodes":[],"categories_segments":[],"categories_sizes":[],"default_left":[0],"id":74,"left_children":[-1],"loss_changes":[0E0],"parents":[2147483647],"right_children":[-1],"split_conditions":[-1.4960577E-1],"split_indices":[0],"split_type":[0],"sum_hessian":[1.2694519E2],"tree_param":{"num_deleted":"0","num_feature":"104","num_nodes":"1","size_leaf_vector":"0"}},{"base_weights":[5.6574E-3],"categories":[],"categories_nodes":[],"categories_segments":[],"categories_sizes":[],"default_left":[0],"id":75,"left_children":[-1],"loss_changes":[0E0],"parents":[2147483647],"right_children":[-1],"split_conditions":[1.69722E-3],"split_indices":[0],"split_type":[0],"sum_hessian":[5.431401E3],"tree_param":{"num_deleted":"0","num_feature":"104","num_nodes":"1","size_leaf_vector":"0"}},{"base_weights":[4.432373E-3],"categories":[],"categories_nodes":[],"categories_segments":[],"categories_sizes":[],"default_left":[0],"id":76,"left_children":[-1],"loss_changes":[0E0],"parents":[2147483647],"right_children":[-1],"split_conditions":[1.329712E-3],"split_indices":[0],"split_type":[0],"sum_hessian":[5.44769E3],"tree_param":{"num_deleted":"0","num_feature":"104","num_nodes":"1","size_leaf_vector":"0"}},{"base_weights":[-4.9769267E-1],"categories":[],"categories_nodes":[],"categories_segments":[],"categories_sizes":[],"default_left":[0],"id":77,"left_children":[-1],"loss_changes":[0E0],"parents":[2147483647],"right_children":[-1],"split_conditions":[-1.493078E-1],"split_indices":[0],"split_type":[0],"sum_hessian":[1.092767E2],"tree_param":{"num_deleted":"0","num_feature":"104","num_nodes":"1","size_leaf_vector":"0"}},{"base_weights":[4.8743263E-3],"categories":[],"categories_nodes":[],"categories_segments":[],"categories_sizes":[],"default_left":[0],"id":78,"left_children":[-1],"loss_changes":[0E0],"parents":[2147483647],"right_children":[-1],"split_conditions":[1.462298E-3],"split_indices":[0],"split_type":[0],"sum_hessian":[5.431984E3],"tree_param":{"num_deleted":"0","num_feature":"104","num_nodes":"1","size_leaf_vector":"0"}},{"base_weights":[3.8092497E-3],"categories":[],"categories_nodes":[],"categories_segments":[],"categories_sizes":[],"default_left":[0],"id":79,"left_children":[-1],"loss_changes":[0E0],"parents":[2147483647],"right_children":[-1],"split_conditions":[1.1427749E-3],"split_indices":[0],"split_type":[0],"sum_hessian":[5.4459956E3],"tree_param":{"num_deleted":"0","num_feature":"104","num_nodes":"1","size_leaf_vector":"0"}},{"base_weights":[-4.9665454E-1],"categories":[],"categories_nodes":[],"categories_segments":[],"categories_sizes":[],"default_left":[0],"id":80,"left_children":[-1],"loss_changes":[0E0],"parents":[2147483647],"right_children":[-1],"split_conditions":[-1.4899637E-1],"split_indices":[0],"split_type":[0],"sum_hessian":[9.4098526E1],"tree_param":{"num_deleted":"0","num_feature":"104","num_nodes":"1","size_leaf_vector":"0"}},{"base_weights":[4.2001414E-3],"categories":[],"categories_nodes":[],"categories_segments":[],"categories_sizes":[],"default_left":[0],"id":81,"left_children":[-1],"loss_changes":[0E0],"parents":[2147483647],"right_children":[-1],"split_conditions":[1.2600424E-3],"split_indices":[0],"split_type":[0],"sum_hessian":[5.4324824E3],"tree_param":{"num_deleted":"0","num_feature":"104","num_nodes":"1","size_leaf_vector":"0"}},{"base_weights":[3.276343E-3],"categories":[],"categories_nodes":[],"categories_segments":[],"categories_sizes":[],"default_left":[0],"id":82,"left_children":[-1],"loss_changes":[0E0],"parents":[2147483647],"right_children":[-1],"split_conditions":[9.82903E-4],"split_indices":[0],"split_type":[0],"sum_hessian":[5.4445405E3],"tree_param":{"num_deleted":"0","num_feature":"104","num_nodes":"1","size_leaf_vector":"0"}},{"base_weights":[-4.9554926E-1],"categories":[],"categories_nodes":[],"categories_segments":[],"categories_sizes":[],"default_left":[0],"id":83,"left_children":[-1],"loss_changes":[0E0],"parents":[2147483647],"right_children":[-1],"split_conditions":[-1.4866479E-1],"split_indices":[0],"split_type":[0],"sum_hessian":[8.105614E1],"tree_param":{"num_deleted":"0","num_feature":"104","num_nodes":"1","size_leaf_vector":"0"}},{"base_weights":[3.6198467E-3],"categories":[],"categories_nodes":[],"categories_segments":[],"categories_sizes":[],"default_left":[0],"id":84,"left_children":[-1],"loss_changes":[0E0],"parents":[2147483647],"right_children":[-1],"split_conditions":[1.085954E-3],"split_indices":[0],"split_type":[0],"sum_hessian":[5.432909E3],"tree_param":{"num_deleted":"0","num_feature":"104","num_nodes":"1","size_leaf_vector":"0"}},{"base_weights":[2.8200713E-3],"categories":[],"categories_nodes":[],"categories_segments":[],"categories_sizes":[],"default_left":[0],"id":85,"left_children":[-1],"loss_changes":[0E0],"parents":[2147483647],"right_children":[-1],"split_conditions":[8.460214E-4],"split_indices":[0],"split_type":[0],"sum_hessian":[5.443291E3],"tree_param":{"num_deleted":"0","num_feature":"104","num_nodes":"1","size_leaf_vector":"0"}},{"base_weights":[-4.943539E-1],"categories":[],"categories_nodes":[],"categories_segments":[],"categories_sizes":[],"default_left":[0],"id":86,"left_children":[-1],"loss_changes":[0E0],"parents":[2147483647],"right_children":[-1],"split_conditions":[-1.4830618E-1],"split_indices":[0],"split_type":[0],"sum_hessian":[6.984641E1],"tree_param":{"num_deleted":"0","num_feature":"104","num_nodes":"1","size_leaf_vector":"0"}},{"base_weights":[3.1204561E-3],"categories":[],"categories_nodes":[],"categories_segments":[],"categories_sizes":[],"default_left":[0],"id":87,"left_children":[-1],"loss_changes":[0E0],"parents":[2147483647],"right_children":[-1],"split_conditions":[9.361369E-4],"split_indices":[0],"split_type":[0],"sum_hessian":[5.433274E3],"tree_param":{"num_deleted":"0","num_feature":"104","num_nodes":"1","size_leaf_vector":"0"}},{"base_weights":[2.429035E-3],"categories":[],"categories_nodes":[],"categories_segments":[],"categories_sizes":[],"default_left":[0],"id":88,"left_children":[-1],"loss_changes":[0E0],"parents":[2147483647],"right_children":[-1],"split_conditions":[7.2871055E-4],"split_indices":[0],"split_type":[0],"sum_hessian":[5.442218E3],"tree_param":{"num_deleted":"0","num_feature":"104","num_nodes":"1","size_leaf_vector":"0"}},{"base_weights":[-4.9304438E-1],"categories":[],"categories_nodes":[],"categories_segments":[],"categories_sizes":[],"default_left":[0],"id":89,"left_children":[-1],"loss_changes":[0E0],"parents":[2147483647],"right_children":[-1],"split_conditions":[-1.4791332E-1],"split_indices":[0],"split_type":[0],"sum_hessian":[6.0209854E1],"tree_param":{"num_deleted":"0","num_feature":"104","num_nodes":"1","size_leaf_vector":"0"}},{"base_weights":[2.6907318E-3],"categories":[],"categories_nodes":[],"categories_segments":[],"categories_sizes":[],"default_left":[0],"id":90,"left_children":[-1],"loss_changes":[0E0],"parents":[2147483647],"right_children":[-1],"split_conditions":[8.072196E-4],"split_indices":[0],"split_type":[0],"sum_hessian":[5.433587E3],"tree_param":{"num_deleted":"0","num_feature":"104","num_nodes":"1","size_leaf_vector":"0"}},{"base_weights":[2.0936527E-3],"categories":[],"categories_nodes":[],"categories_segments":[],"categories_sizes":[],"default_left":[0],"id":91,"left_children":[-1],"loss_changes":[0E0],"parents":[2147483647],"right_children":[-1],"split_conditions":[6.280958E-4],"split_indices":[0],"split_type":[0],"sum_hessian":[5.441295E3],"tree_param":{"num_deleted":"0","num_feature":"104","num_nodes":"1","size_leaf_vector":"0"}},{"base_weights":[-4.9159515E-1],"categories":[],"categories_nodes":[],"categories_segments":[],"categories_sizes":[],"default_left":[0],"id":92,"left_children":[-1],"loss_changes":[0E0],"parents":[2147483647],"right_children":[-1],"split_conditions":[-1.4747855E-1],"split_indices":[0],"split_type":[0],"sum_hessian":[5.1924236E1],"tree_param":{"num_deleted":"0","num_feature":"104","num_nodes":"1","size_leaf_vector":"0"}},{"base_weights":[2.3209988E-3],"categories":[],"categories_nodes":[],"categories_segments":[],"categories_sizes":[],"default_left":[0],"id":93,"left_children":[-1],"loss_changes":[0E0],"parents":[2147483647],"right_children":[-1],"split_conditions":[6.9629966E-4],"split_indices":[0],"split_type":[0],"sum_hessian":[5.433855E3],"tree_param":{"num_deleted":"0","num_feature":"104","num_nodes":"1","size_leaf_vector":"0"}},{"base_weights":[1.805801E-3],"categories":[],"categories_nodes":[],"categories_segments":[],"categories_sizes":[],"default_left":[0],"id":94,"left_children":[-1],"loss_changes":[0E0],"parents":[2147483647],"right_children":[-1],"split_conditions":[5.4174033E-4],"split_indices":[0],"split_type":[0],"sum_hessian":[5.440502E3],"tree_param":{"num_deleted":"0","num_feature":"104","num_nodes":"1","size_leaf_vector":"0"}},{"base_weights":[-4.899791E-1],"categories":[],"categories_nodes":[],"categories_segments":[],"categories_sizes":[],"default_left":[0],"id":95,"left_children":[-1],"loss_changes":[0E0],"parents":[2147483647],"right_children":[-1],"split_conditions":[-1.4699373E-1],"split_indices":[0],"split_type":[0],"sum_hessian":[4.4799053E1],"tree_param":{"num_deleted":"0","num_feature":"104","num_nodes":"1","size_leaf_vector":"0"}},{"base_weights":[2.0028404E-3],"categories":[],"categories_nodes":[],"categories_segments":[],"categories_sizes":[],"default_left":[0],"id":96,"left_children":[-1],"loss_changes":[0E0],"parents":[2147483647],"right_children":[-1],"split_conditions":[6.0085213E-4],"split_indices":[0],"split_type":[0],"sum_hessian":[5.4340845E3],"tree_param":{"num_deleted":"0","num_feature":"104","num_nodes":"1","size_leaf_vector":"0"}},{"base_weights":[1.5586668E-3],"categories":[],"categories_nodes":[],"categories_segments":[],"categories_sizes":[],"default_left":[0],"id":97,"left_children":[-1],"loss_changes":[0E0],"parents":[2147483647],"right_children":[-1],"split_conditions":[4.6760007E-4],"split_indices":[0],"split_type":[0],"sum_hessian":[5.43982E3],"tree_param":{"num_deleted":"0","num_feature":"104","num_nodes":"1","size_leaf_vector":"0"}},{"base_weights":[-4.88167E-1],"categories":[],"categories_nodes":[],"categories_segments":[],"categories_sizes":[],"default_left":[0],"id":98,"left_children":[-1],"loss_changes":[0E0],"parents":[2147483647],"right_children":[-1],"split_conditions":[-1.464501E-1],"split_indices":[0],"split_type":[0],"sum_hessian":[3.867092E1],"tree_param":{"num_deleted":"0","num_feature":"104","num_nodes":"1","size_leaf_vector":"0"}},{"base_weights":[1.729144E-3],"categories":[],"categories_nodes":[],"categories_segments":[],"categories_sizes":[],"default_left":[0],"id":99,"left_children":[-1],"loss_changes":[0E0],"parents":[2147483647],"right_children":[-1],"split_conditions":[5.1874324E-4],"split_indices":[0],"split_type":[0],"sum_hessian":[5.4342817E3],"tree_param":{"num_deleted":"0","num_feature":"104","num_nodes":"1","size_leaf_vector":"0"}},{"base_weights":[1.3463085E-3],"categories":[],"categories_nodes":[],"categories_segments":[],"categories_sizes":[],"default_left":[0],"id":100,"left_children":[-1],"loss_changes":[0E0],"parents":[2147483647],"right_children":[-1],"split_conditions":[4.0389257E-4],"split_indices":[0],"split_type":[0],"sum_hessian":[5.439233E3],"tree_param":{"num_deleted":"0","num_feature":"104","num_nodes":"1","size_leaf_vector":"0"}},{"base_weights":[-4.8612767E-1],"categories":[],"categories_nodes":[],"categories_segments":[],"categories_sizes":[],"default_left":[0],"id":101,"left_children":[-1],"loss_changes":[0E0],"parents":[2147483647],"right_children":[-1],"split_conditions":[-1.458383E-1],"split_indices":[0],"split_type":[0],"sum_hessian":[3.3399643E1],"tree_param":{"num_deleted":"0","num_feature":"104","num_nodes":"1","size_leaf_vector":"0"}},{"base_weights":[1.4936074E-3],"categories":[],"categories_nodes":[],"categories_segments":[],"categories_sizes":[],"default_left":[0],"id":102,"left_children":[-1],"loss_changes":[0E0],"parents":[2147483647],"right_children":[-1],"split_conditions":[4.4808225E-4],"split_indices":[0],"split_type":[0],"sum_hessian":[5.4344507E3],"tree_param":{"num_deleted":"0","num_feature":"104","num_nodes":"1","size_leaf_vector":"0"}},{"base_weights":[1.1638461E-3],"categories":[],"categories_nodes":[],"categories_segments":[],"categories_sizes":[],"default_left":[0],"id":103,"left_children":[-1],"loss_changes":[0E0],"parents":[2147483647],"right_children":[-1],"split_conditions":[3.4915385E-4],"split_indices":[0],"split_type":[0],"sum_hessian":[5.4387285E3],"tree_param":{"num_deleted":"0","num_feature":"104","num_nodes":"1","size_leaf_vector":"0"}},{"base_weights":[-4.8382783E-1],"categories":[],"categories_nodes":[],"categories_segments":[],"categories_sizes":[],"default_left":[0],"id":104,"left_children":[-1],"loss_changes":[0E0],"parents":[2147483647],"right_children":[-1],"split_conditions":[-1.4514835E-1],"split_indices":[0],"split_type":[0],"sum_hessian":[2.8864866E1],"tree_param":{"num_deleted":"0","num_feature":"104","num_nodes":"1","size_leaf_vector":"0"}},{"base_weights":[1.2909588E-3],"categories":[],"categories_nodes":[],"categories_segments":[],"categories_sizes":[],"default_left":[0],"id":105,"left_children":[-1],"loss_changes":[0E0],"parents":[2147483647],"right_children":[-1],"split_conditions":[3.8728767E-4],"split_indices":[0],"split_type":[0],"sum_hessian":[5.4345957E3],"tree_param":{"num_deleted":"0","num_feature":"104","num_nodes":"1","size_leaf_vector":"0"}},{"base_weights":[1.0069712E-3],"categories":[],"categories_nodes":[],"categories_segments":[],"categories_sizes":[],"default_left":[0],"id":106,"left_children":[-1],"loss_changes":[0E0],"parents":[2147483647],"right_children":[-1],"split_conditions":[3.020914E-4],"split_indices":[0],"split_type":[0],"sum_hessian":[5.438294E3],"tree_param":{"num_deleted":"0","num_feature":"104","num_nodes":"1","size_leaf_vector":"0"}},{"base_weights":[-4.8123217E-1],"categories":[],"categories_nodes":[],"categories_segments":[],"categories_sizes":[],"default_left":[0],"id":107,"left_children":[-1],"loss_changes":[0E0],"parents":[2147483647],"right_children":[-1],"split_conditions":[-1.4436966E-1],"split_indices":[0],"split_type":[0],"sum_hessian":[2.496325E1],"tree_param":{"num_deleted":"0","num_feature":"104","num_nodes":"1","size_leaf_vector":"0"}},{"base_weights":[1.1165694E-3],"categories":[],"categories_nodes":[],"categories_segments":[],"categories_sizes":[],"default_left":[0],"id":108,"left_children":[-1],"loss_changes":[0E0],"parents":[2147483647],"right_children":[-1],"split_conditions":[3.3497083E-4],"split_indices":[0],"split_type":[0],"sum_hessian":[5.43472E3],"tree_param":{"num_deleted":"0","num_feature":"104","num_nodes":"1","size_leaf_vector":"0"}},{"base_weights":[8.720759E-4],"categories":[],"categories_nodes":[],"categories_segments":[],"categories_sizes":[],"default_left":[0],"id":109,"left_children":[-1],"loss_changes":[0E0],"parents":[2147483647],"right_children":[-1],"split_conditions":[2.6162277E-4],"split_indices":[0],"split_type":[0],"sum_hessian":[5.4379204E3],"tree_param":{"num_deleted":"0","num_feature":"104","num_nodes":"1","size_leaf_vector":"0"}},{"base_weights":[-4.7830358E-1],"categories":[],"categories_nodes":[],"categories_segments":[],"categories_sizes":[],"default_left":[0],"id":110,"left_children":[-1],"loss_changes":[0E0],"parents":[2147483647],"right_children":[-1],"split_conditions":[-1.4349107E-1],"split_indices":[0],"split_type":[0],"sum_hessian":[2.1606003E1],"tree_param":{"num_deleted":"0","num_feature":"104","num_nodes":"1","size_leaf_vector":"0"}},{"base_weights":[9.6653606E-4],"categories":[],"categories_nodes":[],"categories_segments":[],"categories_sizes":[],"default_left":[0],"id":111,"left_children":[-1],"loss_changes":[0E0],"parents":[2147483647],"right_children":[-1],"split_conditions":[2.8996082E-4],"split_indices":[0],"split_type":[0],"sum_hessian":[5.434827E3],"tree_param":{"num_deleted":"0","num_feature":"104","num_nodes":"1","size_leaf_vector":"0"}},{"base_weights":[7.560179E-4],"categories":[],"categories_nodes":[],"categories_segments":[],"categories_sizes":[],"default_left":[0],"id":112,"left_children":[-1],"loss_changes":[0E0],"parents":[2147483647],"right_children":[-1],"split_conditions":[2.2680538E-4],"split_indices":[0],"split_type":[0],"sum_hessian":[5.437599E3],"tree_param":{"num_deleted":"0","num_feature":"104","num_nodes":"1","size_leaf_vector":"0"}},{"base_weights":[-4.750036E-1],"categories":[],"categories_nodes":[],"categories_segments":[],"categories_sizes":[],"default_left":[0],"id":113,"left_children":[-1],"loss_changes":[0E0],"parents":[2147483647],"right_children":[-1],"split_conditions":[-1.4250109E-1],"split_indices":[0],"split_type":[0],"sum_hessian":[1.8716831E1],"tree_param":{"num_deleted":"0","num_feature":"104","num_nodes":"1","size_leaf_vector":"0"}},{"base_weights":[8.374202E-4],"categories":[],"categories_nodes":[],"categories_segments":[],"categories_sizes":[],"default_left":[0],"id":114,"left_children":[-1],"loss_changes":[0E0],"parents":[2147483647],"right_children":[-1],"split_conditions":[2.5122607E-4],"split_indices":[0],"split_type":[0],"sum_hessian":[5.434919E3],"tree_param":{"num_deleted":"0","num_feature":"104","num_nodes":"1","size_leaf_vector":"0"}},{"base_weights":[6.5614097E-4],"categories":[],"categories_nodes":[],"categories_segments":[],"categories_sizes":[],"default_left":[0],"id":115,"left_children":[-1],"loss_changes":[0E0],"parents":[2147483647],"right_children":[-1],"split_conditions":[1.968423E-4],"split_indices":[0],"split_type":[0],"sum_hessian":[5.4373223E3],"tree_param":{"num_deleted":"0","num_feature":"104","num_nodes":"1","size_leaf_vector":"0"}},{"base_weights":[-4.7129312E-1],"categories":[],"categories_nodes":[],"categories_segments":[],"categories_sizes":[],"default_left":[0],"id":116,"left_children":[-1],"loss_changes":[0E0],"parents":[2147483647],"right_children":[-1],"split_conditions":[-1.4138794E-1],"split_indices":[0],"split_type":[0],"sum_hessian":[1.6230167E1],"tree_param":{"num_deleted":"0","num_feature":"104","num_nodes":"1","size_leaf_vector":"0"}},{"base_weights":[7.262562E-4],"categories":[],"categories_nodes":[],"categories_segments":[],"categories_sizes":[],"default_left":[0],"id":117,"left_children":[-1],"loss_changes":[0E0],"parents":[2147483647],"right_children":[-1],"split_conditions":[2.1787688E-4],"split_indices":[0],"split_type":[0],"sum_hessian":[5.434998E3],"tree_param":{"num_deleted":"0","num_feature":"104","num_nodes":"1","size_leaf_vector":"0"}},{"base_weights":[5.7022343E-4],"categories":[],"categories_nodes":[],"categories_segments":[],"categories_sizes":[],"default_left":[0],"id":118,"left_children":[-1],"loss_changes":[0E0],"parents":[2147483647],"right_children":[-1],"split_conditions":[1.7106703E-4],"split_indices":[0],"split_type":[0],"sum_hessian":[5.437084E3],"tree_param":{"num_deleted":"0","num_feature":"104","num_nodes":"1","size_leaf_vector":"0"}},{"base_weights":[-4.6713307E-1],"categories":[],"categories_nodes":[],"categories_segments":[],"categories_sizes":[],"default_left":[0],"id":119,"left_children":[-1],"loss_changes":[0E0],"parents":[2147483647],"right_children":[-1],"split_conditions":[-1.4013992E-1],"split_indices":[0],"split_type":[0],"sum_hessian":[1.4089623E1],"tree_param":{"num_deleted":"0","num_feature":"104","num_nodes":"1","size_leaf_vector":"0"}},{"base_weights":[6.305681E-4],"categories":[],"categories_nodes":[],"categories_segments":[],"categories_sizes":[],"default_left":[0],"id":120,"left_children":[-1],"loss_changes":[0E0],"parents":[2147483647],"right_children":[-1],"split_conditions":[1.8917043E-4],"split_indices":[0],"split_type":[0],"sum_hessian":[5.435066E3],"tree_param":{"num_deleted":"0","num_feature":"104","num_nodes":"1","size_leaf_vector":"0"}},{"base_weights":[4.9626204E-4],"categories":[],"categories_nodes":[],"categories_segments":[],"categories_sizes":[],"default_left":[0],"id":121,"left_children":[-1],"loss_changes":[0E0],"parents":[2147483647],"right_children":[-1],"split_conditions":[1.4887862E-4],"split_indices":[0],"split_type":[0],"sum_hessian":[5.4368784E3],"tree_param":{"num_deleted":"0","num_feature":"104","num_nodes":"1","size_leaf_vector":"0"}},{"base_weights":[-4.624858E-1],"categories":[],"categories_nodes":[],"categories_segments":[],"categories_sizes":[],"default_left":[0],"id":122,"left_children":[-1],"loss_changes":[0E0],"parents":[2147483647],"right_children":[-1],"split_conditions":[-1.3874574E-1],"split_indices":[0],"split_type":[0],"sum_hessian":[1.2246718E1],"tree_param":{"num_deleted":"0","num_feature":"104","num_nodes":"1","size_leaf_vector":"0"}},{"base_weights":[5.481877E-4],"categories":[],"categories_nodes":[],"categories_segments":[],"categories_sizes":[],"default_left":[0],"id":123,"left_children":[-1],"loss_changes":[0E0],"parents":[2147483647],"right_children":[-1],"split_conditions":[1.6445632E-4],"split_indices":[0],"split_type":[0],"sum_hessian":[5.4351245E3],"tree_param":{"num_deleted":"0","num_feature":"104","num_nodes":"1","size_leaf_vector":"0"}},{"base_weights":[4.3256863E-4],"categories":[],"categories_nodes":[],"categories_segments":[],"categories_sizes":[],"default_left":[0],"id":124,"left_children":[-1],"loss_changes":[0E0],"parents":[2147483647],"right_children":[-1],"split_conditions":[1.2977059E-4],"split_indices":[0],"split_type":[0],"sum_hessian":[5.4367017E3],"tree_param":{"num_deleted":"0","num_feature":"104","num_nodes":"1","size_leaf_vector":"0"}},{"base_weights":[-4.5731625E-1],"categories":[],"categories_nodes":[],"categories_segments":[],"categories_sizes":[],"default_left":[0],"id":125,"left_children":[-1],"loss_changes":[0E0],"parents":[2147483647],"right_children":[-1],"split_conditions":[-1.3719489E-1],"split_indices":[0],"split_type":[0],"sum_hessian":[1.0659758E1],"tree_param":{"num_deleted":"0","num_feature":"104","num_nodes":"1","size_leaf_vector":"0"}},{"base_weights":[4.772553E-4],"categories":[],"categories_nodes":[],"categories_segments":[],"categories_sizes":[],"default_left":[0],"id":126,"left_children":[-1],"loss_changes":[0E0],"parents":[2147483647],"right_children":[-1],"split_conditions":[1.431766E-4],"split_indices":[0],"split_type":[0],"sum_hessian":[5.4351743E3],"tree_param":{"num_deleted":"0","num_feature":"104","num_nodes":"1","size_leaf_vector":"0"}},{"base_weights":[3.7769845E-4],"categories":[],"categories_nodes":[],"categories_segments":[],"categories_sizes":[],"default_left":[0],"id":127,"left_children":[-1],"loss_changes":[0E0],"parents":[2147483647],"right_children":[-1],"split_conditions":[1.1330954E-4],"split_indices":[0],"split_type":[0],"sum_hessian":[5.43655E3],"tree_param":{"num_deleted":"0","num_feature":"104","num_nodes":"1","size_leaf_vector":"0"}},{"base_weights":[-4.5159382E-1],"categories":[],"categories_nodes":[],"categories_segments":[],"categories_sizes":[],"default_left":[0],"id":128,"left_children":[-1],"loss_changes":[0E0],"parents":[2147483647],"right_children":[-1],"split_conditions":[-1.3547815E-1],"split_indices":[0],"split_type":[0],"sum_hessian":[9.292871E0],"tree_param":{"num_deleted":"0","num_feature":"104","num_nodes":"1","size_leaf_vector":"0"}},{"base_weights":[4.1617197E-4],"categories":[],"categories_nodes":[],"categories_segments":[],"categories_sizes":[],"default_left":[0],"id":129,"left_children":[-1],"loss_changes":[0E0],"parents":[2147483647],"right_children":[-1],"split_conditions":[1.2485159E-4],"split_indices":[0],"split_type":[0],"sum_hessian":[5.4352173E3],"tree_param":{"num_deleted":"0","num_feature":"104","num_nodes":"1","size_leaf_vector":"0"}},{"base_weights":[3.3040295E-4],"categories":[],"categories_nodes":[],"categories_segments":[],"categories_sizes":[],"default_left":[0],"id":130,"left_children":[-1],"loss_changes":[0E0],"parents":[2147483647],"right_children":[-1],"split_conditions":[9.912089E-5],"split_indices":[0],"split_type":[0],"sum_hessian":[5.4364185E3],"tree_param":{"num_deleted":"0","num_feature":"104","num_nodes":"1","size_leaf_vector":"0"}},{"base_weights":[-4.4529393E-1],"categories":[],"categories_nodes":[],"categories_segments":[],"categories_sizes":[],"default_left":[0],"id":131,"left_children":[-1],"loss_changes":[0E0],"parents":[2147483647],"right_children":[-1],"split_conditions":[-1.3358818E-1],"split_indices":[0],"split_type":[0],"sum_hessian":[8.115207E0],"tree_param":{"num_deleted":"0","num_feature":"104","num_nodes":"1","size_leaf_vector":"0"}},{"base_weights":[3.6349724E-4],"categories":[],"categories_nodes":[],"categories_segments":[],"categories_sizes":[],"default_left":[0],"id":132,"left_children":[-1],"loss_changes":[0E0],"parents":[2147483647],"right_children":[-1],"split_conditions":[1.0904918E-4],"split_indices":[0],"split_type":[0],"sum_hessian":[5.435255E3],"tree_param":{"num_deleted":"0","num_feature":"104","num_nodes":"1","size_leaf_vector":"0"}},{"base_weights":[2.8967968E-4],"categories":[],"categories_nodes":[],"categories_segments":[],"categories_sizes":[],"default_left":[0],"id":133,"left_children":[-1],"loss_changes":[0E0],"parents":[2147483647],"right_children":[-1],"split_conditions":[8.690391E-5],"split_indices":[0],"split_type":[0],"sum_hessian":[5.436305E3],"tree_param":{"num_deleted":"0","num_feature":"104","num_nodes":"1","size_leaf_vector":"0"}},{"base_weights":[-4.384001E-1],"categories":[],"categories_nodes":[],"categories_segments":[],"categories_sizes":[],"default_left":[0],"id":134,"left_children":[-1],"loss_changes":[0E0],"parents":[2147483647],"right_children":[-1],"split_conditions":[-1.3152003E-1],"split_indices":[0],"split_type":[0],"sum_hessian":[7.100208E0],"tree_param":{"num_deleted":"0","num_feature":"104","num_nodes":"1","size_leaf_vector":"0"}},{"base_weights":[3.1810463E-4],"categories":[],"categories_nodes":[],"categories_segments":[],"categories_sizes":[],"default_left":[0],"id":135,"left_children":[-1],"loss_changes":[0E0],"parents":[2147483647],"right_children":[-1],"split_conditions":[9.5431395E-5],"split_indices":[0],"split_type":[0],"sum_hessian":[5.4352866E3],"tree_param":{"num_deleted":"0","num_feature":"104","num_nodes":"1","size_leaf_vector":"0"}},{"base_weights":[2.5454175E-4],"categories":[],"categories_nodes":[],"categories_segments":[],"categories_sizes":[],"default_left":[0],"id":136,"left_children":[-1],"loss_changes":[0E0],"parents":[2147483647],"right_children":[-1],"split_conditions":[7.636253E-5],"split_indices":[0],"split_type":[0],"sum_hessian":[5.436208E3],"tree_param":{"num_deleted":"0","num_feature":"104","num_nodes":"1","size_leaf_vector":"0"}},{"base_weights":[-4.3090555E-1],"categories":[],"categories_nodes":[],"categories_segments":[],"categories_sizes":[],"default_left":[0],"id":137,"left_children":[-1],"loss_changes":[0E0],"parents":[2147483647],"right_children":[-1],"split_conditions":[-1.2927167E-1],"split_indices":[0],"split_type":[0],"sum_hessian":[6.2250366E0],"tree_param":{"num_deleted":"0","num_feature":"104","num_nodes":"1","size_leaf_vector":"0"}},{"base_weights":[2.7898198E-4],"categories":[],"categories_nodes":[],"categories_segments":[],"categories_sizes":[],"default_left":[0],"id":138,"left_children":[-1],"loss_changes":[0E0],"parents":[2147483647],"right_children":[-1],"split_conditions":[8.36946E-5],"split_indices":[0],"split_type":[0],"sum_hessian":[5.4353145E3],"tree_param":{"num_deleted":"0","num_feature":"104","num_nodes":"1","size_leaf_vector":"0"}},{"base_weights":[2.2419839E-4],"categories":[],"categories_nodes":[],"categories_segments":[],"categories_sizes":[],"default_left":[0],"id":139,"left_children":[-1],"loss_changes":[0E0],"parents":[2147483647],"right_children":[-1],"split_conditions":[6.725952E-5],"split_indices":[0],"split_type":[0],"sum_hessian":[5.4361235E3],"tree_param":{"num_deleted":"0","num_feature":"104","num_nodes":"1","size_leaf_vector":"0"}},{"base_weights":[-4.2281494E-1],"categories":[],"categories_nodes":[],"categories_segments":[],"categories_sizes":[],"default_left":[0],"id":140,"left_children":[-1],"loss_changes":[0E0],"parents":[2147483647],"right_children":[-1],"split_conditions":[-1.2684448E-1],"split_indices":[0],"split_type":[0],"sum_hessian":[5.470034E0],"tree_param":{"num_deleted":"0","num_feature":"104","num_nodes":"1","size_leaf_vector":"0"}},{"base_weights":[2.4520987E-4],"categories":[],"categories_nodes":[],"categories_segments":[],"categories_sizes":[],"default_left":[0],"id":141,"left_children":[-1],"loss_changes":[0E0],"parents":[2147483647],"right_children":[-1],"split_conditions":[7.3562966E-5],"split_indices":[0],"split_type":[0],"sum_hessian":[5.435338E3],"tree_param":{"num_deleted":"0","num_feature":"104","num_nodes":"1","size_leaf_vector":"0"}},{"base_weights":[1.9800915E-4],"categories":[],"categories_nodes":[],"categories_segments":[],"categories_sizes":[],"default_left":[0],"id":142,"left_children":[-1],"loss_changes":[0E0],"parents":[2147483647],"right_children":[-1],"split_conditions":[5.9402748E-5],"split_indices":[0],"split_type":[0],"sum_hessian":[5.436051E3],"tree_param":{"num_deleted":"0","num_feature":"104","num_nodes":"1","size_leaf_vector":"0"}},{"base_weights":[-4.1414547E-1],"categories":[],"categories_nodes":[],"categories_segments":[],"categories_sizes":[],"default_left":[0],"id":143,"left_children":[-1],"loss_changes":[0E0],"parents":[2147483647],"right_children":[-1],"split_conditions":[-1.2424365E-1],"split_indices":[0],"split_type":[0],"sum_hessian":[4.818291E0],"tree_param":{"num_deleted":"0","num_feature":"104","num_nodes":"1","size_leaf_vector":"0"}},{"base_weights":[2.1605544E-4],"categories":[],"categories_nodes":[],"categories_segments":[],"categories_sizes":[],"default_left":[0],"id":144,"left_children":[-1],"loss_changes":[0E0],"parents":[2147483647],"right_children":[-1],"split_conditions":[6.481664E-5],"split_indices":[0],"split_type":[0],"sum_hessian":[5.435359E3],"tree_param":{"num_deleted":"0","num_feature":"104","num_nodes":"1","size_leaf_vector":"0"}},{"base_weights":[1.7536407E-4],"categories":[],"categories_nodes":[],"categories_segments":[],"categories_sizes":[],"default_left":[0],"id":145,"left_children":[-1],"loss_changes":[0E0],"parents":[2147483647],"right_children":[-1],"split_conditions":[5.2609223E-5],"split_indices":[0],"split_type":[0],"sum_hessian":[5.4359883E3],"tree_param":{"num_deleted":"0","num_feature":"104","num_nodes":"1","size_leaf_vector":"0"}},{"base_weights":[-4.049275E-1],"categories":[],"categories_nodes":[],"categories_segments":[],"categories_sizes":[],"default_left":[0],"id":146,"left_children":[-1],"loss_changes":[0E0],"parents":[2147483647],"right_children":[-1],"split_conditions":[-1.2147825E-1],"split_indices":[0],"split_type":[0],"sum_hessian":[4.2552614E0],"tree_param":{"num_deleted":"0","num_feature":"104","num_nodes":"1","size_leaf_vector":"0"}},{"base_weights":[1.9085585E-4],"categories":[],"categories_nodes":[],"categories_segments":[],"categories_sizes":[],"default_left":[0],"id":147,"left_children":[-1],"loss_changes":[0E0],"parents":[2147483647],"right_children":[-1],"split_conditions":[5.7256755E-5],"split_indices":[0],"split_type":[0],"sum_hessian":[5.4353765E3],"tree_param":{"num_deleted":"0","num_feature":"104","num_nodes":"1","size_leaf_vector":"0"}},{"base_weights":[1.5577165E-4],"categories":[],"categories_nodes":[],"categories_segments":[],"categories_sizes":[],"default_left":[0],"id":148,"left_children":[-1],"loss_changes":[0E0],"parents":[2147483647],"right_children":[-1],"split_conditions":[4.6731497E-5],"split_indices":[0],"split_type":[0],"sum_hessian":[5.4359336E3],"tree_param":{"num_deleted":"0","num_feature":"104","num_nodes":"1","size_leaf_vector":"0"}},{"base_weights":[-3.952045E-1],"categories":[],"categories_nodes":[],"categories_segments":[],"categories_sizes":[],"default_left":[0],"id":149,"left_children":[-1],"loss_changes":[0E0],"parents":[2147483647],"right_children":[-1],"split_conditions":[-1.1856136E-1],"split_indices":[0],"split_type":[0],"sum_hessian":[3.7684357E0],"tree_param":{"num_deleted":"0","num_feature":"104","num_nodes":"1","size_leaf_vector":"0"}},{"base_weights":[1.6908222E-4],"categories":[],"categories_nodes":[],"categories_segments":[],"categories_sizes":[],"default_left":[0],"id":150,"left_children":[-1],"loss_changes":[0E0],"parents":[2147483647],"right_children":[-1],"split_conditions":[5.072467E-5],"split_indices":[0],"split_type":[0],"sum_hessian":[5.4353916E3],"tree_param":{"num_deleted":"0","num_feature":"104","num_nodes":"1","size_leaf_vector":"0"}},{"base_weights":[1.3878645E-4],"categories":[],"categories_nodes":[],"categories_segments":[],"categories_sizes":[],"default_left":[0],"id":151,"left_children":[-1],"loss_changes":[0E0],"parents":[2147483647],"right_children":[-1],"split_conditions":[4.1635936E-5],"split_indices":[0],"split_type":[0],"sum_hessian":[5.4358867E3],"tree_param":{"num_deleted":"0","num_feature":"104","num_nodes":"1","size_leaf_vector":"0"}},{"base_weights":[-3.8503224E-1],"categories":[],"categories_nodes":[],"categories_segments":[],"categories_sizes":[],"default_left":[0],"id":152,"left_children":[-1],"loss_changes":[0E0],"parents":[2147483647],"right_children":[-1],"split_conditions":[-1.15509674E-1],"split_indices":[0],"split_type":[0],"sum_hessian":[3.3470585E0],"tree_param":{"num_deleted":"0","num_feature":"104","num_nodes":"1","size_leaf_vector":"0"}},{"base_weights":[1.5020292E-4],"categories":[],"categories_nodes":[],"categories_segments":[],"categories_sizes":[],"default_left":[0],"id":153,"left_children":[-1],"loss_changes":[0E0],"parents":[2147483647],"right_children":[-1],"split_conditions":[4.506088E-5],"split_indices":[0],"split_type":[0],"sum_hessian":[5.435405E3],"tree_param":{"num_deleted":"0","num_feature":"104","num_nodes":"1","size_leaf_vector":"0"}},{"base_weights":[1.2407015E-4],"categories":[],"categories_nodes":[],"categories_segments":[],"categories_sizes":[],"default_left":[0],"id":154,"left_children":[-1],"loss_changes":[0E0],"parents":[2147483647],"right_children":[-1],"split_conditions":[3.722105E-5],"split_indices":[0],"split_type":[0],"sum_hessian":[5.435846E3],"tree_param":{"num_deleted":"0","num_feature":"104","num_nodes":"1","size_leaf_vector":"0"}},{"base_weights":[-3.7447694E-1],"categories":[],"categories_nodes":[],"categories_segments":[],"categories_sizes":[],"default_left":[0],"id":155,"left_children":[-1],"loss_changes":[0E0],"parents":[2147483647],"right_children":[-1],"split_conditions":[-1.1234309E-1],"split_indices":[0],"split_type":[0],"sum_hessian":[2.9818878E0],"tree_param":{"num_deleted":"0","num_feature":"104","num_nodes":"1","size_leaf_vector":"0"}},{"base_weights":[1.3385215E-4],"categories":[],"categories_nodes":[],"categories_segments":[],"categories_sizes":[],"default_left":[0],"id":156,"left_children":[-1],"loss_changes":[0E0],"parents":[2147483647],"right_children":[-1],"split_conditions":[4.0155646E-5],"split_indices":[0],"split_type":[0],"sum_hessian":[5.4354165E3],"tree_param":{"num_deleted":"0","num_feature":"104","num_nodes":"1","size_leaf_vector":"0"}},{"base_weights":[1.11272224E-4],"categories":[],"categories_nodes":[],"categories_segments":[],"categories_sizes":[],"default_left":[0],"id":157,"left_children":[-1],"loss_changes":[0E0],"parents":[2147483647],"right_children":[-1],"split_conditions":[3.3381668E-5],"split_indices":[0],"split_type":[0],"sum_hessian":[5.4358105E3],"tree_param":{"num_deleted":"0","num_feature":"104","num_nodes":"1","size_leaf_vector":"0"}},{"base_weights":[-3.636133E-1],"categories":[],"categories_nodes":[],"categories_segments":[],"categories_sizes":[],"default_left":[0],"id":158,"left_children":[-1],"loss_changes":[0E0],"parents":[2147483647],"right_children":[-1],"split_conditions":[-1.09083995E-1],"split_indices":[0],"split_type":[0],"sum_hessian":[2.6649854E0],"tree_param":{"num_deleted":"0","num_feature":"104","num_nodes":"1","size_leaf_vector":"0"}},{"base_weights":[1.19661E-4],"categories":[],"categories_nodes":[],"categories_segments":[],"categories_sizes":[],"default_left":[0],"id":159,"left_children":[-1],"loss_changes":[0E0],"parents":[2147483647],"right_children":[-1],"split_conditions":[3.58983E-5],"split_indices":[0],"split_type":[0],"sum_hessian":[5.4354263E3],"tree_param":{"num_deleted":"0","num_feature":"104","num_nodes":"1","size_leaf_vector":"0"}},{"base_weights":[1.00125595E-4],"categories":[],"categories_nodes":[],"categories_segments":[],"categories_sizes":[],"default_left":[0],"id":160,"left_children":[-1],"loss_changes":[0E0],"parents":[2147483647],"right_children":[-1],"split_conditions":[3.003768E-5],"split_indices":[0],"split_type":[0],"sum_hessian":[5.43578E3],"tree_param":{"num_deleted":"0","num_feature":"104","num_nodes":"1","size_leaf_vector":"0"}},{"base_weights":[-3.525217E-1],"categories":[],"categories_nodes":[],"categories_segments":[],"categories_sizes":[],"default_left":[0],"id":161,"left_children":[-1],"loss_changes":[0E0],"parents":[2147483647],"right_children":[-1],"split_conditions":[-1.05756514E-1],"split_indices":[0],"split_type":[0],"sum_hessian":[2.3895395E0],"tree_param":{"num_deleted":"0","num_feature":"104","num_nodes":"1","size_leaf_vector":"0"}},{"base_weights":[1.0733884E-4],"categories":[],"categories_nodes":[],"categories_segments":[],"categories_sizes":[],"default_left":[0],"id":162,"left_children":[-1],"loss_changes":[0E0],"parents":[2147483647],"right_children":[-1],"split_conditions":[3.2201653E-5],"split_indices":[0],"split_type":[0],"sum_hessian":[5.435435E3],"tree_param":{"num_deleted":"0","num_feature":"104","num_nodes":"1","size_leaf_vector":"0"}},{"base_weights":[9.038678E-5],"categories":[],"categories_nodes":[],"categories_segments":[],"categories_sizes":[],"default_left":[0],"id":163,"left_children":[-1],"loss_changes":[0E0],"parents":[2147483647],"right_children":[-1],"split_conditions":[2.7116033E-5],"split_indices":[0],"split_type":[0],"sum_hessian":[5.435753E3],"tree_param":{"num_deleted":"0","num_feature":"104","num_nodes":"1","size_leaf_vector":"0"}},{"base_weights":[-3.4128496E-1],"categories":[],"categories_nodes":[],"categories_segments":[],"categories_sizes":[],"default_left":[0],"id":164,"left_children":[-1],"loss_changes":[0E0],"parents":[2147483647],"right_children":[-1],"split_conditions":[-1.0238549E-1],"split_indices":[0],"split_type":[0],"sum_hessian":[2.1497066E0],"tree_param":{"num_deleted":"0","num_feature":"104","num_nodes":"1","size_leaf_vector":"0"}},{"base_weights":[9.658225E-5],"categories":[],"categories_nodes":[],"categories_segments":[],"categories_sizes":[],"default_left":[0],"id":165,"left_children":[-1],"loss_changes":[0E0],"parents":[2147483647],"right_children":[-1],"split_conditions":[2.8974675E-5],"split_indices":[0],"split_type":[0],"sum_hessian":[5.4354424E3],"tree_param":{"num_deleted":"0","num_feature":"104","num_nodes":"1","size_leaf_vector":"0"}},{"base_weights":[8.189482E-5],"categories":[],"categories_nodes":[],"categories_segments":[],"categories_sizes":[],"default_left":[0],"id":166,"left_children":[-1],"loss_changes":[0E0],"parents":[2147483647],"right_children":[-1],"split_conditions":[2.4568446E-5],"split_indices":[0],"split_type":[0],"sum_hessian":[5.4357295E3],"tree_param":{"num_deleted":"0","num_feature":"104","num_nodes":"1","size_leaf_vector":"0"}},{"base_weights":[-3.2998565E-1],"categories":[],"categories_nodes":[],"categories_segments":[],"categories_sizes":[],"default_left":[0],"id":167,"left_children":[-1],"loss_changes":[0E0],"parents":[2147483647],"right_children":[-1],"split_conditions":[-9.89957E-2],"split_indices":[0],"split_type":[0],"sum_hessian":[1.9404768E0],"tree_param":{"num_deleted":"0","num_feature":"104","num_nodes":"1","size_leaf_vector":"0"}},{"base_weights":[8.7209846E-5],"categories":[],"categories_nodes":[],"categories_segments":[],"categories_sizes":[],"default_left":[0],"id":168,"left_children":[-1],"loss_changes":[0E0],"parents":[2147483647],"right_children":[-1],"split_conditions":[2.6162956E-5],"split_indices":[0],"split_type":[0],"sum_hessian":[5.4354487E3],"tree_param":{"num_deleted":"0","num_feature":"104","num_nodes":"1","size_leaf_vector":"0"}},{"base_weights":[7.444355E-5],"categories":[],"categories_nodes":[],"categories_segments":[],"categories_sizes":[],"default_left":[0],"id":169,"left_children":[-1],"loss_changes":[0E0],"parents":[2147483647],"right_children":[-1],"split_conditions":[2.2333066E-5],"split_indices":[0],"split_type":[0],"sum_hessian":[5.435709E3],"tree_param":{"num_deleted":"0","num_feature":"104","num_nodes":"1","size_leaf_vector":"0"}},{"base_weights":[-3.1870311E-1],"categories":[],"categories_nodes":[],"categories_segments":[],"categories_sizes":[],"default_left":[0],"id":170,"left_children":[-1],"loss_changes":[0E0],"parents":[2147483647],"right_children":[-1],"split_conditions":[-9.561094E-2],"split_indices":[0],"split_type":[0],"sum_hessian":[1.7575601E0],"tree_param":{"num_deleted":"0","num_feature":"104","num_nodes":"1","size_leaf_vector":"0"}},{"base_weights":[7.9012796E-5],"categories":[],"categories_nodes":[],"categories_segments":[],"categories_sizes":[],"default_left":[0],"id":171,"left_children":[-1],"loss_changes":[0E0],"parents":[2147483647],"right_children":[-1],"split_conditions":[2.370384E-5],"split_indices":[0],"split_type":[0],"sum_hessian":[5.4354546E3],"tree_param":{"num_deleted":"0","num_feature":"104","num_nodes":"1","size_leaf_vector":"0"}},{"base_weights":[6.789816E-5],"categories":[],"categories_nodes":[],"categories_segments":[],"categories_sizes":[],"default_left":[0],"id":172,"left_children":[-1],"loss_changes":[0E0],"parents":[2147483647],"right_children":[-1],"split_conditions":[2.0369449E-5],"split_indices":[0],"split_type":[0],"sum_hessian":[5.435691E3],"tree_param":{"num_deleted":"0","num_feature":"104","num_nodes":"1","size_leaf_vector":"0"}},{"base_weights":[-3.075112E-1],"categories":[],"categories_nodes":[],"categories_segments":[],"categories_sizes":[],"default_left":[0],"id":173,"left_children":[-1],"loss_changes":[0E0],"parents":[2147483647],"right_children":[-1],"split_conditions":[-9.2253365E-2],"split_indices":[0],"split_type":[0],"sum_hessian":[1.5972838E0],"tree_param":{"num_deleted":"0","num_feature":"104","num_nodes":"1","size_leaf_vector":"0"}},{"base_weights":[7.182711E-5],"categories":[],"categories_nodes":[],"categories_segments":[],"categories_sizes":[],"default_left":[0],"id":174,"left_children":[-1],"loss_changes":[0E0],"parents":[2147483647],"right_children":[-1],"split_conditions":[2.1548134E-5],"split_indices":[0],"split_type":[0],"sum_hessian":[5.4354595E3],"tree_param":{"num_deleted":"0","num_feature":"104","num_nodes":"1","size_leaf_vector":"0"}},{"base_weights":[6.2134895E-5],"categories":[],"categories_nodes":[],"categories_segments":[],"categories_sizes":[],"default_left":[0],"id":175,"left_children":[-1],"loss_changes":[0E0],"parents":[2147483647],"right_children":[-1],"split_conditions":[1.8640469E-5],"split_indices":[0],"split_type":[0],"sum_hessian":[5.435675E3],"tree_param":{"num_deleted":"0","num_feature":"104","num_nodes":"1","size_leaf_vector":"0"}},{"base_weights":[-2.9647654E-1],"categories":[],"categories_nodes":[],"categories_segments":[],"categories_sizes":[],"default_left":[0],"id":176,"left_children":[-1],"loss_changes":[0E0],"parents":[2147483647],"right_children":[-1],"split_conditions":[-8.894297E-2],"split_indices":[0],"split_type":[0],"sum_hessian":[1.4565068E0],"tree_param":{"num_deleted":"0","num_feature":"104","num_nodes":"1","size_leaf_vector":"0"}},{"base_weights":[6.548608E-5],"categories":[],"categories_nodes":[],"categories_segments":[],"categories_sizes":[],"default_left":[0],"id":177,"left_children":[-1],"loss_changes":[0E0],"parents":[2147483647],"right_children":[-1],"split_conditions":[1.9645824E-5],"split_indices":[0],"split_type":[0],"sum_hessian":[5.435464E3],"tree_param":{"num_deleted":"0","num_feature":"104","num_nodes":"1","size_leaf_vector":"0"}},{"base_weights":[5.7071513E-5],"categories":[],"categories_nodes":[],"categories_segments":[],"categories_sizes":[],"default_left":[0],"id":178,"left_children":[-1],"loss_changes":[0E0],"parents":[2147483647],"right_children":[-1],"split_conditions":[1.7121454E-5],"split_indices":[0],"split_type":[0],"sum_hessian":[5.435661E3],"tree_param":{"num_deleted":"0","num_feature":"104","num_nodes":"1","size_leaf_vector":"0"}},{"base_weights":[-2.8565708E-1],"categories":[],"categories_nodes":[],"categories_segments":[],"categories_sizes":[],"default_left":[0],"id":179,"left_children":[-1],"loss_changes":[0E0],"parents":[2147483647],"right_children":[-1],"split_conditions":[-8.569713E-2],"split_indices":[0],"split_type":[0],"sum_hessian":[1.3325418E0],"tree_param":{"num_deleted":"0","num_feature":"104","num_nodes":"1","size_leaf_vector":"0"}},{"base_weights":[5.9941878E-5],"categories":[],"categories_nodes":[],"categories_segments":[],"categories_sizes":[],"default_left":[0],"id":180,"left_children":[-1],"loss_changes":[0E0],"parents":[2147483647],"right_children":[-1],"split_conditions":[1.7982564E-5],"split_indices":[0],"split_type":[0],"sum_hessian":[5.435468E3],"tree_param":{"num_deleted":"0","num_feature":"104","num_nodes":"1","size_leaf_vector":"0"}},{"base_weights":[5.2551248E-5],"categories":[],"categories_nodes":[],"categories_segments":[],"categories_sizes":[],"default_left":[0],"id":181,"left_children":[-1],"loss_changes":[0E0],"parents":[2147483647],"right_children":[-1],"split_conditions":[1.5765376E-5],"split_indices":[0],"split_type":[0],"sum_hessian":[5.435649E3],"tree_param":{"num_deleted":"0","num_feature":"104","num_nodes":"1","size_leaf_vector":"0"}},{"base_weights":[-2.7510172E-1],"categories":[],"categories_nodes":[],"categories_segments":[],"categories_sizes":[],"default_left":[0],"id":182,"left_children":[-1],"loss_changes":[0E0],"parents":[2147483647],"right_children":[-1],"split_conditions":[-8.253052E-2],"split_indices":[0],"split_type":[0],"sum_hessian":[1.2230916E0],"tree_param":{"num_deleted":"0","num_feature":"104","num_nodes":"1","size_leaf_vector":"0"}},{"base_weights":[5.5014665E-5],"categories":[],"categories_nodes":[],"categories_segments":[],"categories_sizes":[],"default_left":[0],"id":183,"left_children":[-1],"loss_changes":[0E0],"parents":[2147483647],"right_children":[-1],"split_conditions":[1.65044E-5],"split_indices":[0],"split_type":[0],"sum_hessian":[5.435471E3],"tree_param":{"num_deleted":"0","num_feature":"104","num_nodes":"1","size_leaf_vector":"0"}},{"base_weights":[4.8565576E-5],"categories":[],"categories_nodes":[],"categories_segments":[],"categories_sizes":[],"default_left":[0],"id":184,"left_children":[-1],"loss_changes":[0E0],"parents":[2147483647],"right_children":[-1],"split_conditions":[1.4569673E-5],"split_indices":[0],"split_type":[0],"sum_hessian":[5.4356377E3],"tree_param":{"num_deleted":"0","num_feature":"104","num_nodes":"1","size_leaf_vector":"0"}},{"base_weights":[-2.6484996E-1],"categories":[],"categories_nodes":[],"categories_segments":[],"categories_sizes":[],"default_left":[0],"id":185,"left_children":[-1],"loss_changes":[0E0],"parents":[2147483647],"right_children":[-1],"split_conditions":[-7.945499E-2],"split_indices":[0],"split_type":[0],"sum_hessian":[1.126192E0],"tree_param":{"num_deleted":"0","num_feature":"104","num_nodes":"1","size_leaf_vector":"0"}},{"base_weights":[5.067223E-5],"categories":[],"categories_nodes":[],"categories_segments":[],"categories_sizes":[],"default_left":[0],"id":186,"left_children":[-1],"loss_changes":[0E0],"parents":[2147483647],"right_children":[-1],"split_conditions":[1.520167E-5],"split_indices":[0],"split_type":[0],"sum_hessian":[5.435474E3],"tree_param":{"num_deleted":"0","num_feature":"104","num_nodes":"1","size_leaf_vector":"0"}},{"base_weights":[4.4994624E-5],"categories":[],"categories_nodes":[],"categories_segments":[],"categories_sizes":[],"default_left":[0],"id":187,"left_children":[-1],"loss_changes":[0E0],"parents":[2147483647],"right_children":[-1],"split_conditions":[1.34983875E-5],"split_indices":[0],"split_type":[0],"sum_hessian":[5.435628E3],"tree_param":{"num_deleted":"0","num_feature":"104","num_nodes":"1","size_leaf_vector":"0"}},{"base_weights":[-2.5493246E-1],"categories":[],"categories_nodes":[],"categories_segments":[],"categories_sizes":[],"default_left":[0],"id":188,"left_children":[-1],"loss_changes":[0E0],"parents":[2147483647],"right_children":[-1],"split_conditions":[-7.647974E-2],"split_indices":[0],"split_type":[0],"sum_hessian":[1.0401639E0],"tree_param":{"num_deleted":"0","num_feature":"104","num_nodes":"1","size_leaf_vector":"0"}},{"base_weights":[4.6793597E-5],"categories":[],"categories_nodes":[],"categories_segments":[],"categories_sizes":[],"default_left":[0],"id":189,"left_children":[-1],"loss_changes":[0E0],"parents":[2147483647],"right_children":[-1],"split_conditions":[1.403808E-5],"split_indices":[0],"split_type":[0],"sum_hessian":[5.435477E3],"tree_param":{"num_deleted":"0","num_feature":"104","num_nodes":"1","size_leaf_vector":"0"}},{"base_weights":[4.1827996E-5],"categories":[],"categories_nodes":[],"categories_segments":[],"categories_sizes":[],"default_left":[0],"id":190,"left_children":[-1],"loss_changes":[0E0],"parents":[2147483647],"right_children":[-1],"split_conditions":[1.2548399E-5],"split_indices":[0],"split_type":[0],"sum_hessian":[5.435619E3],"tree_param":{"num_deleted":"0","num_feature":"104","num_nodes":"1","size_leaf_vector":"0"}},{"base_weights":[0E0],"categories":[],"categories_nodes":[],"categories_segments":[],"categories_sizes":[],"default_left":[0],"id":191,"left_children":[-1],"loss_changes":[0E0],"parents":[2147483647],"right_children":[-1],"split_conditions":[0E0],"split_indices":[0],"split_type":[0],"sum_hessian":[9.635705E-1],"tree_param":{"num_deleted":"0","num_feature":"104","num_nodes":"1","size_leaf_vector":"0"}},{"base_weights":[4.6026365E-5],"categories":[],"categories_nodes":[],"categories_segments":[],"categories_sizes":[],"default_left":[0],"id":192,"left_children":[-1],"loss_changes":[0E0],"parents":[2147483647],"right_children":[-1],"split_conditions":[1.380791E-5],"split_indices":[0],"split_type":[0],"sum_hessian":[5.435478E3],"tree_param":{"num_deleted":"0","num_feature":"104","num_nodes":"1","size_leaf_vector":"0"}},{"base_weights":[4.2595693E-5],"categories":[],"categories_nodes":[],"categories_segments":[],"categories_sizes":[],"default_left":[0],"id":193,"left_children":[-1],"loss_changes":[0E0],"parents":[2147483647],"right_children":[-1],"split_conditions":[1.2778709E-5],"split_indices":[0],"split_type":[0],"sum_hessian":[5.4356206E3],"tree_param":{"num_deleted":"0","num_feature":"104","num_nodes":"1","size_leaf_vector":"0"}},{"base_weights":[0E0],"categories":[],"categories_nodes":[],"categories_segments":[],"categories_sizes":[],"default_left":[0],"id":194,"left_children":[-1],"loss_changes":[0E0],"parents":[2147483647],"right_children":[-1],"split_conditions":[0E0],"split_indices":[0],"split_type":[0],"sum_hessian":[9.635578E-1],"tree_param":{"num_deleted":"0","num_feature":"104","num_nodes":"1","size_leaf_vector":"0"}},{"base_weights":[4.5491848E-5],"categories":[],"categories_nodes":[],"categories_segments":[],"categories_sizes":[],"default_left":[0],"id":195,"left_children":[-1],"loss_changes":[0E0],"parents":[2147483647],"right_children":[-1],"split_conditions":[1.3647555E-5],"split_indices":[0],"split_type":[0],"sum_hessian":[5.4354785E3],"tree_param":{"num_deleted":"0","num_feature":"104","num_nodes":"1","size_leaf_vector":"0"}},{"base_weights":[4.3128304E-5],"categories":[],"categories_nodes":[],"categories_segments":[],"categories_sizes":[],"default_left":[0],"id":196,"left_children":[-1],"loss_changes":[0E0],"parents":[2147483647],"right_children":[-1],"split_conditions":[1.2938492E-5],"split_indices":[0],"split_type":[0],"sum_hessian":[5.435621E3],"tree_param":{"num_deleted":"0","num_feature":"104","num_nodes":"1","size_leaf_vector":"0"}},{"base_weights":[0E0],"categories":[],"categories_nodes":[],"categories_segments":[],"categories_sizes":[],"default_left":[0],"id":197,"left_children":[-1],"loss_changes":[0E0],"parents":[2147483647],"right_children":[-1],"split_conditions":[0E0],"split_indices":[0],"split_type":[0],"sum_hessian":[9.635451E-1],"tree_param":{"num_deleted":"0","num_feature":"104","num_nodes":"1","size_leaf_vector":"0"}},{"base_weights":[4.517093E-5],"categories":[],"categories_nodes":[],"categories_segments":[],"categories_sizes":[],"default_left":[0],"id":198,"left_children":[-1],"loss_changes":[0E0],"parents":[2147483647],"right_children":[-1],"split_conditions":[1.355128E-5],"split_indices":[0],"split_type":[0],"sum_hessian":[5.435479E3],"tree_param":{"num_deleted":"0","num_feature":"104","num_nodes":"1","size_leaf_vector":"0"}},{"base_weights":[4.3449592E-5],"categories":[],"categories_nodes":[],"categories_segments":[],"categories_sizes":[],"default_left":[0],"id":199,"left_children":[-1],"loss_changes":[0E0],"parents":[2147483647],"right_children":[-1],"split_conditions":[1.3034878E-5],"split_indices":[0],"split_type":[0],"sum_hessian":[5.4356216E3],"tree_param":{"num_deleted":"0","num_feature":"104","num_nodes":"1","size_leaf_vector":"0"}},{"base_weights":[0E0],"categories":[],"categories_nodes":[],"categories_segments":[],"categories_sizes":[],"default_left":[0],"id":200,"left_children":[-1],"loss_changes":[0E0],"parents":[2147483647],"right_children":[-1],"split_conditions":[0E0],"split_indices":[0],"split_type":[0],"sum_hessian":[9.635323E-1],"tree_param":{"num_deleted":"0","num_feature":"104","num_nodes":"1","size_leaf_vector":"0"}},{"base_weights":[4.4893302E-5],"categories":[],