{"learner":{"attributes":{"best_iteration":"499","best_ntree_limit":"500"},"feature_names":[],"feature_types":[],"gradient_booster":{"model":{"gbtree_model_param":{"num_parallel_tree":"1","num_trees":"1500","size_leaf_vector":"0"},"tree_info":[0,1,2,0,1,2,0,1,2,0,1,2,0,1,2,0,1,2,0,1,2,0,1,2,0,1,2,0,1,2,0,1,2,0,1,2,0,1,2,0,1,2,0,1,2,0,1,2,0,1,2,0,1,2,0,1,2,0,1,2,0,1,2,0,1,2,0,1,2,0,1,2,0,1,2,0,1,2,0,1,2,0,1,2,0,1,2,0,1,2,0,1,2,0,1,2,0,1,2,0,1,2,0,1,2,0,1,2,0,1,2,0,1,2,0,1,2,0,1,2,0,1,2,0,1,2,0,1,2,0,1,2,0,1,2,0,1,2,0,1,2,0,1,2,0,1,2,0,1,2,0,1,2,0,1,2,0,1,2,0,1,2,0,1,2,0,1,2,0,1,2,0,1,2,0,1,2,0,1,2,0,1,2,0,1,2,0,1,2,0,1,2,0,1,2,0,1,2,0,1,2,0,1,2,0,1,2,0,1,2,0,1,2,0,1,2,0,1,2,0,1,2,0,1,2,0,1,2,0,1,2,0,1,2,0,1,2,0,1,2,0,1,2,0,1,2,0,1,2,0,1,2,0,1,2,0,1,2,0,1,2,0,1,2,0,1,2,0,1,2,0,1,2,0,1,2,0,1,2,0,1,2,0,1,2,0,1,2,0,1,2,0,1,2,0,1,2,0,1,2,0,1,2,0,1,2,0,1,2,0,1,2,0,1,2,0,1,2,0,1,2,0,1,2,0,1,2,0,1,2,0,1,2,0,1,2,0,1,2,0,1,2,0,1,2,0,1,2,0,1,2,0,1,2,0,1,2,0,1,2,0,1,2,0,1,2,0,1,2,0,1,2,0,1,2,0,1,2,0,1,2,0,1,2,0,1,2,0,1,2,0,1,2,0,1,2,0,1,2,0,1,2,0,1,2,0,1,2,0,1,2,0,1,2,0,1,2,0,1,2,0,1,2,0,1,2,0,1,2,0,1,2,0,1,2,0,1,2,0,1,2,0,1,2,0,1,2,0,1,2,0,1,2,0,1,2,0,1,2,0,1,2,0,1,2,0,1,2,0,1,2,0,1,2,0,1,2,0,1,2,0,1,2,0,1,2,0,1,2,0,1,2,0,1,2,0,1,2,0,1,2,0,1,2,0,1,2,0,1,2,0,1,2,0,1,2,0,1,2,0,1,2,0,1,2,0,1,2,0,1,2,0,1,2,0,1,2,0,1,2,0,1,2,0,1,2,0,1,2,0,1,2,0,1,2,0,1,2,0,1,2,0,1,2,0,1,2,0,1,2,0,1,2,0,1,2,0,1,2,0,1,2,0,1,2,0,1,2,0,1,2,0,1,2,0,1,2,0,1,2,0,1,2,0,1,2,0,1,2,0,1,2,0,1,2,0,1,2,0,1,2,0,1,2,0,1,2,0,1,2,0,1,2,0,1,2,0,1,2,0,1,2,0,1,2,0,1,2,0,1,2,0,1,2,0,1,2,0,1,2,0,1,2,0,1,2,0,1,2,0,1,2,0,1,2,0,1,2,0,1,2,0,1,2,0,1,2,0,1,2,0,1,2,0,1,2,0,1,2,0,1,2,0,1,2,0,1,2,0,1,2,0,1,2,0,1,2,0,1,2,0,1,2,0,1,2,0,1,2,0,1,2,0,1,2,0,1,2,0,1,2,0,1,2,0,1,2,0,1,2,0,1,2,0,1,2,0,1,2,0,1,2,0,1,2,0,1,2,0,1,2,0,1,2,0,1,2,0,1,2,0,1,2,0,1,2,0,1,2,0,1,2,0,1,2,0,1,2,0,1,2,0,1,2,0,1,2,0,1,2,0,1,2,0,1,2,0,1,2,0,1,2,0,1,2,0,1,2,0,1,2,0,1,2,0,1,2,0,1,2,0,1,2,0,1,2,0,1,2,0,1,2,0,1,2,0,1,2,0,1,2,0,1,2,0,1,2,0,1,2,0,1,2,0,1,2,0,1,2,0,1,2,0,1,2,0,1,2,0,1,2,0,1,2,0,1,2,0,1,2,0,1,2,0,1,2,0,1,2,0,1,2,0,1,2,0,1,2,0,1,2,0,1,2,0,1,2,0,1,2,0,1,2,0,1,2,0,1,2,0,1,2,0,1,2,0,1,2,0,1,2,0,1,2,0,1,2,0,1,2,0,1,2,0,1,2,0,1,2,0,1,2,0,1,2,0,1,2,0,1,2,0,1,2,0,1,2,0,1,2,0,1,2,0,1,2,0,1,2,0,1,2,0,1,2,0,1,2,0,1,2,0,1,2,0,1,2,0,1,2,0,1,2,0,1,2,0,1,2,0,1,2,0,1,2,0,1,2,0,1,2,0,1,2,0,1,2,0,1,2,0,1,2,0,1,2,0,1,2,0,1,2,0,1,2,0,1,2,0,1,2,0,1,2,0,1,2,0,1,2,0,1,2,0,1,2,0,1,2,0,1,2,0,1,2,0,1,2,0,1,2,0,1,2,0,1,2,0,1,2,0,1,2,0,1,2,0,1,2,0,1,2,0,1,2,0,1,2,0,1,2,0,1,2,0,1,2,0,1,2,0,1,2,0,1,2,0,1,2,0,1,2,0,1,2,0,1,2,0,1,2,0,1,2,0,1,2,0,1,2,0,1,2,0,1,2,0,1,2,0,1,2,0,1,2,0,1,2,0,1,2,0,1,2,0,1,2,0,1,2,0,1,2,0,1,2,0,1,2,0,1,2,0,1,2,0,1,2,0,1,2,0,1,2,0,1,2,0,1,2,0,1,2,0,1,2,0,1,2,0,1,2,0,1,2,0,1,2,0,1,2,0,1,2,0,1,2,0,1,2,0,1,2,0,1,2,0,1,2,0,1,2,0,1,2,0,1,2,0,1,2,0,1,2,0,1,2,0,1,2,0,1,2,0,1,2,0,1,2,0,1,2,0,1,2,0,1,2,0,1,2,0,1,2,0,1,2,0,1,2,0,1,2,0,1,2,0,1,2,0,1,2,0,1,2,0,1,2,0,1,2,0,1,2,0,1,2,0,1,2,0,1,2,0,1,2,0,1,2,0,1,2,0,1,2,0,1,2,0,1,2,0,1,2,0,1,2,0,1,2,0,1,2,0,1,2,0,1,2,0,1,2,0,1,2,0,1,2,0,1,2,0,1,2,0,1,2,0,1,2,0,1,2,0,1,2,0,1,2,0,1,2,0,1,2,0,1,2,0,1,2,0,1,2,0,1,2,0,1,2,0,1,2,0,1,2,0,1,2,0,1,2,0,1,2,0,1,2,0,1,2,0,1,2,0,1,2,0,1,2,0,1,2,0,1,2,0,1,2,0,1,2,0,1,2,0,1,2,0,1,2,0,1,2,0,1,2,0,1,2],"trees":[{"base_weights":[2.0423146E-1,-3.3403486E-2,4.3413016E-1,1.5032835E-1,-2.2339627E-1,1.2340206E-1,5.7692975E-1,3.541311E-2,1.0237426E-1,-1.1925471E-1,-1.1516317E-1,4.339903E-1,-1.1032383E-2,4.397709E-1,7.5029725E-1,4.75298E-2,-3.1421464E-2,1.6752832E-2,-7.070987E-2,1.5805699E-1,2.1005373E-2,1.982379E-1,9.537767E-2,2.0100057E-1,2.8014028E-1],"categories":[],"categories_nodes":[],"categories_segments":[],"categories_sizes":[],"default_left":[0,0,0,0,0,0,0,0,0,0,0,0,0,0,0,0,0,0,0,0,0,0,0,0,0],"id":0,"left_children":[1,3,5,7,9,11,13,15,-1,17,-1,19,-1,21,23,-1,-1,-1,-1,-1,-1,-1,-1,-1,-1],"loss_changes":[2.9925812E2,9.4086624E1,1.23464966E2,3.0052372E1,2.2098587E1,4.369005E1,4.5021667E1,1.4784769E1,0E0,1.6426466E1,0E0,1.0062038E1,0E0,2.8530746E1,1.1766052E1,0E0,0E0,0E0,0E0,0E0,0E0,0E0,0E0,0E0,0E0],"parents":[2147483647,0,0,1,1,2,2,3,3,4,4,5,5,6,6,7,7,9,9,11,11,13,13,14,14],"right_children":[2,4,6,8,10,12,14,16,-1,18,-1,20,-1,22,24,-1,-1,-1,-1,-1,-1,-1,-1,-1,-1],"split_conditions":[1.5E1,1.3E1,-2E0,5.1E0,2.3E1,-4.8E0,2.4E1,6.45E-1,1.0237426E-1,3.2E0,-1.1516317E-1,2.8E1,-1.1032383E-2,8E0,2.7E1,4.75298E-2,-3.1421464E-2,1.6752832E-2,-7.070987E-2,1.5805699E-1,2.1005373E-2,1.982379E-1,9.537767E-2,2.0100057E-1,2.8014028E-1],"split_indices":[51,80,77,77,80,25,51,3,0,25,0,80,0,103,47,0,0,0,0,0,0,0,0,0,0],"split_type":[0,0,0,0,0,0,0,0,0,0,0,0,0,0,0,0,0,0,0,0,0,0,0,0,0],"sum_hessian":[5.4764443E3,2.6933333E3,2.7831108E3,1.3693333E3,1.3239999E3,8.7688885E2,1.9062222E3,8.555555E2,5.137778E2,8.0399994E2,5.1999994E2,2.9777777E2,5.791111E2,1.0662222E3,8.3999994E2,4.5555554E2,3.9999997E2,3.213333E2,4.8266663E2,2.3688887E2,6.0888885E1,3.773333E2,6.8888885E2,5.8755554E2,2.5244443E2],"tree_param":{"num_deleted":"0","num_feature":"104","num_nodes":"25","size_leaf_vector":"0"}},{"base_weights":[5.456315E-1,7.8312504E-1,3.156004E-1,5.9912425E-1,9.728302E-1,6.2574357E-1,1.7267692E-1,7.137112E-1,1.2218864E-1,8.6832297E-1,3.3973128E-1,9.404983E-2,2.3564452E-1,3.0952626E-1,-1.1891053E-3,1.7697737E-1,2.5586036E-1,2.0754912E-1,2.9524466E-1,2.6167389E-2,1.2929618E-1,2.3617132E-2,-5.6028076E-2],"categories":[],"categories_nodes":[],"categories_segments":[],"categories_sizes":[],"default_left":[0,0,0,0,0,0,0,0,0,0,0,0,0,0,0,0,0,0,0,0,0,0,0],"id":1,"left_children":[1,3,5,7,9,11,13,15,-1,17,-1,-1,-1,19,21,-1,-1,-1,-1,-1,-1,-1,-1],"loss_changes":[2.9899048E2,9.346521E1,1.2330246E2,2.9830688E1,2.1117798E1,4.3540436E1,4.537976E1,1.4251678E1,0E0,1.577533E1,0E0,0E0,0E0,2.877845E1,1.248633E1,0E0,0E0,0E0,0E0,0E0,0E0,0E0,0E0],"parents":[2147483647,0,0,1,1,2,2,3,3,4,4,5,5,6,6,7,7,9,9,13,13,14,14],"right_children":[2,4,6,8,10,12,14,16,-1,18,-1,-1,-1,20,22,-1,-1,-1,-1,-1,-1,-1,-1],"split_conditions":[1.5E1,1.3E1,-2E0,5.1E0,2.3E1,-4.8E0,2.4E1,6.45E-1,1.2218864E-1,3.2E0,3.3973128E-1,9.404983E-2,2.3564452E-1,8E0,2.7E1,1.7697737E-1,2.5586036E-1,2.0754912E-1,2.9524466E-1,2.6167389E-2,1.2929618E-1,2.3617132E-2,-5.6028076E-2],"split_indices":[51,80,77,77,80,25,51,3,0,25,0,0,0,103,47,0,0,0,0,0,0,0,0],"split_type":[0,0,0,0,0,0,0,0,0,0,0,0,0,0,0,0,0,0,0,0,0,0,0],"sum_hessian":[5.4764443E3,2.6933333E3,2.7831108E3,1.3693333E3,1.3239999E3,8.7688885E2,1.9062222E3,8.555555E2,5.137778E2,8.0399994E2,5.1999994E2,2.9777777E2,5.791111E2,1.0662222E3,8.3999994E2,4.5555554E2,3.9999997E2,3.213333E2,4.8266663E2,3.773333E2,6.8888885E2,5.8755554E2,2.5244443E2],"tree_param":{"num_deleted":"0","num_feature":"104","num_nodes":"23","size_leaf_vector":"0"}},{"base_weights":[-7.4986315E-1],"categories":[],"categories_nodes":[],"categories_segments":[],"categories_sizes":[],"default_left":[0],"id":2,"left_children":[-1],"loss_changes":[0E0],"parents":[2147483647],"right_children":[-1],"split_conditions":[-2.2495896E-1],"split_indices":[0],"split_type":[0],"sum_hessian":[5.4764443E3],"tree_param":{"num_deleted":"0","num_feature":"104","num_nodes":"1","size_leaf_vector":"0"}},{"base_weights":[1.6282065E-1,3.704714E-1,1.5412915E-2,8.44315E-2,4.4330528E-1,-2.0908988E-1,1.18543044E-1,4.4804145E-2,-9.4308905E-2,3.583677E-1,1.6940375E-1,-2.62458E-2,-9.926533E-2,-1.508355E-2,2.4648367E-1,6.821961E-2,1.3935028E-1,7.359879E-2,-2.43295E-2,6.397308E-2,1.7698237E-1],"categories":[],"categories_nodes":[],"categories_segments":[],"categories_sizes":[],"default_left":[0,0,0,0,0,0,0,0,0,0,0,0,0,0,0,0,0,0,0,0,0],"id":3,"left_children":[1,3,5,7,9,11,13,-1,-1,15,-1,-1,-1,17,19,-1,-1,-1,-1,-1,-1],"loss_changes":[1.7055698E2,4.8157623E1,7.550102E1,1.223331E1,1.8803955E1,1.5174049E1,3.8203655E1,0E0,0E0,1.5008682E1,0E0,0E0,0E0,1.8824503E1,1.29066925E1,0E0,0E0,0E0,0E0,0E0,0E0],"parents":[2147483647,0,0,1,1,2,2,3,3,4,4,5,5,6,6,9,9,13,13,14,14],"right_children":[2,4,6,8,10,12,14,-1,-1,16,-1,-1,-1,18,20,-1,-1,-1,-1,-1,-1],"split_conditions":[4.72E-1,3.59E-1,-1.4E0,-1E0,2.6E1,2.3E1,9E0,4.4804145E-2,-9.4308905E-2,5.45E-1,1.6940375E-1,-2.62458E-2,-9.926533E-2,4E0,8.2E0,6.821961E-2,1.3935028E-1,7.359879E-2,-2.43295E-2,6.397308E-2,1.7698237E-1],"split_indices":[3,55,77,25,51,1,51,0,0,55,0,0,0,81,77,0,0,0,0,0,0],"split_type":[0,0,0,0,0,0,0,0,0,0,0,0,0,0,0,0,0,0,0,0,0],"sum_hessian":[5.5712466E3,2.3123564E3,3.25889E3,4.697339E2,1.8426226E3,1.0254884E3,2.2334014E3,4.045129E2,6.5220985E1,1.0863477E3,7.5627484E2,5.140057E2,5.1148276E2,1.0928573E3,1.1405442E3,4.876845E2,5.9866315E2,2.2046367E2,8.723936E2,1.0413795E3,9.916467E1],"tree_param":{"num_deleted":"0","num_feature":"104","num_nodes":"21","size_leaf_vector":"0"}},{"base_weights":[3.9855704E-1,1.9358473E-1,5.297198E-1,1.413854E-1,1.15446076E-1,6.1716396E-1,3.3794397E-1,2.0608611E-1,-7.5399973E-3,7.110386E-1,5.276775E-1,6.215358E-2,1.3553603E-1,1.0071183E-1,2.791617E-2,1.82426E-1,2.4339058E-1,1.1871583E-1,1.982583E-1],"categories":[],"categories_nodes":[],"categories_segments":[],"categories_sizes":[],"default_left":[0,0,0,0,0,0,0,0,0,0,0,0,0,0,0,0,0,0,0],"id":4,"left_children":[1,3,5,-1,7,9,11,13,-1,15,17,-1,-1,-1,-1,-1,-1,-1,-1],"loss_changes":[1.5614478E2,4.9188858E1,5.9212708E1,0E0,2.2588844E1,2.0058777E1,1.64589E1,1.5758247E1,0E0,1.1730835E1,2.1693146E1,0E0,0E0,0E0,0E0,0E0,0E0,0E0,0E0],"parents":[2147483647,0,0,1,1,2,2,4,4,5,5,6,6,7,7,9,9,10,10],"right_children":[2,4,6,-1,8,10,12,14,-1,16,18,-1,-1,-1,-1,-1,-1,-1,-1],"split_conditions":[4.72E-1,3.59E-1,3E0,1.413854E-1,2.6E1,-1.4E0,3.1E0,5.45E-1,-7.5399973E-3,2.3E1,6.03E-1,6.215358E-2,1.3553603E-1,1.0071183E-1,2.791617E-2,1.82426E-1,2.4339058E-1,1.1871583E-1,1.982583E-1],"split_indices":[3,55,77,0,51,77,25,55,0,1,3,0,0,0,0,0,0,0,0],"split_type":[0,0,0,0,0,0,0,0,0,0,0,0,0,0,0,0,0,0,0],"sum_hessian":[5.810747E3,2.2683694E3,3.5423777E3,4.970067E2,1.7713627E3,2.4314778E3,1.1109E3,1.0766897E3,6.94673E2,1.1832543E3,1.2482234E3,5.1833496E2,5.9256506E2,5.0062582E2,5.760639E2,5.872852E2,5.9596906E2,6.289911E2,6.192323E2],"tree_param":{"num_deleted":"0","num_feature":"104","num_nodes":"19","size_leaf_vector":"0"}},{"base_weights":[-6.770225E-1],"categories":[],"categories_nodes":[],"categories_segments":[],"categories_sizes":[],"default_left":[0],"id":5,"left_children":[-1],"loss_changes":[0E0],"parents":[2147483647],"right_children":[-1],"split_conditions":[-2.0310676E-1],"split_indices":[0],"split_type":[0],"sum_hessian":[4.7604214E3],"tree_param":{"num_deleted":"0","num_feature":"104","num_nodes":"1","size_leaf_vector":"0"}},{"base_weights":[1.3660975E-1,3.004473E-1,3.796964E-2,3.4144935E-1,1.755797E-2,-1.4665577E-1,1.1762548E-1,1.9285513E-2,3.657102E-1,-1.5179059E-2,-7.725863E-2,-1.5739257E-2,1.9838785E-1,1.4343573E-1,9.171557E-2,2.1497816E-2,-5.8487125E-2,1.0184357E-1,3.9073E-2],"categories":[],"categories_nodes":[],"categories_segments":[],"categories_sizes":[],"default_left":[0,0,0,0,0,0,0,0,0,0,0,0,0,0,0,0,0,0,0],"id":6,"left_children":[1,3,5,7,-1,9,11,-1,13,-1,-1,15,17,-1,-1,-1,-1,-1,-1],"loss_changes":[9.013952E1,2.0772797E1,5.1241554E1,1.2027756E1,0E0,1.1172733E1,2.6217606E1,0E0,1.0965576E1,0E0,0E0,1.4407009E1,1.4530869E1,0E0,0E0,0E0,0E0,0E0,0E0],"parents":[2147483647,0,0,1,1,2,2,3,3,5,5,6,6,8,8,11,11,12,12],"right_children":[2,4,6,8,-1,10,12,-1,14,-1,-1,16,18,-1,-1,-1,-1,-1,-1],"split_conditions":[4.46E-1,2.6E1,-1.4E0,7E0,1.755797E-2,4E1,7E0,1.9285513E-2,-6.2E0,-1.5179059E-2,-7.725863E-2,1.2E1,6E0,1.4343573E-1,9.171557E-2,2.1497816E-2,-5.8487125E-2,1.0184357E-1,3.9073E-2],"split_indices":[3,103,77,52,0,0,27,0,25,0,0,81,81,0,0,0,0,0,0],"split_type":[0,0,0,0,0,0,0,0,0,0,0,0,0,0,0,0,0,0,0],"sum_hessian":[5.5773164E3,2.0952083E3,3.4821084E3,1.7912123E3,3.039959E2,1.0492733E3,2.432835E3,1.4446324E2,1.646749E3,5.629752E2,4.862981E2,9.1789655E2,1.5149385E3,5.7060754E2,1.0761415E3,6.174074E2,3.0048917E2,4.9209412E2,1.02284436E3],"tree_param":{"num_deleted":"0","num_feature":"104","num_nodes":"19","size_leaf_vector":"0"}},{"base_weights":[3.05406E-1,1.3224466E-1,3.860184E-1,-2.1105954E-2,1.9201355E-1,3.2238892E-1,1.6163725E-1,7.62103E-2,1.3692355E-2,4.2838132E-1,2.542412E-1,1.4721213E-1,8.306003E-2,8.499446E-2,-4.1616703E-3],"categories":[],"categories_nodes":[],"categories_segments":[],"categories_sizes":[],"default_left":[0,0,0,0,0,0,0,0,0,0,0,0,0,0,0],"id":7,"left_children":[1,3,5,-1,7,9,-1,-1,-1,11,13,-1,-1,-1,-1],"loss_changes":[8.253723E1,2.2789764E1,3.9065247E1,0E0,1.3176292E1,2.0492798E1,0E0,0E0,0E0,1.039061E1,1.3555397E1,0E0,0E0,0E0,0E0],"parents":[2147483647,0,0,1,1,2,2,4,4,5,5,9,9,10,10],"right_children":[2,4,6,-1,8,10,-1,-1,-1,12,14,-1,-1,-1,-1],"split_conditions":[-1.6E0,8E0,2E1,-2.1105954E-2,2.3E1,7E0,1.6163725E-1,7.62103E-2,1.3692355E-2,1.2E1,7.6E0,1.4721213E-1,8.306003E-2,8.499446E-2,-4.1616703E-3],"split_indices":[25,103,80,0,53,27,0,0,0,60,77,0,0,0,0],"split_type":[0,0,0,0,0,0,0,0,0,0,0,0,0,0,0],"sum_hessian":[5.9155127E3,1.8799283E3,4.0355842E3,4.2821982E2,1.4517086E3,2.851182E3,1.1844022E3,1.0191427E3,4.3256586E2,1.1137083E3,1.7374736E3,7.875214E2,3.2618683E2,1.5674464E3,1.7002722E2],"tree_param":{"num_deleted":"0","num_feature":"104","num_nodes":"15","size_leaf_vector":"0"}},{"base_weights":[-6.316077E-1],"categories":[],"categories_nodes":[],"categories_segments":[],"categories_sizes":[],"default_left":[0],"id":8,"left_children":[-1],"loss_changes":[0E0],"parents":[2147483647],"right_children":[-1],"split_conditions":[-1.8948232E-1],"split_indices":[0],"split_type":[0],"sum_hessian":[4.0663833E3],"tree_param":{"num_deleted":"0","num_feature":"104","num_nodes":"1","size_leaf_vector":"0"}},{"base_weights":[1.1821858E-1,1.3405522E-2,2.079112E-1,6.162316E-2,-3.7521914E-2,1.2233348E-1,9.034097E-2,-4.3095085E-3,-8.480742E-2,6.2570885E-2,7.17805E-3,-9.693592E-2,2.0552332E-2,-1.08316205E-1,-1.4247435E-2],"categories":[],"categories_nodes":[],"categories_segments":[],"categories_sizes":[],"default_left":[0,0,0,0,0,0,0,0,0,0,0,0,0,0,0],"id":9,"left_children":[1,3,5,-1,7,9,-1,11,-1,-1,-1,13,-1,-1,-1],"loss_changes":[5.2156494E1,2.503592E1,2.3815308E1,0E0,1.6478157E1,1.3237642E1,0E0,1.2035269E1,0E0,0E0,0E0,1.0238802E1,0E0,0E0,0E0],"parents":[2147483647,0,0,1,1,2,2,4,4,5,5,7,7,11,11],"right_children":[2,4,6,-1,8,10,-1,12,-1,-1,-1,14,-1,-1,-1],"split_conditions":[1.5E1,4.2E0,6E-1,6.162316E-2,2.7E1,3.95E-1,9.034097E-2,2.75E1,-8.480742E-2,6.2570885E-2,7.17805E-3,3E0,2.0552332E-2,-1.08316205E-1,-1.4247435E-2],"split_indices":[51,73,77,0,103,3,0,61,0,0,0,51,0,0,0],"split_type":[0,0,0,0,0,0,0,0,0,0,0,0,0,0,0],"sum_hessian":[5.547297E3,2.558561E3,2.9887356E3,5.3573114E2,2.02283E3,1.5594895E3,1.4292461E3,1.782392E3,2.4043793E2,8.305442E2,7.289453E2,7.843443E2,9.9804767E2,1.22686455E2,6.6165784E2],"tree_param":{"num_deleted":"0","num_feature":"104","num_nodes":"15","size_leaf_vector":"0"}},{"base_weights":[2.3951943E-1,2.9278895E-1,8.743923E-2,2.4075897E-1,1.269983E-1,5.1964477E-2,-5.8328533E-3,3.161836E-1,1.740942E-1,5.1668365E-2,1.0946548E-1,5.861651E-2,-3.398412E-2],"categories":[],"categories_nodes":[],"categories_segments":[],"categories_sizes":[],"default_left":[0,0,0,0,0,0,0,0,0,0,0,0,0],"id":10,"left_children":[1,3,5,7,-1,-1,-1,9,11,-1,-1,-1,-1],"loss_changes":[4.78703E1,2.9633698E1,1.4076938E1,1.569664E1,0E0,0E0,0E0,1.0232956E1,1.0211777E1,0E0,0E0,0E0,0E0],"parents":[2147483647,0,0,1,1,2,2,3,3,7,7,8,8],"right_children":[2,4,6,8,-1,-1,-1,10,12,-1,-1,-1,-1],"split_conditions":[2.1E1,2E1,5.17E-1,1E1,1.269983E-1,5.1964477E-2,-5.8328533E-3,4.2E0,8.8E0,5.1668365E-2,1.0946548E-1,5.861651E-2,-3.398412E-2],"split_indices":[28,80,55,51,0,0,0,73,77,0,0,0,0],"split_type":[0,0,0,0,0,0,0,0,0,0,0,0,0],"sum_hessian":[5.9111694E3,4.3770747E3,1.5340944E3,3.1316924E3,1.2453826E3,8.507358E2,6.833586E2,1.4675552E3,1.6641371E3,3.721267E2,1.0954285E3,1.5496311E3,1.1450598E2],"tree_param":{"num_deleted":"0","num_feature":"104","num_nodes":"13","size_leaf_vector":"0"}},{"base_weights":[-6.0101074E-1],"categories":[],"categories_nodes":[],"categories_segments":[],"categories_sizes":[],"default_left":[0],"id":11,"left_children":[-1],"loss_changes":[0E0],"parents":[2147483647],"right_children":[-1],"split_conditions":[-1.8030323E-1],"split_indices":[0],"split_type":[0],"sum_hessian":[3.446511E3],"tree_param":{"num_deleted":"0","num_feature":"104","num_nodes":"1","size_leaf_vector":"0"}},{"base_weights":[1.03806674E-1,2.653099E-2,1.688571E-1,6.154705E-2,-4.814312E-2,3.2891273E-2,7.424312E-2,8.163126E-3,6.1991006E-2],"categories":[],"categories_nodes":[],"categories_segments":[],"categories_sizes":[],"default_left":[0,0,0,0,0,0,0,0,0],"id":12,"left_children":[1,3,5,7,-1,-1,-1,-1,-1],"loss_changes":[2.7683357E1,1.650265E1,1.3895607E1,1.0566647E1,0E0,0E0,0E0,0E0,0E0],"parents":[2147483647,0,0,1,1,2,2,3,3],"right_children":[2,4,6,8,-1,-1,-1,-1,-1],"split_conditions":[1.5E1,2.3E1,5.45E-1,6.2E0,-4.814312E-2,3.2891273E-2,7.424312E-2,8.163126E-3,6.1991006E-2],"split_indices":[51,80,55,77,0,0,0,0,0],"split_type":[0,0,0,0,0,0,0,0,0],"sum_hessian":[5.507026E3,2.5176404E3,2.9893855E3,2.121141E3,3.9649918E2,1.7064313E3,1.2829541E3,1.7161807E3,4.049604E2],"tree_param":{"num_deleted":"0","num_feature":"104","num_nodes":"9","size_leaf_vector":"0"}},{"base_weights":[1.9049191E-1,2.3860294E-1,9.470512E-2,8.0125555E-2,2.197076E-2,1.6553167E-2,7.118081E-2],"categories":[],"categories_nodes":[],"categories_segments":[],"categories_sizes":[],"default_left":[0,0,0,0,0,0,0],"id":13,"left_children":[1,3,5,-1,-1,-1,-1],"loss_changes":[2.6968521E1,1.8340393E1,1.10313225E1,0E0,0E0,0E0,0E0],"parents":[2147483647,0,0,1,1,2,2],"right_children":[2,4,6,-1,-1,-1,-1],"split_conditions":[1.9E1,6E0,2.4E1,8.0125555E-2,2.197076E-2,1.6553167E-2,7.118081E-2],"split_indices":[27,77,81,0,0,0,0],"split_type":[0,0,0,0,0,0,0],"sum_hessian":[5.855937E3,3.8970615E3,1.9588755E3,3.3239424E3,5.731191E2,1.5347358E3,4.2413962E2],"tree_param":{"num_deleted":"0","num_feature":"104","num_nodes":"7","size_leaf_vector":"0"}},{"base_weights":[-5.792876E-1],"categories":[],"categories_nodes":[],"categories_segments":[],"categories_sizes":[],"default_left":[0],"id":14,"left_children":[-1],"loss_changes":[0E0],"parents":[2147483647],"right_children":[-1],"split_conditions":[-1.7378628E-1],"split_indices":[0],"split_type":[0],"sum_hessian":[2.9120073E3],"tree_param":{"num_deleted":"0","num_feature":"104","num_nodes":"1","size_leaf_vector":"0"}},{"base_weights":[9.20467E-2,1.1482628E-1,-1.7591529E-2,1.3752703E-1,-4.022256E-2,2.9366618E-1,3.6436655E-2,-6.93927E-2,2.4577234E-2,1.0340218E-1,-8.6510286E-2],"categories":[],"categories_nodes":[],"categories_segments":[],"categories_sizes":[],"default_left":[0,0,0,0,0,0,0,0,0,0,0],"id":15,"left_children":[1,3,-1,5,7,9,-1,-1,-1,-1,-1],"loss_changes":[1.8790512E1,1.6738235E1,0E0,1.0370949E1,1.4208E1,1.15685005E1,0E0,0E0,0E0,0E0,0E0],"parents":[2147483647,0,0,1,1,3,3,4,4,5,5],"right_children":[2,4,-1,6,8,10,-1,-1,-1,-1,-1],"split_conditions":[2.6E1,4.77E-1,-1.7591529E-2,3E0,2.9E1,5E0,3.6436655E-2,-6.93927E-2,2.4577234E-2,1.0340218E-1,-8.6510286E-2],"split_indices":[103,7,0,85,61,73,0,0,0,0,0],"split_type":[0,0,0,0,0,0,0,0,0,0,0],"sum_hessian":[5.4712617E3,4.752976E3,7.1828534E2,4.1460625E3,6.069136E2,3.853183E2,3.7607444E3,2.3632018E2,3.7059338E2,3.5464597E2,3.0672333E1],"tree_param":{"num_deleted":"0","num_feature":"104","num_nodes":"11","size_leaf_vector":"0"}},{"base_weights":[1.5244742E-1,-1.5082977E-3,1.7275341E-1,1.4750338E-1,9.5417194E-2,6.768672E-2,3.455637E-2],"categories":[],"categories_nodes":[],"categories_segments":[],"categories_sizes":[],"default_left":[0,0,0,0,0,0,0],"id":16,"left_children":[1,-1,3,5,-1,-1,-1],"loss_changes":[1.8523026E1,0E0,1.8777573E1,1.101358E1,0E0,0E0,0E0],"parents":[2147483647,0,0,2,2,3,3],"right_children":[2,-1,4,6,-1,-1,-1],"split_conditions":[-6.4E0,-1.5082977E-3,2.6E1,8E0,9.5417194E-2,6.768672E-2,3.455637E-2],"split_indices":[25,0,103,51,0,0,0],"split_type":[0,0,0,0,0,0,0],"sum_hessian":[5.7913574E3,6.6156976E2,5.1297876E3,4.3720537E3,7.5773413E2,1.277605E3,3.0944487E3],"tree_param":{"num_deleted":"0","num_feature":"104","num_nodes":"7","size_leaf_vector":"0"}},{"base_weights":[-5.633155E-1],"categories":[],"categories_nodes":[],"categories_segments":[],"categories_sizes":[],"default_left":[0],"id":17,"left_children":[-1],"loss_changes":[0E0],"parents":[2147483647],"right_children":[-1],"split_conditions":[-1.6899467E-1],"split_indices":[0],"split_type":[0],"sum_hessian":[2.460735E3],"tree_param":{"num_deleted":"0","num_feature":"104","num_nodes":"1","size_leaf_vector":"0"}},{"base_weights":[8.148938E-2,3.567807E-2,1.341822E-1,1.9304443E-2,-2.6936414E-2,6.127084E-2,6.4061105E-2,3.144513E-2,-3.394558E-2],"categories":[],"categories_nodes":[],"categories_segments":[],"categories_sizes":[],"default_left":[0,0,0,0,0,0,0,0,0],"id":18,"left_children":[1,3,5,-1,-1,7,-1,-1,-1],"loss_changes":[1.3139664E1,1.0488488E1,1.46371E1,0E0,0E0,1.00455265E1,0E0,0E0,0E0],"parents":[2147483647,0,0,1,1,2,2,5,5],"right_children":[2,4,6,-1,-1,8,-1,-1,-1],"split_conditions":[1.7E1,4.77E-1,3.37E1,1.9304443E-2,-2.6936414E-2,2.8E1,6.4061105E-2,3.144513E-2,-3.394558E-2],"split_indices":[47,7,67,0,0,1,0,0,0],"split_type":[0,0,0,0,0,0,0,0,0],"sum_hessian":[5.444257E3,2.9131936E3,2.5310632E3,2.3717222E3,5.414715E2,1.3200088E3,1.2110544E3,1.0566143E3,2.6339447E2],"tree_param":{"num_deleted":"0","num_feature":"104","num_nodes":"9","size_leaf_vector":"0"}},{"base_weights":[1.22947335E-1,4.9769897E-2,7.058257E-2,4.2691924E-2,-3.2114235E-3],"categories":[],"categories_nodes":[],"categories_segments":[],"categories_sizes":[],"default_left":[0,0,0,0,0],"id":19,"left_children":[1,-1,3,-1,-1],"loss_changes":[1.287014E1,0E0,1.5058846E1,0E0,0E0],"parents":[2147483647,0,0,2,2],"right_children":[2,-1,4,-1,-1],"split_conditions":[1.7E1,4.9769897E-2,3.37E1,4.2691924E-2,-3.2114235E-3],"split_indices":[47,0,67,0,0],"split_type":[0,0,0,0,0],"sum_hessian":[5.726338E3,3.1447126E3,2.5816252E3,1.3710919E3,1.2105333E3],"tree_param":{"num_deleted":"0","num_feature":"104","num_nodes":"5","size_leaf_vector":"0"}},{"base_weights":[-5.5125636E-1],"categories":[],"categories_nodes":[],"categories_segments":[],"categories_sizes":[],"default_left":[0],"id":20,"left_children":[-1],"loss_changes":[0E0],"parents":[2147483647],"right_children":[-1],"split_conditions":[-1.6537692E-1],"split_indices":[0],"split_type":[0],"sum_hessian":[2.081319E3],"tree_param":{"num_deleted":"0","num_feature":"104","num_nodes":"1","size_leaf_vector":"0"}},{"base_weights":[7.230648E-2],"categories":[],"categories_nodes":[],"categories_segments":[],"categories_sizes":[],"default_left":[0],"id":21,"left_children":[-1],"loss_changes":[0E0],"parents":[2147483647],"right_children":[-1],"split_conditions":[2.1691944E-2],"split_indices":[0],"split_type":[0],"sum_hessian":[5.430884E3],"tree_param":{"num_deleted":"0","num_feature":"104","num_nodes":"1","size_leaf_vector":"0"}},{"base_weights":[9.933489E-2,-1.5940707E-2,3.3475135E-2],"categories":[],"categories_nodes":[],"categories_segments":[],"categories_sizes":[],"default_left":[0,0,0],"id":22,"left_children":[1,-1,-1],"loss_changes":[1.0614098E1,0E0,0E0],"parents":[2147483647,0,0],"right_children":[2,-1,-1],"split_conditions":[3E0,-1.5940707E-2,3.3475135E-2],"split_indices":[85,0,0],"split_type":[0,0,0],"sum_hessian":[5.679117E3,4.2206317E2,5.2570537E3],"tree_param":{"num_deleted":"0","num_feature":"104","num_nodes":"3","size_leaf_vector":"0"}},{"base_weights":[-5.419354E-1],"categories":[],"categories_nodes":[],"categories_segments":[],"categories_sizes":[],"default_left":[0],"id":23,"left_children":[-1],"loss_changes":[0E0],"parents":[2147483647],"right_children":[-1],"split_conditions":[-1.6258062E-1],"split_indices":[0],"split_type":[0],"sum_hessian":[1.7648823E3],"tree_param":{"num_deleted":"0","num_feature":"104","num_nodes":"1","size_leaf_vector":"0"}},{"base_weights":[6.386912E-2],"categories":[],"categories_nodes":[],"categories_segments":[],"categories_sizes":[],"default_left":[0],"id":24,"left_children":[-1],"loss_changes":[0E0],"parents":[2147483647],"right_children":[-1],"split_conditions":[1.9160736E-2],"split_indices":[0],"split_type":[0],"sum_hessian":[5.434835E3],"tree_param":{"num_deleted":"0","num_feature":"104","num_nodes":"1","size_leaf_vector":"0"}},{"base_weights":[8.06137E-2],"categories":[],"categories_nodes":[],"categories_segments":[],"categories_sizes":[],"default_left":[0],"id":25,"left_children":[-1],"loss_changes":[0E0],"parents":[2147483647],"right_children":[-1],"split_conditions":[2.4184112E-2],"split_indices":[0],"split_type":[0],"sum_hessian":[5.649854E3],"tree_param":{"num_deleted":"0","num_feature":"104","num_nodes":"1","size_leaf_vector":"0"}},{"base_weights":[-5.346084E-1],"categories":[],"categories_nodes":[],"categories_segments":[],"categories_sizes":[],"default_left":[0],"id":26,"left_children":[-1],"loss_changes":[0E0],"parents":[2147483647],"right_children":[-1],"split_conditions":[-1.6038254E-1],"split_indices":[0],"split_type":[0],"sum_hessian":[1.5005068E3],"tree_param":{"num_deleted":"0","num_feature":"104","num_nodes":"1","size_leaf_vector":"0"}},{"base_weights":[5.6239273E-2],"categories":[],"categories_nodes":[],"categories_segments":[],"categories_sizes":[],"default_left":[0],"id":27,"left_children":[-1],"loss_changes":[0E0],"parents":[2147483647],"right_children":[-1],"split_conditions":[1.6871782E-2],"split_indices":[0],"split_type":[0],"sum_hessian":[5.441513E3],"tree_param":{"num_deleted":"0","num_feature":"104","num_nodes":"1","size_leaf_vector":"0"}},{"base_weights":[6.577E-2],"categories":[],"categories_nodes":[],"categories_segments":[],"categories_sizes":[],"default_left":[0],"id":28,"left_children":[-1],"loss_changes":[0E0],"parents":[2147483647],"right_children":[-1],"split_conditions":[1.9731E-2],"split_indices":[0],"split_type":[0],"sum_hessian":[5.627025E3],"tree_param":{"num_deleted":"0","num_feature":"104","num_nodes":"1","size_leaf_vector":"0"}},{"base_weights":[-5.287243E-1],"categories":[],"categories_nodes":[],"categories_segments":[],"categories_sizes":[],"default_left":[0],"id":29,"left_children":[-1],"loss_changes":[0E0],"parents":[2147483647],"right_children":[-1],"split_conditions":[-1.586173E-1],"split_indices":[0],"split_type":[0],"sum_hessian":[1.2779995E3],"tree_param":{"num_deleted":"0","num_feature":"104","num_nodes":"1","size_leaf_vector":"0"}},{"base_weights":[4.934286E-2],"categories":[],"categories_nodes":[],"categories_segments":[],"categories_sizes":[],"default_left":[0],"id":30,"left_children":[-1],"loss_changes":[0E0],"parents":[2147483647],"right_children":[-1],"split_conditions":[1.4802858E-2],"split_indices":[0],"split_type":[0],"sum_hessian":[5.4475938E3],"tree_param":{"num_deleted":"0","num_feature":"104","num_nodes":"1","size_leaf_vector":"0"}},{"base_weights":[5.3982247E-2],"categories":[],"categories_nodes":[],"categories_segments":[],"categories_sizes":[],"default_left":[0],"id":31,"left_children":[-1],"loss_changes":[0E0],"parents":[2147483647],"right_children":[-1],"split_conditions":[1.6194675E-2],"split_indices":[0],"split_type":[0],"sum_hessian":[5.606899E3],"tree_param":{"num_deleted":"0","num_feature":"104","num_nodes":"1","size_leaf_vector":"0"}},{"base_weights":[-5.2392966E-1],"categories":[],"categories_nodes":[],"categories_segments":[],"categories_sizes":[],"default_left":[0],"id":32,"left_children":[-1],"loss_changes":[0E0],"parents":[2147483647],"right_children":[-1],"split_conditions":[-1.5717891E-1],"split_indices":[0],"split_type":[0],"sum_hessian":[1.0899407E3],"tree_param":{"num_deleted":"0","num_feature":"104","num_nodes":"1","size_leaf_vector":"0"}},{"base_weights":[4.3147933E-2],"categories":[],"categories_nodes":[],"categories_segments":[],"categories_sizes":[],"default_left":[0],"id":33,"left_children":[-1],"loss_changes":[0E0],"parents":[2147483647],"right_children":[-1],"split_conditions":[1.2944381E-2],"split_indices":[0],"split_type":[0],"sum_hessian":[5.453055E3],"tree_param":{"num_deleted":"0","num_feature":"104","num_nodes":"1","size_leaf_vector":"0"}},{"base_weights":[4.4562787E-2],"categories":[],"categories_nodes":[],"categories_segments":[],"categories_sizes":[],"default_left":[0],"id":34,"left_children":[-1],"loss_changes":[0E0],"parents":[2147483647],"right_children":[-1],"split_conditions":[1.3368837E-2],"split_indices":[0],"split_type":[0],"sum_hessian":[5.589482E3],"tree_param":{"num_deleted":"0","num_feature":"104","num_nodes":"1","size_leaf_vector":"0"}},{"base_weights":[-5.1997966E-1],"categories":[],"categories_nodes":[],"categories_segments":[],"categories_sizes":[],"default_left":[0],"id":35,"left_children":[-1],"loss_changes":[0E0],"parents":[2147483647],"right_children":[-1],"split_conditions":[-1.5599391E-1],"split_indices":[0],"split_type":[0],"sum_hessian":[9.306877E2],"tree_param":{"num_deleted":"0","num_feature":"104","num_nodes":"1","size_leaf_vector":"0"}},{"base_weights":[3.7619326E-2],"categories":[],"categories_nodes":[],"categories_segments":[],"categories_sizes":[],"default_left":[0],"id":36,"left_children":[-1],"loss_changes":[0E0],"parents":[2147483647],"right_children":[-1],"split_conditions":[1.1285799E-2],"split_indices":[0],"split_type":[0],"sum_hessian":[5.4579004E3],"tree_param":{"num_deleted":"0","num_feature":"104","num_nodes":"1","size_leaf_vector":"0"}},{"base_weights":[3.69869E-2],"categories":[],"categories_nodes":[],"categories_segments":[],"categories_sizes":[],"default_left":[0],"id":37,"left_children":[-1],"loss_changes":[0E0],"parents":[2147483647],"right_children":[-1],"split_conditions":[1.109607E-2],"split_indices":[0],"split_type":[0],"sum_hessian":[5.5745645E3],"tree_param":{"num_deleted":"0","num_feature":"104","num_nodes":"1","size_leaf_vector":"0"}},{"base_weights":[-5.1669306E-1],"categories":[],"categories_nodes":[],"categories_segments":[],"categories_sizes":[],"default_left":[0],"id":38,"left_children":[-1],"loss_changes":[0E0],"parents":[2147483647],"right_children":[-1],"split_conditions":[-1.5500793E-1],"split_indices":[0],"split_type":[0],"sum_hessian":[7.955715E2],"tree_param":{"num_deleted":"0","num_feature":"104","num_nodes":"1","size_leaf_vector":"0"}},{"base_weights":[3.2715768E-2],"categories":[],"categories_nodes":[],"categories_segments":[],"categories_sizes":[],"default_left":[0],"id":39,"left_children":[-1],"loss_changes":[0E0],"parents":[2147483647],"right_children":[-1],"split_conditions":[9.814731E-3],"split_indices":[0],"split_type":[0],"sum_hessian":[5.4621553E3],"tree_param":{"num_deleted":"0","num_feature":"104","num_nodes":"1","size_leaf_vector":"0"}},{"base_weights":[3.0853258E-2],"categories":[],"categories_nodes":[],"categories_segments":[],"categories_sizes":[],"default_left":[0],"id":40,"left_children":[-1],"loss_changes":[0E0],"parents":[2147483647],"right_children":[-1],"split_conditions":[9.255978E-3],"split_indices":[0],"split_type":[0],"sum_hessian":[5.561858E3],"tree_param":{"num_deleted":"0","num_feature":"104","num_nodes":"1","size_leaf_vector":"0"}},{"base_weights":[-5.1393276E-1],"categories":[],"categories_nodes":[],"categories_segments":[],"categories_sizes":[],"default_left":[0],"id":41,"left_children":[-1],"loss_changes":[0E0],"parents":[2147483647],"right_children":[-1],"split_conditions":[-1.5417984E-1],"split_indices":[0],"split_type":[0],"sum_hessian":[6.8073047E2],"tree_param":{"num_deleted":"0","num_feature":"104","num_nodes":"1","size_leaf_vector":"0"}},{"base_weights":[2.8390516E-2],"categories":[],"categories_nodes":[],"categories_segments":[],"categories_sizes":[],"default_left":[0],"id":42,"left_children":[-1],"loss_changes":[0E0],"parents":[2147483647],"right_children":[-1],"split_conditions":[8.517155E-3],"split_indices":[0],"split_type":[0],"sum_hessian":[5.465861E3],"tree_param":{"num_deleted":"0","num_feature":"104","num_nodes":"1","size_leaf_vector":"0"}},{"base_weights":[2.5854431E-2],"categories":[],"categories_nodes":[],"categories_segments":[],"categories_sizes":[],"default_left":[0],"id":43,"left_children":[-1],"loss_changes":[0E0],"parents":[2147483647],"right_children":[-1],"split_conditions":[7.7563296E-3],"split_indices":[0],"split_type":[0],"sum_hessian":[5.5510625E3],"tree_param":{"num_deleted":"0","num_feature":"104","num_nodes":"1","size_leaf_vector":"0"}},{"base_weights":[-5.115929E-1],"categories":[],"categories_nodes":[],"categories_segments":[],"categories_sizes":[],"default_left":[0],"id":44,"left_children":[-1],"loss_changes":[0E0],"parents":[2147483647],"right_children":[-1],"split_conditions":[-1.5347788E-1],"split_indices":[0],"split_type":[0],"sum_hessian":[5.8296515E2],"tree_param":{"num_deleted":"0","num_feature":"104","num_nodes":"1","size_leaf_vector":"0"}},{"base_weights":[2.4593554E-2],"categories":[],"categories_nodes":[],"categories_segments":[],"categories_sizes":[],"default_left":[0],"id":45,"left_children":[-1],"loss_changes":[0E0],"parents":[2147483647],"right_children":[-1],"split_conditions":[7.3780664E-3],"split_indices":[0],"split_type":[0],"sum_hessian":[5.469068E3],"tree_param":{"num_deleted":"0","num_feature":"104","num_nodes":"1","size_leaf_vector":"0"}},{"base_weights":[2.1754174E-2],"categories":[],"categories_nodes":[],"categories_segments":[],"categories_sizes":[],"default_left":[0],"id":46,"left_children":[-1],"loss_changes":[0E0],"parents":[2147483647],"right_children":[-1],"split_conditions":[6.5262523E-3],"split_indices":[0],"split_type":[0],"sum_hessian":[5.541898E3],"tree_param":{"num_deleted":"0","num_feature":"104","num_nodes":"1","size_leaf_vector":"0"}},{"base_weights":[-5.095903E-1],"categories":[],"categories_nodes":[],"categories_segments":[],"categories_sizes":[],"default_left":[0],"id":47,"left_children":[-1],"loss_changes":[0E0],"parents":[2147483647],"right_children":[-1],"split_conditions":[-1.528771E-1],"split_indices":[0],"split_type":[0],"sum_hessian":[4.9961694E2],"tree_param":{"num_deleted":"0","num_feature":"104","num_nodes":"1","size_leaf_vector":"0"}},{"base_weights":[2.1273755E-2],"categories":[],"categories_nodes":[],"categories_segments":[],"categories_sizes":[],"default_left":[0],"id":48,"left_children":[-1],"loss_changes":[0E0],"parents":[2147483647],"right_children":[-1],"split_conditions":[6.382127E-3],"split_indices":[0],"split_type":[0],"sum_hessian":[5.47183E3],"tree_param":{"num_deleted":"0","num_feature":"104","num_nodes":"1","size_leaf_vector":"0"}},{"base_weights":[1.8370386E-2],"categories":[],"categories_nodes":[],"categories_segments":[],"categories_sizes":[],"default_left":[0],"id":49,"left_children":[-1],"loss_changes":[0E0],"parents":[2147483647],"right_children":[-1],"split_conditions":[5.5111162E-3],"split_indices":[0],"split_type":[0],"sum_hessian":[5.5341147E3],"tree_param":{"num_deleted":"0","num_feature":"104","num_nodes":"1","size_leaf_vector":"0"}},{"base_weights":[-5.0785846E-1],"categories":[],"categories_nodes":[],"categories_segments":[],"categories_sizes":[],"default_left":[0],"id":50,"left_children":[-1],"loss_changes":[0E0],"parents":[2147483647],"right_children":[-1],"split_conditions":[-1.5235755E-1],"split_indices":[0],"split_type":[0],"sum_hessian":[4.2846976E2],"tree_param":{"num_deleted":"0","num_feature":"104","num_nodes":"1","size_leaf_vector":"0"}},{"base_weights":[1.8380962E-2],"categories":[],"categories_nodes":[],"categories_segments":[],"categories_sizes":[],"default_left":[0],"id":51,"left_children":[-1],"loss_changes":[0E0],"parents":[2147483647],"right_children":[-1],"split_conditions":[5.514289E-3],"split_indices":[0],"split_type":[0],"sum_hessian":[5.474201E3],"tree_param":{"num_deleted":"0","num_feature":"104","num_nodes":"1","size_leaf_vector":"0"}},{"base_weights":[1.5561923E-2],"categories":[],"categories_nodes":[],"categories_segments":[],"categories_sizes":[],"default_left":[0],"id":52,"left_children":[-1],"loss_changes":[0E0],"parents":[2147483647],"right_children":[-1],"split_conditions":[4.668577E-3],"split_indices":[0],"split_type":[0],"sum_hessian":[5.527499E3],"tree_param":{"num_deleted":"0","num_feature":"104","num_nodes":"1","size_leaf_vector":"0"}},{"base_weights":[-5.0634307E-1],"categories":[],"categories_nodes":[],"categories_segments":[],"categories_sizes":[],"default_left":[0],"id":53,"left_children":[-1],"loss_changes":[0E0],"parents":[2147483647],"right_children":[-1],"split_conditions":[-1.5190293E-1],"split_indices":[0],"split_type":[0],"sum_hessian":[3.6767014E2],"tree_param":{"num_deleted":"0","num_feature":"104","num_nodes":"1","size_leaf_vector":"0"}},{"base_weights":[1.5867162E-2],"categories":[],"categories_nodes":[],"categories_segments":[],"categories_sizes":[],"default_left":[0],"id":54,"left_children":[-1],"loss_changes":[0E0],"parents":[2147483647],"right_children":[-1],"split_conditions":[4.760149E-3],"split_indices":[0],"split_type":[0],"sum_hessian":[5.476232E3],"tree_param":{"num_deleted":"0","num_feature":"104","num_nodes":"1","size_leaf_vector":"0"}},{"base_weights":[1.3218921E-2],"categories":[],"categories_nodes":[],"categories_segments":[],"categories_sizes":[],"default_left":[0],"id":55,"left_children":[-1],"loss_changes":[0E0],"parents":[2147483647],"right_children":[-1],"split_conditions":[3.9656763E-3],"split_indices":[0],"split_type":[0],"sum_hessian":[5.521868E3],"tree_param":{"num_deleted":"0","num_feature":"104","num_nodes":"1","size_leaf_vector":"0"}},{"base_weights":[-5.0499916E-1],"categories":[],"categories_nodes":[],"categories_segments":[],"categories_sizes":[],"default_left":[0],"id":56,"left_children":[-1],"loss_changes":[0E0],"parents":[2147483647],"right_children":[-1],"split_conditions":[-1.5149975E-1],"split_indices":[0],"split_type":[0],"sum_hessian":[3.1566284E2],"tree_param":{"num_deleted":"0","num_feature":"104","num_nodes":"1","size_leaf_vector":"0"}},{"base_weights":[1.368762E-2],"categories":[],"categories_nodes":[],"categories_segments":[],"categories_sizes":[],"default_left":[0],"id":57,"left_children":[-1],"loss_changes":[0E0],"parents":[2147483647],"right_children":[-1],"split_conditions":[4.106286E-3],"split_indices":[0],"split_type":[0],"sum_hessian":[5.477968E3],"tree_param":{"num_deleted":"0","num_feature":"104","num_nodes":"1","size_leaf_vector":"0"}},{"base_weights":[1.1255125E-2],"categories":[],"categories_nodes":[],"categories_segments":[],"categories_sizes":[],"default_left":[0],"id":58,"left_children":[-1],"loss_changes":[0E0],"parents":[2147483647],"right_children":[-1],"split_conditions":[3.3765375E-3],"split_indices":[0],"split_type":[0],"sum_hessian":[5.51707E3],"tree_param":{"num_deleted":"0","num_feature":"104","num_nodes":"1","size_leaf_vector":"0"}},{"base_weights":[-5.037889E-1],"categories":[],"categories_nodes":[],"categories_segments":[],"categories_sizes":[],"default_left":[0],"id":59,"left_children":[-1],"loss_changes":[0E0],"parents":[2147483647],"right_children":[-1],"split_conditions":[-1.5113667E-1],"split_indices":[0],"split_type":[0],"sum_hessian":[2.7113898E2],"tree_param":{"num_deleted":"0","num_feature":"104","num_nodes":"1","size_leaf_vector":"0"}},{"base_weights":[1.180126E-2],"categories":[],"categories_nodes":[],"categories_segments":[],"categories_sizes":[],"default_left":[0],"id":60,"left_children":[-1],"loss_changes":[0E0],"parents":[2147483647],"right_children":[-1],"split_conditions":[3.540378E-3],"split_indices":[0],"split_type":[0],"sum_hessian":[5.47945E3],"tree_param":{"num_deleted":"0","num_feature":"104","num_nodes":"1","size_leaf_vector":"0"}},{"base_weights":[9.602463E-3],"categories":[],"categories_nodes":[],"categories_segments":[],"categories_sizes":[],"default_left":[0],"id":61,"left_children":[-1],"loss_changes":[0E0],"parents":[2147483647],"right_children":[-1],"split_conditions":[2.880739E-3],"split_indices":[0],"split_type":[0],"sum_hessian":[5.5129746E3],"tree_param":{"num_deleted":"0","num_feature":"104","num_nodes":"1","size_leaf_vector":"0"}},{"base_weights":[-5.026795E-1],"categories":[],"categories_nodes":[],"categories_segments":[],"categories_sizes":[],"default_left":[0],"id":62,"left_children":[-1],"loss_changes":[0E0],"parents":[2147483647],"right_children":[-1],"split_conditions":[-1.5080386E-1],"split_indices":[0],"split_type":[0],"sum_hessian":[2.3299391E2],"tree_param":{"num_deleted":"0","num_feature":"104","num_nodes":"1","size_leaf_vector":"0"}},{"base_weights":[1.01710325E-2],"categories":[],"categories_nodes":[],"categories_segments":[],"categories_sizes":[],"default_left":[0],"id":63,"left_children":[-1],"loss_changes":[0E0],"parents":[2147483647],"right_children":[-1],"split_conditions":[3.0513098E-3],"split_indices":[0],"split_type":[0],"sum_hessian":[5.480716E3],"tree_param":{"num_deleted":"0","num_feature":"104","num_nodes":"1","size_leaf_vector":"0"}},{"base_weights":[8.206618E-3],"categories":[],"categories_nodes":[],"categories_segments":[],"categories_sizes":[],"default_left":[0],"id":64,"left_children":[-1],"loss_changes":[0E0],"parents":[2147483647],"right_children":[-1],"split_conditions":[2.4619855E-3],"split_indices":[0],"split_type":[0],"sum_hessian":[5.509476E3],"tree_param":{"num_deleted":"0","num_feature":"104","num_nodes":"1","size_leaf_vector":"0"}},{"base_weights":[-5.016422E-1],"categories":[],"categories_nodes":[],"categories_segments":[],"categories_sizes":[],"default_left":[0],"id":65,"left_children":[-1],"loss_changes":[0E0],"parents":[2147483647],"right_children":[-1],"split_conditions":[-1.5049267E-1],"split_indices":[0],"split_type":[0],"sum_hessian":[2.0029309E2],"tree_param":{"num_deleted":"0","num_feature":"104","num_nodes":"1","size_leaf_vector":"0"}},{"base_weights":[8.763833E-3],"categories":[],"categories_nodes":[],"categories_segments":[],"categories_sizes":[],"default_left":[0],"id":66,"left_children":[-1],"loss_changes":[0E0],"parents":[2147483647],"right_children":[-1],"split_conditions":[2.62915E-3],"split_indices":[0],"split_type":[0],"sum_hessian":[5.481796E3],"tree_param":{"num_deleted":"0","num_feature":"104","num_nodes":"1","size_leaf_vector":"0"}},{"base_weights":[7.0240046E-3],"categories":[],"categories_nodes":[],"categories_segments":[],"categories_sizes":[],"default_left":[0],"id":67,"left_children":[-1],"loss_changes":[0E0],"parents":[2147483647],"right_children":[-1],"split_conditions":[2.1072014E-3],"split_indices":[0],"split_type":[0],"sum_hessian":[5.5064834E3],"tree_param":{"num_deleted":"0","num_feature":"104","num_nodes":"1","size_leaf_vector":"0"}},{"base_weights":[-5.006511E-1],"categories":[],"categories_nodes":[],"categories_segments":[],"categories_sizes":[],"default_left":[0],"id":68,"left_children":[-1],"loss_changes":[0E0],"parents":[2147483647],"right_children":[-1],"split_conditions":[-1.5019535E-1],"split_indices":[0],"split_type":[0],"sum_hessian":[1.7224413E2],"tree_param":{"num_deleted":"0","num_feature":"104","num_nodes":"1","size_leaf_vector":"0"}},{"base_weights":[7.5501143E-3],"categories":[],"categories_nodes":[],"categories_segments":[],"categories_sizes":[],"default_left":[0],"id":69,"left_children":[-1],"loss_changes":[0E0],"parents":[2147483647],"right_children":[-1],"split_conditions":[2.2650345E-3],"split_indices":[0],"split_type":[0],"sum_hessian":[5.4827173E3],"tree_param":{"num_deleted":"0","num_feature":"104","num_nodes":"1","size_leaf_vector":"0"}},{"base_weights":[6.019494E-3],"categories":[],"categories_nodes":[],"categories_segments":[],"categories_sizes":[],"default_left":[0],"id":70,"left_children":[-1],"loss_changes":[0E0],"parents":[2147483647],"right_children":[-1],"split_conditions":[1.8058483E-3],"split_indices":[0],"split_type":[0],"sum_hessian":[5.503921E3],"tree_param":{"num_deleted":"0","num_feature":"104","num_nodes":"1","size_leaf_vector":"0"}},{"base_weights":[-4.996822E-1],"categories":[],"categories_nodes":[],"categories_segments":[],"categories_sizes":[],"default_left":[0],"id":71,"left_children":[-1],"loss_changes":[0E0],"parents":[2147483647],"right_children":[-1],"split_conditions":[-1.4990467E-1],"split_indices":[0],"split_type":[0],"sum_hessian":[1.481739E2],"tree_param":{"num_deleted":"0","num_feature":"104","num_nodes":"1","size_leaf_vector":"0"}},{"base_weights":[6.5041203E-3],"categories":[],"categories_nodes":[],"categories_segments":[],"categories_sizes":[],"default_left":[0],"id":72,"left_children":[-1],"loss_changes":[0E0],"parents":[2147483647],"right_children":[-1],"split_conditions":[1.9512362E-3],"split_indices":[0],"split_type":[0],"sum_hessian":[5.483504E3],"tree_param":{"num_deleted":"0","num_feature":"104","num_nodes":"1","size_leaf_vector":"0"}},{"base_weights":[5.16426E-3],"categories":[],"categories_nodes":[],"categories_segments":[],"categories_sizes":[],"default_left":[0],"id":73,"left_children":[-1],"loss_changes":[0E0],"parents":[2147483647],"right_children":[-1],"split_conditions":[1.549278E-3],"split_indices":[0],"split_type":[0],"sum_hessian":[5.5017246E3],"tree_param":{"num_deleted":"0","num_feature":"104","num_nodes":"1","size_leaf_vector":"0"}},{"base_weights":[-4.987128E-1],"categories":[],"categories_nodes":[],"categories_segments":[],"categories_sizes":[],"default_left":[0],"id":74,"left_children":[-1],"loss_changes":[0E0],"parents":[2147483647],"right_children":[-1],"split_conditions":[-1.4961384E-1],"split_indices":[0],"split_type":[0],"sum_hessian":[1.2750957E2],"tree_param":{"num_deleted":"0","num_feature":"104","num_nodes":"1","size_leaf_vector":"0"}},{"base_weights":[5.6030545E-3],"categories":[],"categories_nodes":[],"categories_segments":[],"categories_sizes":[],"default_left":[0],"id":75,"left_children":[-1],"loss_changes":[0E0],"parents":[2147483647],"right_children":[-1],"split_conditions":[1.6809164E-3],"split_indices":[0],"split_type":[0],"sum_hessian":[5.4841763E3],"tree_param":{"num_deleted":"0","num_feature":"104","num_nodes":"1","size_leaf_vector":"0"}},{"base_weights":[4.4348286E-3],"categories":[],"categories_nodes":[],"categories_segments":[],"categories_sizes":[],"default_left":[0],"id":76,"left_children":[-1],"loss_changes":[0E0],"parents":[2147483647],"right_children":[-1],"split_conditions":[1.3304487E-3],"split_indices":[0],"split_type":[0],"sum_hessian":[5.4998413E3],"tree_param":{"num_deleted":"0","num_feature":"104","num_nodes":"1","size_leaf_vector":"0"}},{"base_weights":[-4.97721E-1],"categories":[],"categories_nodes":[],"categories_segments":[],"categories_sizes":[],"default_left":[0],"id":77,"left_children":[-1],"loss_changes":[0E0],"parents":[2147483647],"right_children":[-1],"split_conditions":[-1.493163E-1],"split_indices":[0],"split_type":[0],"sum_hessian":[1.0976293E2],"tree_param":{"num_deleted":"0","num_feature":"104","num_nodes":"1","size_leaf_vector":"0"}},{"base_weights":[4.8271837E-3],"categories":[],"categories_nodes":[],"categories_segments":[],"categories_sizes":[],"default_left":[0],"id":78,"left_children":[-1],"loss_changes":[0E0],"parents":[2147483647],"right_children":[-1],"split_conditions":[1.4481551E-3],"split_indices":[0],"split_type":[0],"sum_hessian":[5.48475E3],"tree_param":{"num_deleted":"0","num_feature":"104","num_nodes":"1","size_leaf_vector":"0"}},{"base_weights":[3.8116795E-3],"categories":[],"categories_nodes":[],"categories_segments":[],"categories_sizes":[],"default_left":[0],"id":79,"left_children":[-1],"loss_changes":[0E0],"parents":[2147483647],"right_children":[-1],"split_conditions":[1.1435039E-3],"split_indices":[0],"split_type":[0],"sum_hessian":[5.4982246E3],"tree_param":{"num_deleted":"0","num_feature":"104","num_nodes":"1","size_leaf_vector":"0"}},{"base_weights":[-4.9668482E-1],"categories":[],"categories_nodes":[],"categories_segments":[],"categories_sizes":[],"default_left":[0],"id":80,"left_children":[-1],"loss_changes":[0E0],"parents":[2147483647],"right_children":[-1],"split_conditions":[-1.4900546E-1],"split_indices":[0],"split_type":[0],"sum_hessian":[9.451736E1],"tree_param":{"num_deleted":"0","num_feature":"104","num_nodes":"1","size_leaf_vector":"0"}},{"base_weights":[4.159281E-3],"categories":[],"categories_nodes":[],"categories_segments":[],"categories_sizes":[],"default_left":[0],"id":81,"left_children":[-1],"loss_changes":[0E0],"parents":[2147483647],"right_children":[-1],"split_conditions":[1.2477844E-3],"split_indices":[0],"split_type":[0],"sum_hessian":[5.4852407E3],"tree_param":{"num_deleted":"0","num_feature":"104","num_nodes":"1","size_leaf_vector":"0"}},{"base_weights":[3.278657E-3],"categories":[],"categories_nodes":[],"categories_segments":[],"categories_sizes":[],"default_left":[0],"id":82,"left_children":[-1],"loss_changes":[0E0],"parents":[2147483647],"right_children":[-1],"split_conditions":[9.835971E-4],"split_indices":[0],"split_type":[0],"sum_hessian":[5.496837E3],"tree_param":{"num_deleted":"0","num_feature":"104","num_nodes":"1","size_leaf_vector":"0"}},{"base_weights":[-4.9558213E-1],"categories":[],"categories_nodes":[],"categories_segments":[],"categories_sizes":[],"default_left":[0],"id":83,"left_children":[-1],"loss_changes":[0E0],"parents":[2147483647],"right_children":[-1],"split_conditions":[-1.4867465E-1],"split_indices":[0],"split_type":[0],"sum_hessian":[8.1416885E1],"tree_param":{"num_deleted":"0","num_feature":"104","num_nodes":"1","size_leaf_vector":"0"}},{"base_weights":[3.5844923E-3],"categories":[],"categories_nodes":[],"categories_segments":[],"categories_sizes":[],"default_left":[0],"id":84,"left_children":[-1],"loss_changes":[0E0],"parents":[2147483647],"right_children":[-1],"split_conditions":[1.0753478E-3],"split_indices":[0],"split_type":[0],"sum_hessian":[5.4856606E3],"tree_param":{"num_deleted":"0","num_feature":"104","num_nodes":"1","size_leaf_vector":"0"}},{"base_weights":[2.8221698E-3],"categories":[],"categories_nodes":[],"categories_segments":[],"categories_sizes":[],"default_left":[0],"id":85,"left_children":[-1],"loss_changes":[0E0],"parents":[2147483647],"right_children":[-1],"split_conditions":[8.46651E-4],"split_indices":[0],"split_type":[0],"sum_hessian":[5.4956445E3],"tree_param":{"num_deleted":"0","num_feature":"104","num_nodes":"1","size_leaf_vector":"0"}},{"base_weights":[-4.9439004E-1],"categories":[],"categories_nodes":[],"categories_segments":[],"categories_sizes":[],"default_left":[0],"id":86,"left_children":[-1],"loss_changes":[0E0],"parents":[2147483647],"right_children":[-1],"split_conditions":[-1.4831702E-1],"split_indices":[0],"split_type":[0],"sum_hessian":[7.015709E1],"tree_param":{"num_deleted":"0","num_feature":"104","num_nodes":"1","size_leaf_vector":"0"}},{"base_weights":[3.0898508E-3],"categories":[],"categories_nodes":[],"categories_segments":[],"categories_sizes":[],"default_left":[0],"id":87,"left_children":[-1],"loss_changes":[0E0],"parents":[2147483647],"right_children":[-1],"split_conditions":[9.2695525E-4],"split_indices":[0],"split_type":[0],"sum_hessian":[5.4860195E3],"tree_param":{"num_deleted":"0","num_feature":"104","num_nodes":"1","size_leaf_vector":"0"}},{"base_weights":[2.430934E-3],"categories":[],"categories_nodes":[],"categories_segments":[],"categories_sizes":[],"default_left":[0],"id":88,"left_children":[-1],"loss_changes":[0E0],"parents":[2147483647],"right_children":[-1],"split_conditions":[7.2928023E-4],"split_indices":[0],"split_type":[0],"sum_hessian":[5.49462E3],"tree_param":{"num_deleted":"0","num_feature":"104","num_nodes":"1","size_leaf_vector":"0"}},{"base_weights":[-4.9308452E-1],"categories":[],"categories_nodes":[],"categories_segments":[],"categories_sizes":[],"default_left":[0],"id":89,"left_children":[-1],"loss_changes":[0E0],"parents":[2147483647],"right_children":[-1],"split_conditions":[-1.4792536E-1],"split_indices":[0],"split_type":[0],"sum_hessian":[6.0477425E1],"tree_param":{"num_deleted":"0","num_feature":"104","num_nodes":"1","size_leaf_vector":"0"}},{"base_weights":[2.6642794E-3],"categories":[],"categories_nodes":[],"categories_segments":[],"categories_sizes":[],"default_left":[0],"id":90,"left_children":[-1],"loss_changes":[0E0],"parents":[2147483647],"right_children":[-1],"split_conditions":[7.9928385E-4],"split_indices":[0],"split_type":[0],"sum_hessian":[5.486327E3],"tree_param":{"num_deleted":"0","num_feature":"104","num_nodes":"1","size_leaf_vector":"0"}},{"base_weights":[2.095309E-3],"categories":[],"categories_nodes":[],"categories_segments":[],"categories_sizes":[],"default_left":[0],"id":91,"left_children":[-1],"loss_changes":[0E0],"parents":[2147483647],"right_children":[-1],"split_conditions":[6.2859274E-4],"split_indices":[0],"split_type":[0],"sum_hessian":[5.4937397E3],"tree_param":{"num_deleted":"0","num_feature":"104","num_nodes":"1","size_leaf_vector":"0"}},{"base_weights":[-4.9164006E-1],"categories":[],"categories_nodes":[],"categories_segments":[],"categories_sizes":[],"default_left":[0],"id":92,"left_children":[-1],"loss_changes":[0E0],"parents":[2147483647],"right_children":[-1],"split_conditions":[-1.4749202E-1],"split_indices":[0],"split_type":[0],"sum_hessian":[5.215465E1],"tree_param":{"num_deleted":"0","num_feature":"104","num_nodes":"1","size_leaf_vector":"0"}},{"base_weights":[2.2981062E-3],"categories":[],"categories_nodes":[],"categories_segments":[],"categories_sizes":[],"default_left":[0],"id":93,"left_children":[-1],"loss_changes":[0E0],"parents":[2147483647],"right_children":[-1],"split_conditions":[6.894319E-4],"split_indices":[0],"split_type":[0],"sum_hessian":[5.4865903E3],"tree_param":{"num_deleted":"0","num_feature":"104","num_nodes":"1","size_leaf_vector":"0"}},{"base_weights":[1.8072573E-3],"categories":[],"categories_nodes":[],"categories_segments":[],"categories_sizes":[],"default_left":[0],"id":94,"left_children":[-1],"loss_changes":[0E0],"parents":[2147483647],"right_children":[-1],"split_conditions":[5.4217724E-4],"split_indices":[0],"split_type":[0],"sum_hessian":[5.4929824E3],"tree_param":{"num_deleted":"0","num_feature":"104","num_nodes":"1","size_leaf_vector":"0"}},{"base_weights":[-4.9002957E-1],"categories":[],"categories_nodes":[],"categories_segments":[],"categories_sizes":[],"default_left":[0],"id":95,"left_children":[-1],"loss_changes":[0E0],"parents":[2147483647],"right_children":[-1],"split_conditions":[-1.4700888E-1],"split_indices":[0],"split_type":[0],"sum_hessian":[4.4997463E1],"tree_param":{"num_deleted":"0","num_feature":"104","num_nodes":"1","size_leaf_vector":"0"}},{"base_weights":[1.9830752E-3],"categories":[],"categories_nodes":[],"categories_segments":[],"categories_sizes":[],"default_left":[0],"id":96,"left_children":[-1],"loss_changes":[0E0],"parents":[2147483647],"right_children":[-1],"split_conditions":[5.949226E-4],"split_indices":[0],"split_type":[0],"sum_hessian":[5.4868164E3],"tree_param":{"num_deleted":"0","num_feature":"104","num_nodes":"1","size_leaf_vector":"0"}},{"base_weights":[1.5598867E-3],"categories":[],"categories_nodes":[],"categories_segments":[],"categories_sizes":[],"default_left":[0],"id":97,"left_children":[-1],"loss_changes":[0E0],"parents":[2147483647],"right_children":[-1],"split_conditions":[4.6796605E-4],"split_indices":[0],"split_type":[0],"sum_hessian":[5.492331E3],"tree_param":{"num_deleted":"0","num_feature":"104","num_nodes":"1","size_leaf_vector":"0"}},{"base_weights":[-4.8822394E-1],"categories":[],"categories_nodes":[],"categories_segments":[],"categories_sizes":[],"default_left":[0],"id":98,"left_children":[-1],"loss_changes":[0E0],"parents":[2147483647],"right_children":[-1],"split_conditions":[-1.464672E-1],"split_indices":[0],"split_type":[0],"sum_hessian":[3.884176E1],"tree_param":{"num_deleted":"0","num_feature":"104","num_nodes":"1","size_leaf_vector":"0"}},{"base_weights":[1.7120481E-3],"categories":[],"categories_nodes":[],"categories_segments":[],"categories_sizes":[],"default_left":[0],"id":99,"left_children":[-1],"loss_changes":[0E0],"parents":[2147483647],"right_children":[-1],"split_conditions":[5.1361445E-4],"split_indices":[0],"split_type":[0],"sum_hessian":[5.48701E3],"tree_param":{"num_deleted":"0","num_feature":"104","num_nodes":"1","size_leaf_vector":"0"}},{"base_weights":[1.3473368E-3],"categories":[],"categories_nodes":[],"categories_segments":[],"categories_sizes":[],"default_left":[0],"id":100,"left_children":[-1],"loss_changes":[0E0],"parents":[2147483647],"right_children":[-1],"split_conditions":[4.0420107E-4],"split_indices":[0],"split_type":[0],"sum_hessian":[5.491771E3],"tree_param":{"num_deleted":"0","num_feature":"104","num_nodes":"1","size_leaf_vector":"0"}},{"base_weights":[-4.8619208E-1],"categories":[],"categories_nodes":[],"categories_segments":[],"categories_sizes":[],"default_left":[0],"id":101,"left_children":[-1],"loss_changes":[0E0],"parents":[2147483647],"right_children":[-1],"split_conditions":[-1.4585763E-1],"split_indices":[0],"split_type":[0],"sum_hessian":[3.354673E1],"tree_param":{"num_deleted":"0","num_feature":"104","num_nodes":"1","size_leaf_vector":"0"}},{"base_weights":[1.4788427E-3],"categories":[],"categories_nodes":[],"categories_segments":[],"categories_sizes":[],"default_left":[0],"id":102,"left_children":[-1],"loss_changes":[0E0],"parents":[2147483647],"right_children":[-1],"split_conditions":[4.4365283E-4],"split_indices":[0],"split_type":[0],"sum_hessian":[5.487176E3],"tree_param":{"num_deleted":"0","num_feature":"104","num_nodes":"1","size_leaf_vector":"0"}},{"base_weights":[1.1646803E-3],"categories":[],"categories_nodes":[],"categories_segments":[],"categories_sizes":[],"default_left":[0],"id":103,"left_children":[-1],"loss_changes":[0E0],"parents":[2147483647],"right_children":[-1],"split_conditions":[3.4940412E-4],"split_indices":[0],"split_type":[0],"sum_hessian":[5.491289E3],"tree_param":{"num_deleted":"0","num_feature":"104","num_nodes":"1","size_leaf_vector":"0"}},{"base_weights":[-4.839007E-1],"categories":[],"categories_nodes":[],"categories_segments":[],"categories_sizes":[],"default_left":[0],"id":104,"left_children":[-1],"loss_changes":[0E0],"parents":[2147483647],"right_children":[-1],"split_conditions":[-1.4517021E-1],"split_indices":[0],"split_type":[0],"sum_hessian":[2.8991507E1],"tree_param":{"num_deleted":"0","num_feature":"104","num_nodes":"1","size_leaf_vector":"0"}},{"base_weights":[1.2781854E-3],"categories":[],"categories_nodes":[],"categories_segments":[],"categories_sizes":[],"default_left":[0],"id":105,"left_children":[-1],"loss_changes":[0E0],"parents":[2147483647],"right_children":[-1],"split_conditions":[3.8345563E-4],"split_indices":[0],"split_type":[0],"sum_hessian":[5.487318E3],"tree_param":{"num_deleted":"0","num_feature":"104","num_nodes":"1","size_leaf_vector":"0"}},{"base_weights":[1.0076454E-3],"categories":[],"categories_nodes":[],"categories_segments":[],"categories_sizes":[],"default_left":[0],"id":106,"left_children":[-1],"loss_changes":[0E0],"parents":[2147483647],"right_children":[-1],"split_conditions":[3.0229363E-4],"split_indices":[0],"split_type":[0],"sum_hessian":[5.4908745E3],"tree_param":{"num_deleted":"0","num_feature":"104","num_nodes":"1","size_leaf_vector":"0"}},{"base_weights":[-4.8131457E-1],"categories":[],"categories_nodes":[],"categories_segments":[],"categories_sizes":[],"default_left":[0],"id":107,"left_children":[-1],"loss_changes":[0E0],"parents":[2147483647],"right_children":[-1],"split_conditions":[-1.4439438E-1],"split_indices":[0],"split_type":[0],"sum_hessian":[2.5072289E1],"tree_param":{"num_deleted":"0","num_feature":"104","num_nodes":"1","size_leaf_vector":"0"}},{"base_weights":[1.1055442E-3],"categories":[],"categories_nodes":[],"categories_segments":[],"categories_sizes":[],"default_left":[0],"id":108,"left_children":[-1],"loss_changes":[0E0],"parents":[2147483647],"right_children":[-1],"split_conditions":[3.3166326E-4],"split_indices":[0],"split_type":[0],"sum_hessian":[5.4874404E3],"tree_param":{"num_deleted":"0","num_feature":"104","num_nodes":"1","size_leaf_vector":"0"}},{"base_weights":[8.725901E-4],"categories":[],"categories_nodes":[],"categories_segments":[],"categories_sizes":[],"default_left":[0],"id":109,"left_children":[-1],"loss_changes":[0E0],"parents":[2147483647],"right_children":[-1],"split_conditions":[2.6177705E-4],"split_indices":[0],"split_type":[0],"sum_hessian":[5.4905176E3],"tree_param":{"num_deleted":"0","num_feature":"104","num_nodes":"1","size_leaf_vector":"0"}},{"base_weights":[-4.7839665E-1],"categories":[],"categories_nodes":[],"categories_segments":[],"categories_sizes":[],"default_left":[0],"id":110,"left_children":[-1],"loss_changes":[0E0],"parents":[2147483647],"right_children":[-1],"split_conditions":[-1.43519E-1],"split_indices":[0],"split_type":[0],"sum_hessian":[2.1699888E1],"tree_param":{"num_deleted":"0","num_feature":"104","num_nodes":"1","size_leaf_vector":"0"}},{"base_weights":[9.5698313E-4],"categories":[],"categories_nodes":[],"categories_segments":[],"categories_sizes":[],"default_left":[0],"id":111,"left_children":[-1],"loss_changes":[0E0],"parents":[2147483647],"right_children":[-1],"split_conditions":[2.8709494E-4],"split_indices":[0],"split_type":[0],"sum_hessian":[5.4875454E3],"tree_param":{"num_deleted":"0","num_feature":"104","num_nodes":"1","size_leaf_vector":"0"}},{"base_weights":[7.564104E-4],"categories":[],"categories_nodes":[],"categories_segments":[],"categories_sizes":[],"default_left":[0],"id":112,"left_children":[-1],"loss_changes":[0E0],"parents":[2147483647],"right_children":[-1],"split_conditions":[2.2692313E-4],"split_indices":[0],"split_type":[0],"sum_hessian":[5.4902104E3],"tree_param":{"num_deleted":"0","num_feature":"104","num_nodes":"1","size_leaf_vector":"0"}},{"base_weights":[-4.7510853E-1],"categories":[],"categories_nodes":[],"categories_segments":[],"categories_sizes":[],"default_left":[0],"id":113,"left_children":[-1],"loss_changes":[0E0],"parents":[2147483647],"right_children":[-1],"split_conditions":[-1.4253257E-1],"split_indices":[0],"split_type":[0],"sum_hessian":[1.879768E1],"tree_param":{"num_deleted":"0","num_feature":"104","num_nodes":"1","size_leaf_vector":"0"}},{"base_weights":[8.29142E-4],"categories":[],"categories_nodes":[],"categories_segments":[],"categories_sizes":[],"default_left":[0],"id":114,"left_children":[-1],"loss_changes":[0E0],"parents":[2147483647],"right_children":[-1],"split_conditions":[2.487426E-4],"split_indices":[0],"split_type":[0],"sum_hessian":[5.4876357E3],"tree_param":{"num_deleted":"0","num_feature":"104","num_nodes":"1","size_leaf_vector":"0"}},{"base_weights":[6.5643084E-4],"categories":[],"categories_nodes":[],"categories_segments":[],"categories_sizes":[],"default_left":[0],"id":115,"left_children":[-1],"loss_changes":[0E0],"parents":[2147483647],"right_children":[-1],"split_conditions":[1.9692926E-4],"split_indices":[0],"split_type":[0],"sum_hessian":[5.489946E3],"tree_param":{"num_deleted":"0","num_feature":"104","num_nodes":"1","size_leaf_vector":"0"}},{"base_weights":[-4.7141108E-1],"categories":[],"categories_nodes":[],"categories_segments":[],"categories_sizes":[],"default_left":[0],"id":116,"left_children":[-1],"loss_changes":[0E0],"parents":[2147483647],"right_children":[-1],"split_conditions":[-1.4142333E-1],"split_indices":[0],"split_type":[0],"sum_hessian":[1.6299791E1],"tree_param":{"num_deleted":"0","num_feature":"104","num_nodes":"1","size_leaf_vector":"0"}},{"base_weights":[7.1907695E-4],"categories":[],"categories_nodes":[],"categories_segments":[],"categories_sizes":[],"default_left":[0],"id":117,"left_children":[-1],"loss_changes":[0E0],"parents":[2147483647],"right_children":[-1],"split_conditions":[2.1572309E-4],"split_indices":[0],"split_type":[0],"sum_hessian":[5.487713E3],"tree_param":{"num_deleted":"0","num_feature":"104","num_nodes":"1","size_leaf_vector":"0"}},{"base_weights":[5.704264E-4],"categories":[],"categories_nodes":[],"categories_segments":[],"categories_sizes":[],"default_left":[0],"id":118,"left_children":[-1],"loss_changes":[0E0],"parents":[2147483647],"right_children":[-1],"split_conditions":[1.7112793E-4],"split_indices":[0],"split_type":[0],"sum_hessian":[5.4897183E3],"tree_param":{"num_deleted":"0","num_feature":"104","num_nodes":"1","size_leaf_vector":"0"}},{"base_weights":[-4.6726525E-1],"categories":[],"categories_nodes":[],"categories_segments":[],"categories_sizes":[],"default_left":[0],"id":119,"left_children":[-1],"loss_changes":[0E0],"parents":[2147483647],"right_children":[-1],"split_conditions":[-1.4017957E-1],"split_indices":[0],"split_type":[0],"sum_hessian":[1.4149586E1],"tree_param":{"num_deleted":"0","num_feature":"104","num_nodes":"1","size_leaf_vector":"0"}},{"base_weights":[6.2435266E-4],"categories":[],"categories_nodes":[],"categories_segments":[],"categories_sizes":[],"default_left":[0],"id":120,"left_children":[-1],"loss_changes":[0E0],"parents":[2147483647],"right_children":[-1],"split_conditions":[1.873058E-4],"split_indices":[0],"split_type":[0],"sum_hessian":[5.48778E3],"tree_param":{"num_deleted":"0","num_feature":"104","num_nodes":"1","size_leaf_vector":"0"}},{"base_weights":[4.963699E-4],"categories":[],"categories_nodes":[],"categories_segments":[],"categories_sizes":[],"default_left":[0],"id":121,"left_children":[-1],"loss_changes":[0E0],"parents":[2147483647],"right_children":[-1],"split_conditions":[1.4891097E-4],"split_indices":[0],"split_type":[0],"sum_hessian":[5.4895225E3],"tree_param":{"num_deleted":"0","num_feature":"104","num_nodes":"1","size_leaf_vector":"0"}},{"base_weights":[-4.6263325E-1],"categories":[],"categories_nodes":[],"categories_segments":[],"categories_sizes":[],"default_left":[0],"id":122,"left_children":[-1],"loss_changes":[0E0],"parents":[2147483647],"right_children":[-1],"split_conditions":[-1.3878998E-1],"split_indices":[0],"split_type":[0],"sum_hessian":[1.2298367E1],"tree_param":{"num_deleted":"0","num_feature":"104","num_nodes":"1","size_leaf_vector":"0"}},{"base_weights":[5.427833E-4],"categories":[],"categories_nodes":[],"categories_segments":[],"categories_sizes":[],"default_left":[0],"id":123,"left_children":[-1],"loss_changes":[0E0],"parents":[2147483647],"right_children":[-1],"split_conditions":[1.62835E-4],"split_indices":[0],"split_type":[0],"sum_hessian":[5.487837E3],"tree_param":{"num_deleted":"0","num_feature":"104","num_nodes":"1","size_leaf_vector":"0"}},{"base_weights":[4.3261185E-4],"categories":[],"categories_nodes":[],"categories_segments":[],"categories_sizes":[],"default_left":[0],"id":124,"left_children":[-1],"loss_changes":[0E0],"parents":[2147483647],"right_children":[-1],"split_conditions":[1.2978356E-4],"split_indices":[0],"split_type":[0],"sum_hessian":[5.4893535E3],"tree_param":{"num_deleted":"0","num_feature":"104","num_nodes":"1","size_leaf_vector":"0"}},{"base_weights":[-4.5748E-1],"categories":[],"categories_nodes":[],"categories_segments":[],"categories_sizes":[],"default_left":[0],"id":125,"left_children":[-1],"loss_changes":[0E0],"parents":[2147483647],"right_children":[-1],"split_conditions":[-1.3724402E-1],"split_indices":[0],"split_type":[0],"sum_hessian":[1.0704251E1],"tree_param":{"num_deleted":"0","num_feature":"104","num_nodes":"1","size_leaf_vector":"0"}},{"base_weights":[4.7255063E-4],"categories":[],"categories_nodes":[],"categories_segments":[],"categories_sizes":[],"default_left":[0],"id":126,"left_children":[-1],"loss_changes":[0E0],"parents":[2147483647],"right_children":[-1],"split_conditions":[1.417652E-4],"split_indices":[0],"split_type":[0],"sum_hessian":[5.487886E3],"tree_param":{"num_deleted":"0","num_feature":"104","num_nodes":"1","size_leaf_vector":"0"}},{"base_weights":[3.7769324E-4],"categories":[],"categories_nodes":[],"categories_segments":[],"categories_sizes":[],"default_left":[0],"id":127,"left_children":[-1],"loss_changes":[0E0],"parents":[2147483647],"right_children":[-1],"split_conditions":[1.1330798E-4],"split_indices":[0],"split_type":[0],"sum_hessian":[5.489208E3],"tree_param":{"num_deleted":"0","num_feature":"104","num_nodes":"1","size_leaf_vector":"0"}},{"base_weights":[-4.5177472E-1],"categories":[],"categories_nodes":[],"categories_segments":[],"categories_sizes":[],"default_left":[0],"id":128,"left_children":[-1],"loss_changes":[0E0],"parents":[2147483647],"right_children":[-1],"split_conditions":[-1.3553242E-1],"split_indices":[0],"split_type":[0],"sum_hessian":[9.331211E0],"tree_param":{"num_deleted":"0","num_feature":"104","num_nodes":"1","size_leaf_vector":"0"}},{"base_weights":[4.1203437E-4],"categories":[],"categories_nodes":[],"categories_segments":[],"categories_sizes":[],"default_left":[0],"id":129,"left_children":[-1],"loss_changes":[0E0],"parents":[2147483647],"right_children":[-1],"split_conditions":[1.2361031E-4],"split_indices":[0],"split_type":[0],"sum_hessian":[5.4879287E3],"tree_param":{"num_deleted":"0","num_feature":"104","num_nodes":"1","size_leaf_vector":"0"}},{"base_weights":[3.3038456E-4],"categories":[],"categories_nodes":[],"categories_segments":[],"categories_sizes":[],"default_left":[0],"id":130,"left_children":[-1],"loss_changes":[0E0],"parents":[2147483647],"right_children":[-1],"split_conditions":[9.911537E-5],"split_indices":[0],"split_type":[0],"sum_hessian":[5.489083E3],"tree_param":{"num_deleted":"0","num_feature":"104","num_nodes":"1","size_leaf_vector":"0"}},{"base_weights":[-4.4549266E-1],"categories":[],"categories_nodes":[],"categories_segments":[],"categories_sizes":[],"default_left":[0],"id":131,"left_children":[-1],"loss_changes":[0E0],"parents":[2147483647],"right_children":[-1],"split_conditions":[-1.336478E-1],"split_indices":[0],"split_type":[0],"sum_hessian":[8.148252E0],"tree_param":{"num_deleted":"0","num_feature":"104","num_nodes":"1","size_leaf_vector":"0"}},{"base_weights":[3.5988278E-4],"categories":[],"categories_nodes":[],"categories_segments":[],"categories_sizes":[],"default_left":[0],"id":132,"left_children":[-1],"loss_changes":[0E0],"parents":[2147483647],"right_children":[-1],"split_conditions":[1.07964835E-4],"split_indices":[0],"split_type":[0],"sum_hessian":[5.4879653E3],"tree_param":{"num_deleted":"0","num_feature":"104","num_nodes":"1","size_leaf_vector":"0"}},{"base_weights":[2.8961606E-4],"categories":[],"categories_nodes":[],"categories_segments":[],"categories_sizes":[],"default_left":[0],"id":133,"left_children":[-1],"loss_changes":[0E0],"parents":[2147483647],"right_children":[-1],"split_conditions":[8.688482E-5],"split_indices":[0],"split_type":[0],"sum_hessian":[5.488975E3],"tree_param":{"num_deleted":"0","num_feature":"104","num_nodes":"1","size_leaf_vector":"0"}},{"base_weights":[-4.3861693E-1],"categories":[],"categories_nodes":[],"categories_segments":[],"categories_sizes":[],"default_left":[0],"id":134,"left_children":[-1],"loss_changes":[0E0],"parents":[2147483647],"right_children":[-1],"split_conditions":[-1.3158509E-1],"split_indices":[0],"split_type":[0],"sum_hessian":[7.1287007E0],"tree_param":{"num_deleted":"0","num_feature":"104","num_nodes":"1","size_leaf_vector":"0"}},{"base_weights":[3.149644E-4],"categories":[],"categories_nodes":[],"categories_segments":[],"categories_sizes":[],"default_left":[0],"id":135,"left_children":[-1],"loss_changes":[0E0],"parents":[2147483647],"right_children":[-1],"split_conditions":[9.448932E-5],"split_indices":[0],"split_type":[0],"sum_hessian":[5.4879966E3],"tree_param":{"num_deleted":"0","num_feature":"104","num_nodes":"1","size_leaf_vector":"0"}},{"base_weights":[2.544258E-4],"categories":[],"categories_nodes":[],"categories_segments":[],"categories_sizes":[],"default_left":[0],"id":136,"left_children":[-1],"loss_changes":[0E0],"parents":[2147483647],"right_children":[-1],"split_conditions":[7.632774E-5],"split_indices":[0],"split_type":[0],"sum_hessian":[5.488882E3],"tree_param":{"num_deleted":"0","num_feature":"104","num_nodes":"1","size_leaf_vector":"0"}},{"base_weights":[-4.3114057E-1],"categories":[],"categories_nodes":[],"categories_segments":[],"categories_sizes":[],"default_left":[0],"id":137,"left_children":[-1],"loss_changes":[0E0],"parents":[2147483647],"right_children":[-1],"split_conditions":[-1.2934218E-1],"split_indices":[0],"split_type":[0],"sum_hessian":[6.2496133E0],"tree_param":{"num_deleted":"0","num_feature":"104","num_nodes":"1","size_leaf_vector":"0"}},{"base_weights":[2.7620787E-4],"categories":[],"categories_nodes":[],"categories_segments":[],"categories_sizes":[],"default_left":[0],"id":138,"left_children":[-1],"loss_changes":[0E0],"parents":[2147483647],"right_children":[-1],"split_conditions":[8.286236E-5],"split_indices":[0],"split_type":[0],"sum_hessian":[5.4880234E3],"tree_param":{"num_deleted":"0","num_feature":"104","num_nodes":"1","size_leaf_vector":"0"}},{"base_weights":[2.2407464E-4],"categories":[],"categories_nodes":[],"categories_segments":[],"categories_sizes":[],"default_left":[0],"id":139,"left_children":[-1],"loss_changes":[0E0],"parents":[2147483647],"right_children":[-1],"split_conditions":[6.72224E-5],"split_indices":[0],"split_type":[0],"sum_hessian":[5.4888013E3],"tree_param":{"num_deleted":"0","num_feature":"104","num_nodes":"1","size_leaf_vector":"0"}},{"base_weights":[-4.2306784E-1],"categories":[],"categories_nodes":[],"categories_segments":[],"categories_sizes":[],"default_left":[0],"id":140,"left_children":[-1],"loss_changes":[0E0],"parents":[2147483647],"right_children":[-1],"split_conditions":[-1.2692036E-1],"split_indices":[0],"split_type":[0],"sum_hessian":[5.491246E0],"tree_param":{"num_deleted":"0","num_feature":"104","num_nodes":"1","size_leaf_vector":"0"}},{"base_weights":[2.4279843E-4],"categories":[],"categories_nodes":[],"categories_segments":[],"categories_sizes":[],"default_left":[0],"id":141,"left_children":[-1],"loss_changes":[0E0],"parents":[2147483647],"right_children":[-1],"split_conditions":[7.283953E-5],"split_indices":[0],"split_type":[0],"sum_hessian":[5.488047E3],"tree_param":{"num_deleted":"0","num_feature":"104","num_nodes":"1","size_leaf_vector":"0"}},{"base_weights":[1.978342E-4],"categories":[],"categories_nodes":[],"categories_segments":[],"categories_sizes":[],"default_left":[0],"id":142,"left_children":[-1],"loss_changes":[0E0],"parents":[2147483647],"right_children":[-1],"split_conditions":[5.9350263E-5],"split_indices":[0],"split_type":[0],"sum_hessian":[5.488732E3],"tree_param":{"num_deleted":"0","num_feature":"104","num_nodes":"1","size_leaf_vector":"0"}},{"base_weights":[-4.144155E-1],"categories":[],"categories_nodes":[],"categories_segments":[],"categories_sizes":[],"default_left":[0],"id":143,"left_children":[-1],"loss_changes":[0E0],"parents":[2147483647],"right_children":[-1],"split_conditions":[-1.2432466E-1],"split_indices":[0],"split_type":[0],"sum_hessian":[4.8366117E0],"tree_param":{"num_deleted":"0","num_feature":"104","num_nodes":"1","size_leaf_vector":"0"}},{"base_weights":[2.1394789E-4],"categories":[],"categories_nodes":[],"categories_segments":[],"categories_sizes":[],"default_left":[0],"id":144,"left_children":[-1],"loss_changes":[0E0],"parents":[2147483647],"right_children":[-1],"split_conditions":[6.418437E-5],"split_indices":[0],"split_type":[0],"sum_hessian":[5.488067E3],"tree_param":{"num_deleted":"0","num_feature":"104","num_nodes":"1","size_leaf_vector":"0"}},{"base_weights":[1.7515625E-4],"categories":[],"categories_nodes":[],"categories_segments":[],"categories_sizes":[],"default_left":[0],"id":145,"left_children":[-1],"loss_changes":[0E0],"parents":[2147483647],"right_children":[-1],"split_conditions":[5.254688E-5],"split_indices":[0],"split_type":[0],"sum_hessian":[5.488672E3],"tree_param":{"num_deleted":"0","num_feature":"104","num_nodes":"1","size_leaf_vector":"0"}},{"base_weights":[-4.0521356E-1],"categories":[],"categories_nodes":[],"categories_segments":[],"categories_sizes":[],"default_left":[0],"id":146,"left_children":[-1],"loss_changes":[0E0],"parents":[2147483647],"right_children":[-1],"split_conditions":[-1.21564075E-1],"split_indices":[0],"split_type":[0],"sum_hessian":[4.271096E0],"tree_param":{"num_deleted":"0","num_feature":"104","num_nodes":"1","size_leaf_vector":"0"}},{"base_weights":[1.8902779E-4],"categories":[],"categories_nodes":[],"categories_segments":[],"categories_sizes":[],"default_left":[0],"id":147,"left_children":[-1],"loss_changes":[0E0],"parents":[2147483647],"right_children":[-1],"split_conditions":[5.670834E-5],"split_indices":[0],"split_type":[0],"sum_hessian":[5.4880845E3],"tree_param":{"num_deleted":"0","num_feature":"104","num_nodes":"1","size_leaf_vector":"0"}},{"base_weights":[1.5552336E-4],"categories":[],"categories_nodes":[],"categories_segments":[],"categories_sizes":[],"default_left":[0],"id":148,"left_children":[-1],"loss_changes":[0E0],"parents":[2147483647],"right_children":[-1],"split_conditions":[4.665701E-5],"split_indices":[0],"split_type":[0],"sum_hessian":[5.48862E3],"tree_param":{"num_deleted":"0","num_feature":"104","num_nodes":"1","size_leaf_vector":"0"}},{"base_weights":[-3.9550513E-1],"categories":[],"categories_nodes":[],"categories_segments":[],"categories_sizes":[],"default_left":[0],"id":149,"left_children":[-1],"loss_changes":[0E0],"parents":[2147483647],"right_children":[-1],"split_conditions":[-1.1865155E-1],"split_indices":[0],"split_type":[0],"sum_hessian":[3.782136E0],"tree_param":{"num_deleted":"0","num_feature":"104","num_nodes":"1","size_leaf_vector":"0"}},{"base_weights":[1.6743233E-4],"categories":[],"categories_nodes":[],"categories_segments":[],"categories_sizes":[],"default_left":[0],"id":150,"left_children":[-1],"loss_changes":[0E0],"parents":[2147483647],"right_children":[-1],"split_conditions":[5.02297E-5],"split_indices":[0],"split_type":[0],"sum_hessian":[5.4880996E3],"tree_param":{"num_deleted":"0","num_feature":"104","num_nodes":"1","size_leaf_vector":"0"}},{"base_weights":[1.385595E-4],"categories":[],"categories_nodes":[],"categories_segments":[],"categories_sizes":[],"default_left":[0],"id":151,"left_children":[-1],"loss_changes":[0E0],"parents":[2147483647],"right_children":[-1],"split_conditions":[4.156785E-5],"split_indices":[0],"split_type":[0],"sum_hessian":[5.488575E3],"tree_param":{"num_deleted":"0","num_feature":"104","num_nodes":"1","size_leaf_vector":"0"}},{"base_weights":[-3.8534555E-1],"categories":[],"categories_nodes":[],"categories_segments":[],"categories_sizes":[],"default_left":[0],"id":152,"left_children":[-1],"loss_changes":[0E0],"parents":[2147483647],"right_children":[-1],"split_conditions":[-1.1560367E-1],"split_indices":[0],"split_type":[0],"sum_hessian":[3.3589253E0],"tree_param":{"num_deleted":"0","num_feature":"104","num_nodes":"1","size_leaf_vector":"0"}},{"base_weights":[1.4877845E-4],"categories":[],"categories_nodes":[],"categories_segments":[],"categories_sizes":[],"default_left":[0],"id":153,"left_children":[-1],"loss_changes":[0E0],"parents":[2147483647],"right_children":[-1],"split_conditions":[4.4633536E-5],"split_indices":[0],"split_type":[0],"sum_hessian":[5.4881123E3],"tree_param":{"num_deleted":"0","num_feature":"104","num_nodes":"1","size_leaf_vector":"0"}},{"base_weights":[1.2379943E-4],"categories":[],"categories_nodes":[],"categories_segments":[],"categories_sizes":[],"default_left":[0],"id":154,"left_children":[-1],"loss_changes":[0E0],"parents":[2147483647],"right_children":[-1],"split_conditions":[3.713983E-5],"split_indices":[0],"split_type":[0],"sum_hessian":[5.488536E3],"tree_param":{"num_deleted":"0","num_feature":"104","num_nodes":"1","size_leaf_vector":"0"}},{"base_weights":[-3.7480083E-1],"categories":[],"categories_nodes":[],"categories_segments":[],"categories_sizes":[],"default_left":[0],"id":155,"left_children":[-1],"loss_changes":[0E0],"parents":[2147483647],"right_children":[-1],"split_conditions":[-1.1244025E-1],"split_indices":[0],"split_type":[0],"sum_hessian":[2.99218E0],"tree_param":{"num_deleted":"0","num_feature":"104","num_nodes":"1","size_leaf_vector":"0"}},{"base_weights":[1.326158E-4],"categories":[],"categories_nodes":[],"categories_segments":[],"categories_sizes":[],"default_left":[0],"id":156,"left_children":[-1],"loss_changes":[0E0],"parents":[2147483647],"right_children":[-1],"split_conditions":[3.978474E-5],"split_indices":[0],"split_type":[0],"sum_hessian":[5.4881235E3],"tree_param":{"num_deleted":"0","num_feature":"104","num_nodes":"1","size_leaf_vector":"0"}},{"base_weights":[1.1097189E-4],"categories":[],"categories_nodes":[],"categories_segments":[],"categories_sizes":[],"default_left":[0],"id":157,"left_children":[-1],"loss_changes":[0E0],"parents":[2147483647],"right_children":[-1],"split_conditions":[3.3291566E-5],"split_indices":[0],"split_type":[0],"sum_hessian":[5.4885024E3],"tree_param":{"num_deleted":"0","num_feature":"104","num_nodes":"1","size_leaf_vector":"0"}},{"base_weights":[-3.6394542E-1],"categories":[],"categories_nodes":[],"categories_segments":[],"categories_sizes":[],"default_left":[0],"id":158,"left_children":[-1],"loss_changes":[0E0],"parents":[2147483647],"right_children":[-1],"split_conditions":[-1.0918363E-1],"split_indices":[0],"split_type":[0],"sum_hessian":[2.6739256E0],"tree_param":{"num_deleted":"0","num_feature":"104","num_nodes":"1","size_leaf_vector":"0"}},{"base_weights":[1.1854315E-4],"categories":[],"categories_nodes":[],"categories_segments":[],"categories_sizes":[],"default_left":[0],"id":159,"left_children":[-1],"loss_changes":[0E0],"parents":[2147483647],"right_children":[-1],"split_conditions":[3.5562945E-5],"split_indices":[0],"split_type":[0],"sum_hessian":[5.4881333E3],"tree_param":{"num_deleted":"0","num_feature":"104","num_nodes":"1","size_leaf_vector":"0"}},{"base_weights":[9.983836E-5],"categories":[],"categories_nodes":[],"categories_segments":[],"categories_sizes":[],"default_left":[0],"id":160,"left_children":[-1],"loss_changes":[0E0],"parents":[2147483647],"right_children":[-1],"split_conditions":[2.995151E-5],"split_indices":[0],"split_type":[0],"sum_hessian":[5.488473E3],"tree_param":{"num_deleted":"0","num_feature":"104","num_nodes":"1","size_leaf_vector":"0"}},{"base_weights":[-3.5285953E-1],"categories":[],"categories_nodes":[],"categories_segments":[],"categories_sizes":[],"default_left":[0],"id":161,"left_children":[-1],"loss_changes":[0E0],"parents":[2147483647],"right_children":[-1],"split_conditions":[-1.05857864E-1],"split_indices":[0],"split_type":[0],"sum_hessian":[2.3973174E0],"tree_param":{"num_deleted":"0","num_feature":"104","num_nodes":"1","size_leaf_vector":"0"}},{"base_weights":[1.0631879E-4],"categories":[],"categories_nodes":[],"categories_segments":[],"categories_sizes":[],"default_left":[0],"id":162,"left_children":[-1],"loss_changes":[0E0],"parents":[2147483647],"right_children":[-1],"split_conditions":[3.1895637E-5],"split_indices":[0],"split_type":[0],"sum_hessian":[5.488142E3],"tree_param":{"num_deleted":"0","num_feature":"104","num_nodes":"1","size_leaf_vector":"0"}},{"base_weights":[9.012542E-5],"categories":[],"categories_nodes":[],"categories_segments":[],"categories_sizes":[],"default_left":[0],"id":163,"left_children":[-1],"loss_changes":[0E0],"parents":[2147483647],"right_children":[-1],"split_conditions":[2.7037626E-5],"split_indices":[0],"split_type":[0],"sum_hessian":[5.4884473E3],"tree_param":{"num_deleted":"0","num_feature":"104","num_nodes":"1","size_leaf_vector":"0"}},{"base_weights":[-3.41626E-1],"categories":[],"categories_nodes":[],"categories_segments":[],"categories_sizes":[],"default_left":[0],"id":164,"left_children":[-1],"loss_changes":[0E0],"parents":[2147483647],"right_children":[-1],"split_conditions":[-1.024878E-1],"split_indices":[0],"split_type":[0],"sum_hessian":[2.1564856E0],"tree_param":{"num_deleted":"0","num_feature":"104","num_nodes":"1","size_leaf_vector":"0"}},{"base_weights":[9.567516E-5],"categories":[],"categories_nodes":[],"categories_segments":[],"categories_sizes":[],"default_left":[0],"id":165,"left_children":[-1],"loss_changes":[0E0],"parents":[2147483647],"right_children":[-1],"split_conditions":[2.8702549E-5],"split_indices":[0],"split_type":[0],"sum_hessian":[5.4881494E3],"tree_param":{"num_deleted":"0","num_feature":"104","num_nodes":"1","size_leaf_vector":"0"}},{"base_weights":[8.162817E-5],"categories":[],"categories_nodes":[],"categories_segments":[],"categories_sizes":[],"default_left":[0],"id":166,"left_children":[-1],"loss_changes":[0E0],"parents":[2147483647],"right_children":[-1],"split_conditions":[2.4488452E-5],"split_indices":[0],"split_type":[0],"sum_hessian":[5.488425E3],"tree_param":{"num_deleted":"0","num_feature":"104","num_nodes":"1","size_leaf_vector":"0"}},{"base_weights":[-3.3032742E-1],"categories":[],"categories_nodes":[],"categories_segments":[],"categories_sizes":[],"default_left":[0],"id":167,"left_children":[-1],"loss_changes":[0E0],"parents":[2147483647],"right_children":[-1],"split_conditions":[-9.909823E-2],"split_indices":[0],"split_type":[0],"sum_hessian":[1.9463974E0],"tree_param":{"num_deleted":"0","num_feature":"104","num_nodes":"1","size_leaf_vector":"0"}},{"base_weights":[8.635931E-5],"categories":[],"categories_nodes":[],"categories_segments":[],"categories_sizes":[],"default_left":[0],"id":168,"left_children":[-1],"loss_changes":[0E0],"parents":[2147483647],"right_children":[-1],"split_conditions":[2.5907793E-5],"split_indices":[0],"split_type":[0],"sum_hessian":[5.488156E3],"tree_param":{"num_deleted":"0","num_feature":"104","num_nodes":"1","size_leaf_vector":"0"}},{"base_weights":[7.421604E-5],"categories":[],"categories_nodes":[],"categories_segments":[],"categories_sizes":[],"default_left":[0],"id":169,"left_children":[-1],"loss_changes":[0E0],"parents":[2147483647],"right_children":[-1],"split_conditions":[2.2264812E-5],"split_indices":[0],"split_type":[0],"sum_hessian":[5.4884053E3],"tree_param":{"num_deleted":"0","num_feature":"104","num_nodes":"1","size_leaf_vector":"0"}},{"base_weights":[-3.190433E-1],"categories":[],"categories_nodes":[],"categories_segments":[],"categories_sizes":[],"default_left":[0],"id":170,"left_children":[-1],"loss_changes":[0E0],"parents":[2147483647],"right_children":[-1],"split_conditions":[-9.5713E-2],"split_indices":[0],"split_type":[0],"sum_hessian":[1.7627423E0],"tree_param":{"num_deleted":"0","num_feature":"104","num_nodes":"1","size_leaf_vector":"0"}},{"base_weights":[7.8259036E-5],"categories":[],"categories_nodes":[],"categories_segments":[],"categories_sizes":[],"default_left":[0],"id":171,"left_children":[-1],"loss_changes":[0E0],"parents":[2147483647],"right_children":[-1],"split_conditions":[2.3477713E-5],"split_indices":[0],"split_type":[0],"sum_hessian":[5.4881616E3],"tree_param":{"num_deleted":"0","num_feature":"104","num_nodes":"1","size_leaf_vector":"0"}},{"base_weights":[6.765658E-5],"categories":[],"categories_nodes":[],"categories_segments":[],"categories_sizes":[],"default_left":[0],"id":172,"left_children":[-1],"loss_changes":[0E0],"parents":[2147483647],"right_children":[-1],"split_conditions":[2.0296975E-5],"split_indices":[0],"split_type":[0],"sum_hessian":[5.488388E3],"tree_param":{"num_deleted":"0","num_feature":"104","num_nodes":"1","size_leaf_vector":"0"}},{"base_weights":[-3.0784768E-1],"categories":[],"categories_nodes":[],"categories_segments":[],"categories_sizes":[],"default_left":[0],"id":173,"left_children":[-1],"loss_changes":[0E0],"parents":[2147483647],"right_children":[-1],"split_conditions":[-9.2354305E-2],"split_indices":[0],"split_type":[0],"sum_hessian":[1.6018301E0],"tree_param":{"num_deleted":"0","num_feature":"104","num_nodes":"1","size_leaf_vector":"0"}},{"base_weights":[7.113381E-5],"categories":[],"categories_nodes":[],"categories_segments":[],"categories_sizes":[],"default_left":[0],"id":174,"left_children":[-1],"loss_changes":[0E0],"parents":[2147483647],"right_children":[-1],"split_conditions":[2.1340144E-5],"split_indices":[0],"split_type":[0],"sum_hessian":[5.4881665E3],"tree_param":{"num_deleted":"0","num_feature":"104","num_nodes":"1","size_leaf_vector":"0"}},{"base_weights":[6.1904204E-5],"categories":[],"categories_nodes":[],"categories_segments":[],"categories_sizes":[],"default_left":[0],"id":175,"left_children":[-1],"loss_changes":[0E0],"parents":[2147483647],"right_children":[-1],"split_conditions":[1.8571262E-5],"split_indices":[0],"split_type":[0],"sum_hessian":[5.488373E3],"tree_param":{"num_deleted":"0","num_feature":"104","num_nodes":"1","size_leaf_vector":"0"}},{"base_weights":[-2.9680735E-1],"categories":[],"categories_nodes":[],"categories_segments":[],"categories_sizes":[],"default_left":[0],"id":176,"left_children":[-1],"loss_changes":[0E0],"parents":[2147483647],"right_children":[-1],"split_conditions":[-8.904221E-2],"split_indices":[0],"split_type":[0],"sum_hessian":[1.4605051E0],"tree_param":{"num_deleted":"0","num_feature":"104","num_nodes":"1","size_leaf_vector":"0"}},{"base_weights":[6.490032E-5],"categories":[],"categories_nodes":[],"categories_segments":[],"categories_sizes":[],"default_left":[0],"id":177,"left_children":[-1],"loss_changes":[0E0],"parents":[2147483647],"right_children":[-1],"split_conditions":[1.9470097E-5],"split_indices":[0],"split_type":[0],"sum_hessian":[5.4881704E3],"tree_param":{"num_deleted":"0","num_feature":"104","num_nodes":"1","size_leaf_vector":"0"}},{"base_weights":[5.6803805E-5],"categories":[],"categories_nodes":[],"categories_segments":[],"categories_sizes":[],"default_left":[0],"id":178,"left_children":[-1],"loss_changes":[0E0],"parents":[2147483647],"right_children":[-1],"split_conditions":[1.7041142E-5],"split_indices":[0],"split_type":[0],"sum_hessian":[5.48836E3],"tree_param":{"num_deleted":"0","num_feature":"104","num_nodes":"1","size_leaf_vector":"0"}},{"base_weights":[-2.8598064E-1],"categories":[],"categories_nodes":[],"categories_segments":[],"categories_sizes":[],"default_left":[0],"id":179,"left_children":[-1],"loss_changes":[0E0],"parents":[2147483647],"right_children":[-1],"split_conditions":[-8.5794196E-2],"split_indices":[0],"split_type":[0],"sum_hessian":[1.3360674E0],"tree_param":{"num_deleted":"0","num_feature":"104","num_nodes":"1","size_leaf_vector":"0"}},{"base_weights":[5.9396676E-5],"categories":[],"categories_nodes":[],"categories_segments":[],"categories_sizes":[],"default_left":[0],"id":180,"left_children":[-1],"loss_changes":[0E0],"parents":[2147483647],"right_children":[-1],"split_conditions":[1.7819004E-5],"split_indices":[0],"split_type":[0],"sum_hessian":[5.4881743E3],"tree_param":{"num_deleted":"0","num_feature":"104","num_nodes":"1","size_leaf_vector":"0"}},{"base_weights":[5.2300446E-5],"categories":[],"categories_nodes":[],"categories_segments":[],"categories_sizes":[],"default_left":[0],"id":181,"left_children":[-1],"loss_changes":[0E0],"parents":[2147483647],"right_children":[-1],"split_conditions":[1.5690135E-5],"split_indices":[0],"split_type":[0],"sum_hessian":[5.488348E3],"tree_param":{"num_deleted":"0","num_feature":"104","num_nodes":"1","size_leaf_vector":"0"}},{"base_weights":[-2.754167E-1],"categories":[],"categories_nodes":[],"categories_segments":[],"categories_sizes":[],"default_left":[0],"id":182,"left_children":[-1],"loss_changes":[0E0],"parents":[2147483647],"right_children":[-1],"split_conditions":[-8.262502E-2],"split_indices":[0],"split_type":[0],"sum_hessian":[1.2262092E0],"tree_param":{"num_deleted":"0","num_feature":"104","num_nodes":"1","size_leaf_vector":"0"}},{"base_weights":[5.4557364E-5],"categories":[],"categories_nodes":[],"categories_segments":[],"categories_sizes":[],"default_left":[0],"id":183,"left_children":[-1],"loss_changes":[0E0],"parents":[2147483647],"right_children":[-1],"split_conditions":[1.636721E-5],"split_indices":[0],"split_type":[0],"sum_hessian":[5.4881777E3],"tree_param":{"num_deleted":"0","num_feature":"104","num_nodes":"1","size_leaf_vector":"0"}},{"base_weights":[4.827899E-5],"categories":[],"categories_nodes":[],"categories_segments":[],"categories_sizes":[],"default_left":[0],"id":184,"left_children":[-1],"loss_changes":[0E0],"parents":[2147483647],"right_children":[-1],"split_conditions":[1.4483698E-5],"split_indices":[0],"split_type":[0],"sum_hessian":[5.4883374E3],"tree_param":{"num_deleted":"0","num_feature":"104","num_nodes":"1","size_leaf_vector":"0"}},{"base_weights":[-2.6515532E-1],"categories":[],"categories_nodes":[],"categories_segments":[],"categories_sizes":[],"default_left":[0],"id":185,"left_children":[-1],"loss_changes":[0E0],"parents":[2147483647],"right_children":[-1],"split_conditions":[-7.95466E-2],"split_indices":[0],"split_type":[0],"sum_hessian":[1.1289561E0],"tree_param":{"num_deleted":"0","num_feature":"104","num_nodes":"1","size_leaf_vector":"0"}},{"base_weights":[5.0220366E-5],"categories":[],"categories_nodes":[],"categories_segments":[],"categories_sizes":[],"default_left":[0],"id":186,"left_children":[-1],"loss_changes":[0E0],"parents":[2147483647],"right_children":[-1],"split_conditions":[1.506611E-5],"split_indices":[0],"split_type":[0],"sum_hessian":[5.4881807E3],"tree_param":{"num_deleted":"0","num_feature":"104","num_nodes":"1","size_leaf_vector":"0"}},{"base_weights":[4.475299E-5],"categories":[],"categories_nodes":[],"categories_segments":[],"categories_sizes":[],"default_left":[0],"id":187,"left_children":[-1],"loss_changes":[0E0],"parents":[2147483647],"right_children":[-1],"split_conditions":[1.3425897E-5],"split_indices":[0],"split_type":[0],"sum_hessian":[5.488328E3],"tree_param":{"num_deleted":"0","num_feature":"104","num_nodes":"1","size_leaf_vector":"0"}},{"base_weights":[-2.5522736E-1],"categories":[],"categories_nodes":[],"categories_segments":[],"categories_sizes":[],"default_left":[0],"id":188,"left_children":[-1],"loss_changes":[0E0],"parents":[2147483647],"right_children":[-1],"split_conditions":[-7.656821E-2],"split_indices":[0],"split_type":[0],"sum_hessian":[1.0426215E0],"tree_param":{"num_deleted":"0","num_feature":"104","num_nodes":"1","size_leaf_vector":"0"}},{"base_weights":[4.641932E-5],"categories":[],"categories_nodes":[],"categories_segments":[],"categories_sizes":[],"default_left":[0],"id":189,"left_children":[-1],"loss_changes":[0E0],"parents":[2147483647],"right_children":[-1],"split_conditions":[1.3925797E-5],"split_indices":[0],"split_type":[0],"sum_hessian":[5.488183E3],"tree_param":{"num_deleted":"0","num_feature":"104","num_nodes":"1","size_leaf_vector":"0"}},{"base_weights":[4.1554697E-5],"categories":[],"categories_nodes":[],"categories_segments":[],"categories_sizes":[],"default_left":[0],"id":190,"left_children":[-1],"loss_changes":[0E0],"parents":[2147483647],"right_children":[-1],"split_conditions":[1.2466409E-5],"split_indices":[0],"split_type":[0],"sum_hessian":[5.48832E3],"tree_param":{"num_deleted":"0","num_feature":"104","num_nodes":"1","size_leaf_vector":"0"}},{"base_weights":[0E0],"categories":[],"categories_nodes":[],"categories_segments":[],"categories_sizes":[],"default_left":[0],"id":191,"left_children":[-1],"loss_changes":[0E0],"parents":[2147483647],"right_children":[-1],"split_conditions":[0E0],"split_indices":[0],"split_type":[0],"sum_hessian":[9.657616E-1],"tree_param":{"num_deleted":"0","num_feature":"104","num_nodes":"1","size_leaf_vector":"0"}},{"base_weights":[4.5696066E-5],"categories":[],"categories_nodes":[],"categories_segments":[],"categories_sizes":[],"default_left":[0],"id":192,"left_children":[-1],"loss_changes":[0E0],"parents":[2147483647],"right_children":[-1],"split_conditions":[1.370882E-5],"split_indices":[0],"split_type":[0],"sum_hessian":[5.488184E3],"tree_param":{"num_deleted":"0","num_feature":"104","num_nodes":"1","size_leaf_vector":"0"}},{"base_weights":[4.22765E-5],"categories":[],"categories_nodes":[],"categories_segments":[],"categories_sizes":[],"default_left":[0],"id":193,"left_children":[-1],"loss_changes":[0E0],"parents":[2147483647],"right_children":[-1],"split_conditions":[1.2682951E-5],"split_indices":[0],"split_type":[0],"sum_hessian":[5.488321E3],"tree_param":{"num_deleted":"0","num_feature":"104","num_nodes":"1","size_leaf_vector":"0"}},{"base_weights":[0E0],"categories":[],"categories_nodes":[],"categories_segments":[],"categories_sizes":[],"default_left":[0],"id":194,"left_children":[-1],"loss_changes":[0E0],"parents":[2147483647],"right_children":[-1],"split_conditions":[0E0],"split_indices":[0],"split_type":[0],"sum_hessian":[9.6574897E-1],"tree_param":{"num_deleted":"0","num_feature":"104","num_nodes":"1","size_leaf_vector":"0"}},{"base_weights":[4.5166464E-5],"categories":[],"categories_nodes":[],"categories_segments":[],"categories_sizes":[],"default_left":[0],"id":195,"left_children":[-1],"loss_changes":[0E0],"parents":[2147483647],"right_children":[-1],"split_conditions":[1.35499395E-5],"split_indices":[0],"split_type":[0],"sum_hessian":[5.488185E3],"tree_param":{"num_deleted":"0","num_feature":"104","num_nodes":"1","size_leaf_vector":"0"}},{"base_weights":[4.2805266E-5],"categories":[],"categories_nodes":[],"categories_segments":[],"categories_sizes":[],"default_left":[0],"id":196,"left_children":[-1],"loss_changes":[0E0],"parents":[2147483647],"right_children":[-1],"split_conditions":[1.284158E-5],"split_indices":[0],"split_type":[0],"sum_hessian":[5.488322E3],"tree_param":{"num_deleted":"0","num_feature":"104","num_nodes":"1","size_leaf_vector":"0"}},{"base_weights":[0E0],"categories":[],"categories_nodes":[],"categories_segments":[],"categories_sizes":[],"default_left":[0],"id":197,"left_children":[-1],"loss_changes":[0E0],"parents":[2147483647],"right_children":[-1],"split_conditions":[0E0],"split_indices":[0],"split_type":[0],"sum_hessian":[9.6573627E-1],"tree_param":{"num_deleted":"0","num_feature":"104","num_nodes":"1","size_leaf_vector":"0"}},{"base_weights":[4.481743E-5],"categories":[],"categories_nodes":[],"categories_segments":[],"categories_sizes":[],"default_left":[0],"id":198,"left_children":[-1],"loss_changes":[0E0],"parents":[2147483647],"right_children":[-1],"split_conditions":[1.3445229E-5],"split_indices":[0],"split_type":[0],"sum_hessian":[5.4881855E3],"tree_param":{"num_deleted":"0","num_feature":"104","num_nodes":"1","size_leaf_vector":"0"}},{"base_weights":[4.3150638E-5],"categories":[],"categories_nodes":[],"categories_segments":[],"categories_sizes":[],"default_left":[0],"id":199,"left_children":[-1],"loss_changes":[0E0],"parents":[2147483647],"right_children":[-1],"split_conditions":[1.2945192E-5],"split_indices":[0],"split_type":[0],"sum_hessian":[5.4883223E3],"tree_param":{"num_deleted":"0","num_feature":"104","num_nodes":"1","size_leaf_vector":"0"}},{"base_weights":[0E0],"categories":[],"categories_nodes":[],"categories_segments":[],"categories_sizes":[],"default_left":[0],"id":200,"left_children":[-1],"loss_changes":[0E0],"parents":[2147483647],"right_children":[-1],"split_conditions":[0E0],"split_indices":[0],"split_type":[0],"sum_hessian":[9.657236E-1],"tree_param":{"num_deleted":"0","num_feature":"104","num_nodes":"1","size_leaf_vector":"0"}},{"base_weights":[4.4572207E-5],"categories":[],"categories_nodes":[],"categories_segments":[],"categories_sizes":[],"default_left":[0],"id":201,"left_children":[-1],"loss_changes":[0E0],"parents":[2147483647],"right_children":[-1],"split_conditions":[1.3371663E-5],"split_indices":[0],"split_type":[0],"sum_hessian":[5.4881855E3],"tree_param":{"num_deleted":"0","num_feature":"104","num_nodes":"1","size_leaf_vector":"0"}},{"base_weights":[4.339532E-5],"categories":[],"categories_nodes":[],"categories_segments":[],"categories_sizes":[],"default_left":[0],"id":202,"left_children":[-1],"loss_changes":[0E0],"parents":[2147483647],"right_children":[-1],"split_conditions":[1.3018597E-5],"split_indices":[0],"split_type":[0],"sum_hessian":[5.4883223E3],"tree_param":{"num_deleted":"0","num_feature":"104","num_nodes":"1","size_leaf_vector":"0"}},{"base_weights":[0E0],"categories":[],"categories_nodes":[],"categories_segments":[],"categories_sizes":[],"default_left":[0],"id":203,"left_children":[-1],"loss_changes":[0E0],"parents":[2147483647],"right_children":[-1],"split_conditions":[0E0],"split_indices":[0],"split_type":[0],"sum_hessian":[9.657108E-1],"tree_param":{"num_deleted":"0","num_feature":"104","num_nodes":"1","size_leaf_vector":"0"}},{"base_weights":[4.4392575E-5],"categories":[],"categories_nodes":[],"categories_segments":[],"categories_sizes":[],"default_left":[0],"id":204,"left_children":[-1],"loss_changes":[0E0],"parents":[2147483647],"right_children":[-1],"split_conditions":[1.3317773E-5],"split_indices":[0],"split_type":[0],"sum_hessian":[5.488186E3],"tree_param":{"num_deleted":"0","num_feature":"104",